svm_type nu_svr
kernel_type rbf
gamma 0.05
nr_class 2
total_sv 145
rho -71.4237
SV
4 1:1 2:12.533413 3:0.9999975 4:0.99999258 5:0.99999236 6:0.99999266 
4 1:1 2:1.2599153 3:0.99999934 4:0.99999876 5:0.99999818 6:0.99999807 
4 1:1 2:4.5089165 3:0.99999911 4:0.99999173 5:0.99999283 6:0.99999377 
4 1:1 2:5.0238287 3:0.99999624 4:0.99999855 5:0.99999806 6:0.99999806 
4 1:1 2:7.8731214 3:0.99999988 4:0.99999971 5:0.9999995 6:0.99999952 
4 1:1 2:2.2732251 3:0.9999998 4:0.99999975 5:0.9999994 6:0.9999992 
4 1:1 2:6.8032943 3:0.99998855 4:0.99999204 5:0.99999101 6:0.99999066 
4 1:1 2:5.3911783 3:0.99998973 4:0.9999925 5:0.99999152 6:0.99999104 
4 1:1 2:0.69968349 3:0.99998275 4:0.99998653 5:0.99998527 6:0.99998489 
-4 1:0.84896634 2:12.533413 3:0.33895021 4:0.73552419 5:0.82587986 6:0.88518901 
-4 1:0.89902399 2:12.533413 3:0.37506725 4:0.79150984 5:0.87103572 6:0.91598638 
-4 1:0.9058092 2:12.533413 3:0.39291047 4:0.82191427 5:0.8974504 6:0.93697579 
4 1:0.94180684 2:12.533413 3:0.44519539 4:0.88797014 5:0.94307833 6:0.96763555 
4 1:0.96551071 2:12.533413 3:0.47757481 4:0.91263699 5:0.95771825 6:0.97665742 
4 1:0.98039843 2:12.533413 3:0.50512574 4:0.93641427 5:0.97125337 6:0.98447387 
4 1:0.98279248 2:12.533413 3:0.52494917 4:0.94597348 5:0.97618956 6:0.98731145 
-4 1:0.80100502 2:1.2599153 3:0.27712214 4:0.5706579 5:0.75023794 6:0.89126371 
-4 1:0.87692558 2:1.2599153 3:0.36092497 4:0.72159269 5:0.87029858 6:0.94856784 
-4 1:0.87722484 2:1.2599153 3:0.36432308 4:0.72539664 5:0.87314146 6:0.95065046 
-4 1:0.92166307 2:1.2599153 3:0.44267312 4:0.83636663 5:0.93672862 6:0.97591127 
4 1:0.97048219 2:1.2599153 3:0.64876015 4:0.95993073 5:0.98536387 6:0.99401176 
4 1:0.99967998 2:1.2599153 3:0.94111777 4:0.99750329 5:0.99896436 6:0.99945468 
-4 1:0.861444 2:4.5089165 3:0.20875174 4:0.7964628 5:0.87571415 6:0.91891743 
-4 1:0.90842308 2:4.5089165 3:0.22073196 4:0.83490795 5:0.9074711 6:0.94146448 
-4 1:0.91144883 2:4.5089165 3:0.22407546 4:0.84867639 5:0.91861457 6:0.95005897 
4 1:0.94360784 2:4.5089165 3:0.23820735 4:0.88738326 5:0.94527859 6:0.9681271 
4 1:0.96637717 2:4.5089165 3:0.24703702 4:0.89978897 5:0.95352448 6:0.97380127 
4 1:0.98039308 2:4.5089165 3:0.25428375 4:0.91322904 5:0.96193765 6:0.97923267 
4 1:0.98143937 2:4.5089165 3:0.26196511 4:0.92072397 5:0.96586749 6:0.98163489 
-4 1:0.82493266 2:5.0238287 3:0.42542513 4:0.68334236 5:0.79643001 6:0.8689646 
-4 1:0.88908407 2:5.0238287 3:0.47696938 4:0.76314869 5:0.85707317 6:0.90739242 
-4 1:0.89462309 2:5.0238287 3:0.49477751 4:0.79285712 5:0.88402775 6:0.92928433 
-4 1:0.92823625 2:5.0238287 3:0.54131266 4:0.85127856 5:0.91977582 6:0.95109252 
4 1:0.96974121 2:5.0238287 3:0.6704611 4:0.93961256 5:0.97023532 6:0.9832363 
4 1:0.99338524 2:5.0238287 3:0.76772688 4:0.9702496 5:0.98558096 6:0.99188836 
4 1:0.99453087 2:5.0238287 3:0.78523237 4:0.97623013 5:0.98872768 6:0.99372879 
-4 1:0.735774 2:7.8731214 3:0.18066767 4:0.35558233 5:0.46638241 6:0.57552953 
-4 1:0.80270198 2:7.8731214 3:0.20597032 4:0.41312243 5:0.52645507 6:0.62763846 
-4 1:0.82280141 2:7.8731214 3:0.22375207 4:0.4583115 5:0.58084904 6:0.68310316 
-4 1:0.86351445 2:7.8731214 3:0.2531937 4:0.51585763 5:0.6346417 6:0.72818359 
-4 1:0.89087868 2:7.8731214 3:0.29497578 4:0.60902979 5:0.72945726 6:0.81221123 
-2.91118935619693 1:0.92930327 2:7.8731214 3:0.36427101 4:0.6846741 5:0.78659506 6:0.85462367 
4 1:0.96193645 2:7.8731214 3:0.4563939 4:0.78067388 5:0.8630131 6:0.91154457 
4 1:0.97040686 2:7.8731214 3:0.50062941 4:0.82903822 5:0.89940794 6:0.93745134 
-4 1:0.76245521 2:2.2732251 3:0.25949926 4:0.53599452 5:0.73837027 6:0.89338253 
-4 1:0.8484373 2:2.2732251 3:0.33217721 4:0.69011795 5:0.86420904 6:0.94994395 
-4 1:0.84907052 2:2.2732251 3:0.33355169 4:0.6936715 5:0.86776579 6:0.9529639 
4 1:0.9648437 2:2.2732251 3:0.67145713 4:0.95728728 5:0.98628044 6:0.99494608 
4 1:0.99986725 2:2.2732251 3:0.97917486 4:0.99923164 5:0.99964556 6:0.99979122 
-4 1:0.83791425 2:6.8032943 3:0.50776333 4:0.70074849 5:0.77295705 6:0.82568738 
-4 1:0.89071154 2:6.8032943 3:0.53484634 4:0.74410778 5:0.81649666 6:0.86481777 
-4 1:0.89913543 2:6.8032943 3:0.55730227 4:0.77961578 5:0.85180654 6:0.89668151 
-4 1:0.92812654 2:6.8032943 3:0.58053715 4:0.81264954 5:0.87957971 6:0.91856239 
4 1:0.96763766 2:6.8032943 3:0.67184636 4:0.91126977 5:0.95238785 6:0.97147542 
4 1:0.98710724 2:6.8032943 3:0.71296745 4:0.94852674 5:0.97502444 6:0.98576295 
4 1:0.98992323 2:6.8032943 3:0.73604798 4:0.96142657 5:0.98186763 6:0.98983387 
-4 1:0.853206 2:5.3911783 3:0.715294 4:0.83089935 5:0.87312882 6:0.90224607 
-4 1:0.89805582 2:5.3911783 3:0.74712894 4:0.86921006 5:0.90752081 6:0.93106167 
-4 1:0.90728193 2:5.3911783 3:0.76689204 4:0.89270712 5:0.92858154 6:0.949143 
-4 1:0.93462458 2:5.3911783 3:0.79213235 4:0.91981802 5:0.94924815 6:0.96476477 
0.1125141694350817 1:0.94683573 2:5.3911783 3:0.82594612 4:0.94921894 5:0.97026475 6:0.98020911 
4 1:0.97063071 2:5.3911783 3:0.85545911 4:0.96816904 5:0.9821253 6:0.98841198 
4 1:0.98944502 2:5.3911783 3:0.87681472 4:0.98409775 5:0.99191486 6:0.99506135 
4 1:0.9920354 2:5.3911783 3:0.88839329 4:0.98844934 5:0.99425018 6:0.99651485 
-4 1:0.88419439 2:0.69968349 3:0.60100851 4:0.89279095 5:0.94333305 6:0.96539161 
-4 1:0.92221134 2:0.69968349 3:0.64000672 4:0.93160317 5:0.9658363 6:0.97828002 
-4 1:0.92386262 2:0.69968349 3:0.64559578 4:0.93561816 5:0.96813612 6:0.9799806 
-4 1:0.94717528 2:0.69968349 3:0.67734079 4:0.95778103 5:0.979132 6:0.98648917 
4 1:0.97513174 2:0.69968349 3:0.74695404 4:0.98052305 5:0.99056856 6:0.99414684 
4 1:0.9881205 2:0.69968349 3:0.76951085 4:0.98923061 5:0.9955465 6:0.99758605 
4 1:0.98891621 2:0.69968349 3:0.77725545 4:0.99023068 5:0.99599907 6:0.99786338 
4 1:1 2:5.8053123 3:0.99999983 4:0.99999919 5:0.99999875 6:0.99999879 
4 1:1 2:1.0708016 3:0.99999946 4:0.99999643 5:0.99999606 6:0.99999723 
4 1:1 2:11.59872 3:1 4:0.99999936 5:0.99999892 6:0.99999882 
4 1:1 2:14.783537 3:0.99999942 4:0.99999821 5:0.99999745 6:0.99999745 
4 1:1 2:10.331771 3:0.99999757 4:0.99999572 5:0.99999495 6:0.99999494 
4 1:1 2:10.946382 3:0.99999865 4:0.99999684 5:0.9999959 6:0.99999556 
4 1:1 2:4.882557 3:1 4:0.99999607 5:0.99999618 6:0.99999571 
4 1:1 2:15.436489 3:0.99999999 4:0.99999935 5:0.9999988 6:0.99999879 
4 1:1 2:9.593342 3:0.99999769 4:0.99999303 5:0.99999274 6:0.99999318 
-4 1:0.78987603 2:5.8053123 3:0.21334536 4:0.53121982 5:0.69661081 6:0.81116809 
-4 1:0.85483151 2:5.8053123 3:0.2580863 4:0.6400138 5:0.78643035 6:0.86874075 
-4 1:0.86373262 2:5.8053123 3:0.27936354 4:0.68830084 5:0.83010699 6:0.90230012 
-4 1:0.90945035 2:5.8053123 3:0.33128252 4:0.7776565 5:0.88018522 6:0.9290983 
4 1:0.9607075 2:5.8053123 3:0.48474381 4:0.91614881 5:0.95827214 6:0.97641051 
4 1:0.96409409 2:5.8053123 3:0.51400174 4:0.93852453 5:0.97068262 6:0.98382648 
4 1:0.98344735 2:5.8053123 3:0.61598851 4:0.92983003 5:0.96439414 6:0.97920334 
4 1:0.9855762 2:5.8053123 3:0.64224514 4:0.94052837 5:0.9702515 6:0.98273701 
4 1:0.98980868 2:5.8053123 3:0.70176719 4:0.96001502 5:0.98053015 6:0.9888236 
-4 1:0.84181455 2:1.0708016 3:0.43473563 4:0.81199608 5:0.89465073 6:0.94094117 
-4 1:0.84425501 2:1.0708016 3:0.44726886 4:0.83129005 5:0.90896513 6:0.95075921 
-4 1:0.89767743 2:1.0708016 3:0.46879904 4:0.87019075 5:0.93347538 6:0.96287583 
-4 1:0.89919494 2:1.0708016 3:0.48016597 4:0.88534093 5:0.94307814 6:0.96881679 
-3.640230481023945 1:0.93661535 2:1.0708016 3:0.4959594 4:0.90816427 5:0.95416611 6:0.97420315 
4 1:0.96850764 2:1.0708016 3:0.52133772 4:0.92778964 5:0.9642337 6:0.9802262 
4 1:0.98786637 2:1.0708016 3:0.53682891 4:0.94016235 5:0.97152693 6:0.98442844 
4 1:0.99027992 2:1.0708016 3:0.55658798 4:0.95534028 5:0.98009047 6:0.98962647 
-4 1:0.6634705 2:11.59872 3:0.07581898 4:0.22227755 5:0.32440064 6:0.4370875 
-4 1:0.86733851 2:11.59872 3:0.19464972 4:0.53442601 5:0.68003312 6:0.78133328 
-4 1:0.91718681 2:11.59872 3:0.24599744 4:0.61009579 5:0.73679921 6:0.82111909 
-4 1:0.93785776 2:11.59872 3:0.29516092 4:0.69304317 5:0.80704118 6:0.87520288 
4 1:0.96348057 2:11.59872 3:0.39087746 4:0.81658942 5:0.89826484 6:0.93918079 
4 1:0.97594715 2:11.59872 3:0.46404647 4:0.88220885 5:0.9397742 6:0.96552466 
-4 1:0.72249798 2:14.783537 3:0.17555055 4:0.33644824 5:0.43820655 6:0.53829513 
-4 1:0.81704926 2:14.783537 3:0.23249871 4:0.45045532 5:0.5747316 6:0.67873911 
-4 1:0.89712467 2:14.783537 3:0.34060495 4:0.64477578 5:0.76559084 6:0.84380587 
-4 1:0.92167291 2:14.783537 3:0.37146966 4:0.67543717 5:0.78682631 6:0.85897567 
0.2874858305649529 1:0.95480903 2:14.783537 3:0.44749946 4:0.78477464 5:0.87395338 6:0.92252802 
4 1:0.96755066 2:14.783537 3:0.50845782 4:0.84730317 5:0.91728701 6:0.95171811 
4 1:0.97590808 2:14.783537 3:0.56178721 4:0.89107414 5:0.94445146 6:0.96872575 
-4 1:0.6827169 2:10.331771 3:0.15765242 4:0.28829889 5:0.36744308 6:0.44750017 
-4 1:0.81940239 2:10.331771 3:0.23229659 4:0.43806594 5:0.54706417 6:0.64228321 
-4 1:0.85586727 2:10.331771 3:0.26781899 4:0.49829146 5:0.61099794 6:0.7038968 
-4 1:0.8713487 2:10.331771 3:0.27321846 4:0.524216 5:0.63890703 6:0.72787739 
4 1:0.89449256 2:10.331771 3:0.30794672 4:0.58662422 5:0.70235168 6:0.78534705 
4 1:0.93034722 2:10.331771 3:0.38662562 4:0.71215854 5:0.8168692 6:0.87979295 
4 1:0.9530564 2:10.331771 3:0.46038908 4:0.80654036 5:0.88906058 6:0.93174977 
4 1:0.9656404 2:10.331771 3:0.5195345 4:0.86427038 5:0.92715938 6:0.9566776 
-4 1:0.76410805 2:10.946382 3:0.31045297 4:0.55256316 5:0.68123882 6:0.78071379 
-4 1:0.85451282 2:10.946382 3:0.3877983 4:0.70226709 5:0.82222956 6:0.89096661 
-4 1:0.89747446 2:10.946382 3:0.40207405 4:0.71486246 5:0.82115148 6:0.8834097 
4 1:0.97961646 2:10.946382 3:0.59105602 4:0.90163181 5:0.9494483 6:0.9709084 
4 1:0.99449718 2:10.946382 3:0.78669946 4:0.98015206 5:0.99098742 6:0.9950133 
-4 1:0.77117012 2:4.882557 3:0.11709771 4:0.53155194 5:0.70768591 6:0.83479627 
-4 1:0.85426765 2:4.882557 3:0.16511551 4:0.68671671 5:0.8371355 6:0.91143017 
-4 1:0.90079262 2:4.882557 3:0.19871429 4:0.75177902 5:0.8662592 6:0.92166114 
-4 1:0.91056573 2:4.882557 3:0.22541202 4:0.82841022 5:0.91991591 6:0.95665016 
4 1:0.95609683 2:4.882557 3:0.30821153 4:0.89386728 5:0.94759236 6:0.9708249 
4 1:0.95737966 2:4.882557 3:0.3161537 4:0.90424974 5:0.95352523 6:0.9743862 
4 1:0.98370829 2:4.882557 3:0.36473352 4:0.92795509 5:0.96715066 6:0.98228238 
-4 1:0.67911419 2:15.436489 3:0.078980729 4:0.27329281 5:0.38390156 6:0.49400732 
-4 1:0.82552386 2:15.436489 3:0.13269026 4:0.44443999 5:0.57899704 6:0.68522006 
-4 1:0.8635945 2:15.436489 3:0.16977366 4:0.56361692 5:0.70226895 6:0.79485847 
-4 1:0.89117852 2:15.436489 3:0.19393817 4:0.58621472 5:0.71447888 6:0.80254715 
-1.848580162779159 1:0.90840948 2:15.436489 3:0.22101744 4:0.65107009 5:0.77235806 6:0.84906039 
4 1:0.94679383 2:15.436489 3:0.27967191 4:0.75233049 5:0.85348072 6:0.90831572 
4 1:0.95821371 2:15.436489 3:0.31467528 4:0.80631347 5:0.89232705 6:0.93518786 
4 1:0.97719702 2:15.436489 3:0.39898039 4:0.90094655 5:0.95185814 6:0.97323317 
4 1:0.98180698 2:15.436489 3:0.43036422 4:0.92374695 5:0.96433675 6:0.98055969 
-4 1:0.83806059 2:9.593342 3:0.35874773 4:0.6501712 5:0.75345564 6:0.83068599 
-4 1:0.89757175 2:9.593342 3:0.43822285 4:0.75989593 5:0.84590257 6:0.90062152 
-4 1:0.92711822 2:9.593342 3:0.47552516 4:0.80334517 5:0.87716559 6:0.92257764 
-4 1:0.94064485 2:9.593342 3:0.53180263 4:0.86668693 5:0.92283945 6:0.95456364 
4 1:0.96346884 2:9.593342 3:0.57754419 4:0.90539557 5:0.94812347 6:0.97078741 
4 1:0.97860532 2:9.593342 3:0.58699278 4:0.92495643 5:0.96173419 6:0.97897753 
