svm_type nu_svr
kernel_type rbf
gamma 0.04
nr_class 2
total_sv 445
rho -2.09694
SV
4 1:0.99942012 2:0.066982086 3:0.99999956 4:0.99999701 5:0.9999947 6:0.99999415 
4 1:0.99942012 2:1.7347235e-18 3:0.99999968 4:0.99999846 5:0.99999708 6:0.99999594 
-4 1:0.99942012 2:0.36765538 3:0.99999849 4:0.99998199 5:0.99998178 6:0.99998358 
4 1:0.99942012 2:0.085160715 3:0.99999363 4:0.99999023 5:0.9999835 6:0.99998104 
4 1:0.99942012 2:0.031277503 3:0.99999905 4:0.99999854 5:0.99999742 6:0.99999527 
-4 1:0.99942012 2:0.51305378 3:1 4:1 5:1 6:1 
-4 1:0.99942012 2:0.25338003 3:0.9999966 4:0.9999921 5:0.99998852 6:0.99998683 
-4 1:0.99942012 2:0.50056883 3:0.99999809 4:0.99999407 5:0.999992 6:0.99999073 
-4 1:0.99942012 2:0.21919533 3:0.99999975 4:0.99999351 5:0.99998797 6:0.9999868 
-4 1:0.99942012 2:0.19903381 3:0.99999974 4:0.99998992 5:0.99998491 6:0.9999861 
4 1:0.99942012 2:0.086753771 3:0.99999826 4:0.99999612 5:0.99999354 6:0.99999303 
-4 1:0.99942012 2:0.93112465 3:0.99999913 4:0.99999541 5:0.99999285 6:0.99999222 
-4 1:0.99942012 2:0.49912008 3:0.99999923 4:0.99999861 5:0.99999718 6:0.99999634 
4 1:0.99942012 2:0.083566785 3:0.99999965 4:0.99999001 5:0.99998599 6:0.99998373 
4 1:0.99942012 2:0.038381578 3:0.9999994 4:0.99999903 5:0.99999768 6:0.9999964 
4 1:0.99942012 2:0.0056646026 3:0.99999976 4:0.99999986 5:0.99999981 6:0.99999907 
4 1:0.99942012 2:0.24376664 3:0.99999484 4:0.99999024 5:0.99998472 6:0.99998206 
-4 1:0.99942012 2:0.17100887 3:0.99999199 4:0.99999252 5:0.99999031 6:0.99998803 
-4 1:0.99942012 2:0.58813084 3:0.99999792 4:0.99999625 5:0.99999355 6:0.99999167 
-4 1:0.99942012 2:1 3:0.99999818 4:0.99999255 5:0.99998938 6:0.99998785 
-4 1:0.99942012 2:0.18137104 3:0.99999926 4:0.99999442 5:0.99999157 6:0.99999094 
-4 1:0.99942012 2:0.055816361 3:0.99998933 4:0.99998695 5:0.99998657 6:0.99998431 
4 1:0.97198845 2:0.066982086 3:0.49543962 4:0.9490745 5:0.97475171 6:0.98393918 
4 1:0.96579652 2:0.066982086 3:0.46988192 4:0.92383404 5:0.95757873 6:0.9709175 
4 1:0.95599835 2:0.066982086 3:0.44208135 4:0.8901289 5:0.93112702 6:0.94818323 
4 1:0.9405306 2:0.066982086 3:0.45140723 4:0.91821601 5:0.9544047 6:0.96853331 
4 1:0.93121498 2:0.066982086 3:0.42756389 4:0.88415491 5:0.92731024 6:0.94469825 
4 1:0.90839202 2:0.066982086 3:0.42837654 4:0.89330043 5:0.9381379 6:0.95529348 
-4 1:0.89869065 2:0.066982086 3:0.40580803 4:0.85450813 5:0.90414358 6:0.924202 
-4 1:0.88405636 2:0.066982086 3:0.38181902 4:0.8098155 5:0.86047538 6:0.88067103 
-4 1:0.85590093 2:0.066982086 3:0.40304721 4:0.85597966 5:0.91737096 6:0.9416772 
-4 1:0.84589918 2:0.066982086 3:0.38405986 4:0.81919138 5:0.8810097 6:0.90639859 
-4 1:0.83060898 2:0.066982086 3:0.35981237 4:0.77013967 5:0.82806852 6:0.85048599 
-4 1:0.73764497 2:0.066982086 3:0.36509103 4:0.7803563 5:0.85121225 6:0.90378191 
-4 1:0.72681112 2:0.066982086 3:0.35076533 4:0.74960971 5:0.81479928 6:0.86059284 
-4 1:0.71190691 2:0.066982086 3:0.33114525 4:0.70635463 5:0.76097853 6:0.79401042 
-4 1:0.5944414 2:0.066982086 3:0.33608994 4:0.71362303 5:0.76736581 6:0.81309735 
-4 1:0.5824424 2:0.066982086 3:0.3242142 4:0.68621629 5:0.73148001 6:0.76710537 
-4 1:0.56462003 2:0.066982086 3:0.30829451 4:0.65018018 5:0.68403685 6:0.70460904 
-4 1:0.47082734 2:0.066982086 3:0.31899854 4:0.67259186 5:0.70967941 6:0.76061188 
-4 1:0.46202769 2:0.066982086 3:0.30969518 4:0.65136495 5:0.68132238 6:0.71891505 
-4 1:0.45268705 2:0.066982086 3:0.29609478 4:0.62046105 5:0.64002486 6:0.65762463 
4 1:0.93712608 2:0.085160715 3:0.78940676 4:0.94766693 5:0.97049944 6:0.97904995 
4 1:0.91528445 2:0.085160715 3:0.75598257 4:0.92233159 5:0.95186961 6:0.96379905 
4 1:0.8859591 2:0.085160715 3:0.71656123 4:0.88582657 5:0.92135563 6:0.93580011 
4 1:0.91299273 2:0.085160715 3:0.73107539 4:0.91167914 5:0.94403922 6:0.95656721 
4 1:0.88263194 2:0.085160715 3:0.69546312 4:0.87200488 5:0.90999902 6:0.9247522 
4 1:0.88572425 2:0.085160715 3:0.69789972 4:0.87983058 5:0.91913978 6:0.9341789 
-4 1:0.80397764 2:0.085160715 3:0.62943841 4:0.78442623 5:0.81961037 6:0.82747529 
-4 1:0.81615418 2:0.085160715 3:0.63895062 4:0.80166112 5:0.84609333 6:0.85794141 
-4 1:0.76649605 2:0.085160715 3:0.60539321 4:0.75077297 5:0.78607721 6:0.78686103 
-4 1:0.73481296 2:0.085160715 3:0.6111271 4:0.75016894 5:0.79398174 6:0.80364317 
-4 1:0.68784314 2:0.085160715 3:0.58060257 4:0.70437387 5:0.73465103 6:0.72167366 
-4 1:0.68707409 2:0.085160715 3:0.62006113 4:0.75287675 5:0.79557065 6:0.83396102 
-4 1:0.65307257 2:0.085160715 3:0.59379594 4:0.71425087 5:0.74517244 6:0.76334381 
-4 1:0.61073482 2:0.085160715 3:0.5636273 4:0.6689991 5:0.68518093 6:0.67492346 
-4 1:0.61059375 2:0.085160715 3:0.60324622 4:0.72279409 5:0.75399448 6:0.78980113 
-4 1:0.58134293 2:0.085160715 3:0.58086179 4:0.68984664 5:0.71004316 6:0.72270893 
-4 1:0.54414609 2:0.085160715 3:0.55139557 4:0.64656965 5:0.65206052 6:0.63420941 
4 1:0.97787595 2:0.031277503 3:0.79006309 4:0.96543498 5:0.98286137 6:0.98918177 
4 1:0.97055878 2:0.031277503 3:0.73829188 4:0.94562107 5:0.9720532 6:0.98185671 
4 1:0.96057444 2:0.031277503 3:0.68499274 4:0.91613875 5:0.9539741 6:0.9689666 
4 1:0.96258894 2:0.031277503 3:0.71750756 4:0.95076843 5:0.97548069 6:0.98450939 
4 1:0.95381552 2:0.031277503 3:0.6658229 4:0.91863413 5:0.95575768 6:0.97067394 
-4 1:0.9354107 2:0.031277503 3:0.58347155 4:0.85481826 5:0.91374583 6:0.94034452 
4 1:0.90036422 2:0.031277503 3:0.58219473 4:0.90663122 5:0.96182464 6:0.97596393 
1.357291437280774 1:0.88810523 2:0.031277503 3:0.53628784 4:0.85469318 5:0.92703739 6:0.95088258 
-4 1:0.86859913 2:0.031277503 3:0.47931708 4:0.7776951 5:0.86801434 6:0.90563477 
4 1:0.80707865 2:0.031277503 3:0.46673975 4:0.79695862 5:0.92218079 6:0.96583631 
-4 1:0.79538703 2:0.031277503 3:0.43553076 4:0.7460098 5:0.87803168 6:0.93135085 
-4 1:0.77656338 2:0.031277503 3:0.39315849 4:0.66848161 5:0.80255256 6:0.86714028 
-4 1:0.60523129 2:0.031277503 3:0.3220426 4:0.54484412 5:0.7193025 6:0.87423756 
-4 1:0.59546212 2:0.031277503 3:0.30580604 4:0.51190629 5:0.67579634 6:0.8221445 
-4 1:0.57868041 2:0.031277503 3:0.28190551 4:0.46007761 5:0.60264024 6:0.73034417 
-4 1:0.38093205 2:0.031277503 3:0.2349948 4:0.36009808 5:0.47156276 6:0.58578102 
-4 1:0.37012195 2:0.031277503 3:0.22125971 4:0.32959356 5:0.42240276 6:0.51908842 
4 1:0.22606668 2:0.031277503 3:0.19488505 4:0.27271641 5:0.33648612 6:0.45807194 
4 1:0.91539884 2:0.51305378 3:0.51488117 4:0.85936589 5:0.92126637 6:0.94844419 
4 1:0.91452884 2:0.51305378 3:0.51170081 4:0.85742154 5:0.92017755 6:0.94774225 
4 1:0.89107697 2:0.51305378 3:0.44052173 4:0.80179187 5:0.88580681 6:0.92452581 
4 1:0.89829921 2:0.51305378 3:0.46719499 4:0.84064804 5:0.91220882 6:0.94300488 
4 1:0.88163807 2:0.51305378 3:0.42043726 4:0.79317785 5:0.88213449 6:0.92244162 
4 1:0.83803515 2:0.51305378 3:0.33320494 4:0.67165697 5:0.7906166 6:0.85357118 
4 1:0.81899838 2:0.51305378 3:0.3381176 4:0.76378989 5:0.88522402 6:0.92696803 
4 1:0.78375435 2:0.51305378 3:0.28271443 4:0.65320093 5:0.79807098 6:0.86293173 
4 1:0.73413388 2:0.51305378 3:0.22235436 4:0.5223276 5:0.67415206 6:0.75971164 
4 1:0.70242504 2:0.51305378 3:0.22275829 4:0.58336434 5:0.78879637 6:0.88419211 
4 1:0.66828615 2:0.51305378 3:0.1861581 4:0.48473563 5:0.67986667 6:0.79193578 
2.950636835185708 1:0.6177179 2:0.51305378 3:0.14502789 4:0.37458805 5:0.5431471 6:0.66009305 
-4 1:0.44365677 2:0.51305378 3:0.084767542 4:0.23463647 5:0.39118915 6:0.5708814 
4 1:0.38851065 2:0.51305378 3:0.060748299 4:0.16481355 5:0.27425611 6:0.40564049 
4 1:0.26621453 2:0.51305378 3:0.048508288 4:0.13768591 5:0.24707533 6:0.37682512 
-4 1:0.11248097 2:0.51305378 3:0.018298168 4:0.05227841 5:0.098051849 6:0.19233528 
-4 1:0.085495813 2:0.51305378 3:0.010210529 4:0.028715108 5:0.053394221 6:0.10402549 
2.386539685548377 1:0.044930586 2:0.51305378 3:-1.3877788e-17 4:-2.7755576e-17 
4 1:0.92375161 2:0.21919533 3:0.28445783 4:0.76256413 5:0.878973 6:0.92787279 
-4 1:0.91409321 2:0.21919533 3:0.24323732 4:0.70234527 5:0.8362572 6:0.89685293 
4 1:0.88784186 2:0.21919533 3:0.15914187 4:0.55559405 5:0.71345251 6:0.79807756 
-4 1:0.90849746 2:0.21919533 3:0.20481669 4:0.64392636 5:0.79442969 6:0.86857525 
4 1:0.88376489 2:0.21919533 3:0.13872696 4:0.51358873 5:0.67488416 6:0.76453479 
4 1:0.85236849 2:0.21919533 3:0.10437835 4:0.43810307 5:0.59082415 6:0.67742427 
4 1:0.87205422 2:0.21919533 3:0.15113761 4:0.53857524 5:0.70165231 6:0.79165034 
4 1:0.84714523 2:0.21919533 3:0.11205502 4:0.45141136 5:0.60876051 6:0.70043813 
-4 1:0.8125917 2:0.21919533 3:0.088196383 4:0.39371713 5:0.53694408 6:0.61614718 
4 1:0.82221569 2:0.21919533 3:0.12620028 4:0.48485111 5:0.64894062 6:0.74210779 
-4 1:0.75749761 2:0.21919533 3:0.077679983 4:0.36403126 5:0.49643237 6:0.56542395 
4 1:0.68503682 2:0.21919533 3:0.10106749 4:0.42493279 5:0.58169808 6:0.67976716 
4 1:0.6579433 2:0.21919533 3:0.083254507 4:0.37713697 5:0.51413321 6:0.59165376 
4 1:0.5281633 2:0.21919533 3:0.086479478 4:0.38777983 5:0.5308163 6:0.61798689 
0.9704142083947621 1:0.5020262 2:0.21919533 3:0.072687526 4:0.34936144 5:0.47239557 6:0.53320467 
4 1:0.46368723 2:0.21919533 3:0.0580781 4:0.30930574 5:0.41085136 6:0.43988071 
4 1:0.39143833 2:0.21919533 3:0.076394495 4:0.36116467 5:0.49086262 6:0.56511363 
4 1:0.36952908 2:0.21919533 3:0.065775733 4:0.33141351 5:0.44429517 6:0.4913635 
4 1:0.33339911 2:0.21919533 3:0.052980146 4:0.29595567 5:0.38900859 6:0.40359929 
4 1:0.92401258 2:0.083566785 3:0.10731312 4:0.92865048 5:0.96616172 6:0.97760926 
4 1:0.898117 2:0.083566785 3:0.081553072 4:0.88356542 5:0.93679165 6:0.95382062 
4 1:0.86728715 2:0.083566785 3:0.063594449 4:0.83329523 5:0.89705938 6:0.91771942 
4 1:0.87476477 2:0.083566785 3:0.080783435 4:0.8868064 5:0.93958114 6:0.9566194 
4 1:0.84792993 2:0.083566785 3:0.064276214 4:0.83712744 5:0.90102313 6:0.92231075 
4 1:0.81216698 2:0.083566785 3:0.048493857 4:0.78247464 5:0.8514111 6:0.87316982 
4 1:0.81934052 2:0.083566785 3:0.066615908 4:0.85255528 5:0.91699879 6:0.93847994 
4 1:0.79269825 2:0.083566785 3:0.052801797 4:0.79905896 5:0.86924403 6:0.89328236 
-4 1:0.75435054 2:0.083566785 3:0.038810404 4:0.7430212 5:0.81108068 6:0.83095518 
4 1:0.76462018 2:0.083566785 3:0.0553861 4:0.81573181 5:0.89228763 6:0.91968933 
4 1:0.73885186 2:0.083566785 3:0.043258869 4:0.76460435 5:0.83920864 6:0.86497684 
-4 1:0.70131753 2:0.083566785 3:0.030922104 4:0.71254668 5:0.77850594 6:0.79499845 
4 1:0.64996518 2:0.083566785 3:0.038013615 4:0.75176999 5:0.83528432 6:0.8761223 
-4 1:0.58208034 2:0.083566785 3:0.02136261 4:0.67291865 5:0.72892243 6:0.7359498 
4 1:0.50173523 2:0.083566785 3:0.022946892 4:0.68323749 5:0.74386141 6:0.76105044 
-4 1:0.46475814 2:0.083566785 3:0.015447998 4:0.64780359 5:0.69255168 6:0.68559851 
4 1:0.42842996 2:0.083566785 3:0.022697618 4:0.68415777 5:0.74445841 6:0.77043548 
4 1:0.40670967 2:0.083566785 3:0.017681529 4:0.65971271 5:0.70852034 6:0.71371845 
-4 1:0.37344018 2:0.083566785 3:0.011635393 4:0.63097298 5:0.66613358 6:0.64656877 
4 1:0.91873538 2:0.50056883 3:0.38096487 4:0.89889761 5:0.95038406 6:0.97048694 
4 1:0.89164964 2:0.50056883 3:0.32747681 4:0.82957396 5:0.90234555 6:0.93433985 
-3.203026450062665 1:0.863759 2:0.50056883 3:0.28689298 4:0.75950394 5:0.84227294 6:0.88290351 
4 1:0.88460022 2:0.50056883 3:0.31836031 4:0.81090768 5:0.887565 6:0.92211076 
4 1:0.85683964 2:0.50056883 3:0.28280816 4:0.74746763 5:0.83272303 6:0.87404926 
4 1:0.85049524 2:0.50056883 3:0.29695396 4:0.76665422 5:0.85020434 6:0.88973006 
-4 1:0.82006977 2:0.50056883 3:0.26264354 4:0.69736365 5:0.7831915 6:0.82687693 
-4 1:0.78254518 2:0.50056883 3:0.22613832 4:0.61849783 5:0.69510002 6:0.73311334 
4 1:0.80733194 2:0.50056883 3:0.27610067 4:0.72574042 5:0.81561441 6:0.86022443 
-4 1:0.77383636 2:0.50056883 3:0.24391634 4:0.65464587 5:0.73815109 6:0.78152293 
-4 1:0.73324083 2:0.50056883 3:0.20960427 4:0.57721443 5:0.64402187 6:0.67348331 
-4 1:0.66414559 2:0.50056883 3:0.21497621 4:0.58612074 5:0.65621763 6:0.69510242 
-4 1:0.62089809 2:0.50056883 3:0.18639866 4:0.5184118 5:0.56298176 6:0.56899687 
-4 1:0.58088025 2:0.50056883 3:0.211298 4:0.57777075 5:0.64729662 6:0.69413904 
-4 1:0.54971412 2:0.50056883 3:0.19342012 4:0.53427881 5:0.58548314 6:0.60667079 
-4 1:0.51561769 2:0.50056883 3:0.17138706 4:0.48192745 5:0.50981682 6:0.4934389 
-4 1:0.45656852 2:0.50056883 3:0.17890259 4:0.49936733 5:0.53431359 6:0.53329219 
-4 1:0.42312321 2:0.50056883 3:0.16109051 4:0.45685412 5:0.47167834 6:0.43417654 
4 1:0.97650458 2:0.086753771 3:0.646082 4:0.95530639 5:0.9767318 6:0.98498568 
4 1:0.96678854 2:0.086753771 3:0.61691633 4:0.93120782 5:0.96017845 6:0.97259263 
4 1:0.92293751 2:0.086753771 3:0.59158726 4:0.92239172 5:0.95405147 6:0.96766492 
4 1:0.90936711 2:0.086753771 3:0.5543729 4:0.88103934 5:0.92151244 6:0.94049879 
-4 1:0.88707884 2:0.086753771 3:0.51021121 4:0.82348961 5:0.87083012 6:0.89379299 
4 1:0.87092535 2:0.086753771 3:0.5609934 4:0.89174108 5:0.93509159 6:0.95167099 
-4 1:0.85680158 2:0.086753771 3:0.52208828 4:0.83957283 5:0.88962492 6:0.91124431 
-4 1:0.8361157 2:0.086753771 3:0.47898696 4:0.77590082 5:0.82767172 6:0.85140888 
4 1:0.79355684 2:0.086753771 3:0.52761112 4:0.84813033 5:0.90853934 6:0.93484458 
-4 1:0.77836848 2:0.086753771 3:0.49155575 4:0.79297779 5:0.85408909 6:0.88201052 
-4 1:0.75236287 2:0.086753771 3:0.44850836 4:0.72304483 5:0.77871009 6:0.80279637 
-4 1:0.63620888 2:0.086753771 3:0.44811738 4:0.71722262 5:0.77852333 6:0.82484549 
-4 1:0.61681756 2:0.086753771 3:0.41455634 4:0.65898565 5:0.7066917 6:0.73619874 
-4 1:0.48054298 2:0.086753771 3:0.43433493 4:0.68980457 5:0.74420076 6:0.79465003 
-4 1:0.44728721 2:0.086753771 3:0.41290869 4:0.6515686 5:0.69403079 6:0.72854994 
-4 1:0.42439868 2:0.086753771 3:0.38324463 4:0.59899705 5:0.62542129 6:0.63590069 
4 1:0.36897863 2:0.086753771 3:0.40196048 4:0.63234535 5:0.67000461 6:0.71994358 
-4 1:0.35543771 2:0.086753771 3:0.3843145 4:0.60046279 5:0.62750482 6:0.65698684 
2.914410059562784 1:0.33830215 2:0.086753771 3:0.36080477 4:0.55822348 5:0.57073663 6:0.57188815 
1.895213943596187 1:0.95548513 2:0.49912008 3:0.65969986 4:0.90653233 5:0.94680111 6:0.96314051 
4 1:0.93695649 2:0.49912008 3:0.59783417 4:0.84190929 5:0.89750138 6:0.92216691 
-4 1:0.91018094 2:0.49912008 3:0.52675557 4:0.75232557 5:0.81678388 6:0.84706007 
4 1:0.87473643 2:0.49912008 3:0.54882568 4:0.79721591 5:0.86027193 6:0.8893483 
4 1:0.8442121 2:0.49912008 3:0.48353911 4:0.70508019 5:0.770587 6:0.79975503 
-4 1:0.80811746 2:0.49912008 3:0.42019162 4:0.60634089 5:0.66016059 6:0.67571971 
4 1:0.82035598 2:0.49912008 3:0.49259836 4:0.7117051 5:0.78203532 6:0.81620825 
4 1:0.72913403 2:0.49912008 3:0.36609086 4:0.5124543 5:0.55235296 6:0.54939787 
4 1:0.75981517 2:0.49912008 3:0.45030562 4:0.6405497 5:0.71098466 6:0.74265616 
-4 1:0.67348114 2:0.49912008 3:0.32785534 4:0.44278414 5:0.46803981 6:0.44514459 
4 1:0.63077044 2:0.49912008 3:0.39943043 4:0.54621466 5:0.59971792 6:0.62680576 
4 1:0.58662689 2:0.49912008 3:0.34225148 4:0.45255833 5:0.47917361 6:0.46966245 
-4 1:0.53510684 2:0.49912008 3:0.28723094 4:0.3630784 5:0.36155632 6:0.30898705 
4 1:0.48801715 2:0.49912008 3:0.36091767 4:0.47414782 5:0.50203091 6:0.50307911 
4 1:0.44501169 2:0.49912008 3:0.30897915 4:0.3896105 5:0.39059442 6:0.35056971 
-4 1:0.39090034 2:0.49912008 3:0.25797424 4:0.30816486 5:0.2829338 6:0.19961093 
4 1:0.37297308 2:0.49912008 3:0.33118399 4:0.42270482 5:0.43137066 6:0.40914975 
4 1:0.33518191 2:0.49912008 3:0.28516121 4:0.34844872 5:0.33277335 6:0.26749494 
4 1:0.28800638 2:0.49912008 3:0.239294 4:0.27618757 5:0.23743598 6:0.13120662 
4 1:1 2:0.0056646026 3:0.98241836 4:0.99754447 5:0.99837843 6:0.99873524 
4 1:0.99931026 2:0.0056646026 3:0.97396968 4:0.99499278 5:0.99653001 6:0.9973986 
4 1:0.99816614 2:0.0056646026 3:0.96785094 4:0.99313412 5:0.99514902 6:0.99636093 
4 1:0.9288562 2:0.0056646026 3:0.88463259 4:0.98984367 5:0.99445867 6:0.995786 
4 1:0.92597255 2:0.0056646026 3:0.88269439 4:0.98579001 5:0.9917863 6:0.99381702 
4 1:0.91645317 2:0.0056646026 3:0.87943561 4:0.97844374 5:0.98618184 6:0.98979529 
-4 1:0.86311749 2:0.0056646026 3:0.86407181 4:0.96026885 5:0.98853248 6:0.99358545 
-4 1:0.85670344 2:0.0056646026 3:0.86241965 4:0.95421974 5:0.98239426 6:0.98999366 
-4 1:0.83570169 2:0.0056646026 3:0.85970304 4:0.94347269 5:0.97198968 6:0.9829336 
-4 1:0.78424676 2:0.0056646026 3:0.85087015 4:0.91651049 5:0.95906687 6:0.98258391 
-4 1:0.77472148 2:0.0056646026 3:0.84902131 4:0.91055943 5:0.94944204 6:0.97352348 
-4 1:0.63074563 2:0.0056646026 3:0.83940428 4:0.87369959 5:0.90465003 6:0.95891922 
-4 1:0.61732456 2:0.0056646026 3:0.83841839 4:0.8712363 5:0.90033732 6:0.95248837 
-4 1:0.60400299 2:0.0056646026 3:0.83696642 4:0.86758813 5:0.893872 6:0.94095797 
-0.9969735499373782 1:0.44666075 2:0.0056646026 3:0.82941095 4:0.83902061 5:0.84510353 6:0.86479425 
-4 1:0.42720113 2:0.0056646026 3:0.82840514 4:0.8368136 5:0.84093631 6:0.86069536 
4 1:0.32191329 2:0.0056646026 3:0.82647757 4:0.82867904 5:0.8248098 6:0.85712218 
-4 1:0.91083389 2:0.18137104 3:0.43817477 4:0.82784627 5:0.90710157 6:0.93693892 
4 1:0.90856257 2:0.18137104 3:0.43326406 4:0.82123487 5:0.9021133 6:0.93285734 
-4 1:0.87872428 2:0.18137104 3:0.38374963 4:0.74222319 5:0.83336461 6:0.87098551 
4 1:0.87403996 2:0.18137104 3:0.40559067 4:0.79104253 5:0.88029881 6:0.91552417 
4 1:0.84337627 2:0.18137104 3:0.36858627 4:0.72304979 5:0.81750507 6:0.85702167 
-4 1:0.8023323 2:0.18137104 3:0.33543633 4:0.65617509 5:0.74453253 6:0.77872955 
4 1:0.83024658 2:0.18137104 3:0.37726233 4:0.73857387 5:0.83579524 6:0.87723939 
-4 1:0.79930881 2:0.18137104 3:0.34480055 4:0.67269731 5:0.7665205 6:0.80676332 
-4 1:0.75658523 2:0.18137104 3:0.31379389 4:0.60684271 5:0.68827333 6:0.71587159 
4 1:0.76244957 2:0.18137104 3:0.35645593 4:0.69561666 5:0.79695173 6:0.84154391 
1.326557185158217 1:0.72861109 2:0.18137104 3:0.32647994 4:0.63142698 5:0.72248224 6:0.7603012 
-4 1:0.6817498 2:0.18137104 3:0.29749496 4:0.56835508 5:0.64245656 6:0.66218172 
4 1:0.63987996 2:0.18137104 3:0.32749068 4:0.63131327 5:0.72687613 6:0.77733535 
-4 1:0.60589102 2:0.18137104 3:0.30296925 4:0.57601896 5:0.65321265 6:0.68252014 
-4 1:0.56282303 2:0.18137104 3:0.27770782 4:0.51923537 5:0.57477828 6:0.57427046 
4 1:0.50326422 2:0.18137104 3:0.30820332 4:0.58503378 5:0.66456631 6:0.70302161 
4 1:0.46650558 2:0.18137104 3:0.28822665 4:0.53887566 5:0.59925188 6:0.61091164 
-4 1:0.42647605 2:0.18137104 3:0.26598279 4:0.48912153 5:0.52873127 6:0.5083352 
4 1:0.41938441 2:0.18137104 3:0.29566289 4:0.55497136 5:0.62126765 6:0.64697909 
4 1:0.39395172 2:0.18137104 3:0.2785156 4:0.5155536 5:0.56455807 6:0.56071366 
4 1:0.91802622 2:0.50462169 3:0.66450355 4:0.80596874 5:0.85234652 6:0.8753001 
4 1:0.89534709 2:0.50462169 3:0.60634987 4:0.74269284 5:0.79288453 6:0.81691098 
4 1:0.90277337 2:0.50462169 3:0.61891626 4:0.7439809 5:0.79599924 6:0.8220212 
4 1:0.86363535 2:0.50462169 3:0.52837485 4:0.63486561 5:0.68299362 6:0.70295137 
4 1:0.81077809 2:0.50462169 3:0.43717522 4:0.51607591 5:0.54885724 6:0.54816555 
4 1:0.85958022 2:0.50462169 3:0.55438694 4:0.6649763 5:0.72153594 6:0.74820122 
4 1:0.81375084 2:0.50462169 3:0.46441012 4:0.54740681 5:0.58925859 6:0.59994977 
4 1:0.67681284 2:0.50462169 3:0.37458409 4:0.41788319 5:0.43645975 6:0.43120287 
-4 1:0.61683458 2:0.50462169 3:0.30056128 4:0.31413768 5:0.30271973 6:0.25123798 
4 1:0.5227179 2:0.50462169 3:0.32347632 4:0.33923024 5:0.33162378 6:0.29245324 
-4 1:0.46465267 2:0.50462169 3:0.25628796 4:0.24620344 5:0.21006495 6:0.12205027 
4 1:0.42317708 2:0.50462169 3:0.35261394 4:0.37250653 5:0.36868 6:0.34317173 
-4 1:0.38040097 2:0.50462169 3:0.28814241 4:0.28523554 5:0.25614578 6:0.1831917 
4 1:0.32788426 2:0.50462169 3:0.22684164 4:0.20195867 5:0.14828752 6:0.029394958 
4 1:0.99083143 2:1.7347235e-18 3:0.81027062 4:0.96054762 5:0.98118348 6:0.98842521 
4 1:0.98544879 2:1.7347235e-18 3:0.75378028 4:0.93644986 5:0.96794032 6:0.97974964 
4 1:0.97474426 2:1.7347235e-18 3:0.66442178 4:0.88373114 5:0.93614568 6:0.95784876 
4 1:0.90172901 2:1.7347235e-18 3:0.47828073 4:0.85972149 5:0.95870305 6:0.97817459 
4 1:0.89371599 2:1.7347235e-18 3:0.44764422 4:0.81740587 5:0.9283697 6:0.95729239 
4 1:0.8798936 2:1.7347235e-18 3:0.4097556 4:0.75184125 5:0.87492753 6:0.9179173 
4 1:0.77500081 2:1.7347235e-18 3:0.33251373 4:0.65349215 5:0.85269534 6:0.95869531 
4 1:0.76708713 2:1.7347235e-18 3:0.31313727 4:0.61858053 5:0.81684429 6:0.92640865 
4 1:0.75331238 2:1.7347235e-18 3:0.29082402 4:0.56906534 5:0.75808327 6:0.86888068 
4 1:0.4850078 2:1.7347235e-18 3:0.18748544 4:0.35105253 5:0.52613913 6:0.77452524 
4 1:0.47853859 2:1.7347235e-18 3:0.17966628 4:0.33375583 5:0.50244671 6:0.73868305 
4 1:0.46552016 2:1.7347235e-18 3:0.16981042 4:0.30960116 5:0.46347074 6:0.67721695 
4 1:0.20027764 2:1.7347235e-18 3:0.12915484 4:0.21010799 5:0.30011475 6:0.42633025 
4 1:0.19519479 2:1.7347235e-18 3:0.12478033 4:0.19981571 5:0.28454732 6:0.40573647 
4 1:0.1861881 2:1.7347235e-18 3:0.11948551 4:0.1867495 5:0.26185955 6:0.37204965 
4 1:0.011804195 2:1.7347235e-18 3:0.098926652 4:0.13459664 5:0.16787097 6:0.29885448 
4 1:0.0081914983 2:1.7347235e-18 3:0.096454869 4:0.12879556 5:0.15846198 6:0.28006589 
4 2:1.7347235e-18 3:0.092696543 4:0.11997679 5:0.14306918 6:0.24687576 
-4 1:0.85312634 2:0.36765538 3:0.23323478 4:0.75156796 5:0.88366466 6:0.92196858 
-4 1:0.81509288 2:0.36765538 3:0.17749974 4:0.67387368 5:0.82156106 6:0.86519164 
-4 1:0.7794255 2:0.36765538 3:0.15021134 4:0.61848877 5:0.75876204 6:0.79613476 
-4 1:0.8239825 2:0.36765538 3:0.18685062 4:0.68599428 5:0.83450905 6:0.87991221 
-4 1:0.79166 2:0.36765538 3:0.15875657 4:0.63084943 5:0.77513788 6:0.81754186 
-4 1:0.75364561 2:0.36765538 3:0.13273893 4:0.57499665 5:0.70593055 6:0.73524263 
-4 1:0.79489544 2:0.36765538 3:0.1695644 4:0.65383021 5:0.80365914 6:0.84777296 
-4 1:0.76289758 2:0.36765538 3:0.14557756 4:0.60157381 5:0.74091944 6:0.77707867 
-4 1:0.71962567 2:0.36765538 3:0.12081198 4:0.54542721 5:0.6678827 6:0.68693488 
-4 1:0.71286285 2:0.36765538 3:0.14242971 4:0.59658431 5:0.73907238 6:0.78722774 
-4 1:0.67841562 2:0.36765538 3:0.12293203 4:0.54992184 5:0.67534207 6:0.70436767 
-4 1:0.63498336 2:0.36765538 3:0.1022148 4:0.50091782 5:0.60603253 6:0.60845396 
-4 1:0.60593754 2:0.36765538 3:0.1218267 4:0.54985771 5:0.67617027 6:0.71174357 
-4 1:0.57383621 2:0.36765538 3:0.10572155 4:0.51016441 5:0.61866105 6:0.63013881 
-4 1:0.53480081 2:0.36765538 3:0.08850881 4:0.46862329 5:0.5578505 6:0.54043477 
-4 1:0.50087418 2:0.36765538 3:0.10588627 4:0.51302188 5:0.62321938 6:0.64340546 
-4 1:0.47211473 2:0.36765538 3:0.092643424 4:0.47997134 5:0.57425215 6:0.5674261 
-4 1:0.43607457 2:0.36765538 3:0.07793147 4:0.44457013 5:0.52218497 6:0.48662128 
-4 1:0.88690007 2:0.25338003 3:0.56755727 4:0.82759293 5:0.86753313 6:0.88353287 
-4 1:0.85949887 2:0.25338003 3:0.48946433 4:0.76798142 5:0.80864694 6:0.82082141 
-4 1:0.82949912 2:0.25338003 3:0.41988875 4:0.70909671 5:0.7445599 6:0.74611011 
-4 1:0.7866736 2:0.25338003 3:0.42067163 4:0.79781223 5:0.83441061 6:0.84889132 
-4 1:0.76379046 2:0.25338003 3:0.38664209 4:0.74191548 5:0.77458159 6:0.78083962 
-4 1:0.73902501 2:0.25338003 3:0.3538151 4:0.68614639 5:0.7112502 6:0.70321308 
-4 1:0.77827754 2:0.25338003 3:0.40679917 4:0.76538025 5:0.8018133 6:0.81088812 
-4 1:0.75369877 2:0.25338003 3:0.37421349 4:0.70984921 5:0.73965579 6:0.73777625 
-4 1:0.7278976 2:0.25338003 3:0.34026617 4:0.65126699 5:0.67129811 6:0.65249488 
-4 1:0.75377104 2:0.25338003 3:0.39247186 4:0.7301687 5:0.75836676 6:0.76594647 
-4 1:0.73040051 2:0.25338003 3:0.36036802 4:0.67335336 5:0.69127914 6:0.68163888 
-4 1:0.70027641 2:0.25338003 3:0.32660863 4:0.61237812 5:0.61668612 6:0.5840115 
-4 1:0.70984517 2:0.25338003 3:0.37767177 4:0.70179069 5:0.71909602 6:0.71741121 
-4 1:0.6861398 2:0.25338003 3:0.34917171 4:0.64828284 5:0.65368515 6:0.63156363 
-4 1:0.65670425 2:0.25338003 3:0.3167051 4:0.58852172 5:0.57955902 6:0.53190813 
-4 1:0.65101527 2:0.25338003 3:0.35891735 4:0.67203191 5:0.68126054 6:0.67202645 
-4 1:0.6301414 2:0.25338003 3:0.33425342 4:0.62359803 5:0.62053801 6:0.58701157 
-4 1:0.59912855 2:0.25338003 3:0.30367829 4:0.56500336 5:0.54683736 6:0.48345019 
4 1:0.87249159 2:0.19903381 3:0.18110509 4:0.66627054 5:0.8370472 6:0.89100789 
-4 1:0.84302185 2:0.19903381 3:0.1214312 4:0.58061821 5:0.76873939 6:0.82962628 
-4 1:0.80840598 2:0.19903381 3:0.095484466 4:0.51547002 5:0.693639 6:0.74734168 
-4 1:0.84124536 2:0.19903381 3:0.13325045 4:0.60749049 5:0.79687222 6:0.85925065 
-4 1:0.81201345 2:0.19903381 3:0.10617429 4:0.53925437 5:0.72458235 6:0.78610697 
-4 1:0.77374542 2:0.19903381 3:0.082820831 4:0.47470197 5:0.64344905 6:0.69098973 
4 1:0.79760161 2:0.19903381 3:0.11887858 4:0.5736105 5:0.76569888 6:0.82985727 
-4 1:0.72890043 2:0.19903381 3:0.074805111 4:0.44755874 5:0.60667374 6:0.64497069 
-4 1:0.69459303 2:0.19903381 3:0.096752861 4:0.51540239 5:0.70270408 6:0.77344363 
-4 1:0.6661214 2:0.19903381 3:0.080427982 4:0.46434716 5:0.63143375 6:0.68324712 
-4 1:0.62963013 2:0.19903381 3:0.06117267 4:0.40584153 5:0.54721647 6:0.56970762 
-4 1:0.5849683 2:0.19903381 3:0.081310833 4:0.46992415 5:0.64123154 6:0.70252115 
-4 1:0.55914878 2:0.19903381 3:0.067675013 4:0.42627673 5:0.57639795 6:0.61320786 
-4 1:0.5270475 2:0.19903381 3:0.050999978 4:0.37485914 5:0.49967681 6:0.50296567 
-4 1:0.48310242 2:0.19903381 3:0.068528834 4:0.43129736 5:0.58438892 6:0.63368239 
-4 1:0.46184527 2:0.19903381 3:0.057273867 4:0.3954128 5:0.52978229 6:0.55058745 
-4 1:0.43179336 2:0.19903381 3:0.041563403 4:0.34709246 5:0.45703844 6:0.44020896 
-4 1:0.91278217 2:0.93112465 3:0.39371196 4:0.7545613 5:0.86991379 6:0.91308438 
-4 1:0.88344762 2:0.93112465 3:0.34508607 4:0.67793846 5:0.8014392 6:0.85048379 
-4 1:0.85429886 2:0.93112465 3:0.31628946 4:0.62120253 5:0.73475375 6:0.77665992 
-4 1:0.86030497 2:0.93112465 3:0.34297157 4:0.68034432 5:0.80534029 6:0.85818471 
-4 1:0.83485887 2:0.93112465 3:0.3157892 4:0.62432586 5:0.7404873 6:0.78824758 
-4 1:0.79674792 2:0.93112465 3:0.29062721 4:0.57065341 5:0.67155999 6:0.70458289 
-4 1:0.80413484 2:0.93112465 3:0.32317296 4:0.64035823 5:0.7637059 6:0.81336807 
-4 1:0.77375786 2:0.93112465 3:0.299113 4:0.58747656 5:0.69602523 6:0.7339953 
-4 1:0.73437057 2:0.93112465 3:0.27504935 4:0.53527358 5:0.62606154 6:0.64538104 
-4 1:0.6470083 2:0.93112465 3:0.27600541 4:0.53408068 5:0.62480209 6:0.64871016 
-4 1:0.60880094 2:0.93112465 3:0.25488527 4:0.48673425 5:0.5563716 6:0.55189701 
4 1:0.51970286 2:0.93112465 3:0.27485616 4:0.53152867 5:0.6208702 6:0.65397662 
-4 1:0.49261431 2:0.93112465 3:0.25832173 4:0.49272748 5:0.56330385 6:0.5696983 
-4 1:0.45750892 2:0.93112465 3:0.2392858 4:0.44945834 5:0.49964894 6:0.47516791 
4 1:0.35998146 2:0.93112465 3:0.25964586 4:0.49707985 5:0.5680592 6:0.58600977 
4 1:0.97777646 2:0.038650218 3:0.88502578 4:0.97235291 5:0.98494629 6:0.98985494 
4 1:0.96354006 2:0.038650218 3:0.83969234 4:0.95081677 5:0.97080739 6:0.97939093 
4 1:0.88800601 2:0.038650218 3:0.71489993 4:0.93202454 5:0.96892208 6:0.97962477 
4 1:0.86984899 2:0.038650218 3:0.68962456 4:0.89929255 5:0.94389585 6:0.96003642 
-4 1:0.84171907 2:0.038650218 3:0.65355091 4:0.84980065 5:0.9022834 6:0.92477323 
4 1:0.79141786 2:0.038650218 3:0.63352726 4:0.85733425 5:0.9361034 6:0.96489052 
4 1:0.77248968 2:0.038650218 3:0.6143632 4:0.82223934 5:0.90130898 6:0.93426582 
-4 1:0.74342258 2:0.038650218 3:0.58728709 4:0.77250209 5:0.84890675 6:0.88447167 
4 1:0.60173615 2:0.038650218 3:0.54248557 4:0.70583501 5:0.81281717 6:0.89935278 
-4 1:0.58110034 2:0.038650218 3:0.5296944 4:0.67796942 5:0.77377664 6:0.8511401 
4 1:0.55061903 2:0.038650218 3:0.51140717 4:0.63851335 5:0.71767063 6:0.77967082 
4 1:0.40530873 2:0.038650218 3:0.49481226 4:0.60424494 5:0.68247057 6:0.74915795 
4 1:0.38943284 2:0.038650218 3:0.48549858 4:0.58366723 5:0.65010226 6:0.70575688 
4 1:0.36011559 2:0.038650218 3:0.47155059 4:0.55321396 5:0.60209707 6:0.63919789 
4 1:0.24379329 2:0.038650218 3:0.46582256 4:0.53906 5:0.58437712 6:0.65546689 
4 1:0.22752521 2:0.038650218 3:0.45837792 4:0.52284695 5:0.55777099 6:0.60992109 
4 1:0.20527663 2:0.038650218 3:0.44727194 4:0.49924066 5:0.51962103 6:0.54459734 
4 1:0.89358977 2:0.24376664 3:0.35317719 4:0.82465143 5:0.8994225 6:0.92706789 
4 1:0.85648309 2:0.24376664 3:0.29514881 4:0.74401743 5:0.83191275 6:0.86682886 
4 1:0.80988243 2:0.24376664 3:0.24667992 4:0.66029738 5:0.74617116 6:0.77867358 
4 1:0.86022677 2:0.24376664 3:0.31314208 4:0.76967798 5:0.85596968 6:0.89032531 
4 1:0.8227529 2:0.24376664 3:0.26408953 4:0.68640792 5:0.7755904 6:0.81220373 
4 1:0.77376193 2:0.24376664 3:0.22340466 4:0.60854418 5:0.68597944 6:0.71076486 
4 1:0.82122488 2:0.24376664 3:0.28379756 4:0.72183614 5:0.81453606 6:0.85256083 
4 1:0.7836119 2:0.24376664 3:0.24308998 4:0.64366162 5:0.72839217 6:0.76145325 
4 1:0.72384748 2:0.24376664 3:0.24677447 4:0.64883302 5:0.73687753 6:0.77771342 
4 1:0.68967258 2:0.24376664 3:0.21693033 4:0.58658549 5:0.65560168 6:0.6746019 
-4 1:0.64261148 2:0.24376664 3:0.1884416 4:0.52779375 5:0.57548273 6:0.56415725 
4 1:0.61530293 2:0.24376664 3:0.22468098 4:0.60196943 5:0.67576232 6:0.70352172 
4 1:0.51432215 2:0.24376664 3:0.20974549 4:0.5703964 5:0.63154557 6:0.64391788 
4 1:0.48610214 2:0.24376664 3:0.18971519 4:0.52858301 5:0.57240397 6:0.55482667 
4 1:0.45242018 2:0.24376664 3:0.16774156 4:0.48360077 5:0.5091009 6:0.45937952 
-4 1:0.8844154 2:0.17100887 3:0.72113597 4:0.87694877 5:0.91353723 6:0.92915751 
-4 1:0.85037445 2:0.17100887 3:0.68788873 4:0.83231062 5:0.86868815 6:0.88251123 
-4 1:0.88508056 2:0.17100887 3:0.7327504 4:0.88897406 5:0.92477242 6:0.93981282 
-4 1:0.85366741 2:0.17100887 3:0.69916395 4:0.84503977 5:0.88273573 6:0.89846199 
-4 1:0.81504303 2:0.17100887 3:0.66590934 4:0.79673314 5:0.83011685 6:0.83984818 
-4 1:0.85644843 2:0.17100887 3:0.71415192 4:0.86445685 5:0.90360003 6:0.9202225 
-4 1:0.82387387 2:0.17100887 3:0.68201945 4:0.81894271 5:0.85592175 6:0.87000988 
-4 1:0.78212162 2:0.17100887 3:0.65159792 4:0.77264311 5:0.80200204 6:0.80662349 
-4 1:0.78168384 2:0.17100887 3:0.6832212 4:0.81696502 5:0.856044 6:0.87656074 
-4 1:0.7464494 2:0.17100887 3:0.65614114 4:0.77574784 5:0.80588316 6:0.81492702 
-4 1:0.70485619 2:0.17100887 3:0.63023321 4:0.73515262 5:0.75367182 6:0.7457323 
-4 1:0.69664501 2:0.17100887 3:0.65928005 4:0.7783746 5:0.80940949 6:0.82172477 
-4 1:0.66667106 2:0.17100887 3:0.63801626 4:0.74514239 5:0.7656869 6:0.76277471 
-4 1:0.62612988 2:0.17100887 3:0.61567029 4:0.71008177 5:0.71859936 6:0.69564643 
-4 1:0.61341303 2:0.17100887 3:0.6420357 4:0.75029027 5:0.77240927 6:0.77768431 
-4 1:0.5867266 2:0.17100887 3:0.62447934 4:0.72280899 5:0.7351325 6:0.72147263 
-4 1:0.55384064 2:0.17100887 3:0.60654355 4:0.69469623 5:0.69658217 6:0.66241143 
4 1:0.93137509 2:0.58813084 3:0.66970124 4:0.81799096 5:0.87191419 6:0.89975154 
4 1:0.90035959 2:0.58813084 3:0.60494337 4:0.74071302 5:0.79784291 6:0.82803786 
4 1:0.85663387 2:0.58813084 3:0.53766236 4:0.6523887 5:0.70267772 6:0.72562817 
4 1:0.90546813 2:0.58813084 3:0.61493656 4:0.7488554 5:0.81046239 6:0.84531076 
4 1:0.8656317 2:0.58813084 3:0.54726337 4:0.65956534 5:0.7155449 6:0.74631891 
4 1:0.8098934 2:0.58813084 3:0.4798766 4:0.56546743 5:0.60590635 6:0.61881885 
4 1:0.85306549 2:0.58813084 3:0.5714757 4:0.68725367 5:0.75023425 6:0.78571296 
4 1:0.80623734 2:0.58813084 3:0.50644182 4:0.59669103 5:0.64562358 6:0.66908583 
4 1:0.74311432 2:0.58813084 3:0.44350356 4:0.50581009 5:0.53327566 6:0.53149917 
4 1:0.68871211 2:0.58813084 3:0.49872371 4:0.58127904 5:0.63194766 6:0.66873179 
4 1:0.63851213 2:0.58813084 3:0.44610228 4:0.5034943 5:0.53075976 6:0.537882 
4 1:0.57033569 2:0.58813084 3:0.39475469 4:0.42714879 5:0.42904342 6:0.39886318 
4 1:0.50789515 2:0.58813084 3:0.4489223 4:0.50526222 5:0.53352166 6:0.54558454 
4 1:0.46383067 2:0.58813084 3:0.40748599 4:0.44304458 5:0.44865668 6:0.42700798 
4 1:0.40022993 2:0.58813084 3:0.36496643 4:0.37957831 5:0.3618814 6:0.30151691 
4 1:0.34919503 2:0.58813084 3:0.41077259 4:0.44710938 5:0.45418637 6:0.4427272 
4 1:0.31039486 2:0.58813084 3:0.3781102 4:0.39791713 5:0.38579731 6:0.33775626 
4 1:0.25686689 2:0.58813084 3:0.34339507 4:0.34629183 5:0.31474147 6:0.22987727 
4 1:0.88953478 2:1 3:0.4142646 4:0.77609714 5:0.86327287 6:0.90070366 
4 1:0.84762737 2:1 3:0.34831904 4:0.68202398 5:0.77495965 6:0.81792736 
4 1:0.79218545 2:1 3:0.28830223 4:0.58233545 5:0.66416214 6:0.69812459 
4 1:0.85011264 2:1 3:0.3632793 4:0.7002849 5:0.79493175 6:0.8388643 
4 1:0.80164286 2:1 3:0.30270317 4:0.60049607 5:0.68746672 6:0.72752293 
2.398936645273238 1:0.73536109 2:1 3:0.24807743 4:0.50352829 5:0.56914456 6:0.58694836 
4 1:0.7992624 2:1 3:0.32301902 4:0.63539721 5:0.73120203 6:0.77632508 
-4 1:0.67724483 2:1 3:0.22091872 4:0.44918423 5:0.49861276 6:0.49729596 
-4 1:0.63074649 2:1 3:0.22591838 4:0.45366414 5:0.50441509 6:0.5112007 
-4 1:0.56303466 2:1 3:0.18584021 4:0.37814296 5:0.39914056 6:0.36255206 
-4 1:0.56356528 2:1 3:0.23333665 4:0.46665436 5:0.52225289 6:0.54013566 
-4 1:0.51828367 2:1 3:0.19903142 4:0.40063095 5:0.42846081 6:0.40524269 
-4 1:0.45968483 2:1 3:0.16491992 4:0.33688636 5:0.33816257 6:0.27152115 
-4 1:0.45707056 2:1 3:0.20952296 4:0.42030103 5:0.45536541 6:0.44824172 
-4 1:0.41753705 2:1 3:0.17986875 4:0.36372106 5:0.37428173 6:0.32334623 
-4 1:0.3673098 2:1 3:0.14941886 4:0.30761847 5:0.29515758 6:0.20322567 
4 1:0.90008671 2:0.42903087 3:0.53021165 4:0.81488204 5:0.88078391 6:0.91034118 
4 1:0.8574737 2:0.42903087 3:0.47484284 4:0.73859546 5:0.80642948 6:0.83743278 
4 1:0.81060984 2:0.42903087 3:0.42618901 4:0.66478054 5:0.72260503 6:0.74291613 
4 1:0.84205615 2:0.42903087 3:0.47088787 4:0.74712748 5:0.81879166 6:0.85375655 
4 1:0.80068913 2:0.42903087 3:0.42342846 4:0.67231763 5:0.73539087 6:0.76248985 
4 1:0.74875184 2:0.42903087 3:0.38161879 4:0.6030831 5:0.65028454 6:0.65744785 
4 1:0.77118496 2:0.42903087 3:0.43414979 4:0.69038445 5:0.7654524 6:0.79900523 
4 1:0.72824921 2:0.42903087 3:0.39230104 4:0.62011899 5:0.68008131 6:0.69971677 
4 1:0.6745625 2:0.42903087 3:0.35559781 4:0.5569466 5:0.59765133 6:0.59325823 
4 1:0.63528964 2:0.42903087 3:0.38788187 4:0.60698864 5:0.66931291 6:0.70430754 
4 1:0.59199082 2:0.42903087 3:0.35594631 4:0.55106118 5:0.59339727 6:0.6007531 
4 1:0.53997565 2:0.42903087 3:0.3267523 4:0.49999467 5:0.52256667 6:0.49922282 
4 1:0.4892461 2:0.42903087 3:0.35717659 4:0.5489613 5:0.58809281 6:0.59673744 
4 1:0.45268705 2:0.42903087 3:0.33181164 4:0.50418622 5:0.52500729 6:0.50527993 
4 1:0.40758685 2:0.42903087 3:0.30734084 4:0.4609972 5:0.463968 6:0.4146685 
4 1:0.38282931 2:0.42903087 3:0.33760802 4:0.51300486 5:0.53535562 6:0.5280665 
4 1:0.35092797 2:0.42903087 3:0.31674612 4:0.476005 5:0.48258867 6:0.4454802 
4 1:0.31174808 2:0.42903087 3:0.29556342 4:0.43906497 5:0.43035288 6:0.36486585 
-4 1:0.89161561 2:0.055816361 3:0.66214428 4:0.93929999 5:0.96240749 6:0.9687965 
-4 1:0.86624617 2:0.055816361 3:0.64575905 4:0.91816729 5:0.9412327 6:0.94551596 
-4 1:0.83659824 2:0.055816361 3:0.63018023 4:0.89539861 5:0.91589514 6:0.91453936 
-4 1:0.86958328 2:0.055816361 3:0.654362 4:0.92863095 5:0.9525443 6:0.95890104 
-4 1:0.84452133 2:0.055816361 3:0.63750977 4:0.90478183 5:0.92705741 6:0.92925933 
-4 1:0.81057282 2:0.055816361 3:0.62046115 4:0.87886427 5:0.89666766 6:0.89022904 
-4 1:0.84885788 2:0.055816361 3:0.64782367 4:0.9206974 5:0.94520642 6:0.9511503 
-4 1:0.82294125 2:0.055816361 3:0.63102979 4:0.89575906 5:0.91738093 6:0.91772037 
-4 1:0.78644712 2:0.055816361 3:0.61481892 4:0.86971182 5:0.88549471 6:0.8752017 
-4 1:0.77992201 2:0.055816361 3:0.63544956 4:0.9024457 5:0.92684464 6:0.93284393 
-4 1:0.75432808 2:0.055816361 3:0.62101684 4:0.87932584 5:0.89804432 6:0.8941554 
-4 1:0.72169343 2:0.055816361 3:0.60551816 4:0.85361625 5:0.86461223 6:0.84637068 
-4 1:0.71382201 2:0.055816361 3:0.62537969 4:0.88632962 5:0.90778237 6:0.90952365 
-4 1:0.68888515 2:0.055816361 3:0.61291964 4:0.86584043 5:0.8807303 6:0.87032144 
-4 1:0.66366256 2:0.055816361 3:0.59794606 4:0.84074106 5:0.84697657 6:0.81961455 
-4 1:0.65479021 2:0.055816361 3:0.61697786 4:0.87231527 5:0.89005684 6:0.88634515 
-4 1:0.6355131 2:0.055816361 3:0.60556598 4:0.85358575 5:0.86463324 6:0.84685496 
-4 1:0.60908106 2:0.055816361 3:0.59241458 4:0.83143883 5:0.83428743 6:0.79949991 
