svm_type nu_svr
kernel_type rbf
gamma 0.04
nr_class 2
total_sv 210
rho -1.68654
SV
-4 1:0.66382463 2:0.93973481 3:0.28594627 4:0.63969879 5:0.73360583 6:0.78380069 
4 1:0.25896526 2:0.04579546 3:0.31879 4:0.45852885 5:0.59717781 6:0.71487885 
-4 1:0.68687464 2:0.93973481 3:0.2669659 4:0.56720118 5:0.63868728 6:0.67673331 
4 1:0.78020364 2:0.23066177 3:0.50145055 4:0.66525882 5:0.74327951 6:0.79017822 
-4 1:0.41563731 2:0.48885268 3:0.2554221 4:0.36916892 5:0.43100226 6:0.50888404 
-4 1:0.73251944 2:0.15600331 3:0.11085278 4:0.68794624 5:0.80350923 6:0.85660483 
4 1:0.90795371 2:0.58937038 3:0.58823535 4:0.80035053 5:0.86988422 6:0.90533033 
-4 1:0.79681394 2:0.083369236 3:0.48094343 4:0.76665994 5:0.86191893 6:0.90760934 
4 1:1 3:0.83319067 4:0.98956086 5:0.99577089 6:0.99784595 
4 1:0.34770698 2:0.58937038 3:0.24672569 4:0.24188506 5:0.29544562 6:0.33843061 
4 1:0.61928338 2:0.22767235 3:0.15963705 4:0.51010642 5:0.59283393 6:0.63883591 
-4 1:0.72960023 2:0.93973481 3:0.29554025 4:0.64471949 5:0.72634443 6:0.77062686 
4 1:0.67022121 2:0.49612229 3:0.27766156 4:0.33407105 5:0.40732401 6:0.46359154 
-4 1:0.71777065 2:0.08765484 3:0.47011786 4:0.66069877 5:0.75226598 6:0.80539407 
4 1:0.89725962 2:0.48885268 3:0.5143645 4:0.8587242 5:0.91841685 6:0.94498293 
4 1:0.91839373 2:0.04579546 3:0.69472114 4:0.97790884 5:0.9891237 6:0.993277 
4 1:0.74778935 2:0.58937038 3:0.41507439 4:0.56413083 5:0.65815516 6:0.7166999 
4 1:0.7890525 2:0.20820673 3:0.3510016 4:0.74206651 5:0.83508543 6:0.88101902 
-4 1:0.74644956 2:0.34681232 3:0.12095689 4:0.68834617 5:0.77453583 6:0.81892861 
-4 1:0.74285042 2:0.48885268 3:0.35394597 4:0.61189191 5:0.70897304 6:0.77099691 
4 1:0.73867648 2:0.49612229 3:0.35967401 4:0.47825205 5:0.57045236 6:0.63752441 
4 1:0.39053999 2:0.20820673 3:0.17753958 4:0.33495583 5:0.39777832 6:0.44399359 
4 1:0.88220599 2:0.20820673 3:0.40997978 4:0.82462749 5:0.89794736 6:0.93142825 
4 1:0.3594872 2:0.49612229 3:0.14024497 4:0.074708413 5:0.10231651 6:0.1259153 
-4 1:0.74999802 2:0.08765484 3:0.52069978 4:0.74484555 5:0.83431246 6:0.87935204 
-4 1:0.32027025 2:0.49739676 3:0.17094319 4:0.12195679 5:0.13277563 6:0.14165413 
-4 1:0.8811176 2:0.047285912 3:0.53826775 4:0.933335 5:0.95948954 6:0.96870909 
4 1:0.96968854 2:0.08765484 3:0.77391346 4:0.95596295 5:0.97544784 6:0.98405871 
-4 1:0.62949718 2:0.04579546 3:0.44400319 4:0.77920819 5:0.88713866 6:0.92903178 
4 1:0.75731817 2:0.42532178 3:0.35347476 4:0.69239941 5:0.78245146 6:0.83117443 
-4 1:0.52033349 2:0.48885268 3:0.27824915 4:0.42915458 5:0.50850476 6:0.58585271 
-4 1:0.69816754 2:0.34681232 3:0.11526222 4:0.68549511 5:0.78556255 6:0.83507583 
4 1:0.81789029 2:0.48885268 3:0.44075432 4:0.7803455 5:0.86328719 6:0.90222545 
-4 1:0.69691564 2:0.48885268 3:0.35289928 4:0.61359907 5:0.7217863 6:0.78790011 
4 1:0.91202697 2:0.42532178 3:0.50912639 4:0.87959883 5:0.93223488 6:0.95450335 
-4 1:0.32027025 2:0.49739676 3:0.17094319 4:0.12195679 5:0.13277563 6:0.14165413 
4 1:0.90420201 2:0.15600331 3:0.19693206 4:0.86294641 5:0.92990351 6:0.95498998 
-4 1:0.93556416 2:0.58937038 3:0.65797705 4:0.87169952 5:0.92200942 6:0.94454256 
-4 1:0.69716201 2:0.25207203 3:0.26283557 4:0.58611788 5:0.65192525 6:0.69015011 
-4 1:0.74598388 2:0.16787772 3:0.57222383 4:0.74405775 5:0.79993424 6:0.82484891 
-4 1:0.66561759 2:0.083369236 3:0.37833052 4:0.59301482 5:0.71772587 6:0.7905538 
-2.730379422168404 1:0.8811176 2:0.047285912 3:0.53826775 4:0.933335 5:0.95948954 6:0.96870909 
4 1:0.93011029 2:0.23066177 3:0.71439481 4:0.90904598 5:0.94146542 6:0.95674338 
4 1:0.8789356 2:0.54342577 3:0.32439292 4:0.78747769 5:0.87303614 6:0.91271252 
-4 1:0.88260358 2:0.083369236 3:0.57279245 4:0.85249389 5:0.91751611 6:0.94621989 
-4 1:0.59637711 2:1 3:0.19031962 4:0.43030863 5:0.5277316 6:0.59069772 
-4 1:0.62949394 2:0.23066177 3:0.3800888 4:0.44927578 5:0.52327759 6:0.57907725 
4 1:0.8789356 2:0.54342577 3:0.32439292 4:0.78747769 5:0.87303614 6:0.91271252 
4 1:0.90420201 2:0.15600331 3:0.19693206 4:0.86294641 5:0.92990351 6:0.95498998 
4 1:0.5898908 2:0.055921852 3:0.31791569 4:0.72365433 5:0.88324129 6:0.93484545 
-2.196740973442813 1:0.38478895 2:0.083369236 3:0.28184137 4:0.37025203 5:0.46733936 6:0.53517338 
-4 1:0.75664435 2:0.54342577 3:0.22334634 4:0.60145902 5:0.70573225 6:0.76318544 
-4 1:0.60283702 2:0.083369236 3:0.33229353 4:0.48675881 5:0.60141743 6:0.67458413 
4 1:0.89291952 2:0.16787772 3:0.69408521 4:0.91495146 5:0.94890261 6:0.96269344 
4 1:0.90057657 2:0.23066177 3:0.65873851 4:0.86090402 5:0.90661213 6:0.93008753 
-4 1:0.90573613 2:0.047285912 3:0.55323777 4:0.95113339 5:0.97249918 6:0.9795177 
-4 1:0.93181136 2:0.49739676 3:0.62713449 4:0.86099016 5:0.91514168 6:0.94169199 
-4 1:0.72871424 2:0.014623935 3:0.78701408 4:0.89679281 5:0.96056131 6:0.977629 
4 1:0.40588686 2:0.42532178 3:0.20589097 4:0.35241209 5:0.40358156 6:0.42577381 
4 1:0.91202697 2:0.42532178 3:0.50912639 4:0.87959883 5:0.93223488 6:0.95450335 
4 1:0.91061528 2:0.22767235 3:0.35742938 4:0.89821492 5:0.94339974 6:0.96076173 
-4 1:0.69816754 2:0.34681232 3:0.11526222 4:0.68549511 5:0.78556255 6:0.83507583 
-4 1:0.59976014 2:0.04579546 3:0.42297435 4:0.72390263 5:0.83364665 6:0.88344569 
4 1:0.66777856 2:0.42532178 3:0.30879992 4:0.60375124 5:0.70097073 6:0.75507206 
-4 1:0.71167822 2:0.014623935 3:0.78422805 4:0.88268036 5:0.94383829 6:0.96596858 
4 1:0.90795371 2:0.58937038 3:0.58823535 4:0.80035053 5:0.86988422 6:0.90533033 
2.845445322542697 1:0.87911146 2:0.34681232 3:0.22411304 4:0.88845644 5:0.94169671 6:0.96221395 
-4 1:0.67850561 2:0.20629643 3:0.19487894 4:0.63045155 5:0.76931142 6:0.83706632 
4 1:0.67022121 2:0.49612229 3:0.27766156 4:0.33407105 5:0.40732401 6:0.46359154 
4 1:0.77998422 2:0.49739676 3:0.43832146 4:0.63397606 5:0.7240692 6:0.78367237 
-4 1:0.73166122 2:0.25207203 3:0.3051639 4:0.67537297 5:0.75767261 6:0.80327187 
4 1:0.79670443 2:0.54342577 3:0.26295318 4:0.6905031 5:0.79291823 6:0.84469464 
4 1:0.91341872 3:0.45198963 4:0.97703695 5:0.9907273 6:0.99510256 
4 1:0.71492133 2:0.42532178 3:0.31296983 4:0.60525302 5:0.69243388 6:0.7432587 
-4 1:0.74999802 2:0.08765484 3:0.52069978 4:0.74484555 5:0.83431246 6:0.87935204 
-4 1:0.69517962 2:0.083369236 3:0.36350305 4:0.54888271 5:0.66506794 6:0.73685112 
-4 1:0.80929502 2:0.08765484 3:0.52947327 4:0.7501341 5:0.82294191 6:0.86264385 
-4 1:0.89778056 2:1 3:0.43235998 4:0.86707094 5:0.92632217 6:0.95151451 
-4 1:0.83887552 2:0.08765484 3:0.58154998 4:0.82429855 5:0.8858516 6:0.91563291 
-4 1:0.73815918 2:0.25207203 3:0.29691153 4:0.66166141 5:0.73408074 6:0.77757209 
-4 1:0.74425089 2:0.014623935 3:0.78900741 4:0.90386551 5:0.96905764 6:0.98466408 
-4 1:0.74285042 2:0.48885268 3:0.35394597 4:0.61189191 5:0.70897304 6:0.77099691 
4 1:0.57348929 2:0.42532178 3:0.24033766 4:0.43855753 5:0.50243186 6:0.53322825 
-4 1:0.84127012 2:0.014623935 3:0.81253935 4:0.95982371 5:0.98309178 6:0.9870796 
4 1:0.89291952 2:0.16787772 3:0.69408521 4:0.91495146 5:0.94890261 6:0.96269344 
-4 1:0.76399364 2:0.04579546 3:0.52334234 4:0.88859427 5:0.94013924 6:0.95946903 
4 1:0.67569895 2:0.49739676 3:0.30599867 4:0.39201262 5:0.45927759 6:0.51239284 
-4 1:0.84127012 2:0.014623935 3:0.81253935 4:0.95982371 5:0.98309178 6:0.9870796 
4 1:0.57308967 2:0.055921852 3:0.29301498 4:0.67070014 5:0.83429953 6:0.89348041 
4 1:0.34770698 2:0.58937038 3:0.24672569 4:0.24188506 5:0.29544562 6:0.33843061 
-4 1:0.43289262 2:0.49739676 3:0.19942282 4:0.18051614 5:0.20657779 6:0.22630829 
-4 1:0.60283702 2:0.083369236 3:0.33229353 4:0.48675881 5:0.60141743 6:0.67458413 
-4 1:0.41563731 2:0.48885268 3:0.2554221 4:0.36916892 5:0.43100226 6:0.50888404 
-4 1:0.72960023 2:0.93973481 3:0.29554025 4:0.64471949 5:0.72634443 6:0.77062686 
-4 1:0.6483368 2:0.04579546 3:0.45989947 4:0.82115248 5:0.92520734 6:0.9594384 
-4 1:0.74673262 2:0.20629643 3:0.21465833 4:0.65034545 5:0.76692184 6:0.82551595 
4 1:0.91728681 2:0.20820673 3:0.45891267 4:0.87823329 5:0.93535353 6:0.95883927 
4 1:0.62437406 2:1 3:0.18559792 4:0.41535212 5:0.50422336 6:0.56173557 
-4 1:0.66144997 2:0.15600331 3:0.068820233 4:0.51732819 5:0.62198733 6:0.67977328 
4 1:0.76526298 2:0.055921852 3:0.38714172 4:0.81340799 5:0.90059649 6:0.93006702 
4 1:0.79670443 2:0.54342577 3:0.26295318 4:0.6905031 5:0.79291823 6:0.84469464 
4 1:0.62437406 2:1 3:0.18559792 4:0.41535212 5:0.50422336 6:0.56173557 
4 1:0.83017845 2:0.16787772 3:0.64309172 4:0.86078024 5:0.90892223 6:0.92908907 
4 1:0.73867648 2:0.49612229 3:0.35967401 4:0.47825205 5:0.57045236 6:0.63752441 
4 1:0.91341872 3:0.45198963 4:0.97703695 5:0.9907273 6:0.99510256 
4 1:0.69386127 3:0.2174879 4:0.84423613 5:0.9662906 6:0.98430594 
4 1:0.5898908 2:0.055921852 3:0.31791569 4:0.72365433 5:0.88324129 6:0.93484545 
-4 1:0.65317124 2:0.25207203 3:0.23994344 4:0.52538719 5:0.5891732 6:0.62164073 
4 1:0.90420201 2:0.15600331 3:0.19693206 4:0.86294641 5:0.92990351 6:0.95498998 
2.751019186921391 1:0.3594872 2:0.49612229 3:0.14024497 4:0.074708413 5:0.10231651 6:0.1259153 
-4 1:0.84765099 2:0.014623935 3:0.81445984 4:0.96615706 5:0.98858241 6:0.99176534 
4 1:0.87931568 2:0.22767235 3:0.31750162 4:0.85145925 5:0.9121085 6:0.93772147 
-4 1:0.72816168 2:0.047285912 3:0.47217411 4:0.83138845 5:0.8704229 6:0.88419439 
-4 1:0.79740378 2:0.047285912 3:0.49225957 4:0.86357299 5:0.89948127 6:0.91221155 
-4 1:0.73166122 2:0.25207203 3:0.3051639 4:0.67537297 5:0.75767261 6:0.80327187 
4 1:0.2214182 2:0.49612229 3:0.10534315 4:-1.110223e-16 6:2.220446e-16 
4 1:0.88220599 2:0.20820673 3:0.40997978 4:0.82462749 5:0.89794736 6:0.93142825 
-4 1:0.43289262 2:0.49739676 3:0.19942282 4:0.18051614 5:0.20657779 6:0.22630829 
4 1:0.4730794 3:0.11866359 4:0.58816959 5:0.86435738 6:0.96191842 
-4 1:0.77121222 2:0.25207203 3:0.33053889 4:0.73085549 5:0.80341439 6:0.84546456 
-4 1:0.77257175 2:0.08765484 3:0.5597726 4:0.80653689 5:0.88996341 6:0.92691132 
-1.072879604388782 1:0.59637711 2:1 3:0.19031962 4:0.43030863 5:0.5277316 6:0.59069772 
4 1:0.73346397 2:0.49739676 3:0.37130724 4:0.51472366 5:0.59961357 6:0.66258291 
-4 1:0.54042467 2:0.15600331 3:0.046271684 4:0.4328793 5:0.5309142 6:0.59282089 
4 1:0.87062235 2:0.49739676 3:0.53966638 4:0.77392585 5:0.84784447 6:0.89031641 
4 1:0.68660174 3:0.20657211 4:0.81196884 5:0.94140702 6:0.96680805 
4 1:0.69386127 3:0.2174879 4:0.84423613 5:0.9662906 6:0.98430594 
-4 1:0.26623337 2:1 3:0.084027451 4:0.15537936 5:0.17410072 6:0.17212333 
-4 1:0.54042467 2:0.15600331 3:0.046271684 4:0.4328793 5:0.5309142 6:0.59282089 
-4 1:0.74565796 2:0.15600331 3:0.089218917 4:0.58797907 5:0.69284768 6:0.74971699 
4 1:0.79373193 2:0.58937038 3:0.47493233 4:0.66775916 5:0.76196439 6:0.81489875 
4 1:0.57348929 2:0.42532178 3:0.24033766 4:0.43855753 5:0.50243186 6:0.53322825 
4 1:0.9418574 2:0.08765484 3:0.72226864 4:0.93291747 5:0.960644 6:0.97304054 
4 1:0.80205907 2:0.22767235 3:0.26078021 4:0.76359704 5:0.8470807 6:0.8858359 
4 1:0.87062235 2:0.49739676 3:0.53966638 4:0.77392585 5:0.84784447 6:0.89031641 
4 1:0.25896526 2:0.04579546 3:0.31879 4:0.45852885 5:0.59717781 6:0.71487885 
-4 1:0.75331875 2:0.047285912 3:0.46606653 4:0.81323145 5:0.84847474 6:0.85892657 
-4 1:0.67850561 2:0.20629643 3:0.19487894 4:0.63045155 5:0.76931142 6:0.83706632 
4 1:0.67482533 2:0.49612229 3:0.35268026 4:0.4805681 5:0.59603341 6:0.67408692 
-4 1:0.5797031 2:0.25207203 3:0.21631076 4:0.45848604 5:0.51102137 6:0.53823055 
-4 1:0.74644956 2:0.34681232 3:0.12095689 4:0.68834617 5:0.77453583 6:0.81892861 
-4 1:0.72871424 2:0.014623935 3:0.78701408 4:0.89679281 5:0.96056131 6:0.977629 
-4 1:0.82949905 2:0.047285912 3:0.51559706 4:0.90512389 5:0.93743101 6:0.9492968 
-4 1:0.66561759 2:0.083369236 3:0.37833052 4:0.59301482 5:0.71772587 6:0.7905538 
-4 1:0.74999802 2:0.08765484 3:0.52069978 4:0.74484555 5:0.83431246 6:0.87935204 
4 1:0.87931568 2:0.22767235 3:0.31750162 4:0.85145925 5:0.9121085 6:0.93772147 
-4 1:0.65289017 2:0.48885268 3:0.31268451 4:0.5167094 5:0.61224976 6:0.68477529 
4 1:0.98791521 2:0.04579546 3:0.90293444 4:0.99181622 5:0.99642641 6:0.9978864 
4 1:0.67569895 2:0.49739676 3:0.30599867 4:0.39201262 5:0.45927759 6:0.51239284 
-4 1:0.40634904 2:0.04579546 3:0.35412414 4:0.55926446 5:0.70175505 6:0.79649177 
-4 1:0.74425089 2:0.014623935 3:0.78900741 4:0.90386551 5:0.96905764 6:0.98466408 
-4 1:0.90573613 2:0.047285912 3:0.55323777 4:0.95113339 5:0.97249918 6:0.9795177 
-4 1:0.62474007 2:0.93973481 3:0.26141889 4:0.56602175 5:0.64775366 6:0.69263211 
4 1:0.78020364 2:0.23066177 3:0.50145055 4:0.66525882 5:0.74327951 6:0.79017822 
4 1:0.87998127 2:0.15600331 3:0.1625414 4:0.81948421 5:0.90185357 6:0.9347395 
4 1:0.61928338 2:0.22767235 3:0.15963705 4:0.51010642 5:0.59283393 6:0.63883591 
4 1:1 3:0.83319067 4:0.98956086 5:0.99577089 6:0.99784595 
-4 1:0.75331875 2:0.047285912 3:0.46606653 4:0.81323145 5:0.84847474 6:0.85892657 
-4 1:0.52033349 2:0.48885268 3:0.27824915 4:0.42915458 5:0.50850476 6:0.58585271 
-4 1:0.76399364 2:0.04579546 3:0.52334234 4:0.88859427 5:0.94013924 6:0.95946903 
4 1:0.25896526 2:0.04579546 3:0.31879 4:0.45852885 5:0.59717781 6:0.71487885 
-4 1:0.74999802 2:0.08765484 3:0.52069978 4:0.74484555 5:0.83431246 6:0.87935204 
4 1:0.68660174 3:0.20657211 4:0.81196884 5:0.94140702 6:0.96680805 
-4 1:0.78399277 2:0.34681232 3:0.1457048 4:0.75791308 5:0.84155109 6:0.88132116 
4 1:0.71284767 2:0.22767235 3:0.2263303 4:0.68859985 5:0.78706365 6:0.83662428 
4 1:0.56142653 2:0.49739676 3:0.24752355 4:0.28326524 5:0.33261781 6:0.37104424 
-4 1:0.82949905 2:0.047285912 3:0.51559706 4:0.90512389 5:0.93743101 6:0.9492968 
-4 1:0.69605554 2:0.34681232 3:0.093755557 4:0.60913934 5:0.69117362 6:0.73495824 
4 1:0.29443857 2:0.055921852 3:0.19401703 4:0.41679982 5:0.61495039 6:0.74140301 
4 1:0.4730794 3:0.11866359 4:0.58816959 5:0.86435738 6:0.96191842 
-4 1:0.65966561 2:0.20820673 3:0.27420721 4:0.57889989 5:0.68485118 6:0.74837036 
-4 1:0.32002648 2:0.54342577 3:0.072456434 4:0.24261286 5:0.29785605 6:0.33368644 
4 1:0.80205907 2:0.22767235 3:0.26078021 4:0.76359704 5:0.8470807 6:0.8858359 
4 1:0.10775597 2:0.055921852 3:0.1590151 4:0.30536689 5:0.48614515 6:0.64344462 
4 1:0.2214182 2:0.49612229 3:0.10534315 4:-1.110223e-16 6:2.220446e-16 
4 1:0.68660174 3:0.20657211 4:0.81196884 5:0.94140702 6:0.96680805 
-4 1:0.65289017 2:0.48885268 3:0.31268451 4:0.5167094 5:0.61224976 6:0.68477529 
-4 1:0.85632141 2:0.93973481 3:0.36718425 4:0.81512123 5:0.88887359 6:0.92320992 
4 1:0.3594872 2:0.49612229 3:0.14024497 4:0.074708413 5:0.10231651 6:0.1259153 
4 1:0.6092064 2:0.58937038 3:0.34931828 4:0.4519606 5:0.54893247 6:0.61355219 
-4 1:0.57776221 2:0.08765484 3:0.42071301 4:0.56376512 5:0.66454599 6:0.741236 
4 1:0.29443857 2:0.055921852 3:0.19401703 4:0.41679982 5:0.61495039 6:0.74140301 
-4 1:0.38478895 2:0.083369236 3:0.28184137 4:0.37025203 5:0.46733936 6:0.53517338 
-4 1:0.26623337 2:1 3:0.084027451 4:0.15537936 5:0.17410072 6:0.17212333 
4 1:0.30512267 2:0.42532178 3:0.18976794 4:0.30662908 5:0.34637104 6:0.3661022 
4 1:0.96968854 2:0.08765484 3:0.77391346 4:0.95596295 5:0.97544784 6:0.98405871 
-4 1:0.43871049 2:0.15600331 3:0.030541611 4:0.37279112 5:0.4588284 6:0.52004828 
-4 1:0.59976014 2:0.04579546 3:0.42297435 4:0.72390263 5:0.83364665 6:0.88344569 
4 1:0.98791521 2:0.04579546 3:0.90293444 4:0.99181622 5:0.99642641 6:0.9978864 
4 1:0.71284767 2:0.22767235 3:0.2263303 4:0.68859985 5:0.78706365 6:0.83662428 
4 1:0.3594872 2:0.49612229 3:0.14024497 4:0.074708413 5:0.10231651 6:0.1259153 
4 1:0.98791521 2:0.04579546 3:0.90293444 4:0.99181622 5:0.99642641 6:0.9978864 
4 1:0.49591192 2:0.22767235 3:0.13362033 4:0.43434224 5:0.49900609 6:0.53177669 
-4 1:0.60283702 2:0.083369236 3:0.33229353 4:0.48675881 5:0.60141743 6:0.67458413 
-4 1:0.66382463 2:0.93973481 3:0.28594627 4:0.63969879 5:0.73360583 6:0.78380069 
-4 1:0.4874691 2:0.23066177 3:0.32329421 4:0.33686197 5:0.39456977 6:0.44944683 
4 1:0.10775597 2:0.055921852 3:0.1590151 4:0.30536689 5:0.48614515 6:0.64344462 
-4 1:0.78583004 2:0.48885268 3:0.4012577 4:0.70792536 5:0.80063653 6:0.85083872 
4 1:0.66777856 2:0.42532178 3:0.30879992 4:0.60375124 5:0.70097073 6:0.75507206 
-4 1:0.51012298 2:0.25207203 3:0.2005129 4:0.41516485 5:0.45282017 6:0.47396143 
-4 1:0.48387441 2:0.20820673 3:0.20172681 4:0.39715881 5:0.47368229 6:0.52781628 
4 1:0.87998127 2:0.15600331 3:0.1625414 4:0.81948421 5:0.90185357 6:0.9347395 
3.566776002325675 1:0.5343717 2:0.49612229 3:0.20276685 4:0.2004308 5:0.25758651 6:0.30054029 
-4 1:0.45809369 2:0.08765484 3:0.36628046 4:0.45852823 5:0.56005228 6:0.65708595 
-4 1:0.69691564 2:0.48885268 3:0.35289928 4:0.61359907 5:0.7217863 6:0.78790011 
3.139278243844358 1:0.3594872 2:0.49612229 3:0.14024497 4:0.074708413 5:0.10231651 6:0.1259153 
4 1:0.89725962 2:0.48885268 3:0.5143645 4:0.8587242 5:0.91841685 6:0.94498293 
1.697481244365876 1:0.54792627 2:0.055921852 3:0.26207179 4:0.59416461 5:0.75957205 6:0.82870539 
4 1:0.98791521 2:0.04579546 3:0.90293444 4:0.99181622 5:0.99642641 6:0.9978864 
-4 1:0.78583004 2:0.48885268 3:0.4012577 4:0.70792536 5:0.80063653 6:0.85083872 
