svm_type nu_svr
kernel_type rbf
gamma 0.04
nr_class 2
total_sv 211
rho -1.00499
SV
-4 1:0.51012298 2:0.25207203 3:0.2005129 4:0.41516485 5:0.45282017 6:0.47396143 
4 1:0.78020364 2:0.23066177 3:0.50145055 4:0.66525882 5:0.74327951 6:0.79017822 
-4 1:0.47722492 2:0.014623935 3:0.75468972 4:0.76017077 5:0.83753774 6:0.92265059 
4 1:0.90420201 2:0.15600331 3:0.19693206 4:0.86294641 5:0.92990351 6:0.95498998 
4 1:0.40588686 2:0.42532178 3:0.20589097 4:0.35241209 5:0.40358156 6:0.42577381 
-4 1:0.88260358 2:0.083369236 3:0.57279245 4:0.85249389 5:0.91751611 6:0.94621989 
-4 1:0.51603659 2:1 3:0.14452095 4:0.31406915 5:0.38353445 6:0.42653517 
4 1:0.78333908 2:0.20629643 3:0.24707248 4:0.72284103 5:0.83178838 6:0.88053503 
4 1:0.79391726 2:0.49612229 3:0.444392 4:0.61630491 5:0.71210086 6:0.77386496 
4 1:0.29443857 2:0.055921852 3:0.19401703 4:0.41679982 5:0.61495039 6:0.74140301 
-4 1:0.68443073 2:0.047285912 3:0.44652268 4:0.77691812 5:0.81043483 6:0.8177009 
-4 1:0.72319868 2:0.16787772 3:0.57600091 4:0.75310216 5:0.81471966 6:0.84249923 
4 1:0.61928338 2:0.22767235 3:0.15963705 4:0.51010642 5:0.59283393 6:0.63883591 
-4 1:0.74999802 2:0.08765484 3:0.52069978 4:0.74484555 5:0.83431246 6:0.87935204 
-4 1:0.40634904 2:0.04579546 3:0.35412414 4:0.55926446 5:0.70175505 6:0.79649177 
4 1:0.40588686 2:0.42532178 3:0.20589097 4:0.35241209 5:0.40358156 6:0.42577381 
-4 1:0.91951481 2:0.16787772 3:0.7239389 4:0.94244479 5:0.9681932 6:0.97806033 
-4 1:0.70300609 2:0.15600331 3:0.091457045 4:0.60849701 5:0.72282659 6:0.78137183 
-4 1:0.60283702 2:0.083369236 3:0.33229353 4:0.48675881 5:0.60141743 6:0.67458413 
4 1:0.6092064 2:0.58937038 3:0.34931828 4:0.4519606 5:0.54893247 6:0.61355219 
4 1:0.87998127 2:0.15600331 3:0.1625414 4:0.81948421 5:0.90185357 6:0.9347395 
4 1:0.67569895 2:0.49739676 3:0.30599867 4:0.39201262 5:0.45927759 6:0.51239284 
4 1:0.57348929 2:0.42532178 3:0.24033766 4:0.43855753 5:0.50243186 6:0.53322825 
4 1:0.71492133 2:0.42532178 3:0.31296983 4:0.60525302 5:0.69243388 6:0.7432587 
-4 1:0.54042467 2:0.15600331 3:0.046271684 4:0.4328793 5:0.5309142 6:0.59282089 
4 1:0.61928338 2:0.22767235 3:0.15963705 4:0.51010642 5:0.59283393 6:0.63883591 
-4 1:0.4874691 2:0.23066177 3:0.32329421 4:0.33686197 5:0.39456977 6:0.44944683 
-4 1:0.43871049 2:0.15600331 3:0.030541611 4:0.37279112 5:0.4588284 6:0.52004828 
-4 1:0.74999802 2:0.08765484 3:0.52069978 4:0.74484555 5:0.83431246 6:0.87935204 
-4 1:0.71167822 2:0.014623935 3:0.78422805 4:0.88268036 5:0.94383829 6:0.96596858 
4 1:0.37333711 2:0.23066177 3:0.29022709 4:0.26882214 5:0.30809596 6:0.35304275 
-1.020629759799599 1:0.71258735 2:0.22767235 3:0.1864032 4:0.58471122 5:0.67581508 6:0.72558613 
-4 1:0.67240963 2:0.16787772 3:0.54473368 4:0.69254626 5:0.74796983 6:0.77177867 
-4 1:0.66382463 2:0.93973481 3:0.28594627 4:0.63969879 5:0.73360583 6:0.78380069 
4 1:0.89291952 2:0.16787772 3:0.69408521 4:0.91495146 5:0.94890261 6:0.96269344 
4 1:0.70099226 2:0.20820673 3:0.31094767 4:0.6676259 5:0.77726116 6:0.83518027 
-4 1:0.91951481 2:0.16787772 3:0.7239389 4:0.94244479 5:0.9681932 6:0.97806033 
-4 1:0.69517962 2:0.083369236 3:0.36350305 4:0.54888271 5:0.66506794 6:0.73685112 
4 1:0.70099226 2:0.20820673 3:0.31094767 4:0.6676259 5:0.77726116 6:0.83518027 
4 1:0.73710984 2:0.23066177 3:0.49544357 4:0.66648649 5:0.76052819 6:0.81482311 
4 1:0.85559183 2:0.20629643 3:0.30562098 4:0.80541317 5:0.89285836 6:0.92907353 
4 1:0.71284767 2:0.22767235 3:0.2263303 4:0.68859985 5:0.78706365 6:0.83662428 
-4 1:0.91785848 2:0.083369236 3:0.63999999 4:0.90398906 5:0.94897505 6:0.96762621 
4 1:0.78101613 2:0.055921852 3:0.42192974 4:0.86711004 5:0.94030868 6:0.96084539 
4 1:0.71284767 2:0.22767235 3:0.2263303 4:0.68859985 5:0.78706365 6:0.83662428 
4 1:0.90795371 2:0.58937038 3:0.58823535 4:0.80035053 5:0.86988422 6:0.90533033 
4 1:0.91341872 3:0.45198963 4:0.97703695 5:0.9907273 6:0.99510256 
4 1:0.90057657 2:0.23066177 3:0.65873851 4:0.86090402 5:0.90661213 6:0.93008753 
4 1:0.77998422 2:0.49739676 3:0.43832146 4:0.63397606 5:0.7240692 6:0.78367237 
-4 1:0.60283702 2:0.083369236 3:0.33229353 4:0.48675881 5:0.60141743 6:0.67458413 
-4 1:0.68687464 2:0.93973481 3:0.2669659 4:0.56720118 5:0.63868728 6:0.67673331 
4 1:0.5898908 2:0.055921852 3:0.31791569 4:0.72365433 5:0.88324129 6:0.93484545 
4 1:0.68660174 3:0.20657211 4:0.81196884 5:0.94140702 6:0.96680805 
4 1:1 3:0.83319067 4:0.98956086 5:0.99577089 6:0.99784595 
-4 1:0.85632141 2:0.93973481 3:0.36718425 4:0.81512123 5:0.88887359 6:0.92320992 
-4 1:0.41563731 2:0.48885268 3:0.2554221 4:0.36916892 5:0.43100226 6:0.50888404 
4 1:0.87062235 2:0.49739676 3:0.53966638 4:0.77392585 5:0.84784447 6:0.89031641 
4 1:0.66777856 2:0.42532178 3:0.30879992 4:0.60375124 5:0.70097073 6:0.75507206 
-4 1:0.74999802 2:0.08765484 3:0.52069978 4:0.74484555 5:0.83431246 6:0.87935204 
4 1:0.56142653 2:0.49739676 3:0.24752355 4:0.28326524 5:0.33261781 6:0.37104424 
4 1:0.46600264 3:0.11185039 4:0.56180003 5:0.83415721 6:0.93617329 
-4 1:0.69816754 2:0.34681232 3:0.11526222 4:0.68549511 5:0.78556255 6:0.83507583 
-4 1:0.80929502 2:0.08765484 3:0.52947327 4:0.7501341 5:0.82294191 6:0.86264385 
4 1:0.89291952 2:0.16787772 3:0.69408521 4:0.91495146 5:0.94890261 6:0.96269344 
4 1:0.87911146 2:0.34681232 3:0.22411304 4:0.88845644 5:0.94169671 6:0.96221395 
-4 1:0.75664435 2:0.54342577 3:0.22334634 4:0.60145902 5:0.70573225 6:0.76318544 
-4 1:0.59976014 2:0.04579546 3:0.42297435 4:0.72390263 5:0.83364665 6:0.88344569 
-4 1:0.51603659 2:1 3:0.14452095 4:0.31406915 5:0.38353445 6:0.42653517 
-2.511297023714154 1:0.65970734 2:1 3:0.23706331 4:0.5477205 5:0.66054901 6:0.7269284 
4 1:0.69386127 3:0.2174879 4:0.84423613 5:0.9662906 6:0.98430594 
4 1:0.34770698 2:0.58937038 3:0.24672569 4:0.24188506 5:0.29544562 6:0.33843061 
-4 1:0.62949718 2:0.04579546 3:0.44400319 4:0.77920819 5:0.88713866 6:0.92903178 
2.496021656464428 1:0.37333711 2:0.23066177 3:0.29022709 4:0.26882214 5:0.30809596 6:0.35304275 
4 1:0.90420201 2:0.15600331 3:0.19693206 4:0.86294641 5:0.92990351 6:0.95498998 
-4 1:0.52033349 2:0.48885268 3:0.27824915 4:0.42915458 5:0.50850476 6:0.58585271 
-4 1:0.65966561 2:0.20820673 3:0.27420721 4:0.57889989 5:0.68485118 6:0.74837036 
-4 1:0.57776221 2:0.08765484 3:0.42071301 4:0.56376512 5:0.66454599 6:0.741236 
4 1:0.92683589 2:0.48885268 3:0.55208861 4:0.89938377 5:0.94642982 6:0.96615102 
4 1:0.62552631 2:0.49739676 3:0.30895604 4:0.40532955 5:0.48355121 6:0.54476585 
4 1:0.70099226 2:0.20820673 3:0.31094767 4:0.6676259 5:0.77726116 6:0.83518027 
-4 1:0.74565796 2:0.15600331 3:0.089218917 4:0.58797907 5:0.69284768 6:0.74971699 
4 1:0.5343717 2:0.49612229 3:0.20276685 4:0.2004308 5:0.25758651 6:0.30054029 
4 1:0.85877443 2:0.42532178 3:0.43562507 4:0.80721931 5:0.87934044 6:0.91434143 
4 1:0.54792627 2:0.055921852 3:0.26207179 4:0.59416461 5:0.75957205 6:0.82870539 
-4 1:0.78167533 2:0.15600331 3:0.11289462 4:0.67598462 5:0.78117168 6:0.83259364 
-4 1:0.80929502 2:0.08765484 3:0.52947327 4:0.7501341 5:0.82294191 6:0.86264385 
-4 1:0.38478895 2:0.083369236 3:0.28184137 4:0.37025203 5:0.46733936 6:0.53517338 
-4 1:0.82949905 2:0.047285912 3:0.51559706 4:0.90512389 5:0.93743101 6:0.9492968 
-4 1:0.76258425 2:0.16787772 3:0.60695536 4:0.80906778 5:0.87125816 6:0.89810007 
-4 1:0.70997536 2:0.083369236 3:0.42718441 4:0.69347659 5:0.81124449 6:0.87136343 
4 1:0.67569895 2:0.49739676 3:0.30599867 4:0.39201262 5:0.45927759 6:0.51239284 
4 1:0.75700132 2:1 3:0.28883701 4:0.65284485 5:0.75623242 6:0.81297442 
-4 1:0.77257175 2:0.08765484 3:0.5597726 4:0.80653689 5:0.88996341 6:0.92691132 
4 1:0.83017845 2:0.16787772 3:0.64309172 4:0.86078024 5:0.90892223 6:0.92908907 
-4 1:0.62949718 2:0.04579546 3:0.44400319 4:0.77920819 5:0.88713866 6:0.92903178 
3.503978343535571 1:0.32027025 2:0.49739676 3:0.17094319 4:0.12195679 5:0.13277563 6:0.14165413 
-4 1:0.73985421 2:0.04579546 3:0.499439 4:0.84012074 5:0.90229375 6:0.92936693 
4 1:0.62437406 2:1 3:0.18559792 4:0.41535212 5:0.50422336 6:0.56173557 
-4 1:0.4874691 2:0.23066177 3:0.32329421 4:0.33686197 5:0.39456977 6:0.44944683 
4 1:0.62552631 2:0.49739676 3:0.30895604 4:0.40532955 5:0.48355121 6:0.54476585 
4 1:0.39257764 2:0.22767235 3:0.12019254 4:0.3951559 5:0.44657802 6:0.46771549 
-4 1:0.69816754 2:0.34681232 3:0.11526222 4:0.68549511 5:0.78556255 6:0.83507583 
-4 1:0.69891028 2:0.20820673 3:0.26679137 4:0.55816547 5:0.65579282 6:0.71593631 
4 1:0.72746732 2:0.23066177 3:0.43952897 4:0.55736023 5:0.63319876 6:0.68402869 
4 1:0.87998127 2:0.15600331 3:0.1625414 4:0.81948421 5:0.90185357 6:0.9347395 
4 1:0.77998422 2:0.49739676 3:0.43832146 4:0.63397606 5:0.7240692 6:0.78367237 
4 1:0.7890525 2:0.20820673 3:0.3510016 4:0.74206651 5:0.83508543 6:0.88101902 
-4 1:0.4874691 2:0.23066177 3:0.32329421 4:0.33686197 5:0.39456977 6:0.44944683 
-4 1:0.69518774 2:0.20629643 3:0.1796405 4:0.56432133 5:0.68049028 6:0.74616621 
-4 1:0.68443073 2:0.047285912 3:0.44652268 4:0.77691812 5:0.81043483 6:0.8177009 
-4 1:0.65624547 2:0.34681232 3:0.092281981 4:0.61278125 5:0.70626575 6:0.75613977 
-4 1:0.59976014 2:0.04579546 3:0.42297435 4:0.72390263 5:0.83364665 6:0.88344569 
4 1:0.67482533 2:0.49612229 3:0.35268026 4:0.4805681 5:0.59603341 6:0.67408692 
-4 1:0.42428709 2:0.93973481 3:0.20295859 4:0.39290035 5:0.43632323 6:0.45871216 
4 1:1 3:0.83319067 4:0.98956086 5:0.99577089 6:0.99784595 
4 1:0.69386127 3:0.2174879 4:0.84423613 5:0.9662906 6:0.98430594 
-4 1:0.71777065 2:0.08765484 3:0.47011786 4:0.66069877 5:0.75226598 6:0.80539407 
-4 1:0.66382463 2:0.93973481 3:0.28594627 4:0.63969879 5:0.73360583 6:0.78380069 
-4 1:0.91951481 2:0.16787772 3:0.7239389 4:0.94244479 5:0.9681932 6:0.97806033 
-4 1:0.66144997 2:0.15600331 3:0.068820233 4:0.51732819 5:0.62198733 6:0.67977328 
4 4:0.10344019 5:0.34323945 6:0.63855969 
4 4:0.10344019 5:0.34323945 6:0.63855969 
-4 1:0.74565796 2:0.15600331 3:0.089218917 4:0.58797907 5:0.69284768 6:0.74971699 
4 1:0.78020364 2:0.23066177 3:0.50145055 4:0.66525882 5:0.74327951 6:0.79017822 
-4 1:0.66382463 2:0.93973481 3:0.28594627 4:0.63969879 5:0.73360583 6:0.78380069 
-4 1:0.91785848 2:0.083369236 3:0.63999999 4:0.90398906 5:0.94897505 6:0.96762621 
4 1:0.7890525 2:0.20820673 3:0.3510016 4:0.74206651 5:0.83508543 6:0.88101902 
4 1:0.78333908 2:0.20629643 3:0.24707248 4:0.72284103 5:0.83178838 6:0.88053503 
4 1:0.87911146 2:0.34681232 3:0.22411304 4:0.88845644 5:0.94169671 6:0.96221395 
4 1:0.61928338 2:0.22767235 3:0.15963705 4:0.51010642 5:0.59283393 6:0.63883591 
-4 1:0.66561759 2:0.083369236 3:0.37833052 4:0.59301482 5:0.71772587 6:0.7905538 
4 1:0.78333908 2:0.20629643 3:0.24707248 4:0.72284103 5:0.83178838 6:0.88053503 
-4 1:0.76258425 2:0.16787772 3:0.60695536 4:0.80906778 5:0.87125816 6:0.89810007 
-4 1:0.65317124 2:0.25207203 3:0.23994344 4:0.52538719 5:0.5891732 6:0.62164073 
-4 1:0.54042467 2:0.15600331 3:0.046271684 4:0.4328793 5:0.5309142 6:0.59282089 
-1.220082880286698 1:0.70997536 2:0.083369236 3:0.42718441 4:0.69347659 5:0.81124449 6:0.87136343 
-4 1:0.54042467 2:0.15600331 3:0.046271684 4:0.4328793 5:0.5309142 6:0.59282089 
4 1:0.80993214 2:0.15600331 3:0.13401869 4:0.75274384 5:0.8506531 6:0.89321405 
4 1:0.49591192 2:0.22767235 3:0.13362033 4:0.43434224 5:0.49900609 6:0.53177669 
4 1:0.54792627 2:0.055921852 3:0.26207179 4:0.59416461 5:0.75957205 6:0.82870539 
4 1:0.67569895 2:0.49739676 3:0.30599867 4:0.39201262 5:0.45927759 6:0.51239284 
-4 1:0.60311017 2:0.34681232 3:0.067548447 4:0.53383404 5:0.61287548 6:0.65468717 
-4 1:0.79342163 2:0.16787772 3:0.60849279 4:0.80724494 5:0.86183239 6:0.88618408 
4 1:0.99718538 2:0.014623935 3:1 4:1 5:1 6:1 
4 1:0.39053999 2:0.20820673 3:0.17753958 4:0.33495583 5:0.39777832 6:0.44399359 
4 1:0.71492133 2:0.42532178 3:0.31296983 4:0.60525302 5:0.69243388 6:0.7432587 
4 1:0.45337497 3:0.10308547 4:0.52247575 5:0.78583924 6:0.89392193 
-4 1:0.76580991 2:0.93973481 3:0.32205372 4:0.7176044 5:0.80237787 6:0.84588741 
4 1:0.10775597 2:0.055921852 3:0.1590151 4:0.30536689 5:0.48614515 6:0.64344462 
4 1:0.78020364 2:0.23066177 3:0.50145055 4:0.66525882 5:0.74327951 6:0.79017822 
-4 1:0.73985421 2:0.04579546 3:0.499439 4:0.84012074 5:0.90229375 6:0.92936693 
-4 1:0.78167533 2:0.15600331 3:0.11289462 4:0.67598462 5:0.78117168 6:0.83259364 
4 1:0.85877443 2:0.42532178 3:0.43562507 4:0.80721931 5:0.87934044 6:0.91434143 
4 1:0.9418574 2:0.08765484 3:0.72226864 4:0.93291747 5:0.960644 6:0.97304054 
4 1:0.98644504 2:0.055921852 3:0.7405327 4:0.96928567 5:0.9853799 6:0.99080378 
-4 1:0.37392021 2:1 3:0.10644455 4:0.21484368 5:0.25587544 6:0.27527817 
4 1:0.28569186 2:0.20629643 3:0.076468978 4:0.29833807 5:0.37989948 6:0.4576277 
4 1:0.91341872 3:0.45198963 4:0.97703695 5:0.9907273 6:0.99510256 
-4 1:0.54042467 2:0.15600331 3:0.046271684 4:0.4328793 5:0.5309142 6:0.59282089 
-4 1:0.43871049 2:0.15600331 3:0.030541611 4:0.37279112 5:0.4588284 6:0.52004828 
-4 1:0.68443073 2:0.047285912 3:0.44652268 4:0.77691812 5:0.81043483 6:0.8177009 
4 1:0.78333908 2:0.20629643 3:0.24707248 4:0.72284103 5:0.83178838 6:0.88053503 
4 1:0.78333908 2:0.20629643 3:0.24707248 4:0.72284103 5:0.83178838 6:0.88053503 
4 1:0.91202697 2:0.42532178 3:0.50912639 4:0.87959883 5:0.93223488 6:0.95450335 
4 1:0.56142653 2:0.49739676 3:0.24752355 4:0.28326524 5:0.33261781 6:0.37104424 
-0.9631453841729738 1:0.91951481 2:0.16787772 3:0.7239389 4:0.94244479 5:0.9681932 6:0.97806033 
4 1:0.73710984 2:0.23066177 3:0.49544357 4:0.66648649 5:0.76052819 6:0.81482311 
-4 1:0.56800546 2:0.16787772 3:0.5149767 4:0.63026581 5:0.67890679 6:0.69964851 
-4 1:0.70532989 2:0.54342577 3:0.18169339 4:0.50290989 5:0.59875259 6:0.65332628 
4 1:0.89192404 2:0.49612229 3:0.59146724 4:0.78105663 5:0.84916292 6:0.8882561 
4 1:0.34770698 2:0.58937038 3:0.24672569 4:0.24188506 5:0.29544562 6:0.33843061 
-4 1:0.69622281 2:0.25207203 3:0.27393051 4:0.60399854 5:0.68000038 6:0.72275152 
-4 1:0.65317124 2:0.25207203 3:0.23994344 4:0.52538719 5:0.5891732 6:0.62164073 
-4 1:0.91941823 2:0.93973481 3:0.41336953 4:0.88038833 5:0.93688884 6:0.95992879 
4 1:0.57348929 2:0.42532178 3:0.24033766 4:0.43855753 5:0.50243186 6:0.53322825 
-4 1:0.5724789 2:0.014623935 3:0.77708563 4:0.84258654 5:0.91016348 6:0.95440359 
-4 1:0.70300609 2:0.15600331 3:0.091457045 4:0.60849701 5:0.72282659 6:0.78137183 
4 1:0.66777856 2:0.42532178 3:0.30879992 4:0.60375124 5:0.70097073 6:0.75507206 
-4 1:0.69518774 2:0.20629643 3:0.1796405 4:0.56432133 5:0.68049028 6:0.74616621 
-4 1:0.57776221 2:0.08765484 3:0.42071301 4:0.56376512 5:0.66454599 6:0.741236 
4 1:1 3:0.83319067 4:0.98956086 5:0.99577089 6:0.99784595 
4 1:0.87062235 2:0.49739676 3:0.53966638 4:0.77392585 5:0.84784447 6:0.89031641 
4 1:0.77998422 2:0.49739676 3:0.43832146 4:0.63397606 5:0.7240692 6:0.78367237 
4 1:0.77998422 2:0.49739676 3:0.43832146 4:0.63397606 5:0.7240692 6:0.78367237 
-4 1:0.6483368 2:0.04579546 3:0.45989947 4:0.82115248 5:0.92520734 6:0.9594384 
-4 1:0.74999802 2:0.08765484 3:0.52069978 4:0.74484555 5:0.83431246 6:0.87935204 
4 1:0.74208953 2:0.055921852 3:0.34721658 4:0.73960747 5:0.84370247 6:0.88485372 
-4 1:0.70300609 2:0.15600331 3:0.091457045 4:0.60849701 5:0.72282659 6:0.78137183 
-4 1:0.69691564 2:0.48885268 3:0.35289928 4:0.61359907 5:0.7217863 6:0.78790011 
4 1:0.28569186 2:0.20629643 3:0.076468978 4:0.29833807 5:0.37989948 6:0.4576277 
4 1:0.99718538 2:0.014623935 3:1 4:1 5:1 6:1 
-4 1:0.26623337 2:1 3:0.084027451 4:0.15537936 5:0.17410072 6:0.17212333 
4 1:0.91737037 2:0.49612229 3:0.66823667 4:0.86050887 5:0.90873162 6:0.93335071 
-4 1:0.6483368 2:0.04579546 3:0.45989947 4:0.82115248 5:0.92520734 6:0.9594384 
-4 1:0.68443073 2:0.047285912 3:0.44652268 4:0.77691812 5:0.81043483 6:0.8177009 
-4 1:0.51603659 2:1 3:0.14452095 4:0.31406915 5:0.38353445 6:0.42653517 
4 1:0.76399364 2:0.04579546 3:0.52334234 4:0.88859427 5:0.94013924 6:0.95946903 
-4 1:0.77257175 2:0.08765484 3:0.5597726 4:0.80653689 5:0.88996341 6:0.92691132 
-4 1:0.74565796 2:0.15600331 3:0.089218917 4:0.58797907 5:0.69284768 6:0.74971699 
-4 1:0.83089047 2:0.014623935 3:0.80905852 4:0.94637428 5:0.97242826 6:0.97946694 
-0.284844952026575 1:0.38478895 2:0.083369236 3:0.28184137 4:0.37025203 5:0.46733936 6:0.53517338 
4 1:0.25896526 2:0.04579546 3:0.31879 4:0.45852885 5:0.59717781 6:0.71487885 
-4 1:0.45809369 2:0.08765484 3:0.36628046 4:0.45852823 5:0.56005228 6:0.65708595 
-4 1:0.74285042 2:0.48885268 3:0.35394597 4:0.61189191 5:0.70897304 6:0.77099691 
-4 1:0.83887552 2:0.08765484 3:0.58154998 4:0.82429855 5:0.8858516 6:0.91563291 
4 1:0.69386127 3:0.2174879 4:0.84423613 5:0.9662906 6:0.98430594 
-4 1:0.88260358 2:0.083369236 3:0.57279245 4:0.85249389 5:0.91751611 6:0.94621989 
4 1:0.96968854 2:0.08765484 3:0.77391346 4:0.95596295 5:0.97544784 6:0.98405871 
-4 1:0.66561759 2:0.083369236 3:0.37833052 4:0.59301482 5:0.71772587 6:0.7905538 
-4 1:0.54042467 2:0.15600331 3:0.046271684 4:0.4328793 5:0.5309142 6:0.59282089 
-4 1:0.93556416 2:0.58937038 3:0.65797705 4:0.87169952 5:0.92200942 6:0.94454256 
