svm_type nu_svr
kernel_type rbf
gamma 0.04
nr_class 2
total_sv 214
rho -2.01955
SV
-4 1:0.60311017 2:0.34681232 3:0.067548447 4:0.53383404 5:0.61287548 6:0.65468717 
4 1:0.73346397 2:0.49739676 3:0.37130724 4:0.51472366 5:0.59961357 6:0.66258291 
-4 1:0.69518774 2:0.20629643 3:0.1796405 4:0.56432133 5:0.68049028 6:0.74616621 
4 1:0.89291952 2:0.16787772 3:0.69408521 4:0.91495146 5:0.94890261 6:0.96269344 
4 1:0.39053999 2:0.20820673 3:0.17753958 4:0.33495583 5:0.39777832 6:0.44399359 
4 1:0.61928338 2:0.22767235 3:0.15963705 4:0.51010642 5:0.59283393 6:0.63883591 
-4 1:0.74565796 2:0.15600331 3:0.089218917 4:0.58797907 5:0.69284768 6:0.74971699 
4 1:0.62349716 2:0.42532178 3:0.27349745 4:0.5196735 5:0.60339149 6:0.65103342 
-4 1:0.76258425 2:0.16787772 3:0.60695536 4:0.80906778 5:0.87125816 6:0.89810007 
-4 1:0.48387441 2:0.20820673 3:0.20172681 4:0.39715881 5:0.47368229 6:0.52781628 
-4 1:0.74285042 2:0.48885268 3:0.35394597 4:0.61189191 5:0.70897304 6:0.77099691 
4 1:0.80205907 2:0.22767235 3:0.26078021 4:0.76359704 5:0.8470807 6:0.8858359 
4 1:0.4730794 3:0.11866359 4:0.58816959 5:0.86435738 6:0.96191842 
-4 1:0.91785848 2:0.083369236 3:0.63999999 4:0.90398906 5:0.94897505 6:0.96762621 
4 1:0.72746732 2:0.23066177 3:0.43952897 4:0.55736023 5:0.63319876 6:0.68402869 
-4 1:0.32027025 2:0.49739676 3:0.17094319 4:0.12195679 5:0.13277563 6:0.14165413 
-4 1:0.67240963 2:0.16787772 3:0.54473368 4:0.69254626 5:0.74796983 6:0.77177867 
4 1:0.90799305 2:0.54342577 3:0.37898741 4:0.85252726 5:0.92049615 6:0.94848246 
-4 1:0.80929502 2:0.08765484 3:0.52947327 4:0.7501341 5:0.82294191 6:0.86264385 
4 1:0.78101613 2:0.055921852 3:0.42192974 4:0.86711004 5:0.94030868 6:0.96084539 
4 1:0.76526298 2:0.055921852 3:0.38714172 4:0.81340799 5:0.90059649 6:0.93006702 
-4 1:0.48213397 2:0.16787772 3:0.49792761 4:0.59161372 5:0.62979552 6:0.64254584 
4 1:0.89725962 2:0.48885268 3:0.5143645 4:0.8587242 5:0.91841685 6:0.94498293 
4 1:0.87998127 2:0.15600331 3:0.1625414 4:0.81948421 5:0.90185357 6:0.9347395 
-2.824427709331125 1:0.69981151 2:0.54342577 3:0.21726369 4:0.60683566 5:0.72232536 6:0.78414054 
-4 1:0.69981151 2:0.54342577 3:0.21726369 4:0.60683566 5:0.72232536 6:0.78414054 
-4 1:0.51733002 2:0.047285912 3:0.41965074 4:0.71632669 5:0.73953043 6:0.73487553 
-4 1:0.76580991 2:0.93973481 3:0.32205372 4:0.7176044 5:0.80237787 6:0.84588741 
-4 1:0.71777065 2:0.08765484 3:0.47011786 4:0.66069877 5:0.75226598 6:0.80539407 
-4 1:0.83089047 2:0.014623935 3:0.80905852 4:0.94637428 5:0.97242826 6:0.97946694 
4 1:0.89291952 2:0.16787772 3:0.69408521 4:0.91495146 5:0.94890261 6:0.96269344 
3.070369083729773 1:0.5343717 2:0.49612229 3:0.20276685 4:0.2004308 5:0.25758651 6:0.30054029 
-4 1:0.67850561 2:0.20629643 3:0.19487894 4:0.63045155 5:0.76931142 6:0.83706632 
4 1:0.28569186 2:0.20629643 3:0.076468978 4:0.29833807 5:0.37989948 6:0.4576277 
4 1:1 3:0.83319067 4:0.98956086 5:0.99577089 6:0.99784595 
4 1:0.81789029 2:0.48885268 3:0.44075432 4:0.7803455 5:0.86328719 6:0.90222545 
4 1:0.89192404 2:0.49612229 3:0.59146724 4:0.78105663 5:0.84916292 6:0.8882561 
4 1:0.91061528 2:0.22767235 3:0.35742938 4:0.89821492 5:0.94339974 6:0.96076173 
-4 1:0.87823623 2:0.20629643 3:0.36755712 4:0.8681203 5:0.93297792 6:0.95700049 
4 1:0.79391726 2:0.49612229 3:0.444392 4:0.61630491 5:0.71210086 6:0.77386496 
-4 1:0.6566649 2:0.54342577 3:0.18169045 4:0.51611903 5:0.62179755 6:0.68216176 
-4 1:0.83089047 2:0.014623935 3:0.80905852 4:0.94637428 5:0.97242826 6:0.97946694 
4 1:0.78180974 2:0.04579546 3:0.54174294 4:0.92424698 5:0.96600395 6:0.97868211 
4 1:0.75700132 2:1 3:0.28883701 4:0.65284485 5:0.75623242 6:0.81297442 
-4 1:0.5724789 2:0.014623935 3:0.77708563 4:0.84258654 5:0.91016348 6:0.95440359 
-4 1:0.70532989 2:0.54342577 3:0.18169339 4:0.50290989 5:0.59875259 6:0.65332628 
4 1:0.67544021 3:0.19261438 4:0.76066415 5:0.89973293 6:0.93660362 
-4 1:0.74285042 2:0.48885268 3:0.35394597 4:0.61189191 5:0.70897304 6:0.77099691 
4 1:0.71284767 2:0.22767235 3:0.2263303 4:0.68859985 5:0.78706365 6:0.83662428 
3.349595037286852 1:0.62437406 2:1 3:0.18559792 4:0.41535212 5:0.50422336 6:0.56173557 
4 1:0.94938914 2:0.055921852 3:0.61526026 4:0.94655706 5:0.97211195 6:0.98210701 
-4 1:0.69716201 2:0.25207203 3:0.26283557 4:0.58611788 5:0.65192525 6:0.69015011 
4 1:0.81789029 2:0.48885268 3:0.44075432 4:0.7803455 5:0.86328719 6:0.90222545 
4 1:0.2214182 2:0.49612229 3:0.10534315 4:-1.110223e-16 6:2.220446e-16 
-4 1:0.74598388 2:0.16787772 3:0.57222383 4:0.74405775 5:0.79993424 6:0.82484891 
0.1908067873206156 1:0.18980624 3:0.034330388 4:0.25480402 5:0.54197045 6:0.78020579 
-4 1:0.5797031 2:0.25207203 3:0.21631076 4:0.45848604 5:0.51102137 6:0.53823055 
-4 1:0.66144997 2:0.15600331 3:0.068820233 4:0.51732819 5:0.62198733 6:0.67977328 
4 1:0.46600264 3:0.11185039 4:0.56180003 5:0.83415721 6:0.93617329 
-4 1:0.41563731 2:0.48885268 3:0.2554221 4:0.36916892 5:0.43100226 6:0.50888404 
4 1:0.9418574 2:0.08765484 3:0.72226864 4:0.93291747 5:0.960644 6:0.97304054 
4 1:0.98791521 2:0.04579546 3:0.90293444 4:0.99181622 5:0.99642641 6:0.9978864 
4 1:0.78180974 2:0.04579546 3:0.54174294 4:0.92424698 5:0.96600395 6:0.97868211 
-4 1:0.89171605 2:0.25207203 3:0.52475418 4:0.85053413 5:0.90454501 6:0.93093678 
-4 1:0.69891028 2:0.20820673 3:0.26679137 4:0.55816547 5:0.65579282 6:0.71593631 
4 1:0.73710984 2:0.23066177 3:0.49544357 4:0.66648649 5:0.76052819 6:0.81482311 
-4 1:0.63920442 2:0.20629643 3:0.16825499 4:0.55661206 5:0.69111529 6:0.7656762 
-4 1:0.74598388 2:0.16787772 3:0.57222383 4:0.74405775 5:0.79993424 6:0.82484891 
1.260121716784963 1:0.4730794 3:0.11866359 4:0.58816959 5:0.86435738 6:0.96191842 
-4 1:0.40634904 2:0.04579546 3:0.35412414 4:0.55926446 5:0.70175505 6:0.79649177 
-4 1:0.68443073 2:0.047285912 3:0.44652268 4:0.77691812 5:0.81043483 6:0.8177009 
-1.820426938591862 1:0.69981151 2:0.54342577 3:0.21726369 4:0.60683566 5:0.72232536 6:0.78414054 
4 1:0.76382055 2:0.22767235 3:0.22331233 4:0.67735915 5:0.77029889 6:0.81802539 
4 1:0.46600264 3:0.11185039 4:0.56180003 5:0.83415721 6:0.93617329 
4 1:0.5898908 2:0.055921852 3:0.31791569 4:0.72365433 5:0.88324129 6:0.93484545 
4 1:0.62552631 2:0.49739676 3:0.30895604 4:0.40532955 5:0.48355121 6:0.54476585 
4 1:1 3:0.83319067 4:0.98956086 5:0.99577089 6:0.99784595 
4 1:0.73867648 2:0.49612229 3:0.35967401 4:0.47825205 5:0.57045236 6:0.63752441 
4 1:0.71492133 2:0.42532178 3:0.31296983 4:0.60525302 5:0.69243388 6:0.7432587 
-4 1:0.84127012 2:0.014623935 3:0.81253935 4:0.95982371 5:0.98309178 6:0.9870796 
4 4:0.10344019 5:0.34323945 6:0.63855969 
-4 1:0.84765099 2:0.014623935 3:0.81445984 4:0.96615706 5:0.98858241 6:0.99176534 
4 1:0.93181136 2:0.49739676 3:0.62713449 4:0.86099016 5:0.91514168 6:0.94169199 
4 1:0.54184698 2:0.58937038 3:0.29851601 4:0.34826788 5:0.42168642 6:0.47203603 
4 1:0.81789029 2:0.48885268 3:0.44075432 4:0.7803455 5:0.86328719 6:0.90222545 
-4 1:0.57776221 2:0.08765484 3:0.42071301 4:0.56376512 5:0.66454599 6:0.741236 
4 1:0.79373193 2:0.58937038 3:0.47493233 4:0.66775916 5:0.76196439 6:0.81489875 
-4 1:0.71258735 2:0.22767235 3:0.1864032 4:0.58471122 5:0.67581508 6:0.72558613 
4 1:0.87911146 2:0.34681232 3:0.22411304 4:0.88845644 5:0.94169671 6:0.96221395 
4 1:0.34770698 2:0.58937038 3:0.24672569 4:0.24188506 5:0.29544562 6:0.33843061 
4 1:0.67022121 2:0.49612229 3:0.27766156 4:0.33407105 5:0.40732401 6:0.46359154 
4 4:0.10344019 5:0.34323945 6:0.63855969 
-4 1:0.56800546 2:0.16787772 3:0.5149767 4:0.63026581 5:0.67890679 6:0.69964851 
-4 1:0.86064316 2:0.08765484 3:0.62680052 4:0.88208508 5:0.93041565 6:0.9505376 
4 1:0.66256481 2:0.42532178 3:0.27479904 4:0.51802649 5:0.59270541 6:0.63560969 
-4 1:0.42428709 2:0.93973481 3:0.20295859 4:0.39290035 5:0.43632323 6:0.45871216 
-4 1:0.73251944 2:0.15600331 3:0.11085278 4:0.68794624 5:0.80350923 6:0.85660483 
4 1:0.40588686 2:0.42532178 3:0.20589097 4:0.35241209 5:0.40358156 6:0.42577381 
-4 1:0.65317124 2:0.25207203 3:0.23994344 4:0.52538719 5:0.5891732 6:0.62164073 
-4 1:0.6566649 2:0.54342577 3:0.18169045 4:0.51611903 5:0.62179755 6:0.68216176 
4 1:0.10775597 2:0.055921852 3:0.1590151 4:0.30536689 5:0.48614515 6:0.64344462 
-4 1:0.60283702 2:0.083369236 3:0.33229353 4:0.48675881 5:0.60141743 6:0.67458413 
-4 1:0.58396162 2:0.20629643 3:0.13877412 4:0.4724047 5:0.59295828 6:0.66834832 
-4 1:0.62949718 2:0.04579546 3:0.44400319 4:0.77920819 5:0.88713866 6:0.92903178 
4 1:0.2214182 2:0.49612229 3:0.10534315 4:-1.110223e-16 6:2.220446e-16 
4 1:0.91061528 2:0.22767235 3:0.35742938 4:0.89821492 5:0.94339974 6:0.96076173 
4 1:0.61342581 2:0.49612229 3:0.27561601 4:0.33977371 5:0.4325213 6:0.50244952 
-4 1:0.41563731 2:0.48885268 3:0.2554221 4:0.36916892 5:0.43100226 6:0.50888404 
-4 1:0.32002648 2:0.54342577 3:0.072456434 4:0.24261286 5:0.29785605 6:0.33368644 
2.066118912657622 1:0.62437406 2:1 3:0.18559792 4:0.41535212 5:0.50422336 6:0.56173557 
4 1:0.91737037 2:0.49612229 3:0.66823667 4:0.86050887 5:0.90873162 6:0.93335071 
-4 1:0.66144997 2:0.15600331 3:0.068820233 4:0.51732819 5:0.62198733 6:0.67977328 
-4 1:0.75664435 2:0.54342577 3:0.22334634 4:0.60145902 5:0.70573225 6:0.76318544 
4 1:0.94938914 2:0.055921852 3:0.61526026 4:0.94655706 5:0.97211195 6:0.98210701 
4 1:0.39053999 2:0.20820673 3:0.17753958 4:0.33495583 5:0.39777832 6:0.44399359 
4 1:0.5343717 2:0.49612229 3:0.20276685 4:0.2004308 5:0.25758651 6:0.30054029 
-4 1:0.70532989 2:0.54342577 3:0.18169339 4:0.50290989 5:0.59875259 6:0.65332628 
-4 1:0.70300609 2:0.15600331 3:0.091457045 4:0.60849701 5:0.72282659 6:0.78137183 
-4 1:0.66144997 2:0.15600331 3:0.068820233 4:0.51732819 5:0.62198733 6:0.67977328 
-4 1:0.5797031 2:0.25207203 3:0.21631076 4:0.45848604 5:0.51102137 6:0.53823055 
4 1:0.72746732 2:0.23066177 3:0.43952897 4:0.55736023 5:0.63319876 6:0.68402869 
4 1:0.67544021 3:0.19261438 4:0.76066415 5:0.89973293 6:0.93660362 
-4 1:0.65624547 2:0.34681232 3:0.092281981 4:0.61278125 5:0.70626575 6:0.75613977 
4 1:0.67721467 2:0.49739676 3:0.37192301 4:0.52750491 5:0.62426522 6:0.6929947 
0.4106497146177331 1:0.5343717 2:0.49612229 3:0.20276685 4:0.2004308 5:0.25758651 6:0.30054029 
-4 1:0.69622281 2:0.25207203 3:0.27393051 4:0.60399854 5:0.68000038 6:0.72275152 
-4 1:0.74598388 2:0.16787772 3:0.57222383 4:0.74405775 5:0.79993424 6:0.82484891 
4 1:0.81789029 2:0.48885268 3:0.44075432 4:0.7803455 5:0.86328719 6:0.90222545 
-4 1:0.69891028 2:0.20820673 3:0.26679137 4:0.55816547 5:0.65579282 6:0.71593631 
-4 1:0.76580991 2:0.93973481 3:0.32205372 4:0.7176044 5:0.80237787 6:0.84588741 
-0.395242760145892 1:0.37333711 2:0.23066177 3:0.29022709 4:0.26882214 5:0.30809596 6:0.35304275 
4 1:0.67022121 2:0.49612229 3:0.27766156 4:0.33407105 5:0.40732401 6:0.46359154 
4 4:0.10344019 5:0.34323945 6:0.63855969 
-4 1:0.71167822 2:0.014623935 3:0.78422805 4:0.88268036 5:0.94383829 6:0.96596858 
4 1:0.96968854 2:0.08765484 3:0.77391346 4:0.95596295 5:0.97544784 6:0.98405871 
4 1:0.76382055 2:0.22767235 3:0.22331233 4:0.67735915 5:0.77029889 6:0.81802539 
-4 1:0.5724789 2:0.014623935 3:0.77708563 4:0.84258654 5:0.91016348 6:0.95440359 
4 1:0.29443857 2:0.055921852 3:0.19401703 4:0.41679982 5:0.61495039 6:0.74140301 
4 1:0.91728681 2:0.20820673 3:0.45891267 4:0.87823329 5:0.93535353 6:0.95883927 
4 1:0.8811176 2:0.047285912 3:0.53826775 4:0.933335 5:0.95948954 6:0.96870909 
-4 1:0.79342163 2:0.16787772 3:0.60849279 4:0.80724494 5:0.86183239 6:0.88618408 
4 1:0.73346397 2:0.49739676 3:0.37130724 4:0.51472366 5:0.59961357 6:0.66258291 
4 1:0.57348929 2:0.42532178 3:0.24033766 4:0.43855753 5:0.50243186 6:0.53322825 
-4 1:0.62474007 2:0.93973481 3:0.26141889 4:0.56602175 5:0.64775366 6:0.69263211 
-4 1:0.87823623 2:0.20629643 3:0.36755712 4:0.8681203 5:0.93297792 6:0.95700049 
4 1:0.29443857 2:0.055921852 3:0.19401703 4:0.41679982 5:0.61495039 6:0.74140301 
-4 1:0.45809369 2:0.08765484 3:0.36628046 4:0.45852823 5:0.56005228 6:0.65708595 
4 1:0.78180974 2:0.04579546 3:0.54174294 4:0.92424698 5:0.96600395 6:0.97868211 
-4 1:0.72960023 2:0.93973481 3:0.29554025 4:0.64471949 5:0.72634443 6:0.77062686 
4 1:0.49591192 2:0.22767235 3:0.13362033 4:0.43434224 5:0.49900609 6:0.53177669 
4 1:0.8811176 2:0.047285912 3:0.53826775 4:0.933335 5:0.95948954 6:0.96870909 
4 1:0.67721467 2:0.49739676 3:0.37192301 4:0.52750491 5:0.62426522 6:0.6929947 
-4 1:0.68687464 2:0.93973481 3:0.2669659 4:0.56720118 5:0.63868728 6:0.67673331 
4 1:0.67022121 2:0.49612229 3:0.27766156 4:0.33407105 5:0.40732401 6:0.46359154 
-4 1:0.66561759 2:0.083369236 3:0.37833052 4:0.59301482 5:0.71772587 6:0.7905538 
-4 1:0.76580991 2:0.93973481 3:0.32205372 4:0.7176044 5:0.80237787 6:0.84588741 
-4 1:0.45809369 2:0.08765484 3:0.36628046 4:0.45852823 5:0.56005228 6:0.65708595 
-4 1:0.44711702 2:0.54342577 3:0.10123262 4:0.31581962 5:0.38571265 6:0.42827036 
4 1:0.62437406 2:1 3:0.18559792 4:0.41535212 5:0.50422336 6:0.56173557 
4 1:0.75731817 2:0.42532178 3:0.35347476 4:0.69239941 5:0.78245146 6:0.83117443 
-4 1:0.74285042 2:0.48885268 3:0.35394597 4:0.61189191 5:0.70897304 6:0.77099691 
4 1:0.73288362 2:0.48885268 3:0.38858001 4:0.69395818 5:0.80318832 6:0.85946067 
4 1:0.73710984 2:0.23066177 3:0.49544357 4:0.66648649 5:0.76052819 6:0.81482311 
4 1:0.61928338 2:0.22767235 3:0.15963705 4:0.51010642 5:0.59283393 6:0.63883591 
-4 1:0.72319868 2:0.16787772 3:0.57600091 4:0.75310216 5:0.81471966 6:0.84249923 
-4 1:0.26623337 2:1 3:0.084027451 4:0.15537936 5:0.17410072 6:0.17212333 
4 1:0.72746732 2:0.23066177 3:0.43952897 4:0.55736023 5:0.63319876 6:0.68402869 
4 1:0.95273022 2:0.014623935 3:0.90135809 4:0.99584619 5:0.9970631 6:0.99757649 
4 1:1 3:0.83319067 4:0.98956086 5:0.99577089 6:0.99784595 
-4 1:0.75331875 2:0.047285912 3:0.46606653 4:0.81323145 5:0.84847474 6:0.85892657 
-4 1:0.83089047 2:0.014623935 3:0.80905852 4:0.94637428 5:0.97242826 6:0.97946694 
-4 1:0.59976014 2:0.04579546 3:0.42297435 4:0.72390263 5:0.83364665 6:0.88344569 
-4 1:0.72960023 2:0.93973481 3:0.29554025 4:0.64471949 5:0.72634443 6:0.77062686 
-4 1:0.70997536 2:0.083369236 3:0.42718441 4:0.69347659 5:0.81124449 6:0.87136343 
-4 1:0.77257175 2:0.08765484 3:0.5597726 4:0.80653689 5:0.88996341 6:0.92691132 
4 1:0.67022121 2:0.49612229 3:0.27766156 4:0.33407105 5:0.40732401 6:0.46359154 
-4 1:0.76580991 2:0.93973481 3:0.32205372 4:0.7176044 5:0.80237787 6:0.84588741 
-4 1:0.60283702 2:0.083369236 3:0.33229353 4:0.48675881 5:0.60141743 6:0.67458413 
4 1:0.28569186 2:0.20629643 3:0.076468978 4:0.29833807 5:0.37989948 6:0.4576277 
-4 1:0.65289017 2:0.48885268 3:0.31268451 4:0.5167094 5:0.61224976 6:0.68477529 
4 1:0.94938914 2:0.055921852 3:0.61526026 4:0.94655706 5:0.97211195 6:0.98210701 
-4 1:0.76580991 2:0.93973481 3:0.32205372 4:0.7176044 5:0.80237787 6:0.84588741 
4 1:0.8789356 2:0.54342577 3:0.32439292 4:0.78747769 5:0.87303614 6:0.91271252 
-4 1:0.48213397 2:0.16787772 3:0.49792761 4:0.59161372 5:0.62979552 6:0.64254584 
-4 1:0.83089047 2:0.014623935 3:0.80905852 4:0.94637428 5:0.97242826 6:0.97946694 
4 1:0.90799305 2:0.54342577 3:0.37898741 4:0.85252726 5:0.92049615 6:0.94848246 
-0.9599025919311199 1:0.76399364 2:0.04579546 3:0.52334234 4:0.88859427 5:0.94013924 6:0.95946903 
-4 1:0.5797031 2:0.25207203 3:0.21631076 4:0.45848604 5:0.51102137 6:0.53823055 
4 1:0.80205907 2:0.22767235 3:0.26078021 4:0.76359704 5:0.8470807 6:0.8858359 
-4 1:0.79681394 2:0.083369236 3:0.48094343 4:0.76665994 5:0.86191893 6:0.90760934 
4 1:0.85877443 2:0.42532178 3:0.43562507 4:0.80721931 5:0.87934044 6:0.91434143 
-4 1:0.56800546 2:0.16787772 3:0.5149767 4:0.63026581 5:0.67890679 6:0.69964851 
1.143578590976773 1:0.18980624 3:0.034330388 4:0.25480402 5:0.54197045 6:0.78020579 
4 1:0.89291952 2:0.16787772 3:0.69408521 4:0.91495146 5:0.94890261 6:0.96269344 
4 1:0.75731817 2:0.42532178 3:0.35347476 4:0.69239941 5:0.78245146 6:0.83117443 
4 1:0.66256481 2:0.42532178 3:0.27479904 4:0.51802649 5:0.59270541 6:0.63560969 
-4 1:0.52033349 2:0.48885268 3:0.27824915 4:0.42915458 5:0.50850476 6:0.58585271 
4 1:0.90420201 2:0.15600331 3:0.19693206 4:0.86294641 5:0.92990351 6:0.95498998 
4 1:0.6092064 2:0.58937038 3:0.34931828 4:0.4519606 5:0.54893247 6:0.61355219 
-4 1:0.32027025 2:0.49739676 3:0.17094319 4:0.12195679 5:0.13277563 6:0.14165413 
4 1:0.91341872 3:0.45198963 4:0.97703695 5:0.9907273 6:0.99510256 
-4 1:0.8048121 2:0.25207203 3:0.3681723 4:0.80658472 5:0.8702283 6:0.90583519 
-4 1:0.75664435 2:0.54342577 3:0.22334634 4:0.60145902 5:0.70573225 6:0.76318544 
-4 1:0.88260358 2:0.083369236 3:0.57279245 4:0.85249389 5:0.91751611 6:0.94621989 
-4 1:0.62949718 2:0.04579546 3:0.44400319 4:0.77920819 5:0.88713866 6:0.92903178 
-4 1:0.77121222 2:0.25207203 3:0.33053889 4:0.73085549 5:0.80341439 6:0.84546456 
2.50876015662567 1:0.85573143 2:1 3:0.37381485 4:0.7891612 5:0.87031145 6:0.90944281 
-4 1:0.65966561 2:0.20820673 3:0.27420721 4:0.57889989 5:0.68485118 6:0.74837036 
-4 1:0.69622281 2:0.25207203 3:0.27393051 4:0.60399854 5:0.68000038 6:0.72275152 
-4 1:0.86064316 2:0.08765484 3:0.62680052 4:0.88208508 5:0.93041565 6:0.9505376 
-4 1:0.76258425 2:0.16787772 3:0.60695536 4:0.80906778 5:0.87125816 6:0.89810007 
4 1:0.78101613 2:0.055921852 3:0.42192974 4:0.86711004 5:0.94030868 6:0.96084539 
-4 1:0.69622281 2:0.25207203 3:0.27393051 4:0.60399854 5:0.68000038 6:0.72275152 
4 1:0.71492133 2:0.42532178 3:0.31296983 4:0.60525302 5:0.69243388 6:0.7432587 
