{
    "param_dict": {
        "C": 2.5,
        "score_transform": {
            "p2": -0.0077697,
            "out_gte_in": "true",
            "p0": 13.02110768,
            "p1": 1.54051711
        },
        "norm_type": "custom_clip_0to1",
        "score_clip": [
            0.0,
            100.0
        ],
        "custom_clip_0to1_map": {
            "VMAF_feature_adm_scale0_score": [
                0.0,
                0.5
            ]
        },
        "nu": 0.9,
        "gamma": 0.025
    },
    "model_dict": {
        "model": "svm_type nu_svr\nkernel_type rbf\ngamma 0.025\nnr_class 2\ntotal_sv 146\nrho -1.04302\nSV\n-2.5 1:2 2:1 3:1 4:1 5:0.70193506 6:0.8030051 7:0.99999731 8:0.99999082 9:0.99998948 10:0.99998772 \n2.5 1:2 2:1 3:1 4:1 6:0.038015841 7:0.99999927 8:0.99999882 9:0.999998 10:0.99999729 \n-2.5 1:2 2:1 3:1 4:1 5:0.24164251 6:0.25848434 7:0.99999905 8:0.99998979 9:0.99999021 10:0.9999898 \n2.5 1:2 2:1 3:1 4:1 5:0.41589449 6:0.48677024 7:0.99999986 8:0.99999996 9:1 10:1 \n2.5 1:2 2:1 3:1 4:1 5:0.098409552 6:0.10677632 7:0.99999978 8:1 9:0.99999991 10:0.99999945 \n-2.5 1:2 2:1 3:1 4:1 5:0.39192085 6:0.41417464 7:0.99998756 8:0.99999009 9:0.99998747 10:0.99998423 \n-2.5 1:2 2:1 3:1 4:1 5:0.32267225 6:0.31835223 7:0.9999888 8:0.99999071 9:0.9999882 10:0.99998497 \n2.5 1:2 2:1 3:1 4:1 5:0.034159069 6:6.9388939e-18 7:0.99998126 8:0.99998294 9:0.99997895 10:0.99997406 \n-2.5 1:1.8400593 2:0.56396801 3:0.46727603 4:0.57366579 5:0.70193506 6:0.8030051 7:0.28471573 8:0.65993655 9:0.74227394 10:0.79604378 \n-2.5 1:1.8535858 2:0.64107966 3:0.63992347 4:0.7199436 5:0.70193506 6:0.8030051 7:0.32379571 8:0.7319233 9:0.80911202 10:0.8507541 \n-2.5 1:1.8550432 2:0.64886607 3:0.65658527 4:0.7441723 5:0.70193506 6:0.8030051 7:0.34310279 8:0.77101723 9:0.84821029 10:0.88804124 \n-2.5 1:1.8704939 2:0.72058452 3:0.76019587 4:0.81776931 5:0.70193506 6:0.8030051 7:0.37137625 8:0.81442045 9:0.88205758 10:0.91458769 \n2.5 1:1.870571 2:0.7363344 3:0.78938843 4:0.84357365 5:0.70193506 6:0.8030051 7:0.39967717 8:0.85595229 9:0.91574692 10:0.94250595 \n2.5 1:1.897595 2:0.83352179 3:0.87809607 4:0.90546193 5:0.70193506 6:0.8030051 7:0.434713 8:0.88766895 9:0.9374168 10:0.95853365 \n2.5 1:1.9314348 2:0.89747505 3:0.93110554 4:0.94574365 5:0.70193506 6:0.8030051 7:0.46452442 8:0.91824175 9:0.95745095 10:0.97241994 \n2.5 1:1.9342561 2:0.90334647 3:0.93765653 4:0.9538381 5:0.70193506 6:0.8030051 7:0.48597439 8:0.93053309 9:0.9647571 10:0.97746046 \n-1.68819772240448 1:1.3831235 2:0.1286495 3:0.28302239 4:0.52814121 6:0.038015841 7:0.21781852 8:0.44794963 9:0.63031125 10:0.80683299 \n2.5 1:1.4425549 2:0.29053554 3:0.54508935 4:0.72454474 6:0.038015841 7:0.30849667 8:0.64202254 9:0.80802111 10:0.90863245 \n-2.5 1:1.4427249 2:0.29142692 3:0.54591852 4:0.7254711 6:0.038015841 7:0.31217359 8:0.64691349 9:0.81222895 10:0.91233249 \n-2.5 1:1.52135 2:0.46000674 3:0.71174991 4:0.82876847 6:0.038015841 7:0.3969515 8:0.78959961 9:0.9063486 10:0.95720755 \n2.5 1:1.5162097 2:0.48443933 3:0.73503737 4:0.83667156 6:0.038015841 7:0.42163924 8:0.8166942 9:0.91935662 10:0.96453675 \n2.5 1:1.6778155 2:0.76032275 3:0.89501308 4:0.93523176 6:0.038015841 7:0.61994617 8:0.94847901 9:0.97833679 10:0.98936321 \n-1.677065916505754 1:1.9886845 2:0.99654333 3:0.99900928 4:0.99923906 6:0.038015841 7:0.93628861 8:0.99679023 9:0.99846792 10:0.99903247 \n-2.5 1:1.7537352 2:0.56431417 3:0.50734633 4:0.6037955 5:0.24164251 6:0.25848434 7:0.14383366 8:0.73829184 9:0.8160364 10:0.85595914 \n-2.5 1:1.7620886 2:0.62988113 3:0.67297317 4:0.74295991 5:0.24164251 6:0.25848434 7:0.15679668 8:0.78772483 9:0.86304259 10:0.89601329 \n2.5 1:1.7624522 2:0.63257999 3:0.67948467 4:0.75427977 5:0.24164251 6:0.25848434 7:0.16041449 8:0.80542845 9:0.87953654 10:0.91128151 \n2.5 1:1.7739085 2:0.69583198 3:0.77758726 4:0.82716259 5:0.24164251 6:0.25848434 7:0.16788882 8:0.8312799 9:0.90072928 10:0.92855259 \n2.5 1:1.7738666 2:0.71140829 3:0.79970638 4:0.84438843 5:0.24164251 6:0.25848434 7:0.17570565 8:0.85519748 9:0.91900385 10:0.94337976 \n1.625546817906907 1:1.7966679 2:0.80127075 3:0.88190274 4:0.90772862 5:0.24164251 6:0.25848434 7:0.18525968 8:0.87114896 9:0.93120873 10:0.95345917 \n-2.5 1:1.8350134 2:0.86021064 3:0.92926889 4:0.94818896 5:0.24164251 6:0.25848434 7:0.19310103 8:0.88843028 9:0.94366176 10:0.96310806 \n-2.5 1:1.8397863 2:0.86435825 3:0.93175542 4:0.95179028 5:0.24164251 6:0.25848434 7:0.20141253 8:0.89806736 9:0.94947858 10:0.96737576 \n2.5 1:1.5830641 2:0.32289482 3:0.33663741 4:0.58343758 5:0.30886474 6:0.29342487 7:0.37828612 8:0.59284036 9:0.69868148 10:0.76721939 \n-1.694262413354421 1:1.636434 2:0.44534514 3:0.5852413 4:0.7671635 5:0.30886474 6:0.29342487 7:0.45332828 8:0.73365531 9:0.82834212 10:0.87437599 \n2.5 1:1.6528753 2:0.56446896 3:0.72158234 4:0.84219217 5:0.30886474 6:0.29342487 7:0.50368118 8:0.80877379 9:0.88125471 10:0.91311767 \n2.5 1:1.6554133 2:0.59257314 3:0.75019612 4:0.86274978 5:0.30886474 6:0.29342487 7:0.53928926 8:0.85927657 9:0.92157623 10:0.94661491 \n2.5 1:1.7656751 2:0.79606881 3:0.88423883 4:0.93382768 5:0.30886474 6:0.29342487 7:0.6434251 8:0.92235419 9:0.95594319 10:0.97022011 \n2.5 1:1.966391 2:0.95933394 3:0.97858673 4:0.98259519 5:0.30886474 6:0.29342487 7:0.74867075 8:0.96174733 9:0.97865801 10:0.98559036 \n2.5 1:1.3770973 2:0.088096171 3:0.12770566 4:0.30732008 5:0.41589449 6:0.48677024 7:0.1134503 8:0.1714045 9:0.21015647 10:0.24593954 \n-2.5 1:1.4163996 2:0.19303646 3:0.3466813 4:0.49086688 5:0.41589449 6:0.48677024 7:0.14082878 8:0.24538979 9:0.29907459 10:0.3385096 \n-2.5 1:1.4230621 2:0.21232725 3:0.39092297 4:0.56061485 5:0.41589449 6:0.48677024 7:0.16006934 8:0.30349422 9:0.37958673 10:0.43704115 \n-2.5 1:1.460369 2:0.34893957 3:0.54302056 4:0.65597743 5:0.41589449 6:0.48677024 7:0.19192637 8:0.37748767 9:0.45920839 10:0.51712574 \n-2.5 1:1.4718359 2:0.39441371 3:0.62522963 4:0.73673175 5:0.41589449 6:0.48677024 7:0.23713623 8:0.4972889 9:0.59955115 10:0.66639856 \n2.5 1:1.8527201 2:0.87427759 3:0.90852043 4:0.91912405 5:0.41589449 6:0.48677024 7:0.45966186 8:0.7801768 9:0.85110739 10:0.8888845 \n2.5 1:1.3884223 2:1.110223e-16 3:0.15641376 4:0.4678159 5:0.098409552 6:0.10677632 7:0.19874936 8:0.40337995 9:0.61274391 10:0.81059895 \n2.5 1:1.4678684 2:0.17534975 3:0.44583114 4:0.68531713 5:0.098409552 6:0.10677632 7:0.27738977 8:0.60155269 9:0.79900627 10:0.91107838 \n2.5 1:1.4680769 2:0.17638888 3:0.4469124 4:0.68771975 5:0.098409552 6:0.10677632 7:0.278877 8:0.60612185 9:0.8042709 10:0.91644293 \n2.5 1:1.5881101 2:0.37011289 3:0.64138619 4:0.80572467 5:0.098409552 6:0.10677632 7:0.36218234 8:0.7572776 9:0.90334009 10:0.95976167 \n2.5 1:1.5952392 2:0.41102213 3:0.669768 4:0.81826871 5:0.098409552 6:0.10677632 7:0.38762592 8:0.78874114 9:0.91736413 10:0.96694311 \n2.5 1:1.7913174 2:0.74798766 3:0.87312296 4:0.93027909 5:0.098409552 6:0.10677632 7:0.64450421 8:0.94508079 9:0.97969306 10:0.99102226 \n-2.5 1:1.9956931 2:0.99894435 3:0.99965384 4:0.99964191 5:0.098409552 6:0.10677632 7:0.97746724 8:0.99901252 9:0.99947599 10:0.99963053 \n-2.5 1:1.8496501 2:0.55679539 3:0.43000227 4:0.53791262 5:0.39192085 6:0.41417464 7:0.46739179 8:0.61522165 9:0.66393953 10:0.69033574 \n-2.5 1:1.8624203 2:0.626334 3:0.60701334 4:0.69637252 5:0.39192085 6:0.41417464 7:0.49669683 8:0.67097365 9:0.72838437 10:0.75985141 \n-2.5 1:1.8640379 2:0.63472511 3:0.62995422 4:0.72481236 5:0.39192085 6:0.41417464 7:0.5209952 8:0.71662996 9:0.78064968 10:0.81645496 \n-2.5 1:1.8795565 2:0.71385601 3:0.73632859 4:0.8048086 5:0.39192085 6:0.41417464 7:0.54613649 8:0.75910465 9:0.82175868 10:0.85532683 \n-2.5 1:1.9562804 2:0.9392749 3:0.95358881 4:0.96452137 5:0.39192085 6:0.41417464 7:0.6894327 8:0.93381579 9:0.96303278 10:0.97470928 \n-2.5 1:1.9599218 2:0.94806046 3:0.96236449 4:0.97317867 5:0.39192085 6:0.41417464 7:0.71440685 8:0.95040249 9:0.9731617 10:0.98194036 \n-2.5 1:1.9060546 2:0.67619816 3:0.51826777 4:0.54646225 5:0.32267225 6:0.31835223 7:0.69194262 8:0.78256981 9:0.81220811 10:0.82634374 \n-2.5 1:1.9136416 2:0.72987413 3:0.66234809 4:0.68852007 5:0.32267225 6:0.31835223 7:0.72638853 8:0.83182998 9:0.8631147 10:0.87753519 \n-2.5 1:1.9146905 2:0.73641356 3:0.68449909 4:0.72327187 5:0.32267225 6:0.31835223 7:0.74777264 8:0.86204285 9:0.89428834 10:0.90965496 \n-2.5 1:1.9247719 2:0.79432944 3:0.77665823 4:0.80611369 5:0.32267225 6:0.31835223 7:0.77508325 8:0.89690231 9:0.92487887 10:0.93740711 \n2.5 1:1.9262446 2:0.81119148 3:0.81511853 4:0.84617798 5:0.32267225 6:0.31835223 7:0.81167047 8:0.93470592 9:0.95598769 10:0.96484229 \n2.332627863099928 1:1.9465955 2:0.89478037 3:0.90176374 4:0.91236732 5:0.32267225 6:0.31835223 7:0.84360425 8:0.95907219 9:0.97354245 10:0.97941481 \n2.5 1:1.9721768 2:0.96022214 3:0.96319013 4:0.96896545 5:0.32267225 6:0.31835223 7:0.8667116 8:0.97955328 9:0.98803326 10:0.99122772 \n-2.5 1:1.9746502 2:0.96681281 3:0.97141503 4:0.97724327 5:0.32267225 6:0.31835223 7:0.87923993 8:0.9851486 9:0.99149034 10:0.99380933 \n-2.5 1:1.8968764 2:0.6994714 3:0.58943971 4:0.64801966 5:0.034159069 6:6.9388939e-18 7:0.56829088 8:0.86215031 9:0.9161246 10:0.93851942 \n-2.5 1:1.9012716 2:0.73088803 3:0.71715586 4:0.77465504 5:0.034159069 6:6.9388939e-18 7:0.61048799 8:0.912055 9:0.94943256 10:0.96141601 \n-2.5 1:1.9016301 2:0.73335331 3:0.72310273 4:0.7799658 5:0.034159069 6:6.9388939e-18 7:0.6165352 8:0.91721785 9:0.95283708 10:0.96443744 \n-2.5 1:1.911035 2:0.78275918 3:0.81114148 4:0.84815338 5:0.034159069 6:6.9388939e-18 7:0.65088428 8:0.94571519 9:0.96911236 10:0.97600015 \n-2.5 1:1.911568 2:0.79577239 3:0.83181319 4:0.86452904 5:0.034159069 6:6.9388939e-18 7:0.66893175 8:0.95471377 9:0.97396015 10:0.97998475 \n2.5 1:1.9338036 2:0.89011361 3:0.91517024 4:0.92626124 5:0.034159069 6:6.9388939e-18 7:0.72620753 8:0.97495671 9:0.98604069 10:0.98960254 \n2.5 1:1.9676139 2:0.95741446 3:0.9583537 4:0.96426245 5:0.034159069 6:6.9388939e-18 7:0.75061457 8:0.98615288 9:0.99340895 10:0.99571298 \n2.5 1:1.968505 2:0.95880729 3:0.96046913 4:0.96716234 5:0.034159069 6:6.9388939e-18 7:0.75899387 8:0.9874388 9:0.99407867 10:0.99620562 \n-2.5 1:2 2:1 3:1 4:1 5:0.74242581 6:0.73957937 7:1 8:0.99999955 9:0.99999919 10:0.99999875 \n-2.5 1:2 2:1 3:1 4:1 5:0.94448953 6:0.95569244 7:0.99999938 8:0.99999806 9:0.99999695 10:0.99999628 \n2.5 1:2 2:1 3:1 4:1 5:0.67047937 6:0.65360758 7:0.99999736 8:0.99999487 9:0.99999328 10:0.99999185 \n2.154064599745103 1:2 2:1 3:1 4:1 5:0.59483517 6:0.69531343 7:0.99999853 8:0.99999634 9:0.99999465 10:0.99999298 \n-2.5 1:2 2:1 3:1 4:1 5:0.30194495 6:0.28383858 7:1 8:0.99999533 9:0.99999507 10:0.99999322 \n-2.5 1:2 2:1 3:1 4:1 5:1 6:1 7:1 8:0.99999954 9:0.99999896 10:0.99999866 \n-2.5 1:2 2:1 3:1 4:1 5:0.59359704 6:0.60349978 7:0.99999745 8:0.99999144 9:0.99998998 10:0.99998875 \n-2.5 1:1.4743693 2:0.19561705 3:0.24565358 4:0.4842903 5:0.37147149 6:0.34645427 7:0.14880922 8:0.39723987 9:0.55093375 10:0.66454564 \n-2.5 1:1.5025922 2:0.30661581 3:0.47189524 4:0.6581431 5:0.37147149 6:0.34645427 7:0.19722083 8:0.5371279 9:0.68388178 10:0.76682209 \n-2.5 1:1.5042434 2:0.31381005 3:0.49291199 4:0.68950003 5:0.37147149 6:0.34645427 7:0.22024381 8:0.59921561 9:0.74853041 10:0.82643946 \n-2.5 1:1.5497064 2:0.46345464 3:0.67983226 4:0.78859663 5:0.37147149 6:0.34645427 7:0.27642234 8:0.71410973 9:0.82265451 10:0.87404576 \n2.5 1:1.5525259 2:0.47574868 3:0.70079058 4:0.81970523 5:0.37147149 6:0.34645427 7:0.31893108 8:0.79653791 9:0.88902566 10:0.92720972 \n2.5 1:1.6694453 2:0.73100854 3:0.86317512 4:0.90930757 5:0.37147149 6:0.34645427 7:0.44247428 8:0.89218388 9:0.93823652 10:0.958095 \n2.5 1:1.6723365 2:0.7388945 3:0.87177449 4:0.92055697 5:0.37147149 6:0.34645427 7:0.47413286 8:0.9209548 9:0.95660608 10:0.97126882 \n2.5 1:1.9352882 2:0.93923313 3:0.95382312 4:0.95993176 5:0.37147149 6:0.34645427 7:0.61289723 8:0.92353134 9:0.95596799 10:0.96933369 \n2.5 1:1.9477503 2:0.95293987 3:0.96646018 4:0.97250823 5:0.37147149 6:0.34645427 7:0.67730289 8:0.94858746 9:0.971182 10:0.98014637 \n-2.5 1:1.7478412 2:0.43883784 3:0.40627829 4:0.58646093 5:0.061504838 6:0.025183092 7:0.38836432 8:0.75826367 9:0.84406611 10:0.8950845 \n-2.5 1:1.748232 2:0.44116165 3:0.41269895 4:0.59491169 5:0.061504838 6:0.025183092 7:0.40192594 8:0.78307203 9:0.86525376 10:0.91252592 \n-2.5 1:1.7648478 2:0.54131903 3:0.6019355 4:0.74614239 5:0.061504838 6:0.025183092 7:0.42522248 8:0.83309072 9:0.9015331 10:0.93405056 \n-2.5 1:1.7653134 2:0.54353776 3:0.60698027 4:0.75072 5:0.061504838 6:0.025183092 7:0.43752203 8:0.85257102 9:0.91574692 10:0.94460468 \n-2.5 1:1.7881728 2:0.64880261 3:0.76292544 4:0.84184546 5:0.061504838 6:0.025183092 7:0.45461108 8:0.88191736 9:0.93215883 10:0.95417317 \n2.5 1:1.8369172 2:0.82041152 3:0.889711 4:0.9175324 5:0.061504838 6:0.025183092 7:0.48207151 8:0.90715174 9:0.94706047 10:0.96487306 \n2.5 1:1.91692 2:0.94221837 3:0.95882588 4:0.96665301 5:0.061504838 6:0.025183092 7:0.49883369 8:0.92306074 9:0.95785569 10:0.97233837 \n2.5 1:1.9251564 2:0.95049955 3:0.96653327 4:0.9737523 5:0.061504838 6:0.025183092 7:0.52021385 8:0.94257662 9:0.9705313 10:0.98157251 \n2.5 1:1.4191175 2:0.038195437 3:-1.110223e-16 4:0.035048243 5:0.74242581 6:0.73957937 7:-1.3877788e-17 10:1.110223e-16 \n-2.5 1:1.5142912 2:0.35136372 3:0.58029541 4:0.65199062 5:0.74242581 6:0.73957937 7:0.12857962 8:0.40136245 9:0.52639576 10:0.61154432 \n-2.5 1:1.7509989 2:0.72051247 3:0.77296581 4:0.75171026 5:0.74242581 6:0.73957937 7:0.18413984 8:0.49865911 9:0.61041915 10:0.68222308 \n-2.5 1:1.7812429 2:0.77358089 3:0.82681404 4:0.81649142 5:0.74242581 6:0.73957937 7:0.23733669 8:0.60531342 9:0.71438892 10:0.7783016 \n-2.5 1:1.8050165 2:0.81258178 3:0.86315776 4:0.85869802 5:0.74242581 6:0.73957937 7:0.28558255 8:0.68675237 9:0.78660751 10:0.84081149 \n2.5 1:1.8300093 2:0.84881454 3:0.89480551 4:0.89544682 5:0.74242581 6:0.73957937 7:0.34090583 8:0.76416994 9:0.84941538 10:0.89195688 \n-0.1904739477353449 1:1.7056083 2:0.28839512 3:0.14179263 4:0.18018506 5:0.94448953 6:0.95569244 7:0.10791328 8:0.14680166 9:0.16845246 10:0.17979277 \n-2.5 1:1.7242431 2:0.38483193 3:0.39628798 4:0.48747253 5:0.94448953 6:0.95569244 7:0.16953354 8:0.29339262 9:0.37053249 10:0.42928884 \n2.5 1:1.7577 2:0.54197798 3:0.65531923 4:0.72028738 5:0.94448953 6:0.95569244 7:0.28650909 8:0.54325111 9:0.6530361 10:0.72252556 \n-2.5 1:1.8074659 2:0.70074139 3:0.7606948 4:0.77087602 5:0.94448953 6:0.95569244 7:0.31990597 8:0.58267573 9:0.68446817 10:0.74947403 \n1.272851688198568 1:1.8890734 2:0.83610724 3:0.85944135 4:0.86834272 5:0.94448953 6:0.95569244 7:0.40217349 8:0.72326261 9:0.81343083 10:0.86237362 \n2.5 1:1.9044489 2:0.86982155 3:0.89572823 4:0.90791024 5:0.94448953 6:0.95569244 7:0.46813321 8:0.80366202 9:0.87757181 10:0.91422945 \n2.5 1:1.9167816 2:0.89439972 3:0.92070871 4:0.93311711 5:0.94448953 6:0.95569244 7:0.5258381 8:0.85994289 9:0.91777986 10:0.94444254 \n2.5 1:1.6819999 2:0.31992026 3:0.11110997 5:0.67047937 6:0.65360758 7:0.088546002 8:0.084891185 9:0.0637098 10:0.018499328 \n2.5 1:1.7223247 2:0.48223704 3:0.47304843 4:0.44964391 5:0.67047937 6:0.65360758 7:0.16931434 8:0.27746261 9:0.32957915 10:0.36452615 \n2.5 1:1.7730112 2:0.59930302 3:0.5870956 4:0.55410179 5:0.67047937 6:0.65360758 7:0.20775123 8:0.35490074 9:0.42421162 10:0.47398092 \n2.5 1:1.8174443 2:0.66090225 3:0.63012563 4:0.60133658 5:0.67047937 6:0.65360758 7:0.21359362 8:0.3882347 9:0.46552185 10:0.51658228 \n2.5 1:1.7830329 2:0.63264543 3:0.64436368 4:0.63299184 5:0.67047937 6:0.65360758 7:0.24532274 8:0.43370746 9:0.51906029 10:0.58093829 \n2.5 1:1.8325885 2:0.69942376 3:0.6886145 4:0.67874275 5:0.67047937 6:0.65360758 7:0.25117123 8:0.46847962 9:0.55943079 10:0.61867507 \n2.5 1:1.8611426 2:0.77025272 3:0.78574037 4:0.79435668 5:0.67047937 6:0.65360758 7:0.33630575 8:0.62989232 9:0.72893565 10:0.7864562 \n2.5 1:1.8851661 2:0.82508845 3:0.85099023 4:0.86483307 5:0.67047937 6:0.65360758 7:0.41612161 8:0.75124892 9:0.83579143 10:0.87875657 \n2.5 1:1.9029913 2:0.86155685 3:0.88985066 4:0.90210526 5:0.67047937 6:0.65360758 7:0.48012003 8:0.82547847 9:0.89218414 10:0.92303987 \n2.5 1:1.6362606 2:0.23234833 3:0.19019287 4:0.4002864 5:0.59483517 6:0.69531343 7:0.25388284 8:0.42468318 9:0.52818092 10:0.61044487 \n2.5 1:1.6699269 2:0.37904323 3:0.47419533 4:0.65719718 5:0.59483517 6:0.69531343 7:0.33757357 8:0.61717325 9:0.73687091 10:0.80630622 \n2.5 1:1.7033836 2:0.51378534 3:0.65051434 4:0.74692278 5:0.59483517 6:0.69531343 7:0.35302049 8:0.63336843 9:0.735275 10:0.79288116 \n2.5 1:1.7156845 2:0.56124616 3:0.70740569 4:0.81568883 5:0.59483517 6:0.69531343 7:0.4646298 8:0.82460708 9:0.90086296 10:0.93411735 \n2.5 1:1.8906387 2:0.89918471 3:0.93841076 4:0.94426093 5:0.59483517 6:0.69531343 7:0.55750657 8:0.87351756 9:0.92517595 10:0.94832034 \n2.5 1:1.9469823 2:0.96617432 3:0.98326519 4:0.98547117 5:0.59483517 6:0.69531343 7:0.76920071 8:0.97447945 9:0.98666074 10:0.99114204 \n-2.5 1:1.5131933 2:0.16098333 3:0.22030587 4:0.43325328 5:0.30194495 6:0.28383858 7:0.044665086 8:0.39766706 9:0.56732679 10:0.70652029 \n-2.5 1:1.5463151 2:0.29119492 3:0.48908064 4:0.66237178 5:0.30194495 6:0.28383858 7:0.096622258 8:0.59717884 9:0.75893397 10:0.84265881 \n-2.5 1:1.587735 2:0.43249073 3:0.6784364 4:0.75830512 5:0.30194495 6:0.28383858 7:0.13297748 8:0.68083636 9:0.80204177 10:0.86083389 \n-2.5 1:1.5968872 2:0.45656123 3:0.70021617 4:0.79183369 5:0.30194495 6:0.28383858 7:0.1618655 8:0.7793692 9:0.88146282 10:0.92299096 \n2.5 1:1.7050135 2:0.71940961 3:0.86294983 4:0.89152387 5:0.30194495 6:0.28383858 7:0.25145788 8:0.86353425 9:0.92242849 10:0.94817193 \n2.5 1:1.7081566 2:0.7234791 3:0.86543255 4:0.89610713 5:0.30194495 6:0.28383858 7:0.26005162 8:0.87688414 9:0.93121025 10:0.95449859 \n2.5 1:1.8719513 2:0.91286096 3:0.94890102 4:0.95802896 5:0.30194495 6:0.28383858 7:0.31261694 8:0.90736466 9:0.95137802 10:0.96852605 \n2.5 1:1.4543488 2:0.11124651 3:0.036665214 4:0.085763152 5:1 6:1 7:0.0034208962 8:0.06559568 9:0.088072241 10:0.10111808 \n-2.5 1:1.5210047 2:0.35352952 3:0.4955494 4:0.50043527 5:1 6:1 7:0.061536675 8:0.2856579 9:0.37684597 10:0.44080203 \n-2.5 1:1.5354593 2:0.3989388 3:0.57889182 4:0.63566985 5:1 6:1 7:0.10166236 8:0.43889631 9:0.55930901 10:0.63557233 \n0.3649090310494936 1:1.6204626 2:0.5905572 3:0.70208909 4:0.6768092 5:1 6:1 7:0.1278093 8:0.46795261 9:0.5773817 10:0.64923091 \n2.5 1:1.6335636 2:0.62251258 3:0.7436655 4:0.73447234 5:1 6:1 7:0.15711012 8:0.55134414 9:0.66305242 10:0.7318613 \n-2.5 1:1.7783928 2:0.77655214 3:0.81785727 4:0.7833511 5:1 6:1 7:0.1787315 8:0.59206602 9:0.70160466 10:0.76500326 \n2.5 1:1.8054366 2:0.81865909 3:0.85836477 4:0.83715056 5:1 6:1 7:0.22057656 8:0.68154537 9:0.78312763 10:0.83712647 \n2.5 1:1.8267768 2:0.8496628 3:0.88733986 4:0.87364272 5:1 6:1 7:0.25845159 8:0.75095697 9:0.84062673 10:0.8848643 \n-2.5 1:1.8715539 2:0.90416129 3:0.93455151 4:0.93479288 5:1 6:1 7:0.34967307 8:0.87263675 9:0.92874272 10:0.95245031 \n-2.5 1:1.8852545 2:0.9181883 3:0.94687838 4:0.94896045 5:1 6:1 7:0.38363164 8:0.90195366 9:0.94721311 10:0.96546564 \n-2.5 1:1.8827587 2:0.63602692 3:0.48684131 4:0.50637141 5:0.59359704 6:0.60349978 7:0.30613855 8:0.5501884 9:0.63507418 10:0.69921871 \n-2.5 1:1.8935399 2:0.71992431 3:0.66706261 4:0.69428872 5:0.59359704 6:0.60349978 7:0.39213386 8:0.69127321 9:0.77191106 10:0.82345762 \n-2.5 1:1.9015637 2:0.78777179 3:0.77101332 4:0.77778162 5:0.59359704 6:0.60349978 7:0.43249652 8:0.7471404 9:0.81818547 10:0.86246211 \n-2.5 1:1.904242 2:0.80333896 3:0.80311497 4:0.82633951 5:0.59359704 6:0.60349978 7:0.49339103 8:0.82858559 9:0.8857902 10:0.91928407 \n-2.5 1:1.9208705 2:0.87857839 3:0.88185205 4:0.89080162 5:0.59359704 6:0.60349978 7:0.54288529 8:0.87835745 9:0.92321476 10:0.94810517 \n",
        "score_transform": {
            "p2": -0.0077697,
            "out_gte_in": "true",
            "p0": 13.02110768,
            "p1": 1.54051711
        },
        "norm_type": "linear_rescale",
        "score_clip": [
            0.0,
            100.0
        ],
        "feature_names": [
            "VMAF_feature_adm_scale0_score",
            "VMAF_feature_adm_scale1_score",
            "VMAF_feature_adm_scale2_score",
            "VMAF_feature_adm_scale3_score",
            "VMAF_feature_motion2_score",
            "VMAF_feature_motion_score",
            "VMAF_feature_vif_scale0_score",
            "VMAF_feature_vif_scale1_score",
            "VMAF_feature_vif_scale2_score",
            "VMAF_feature_vif_scale3_score"
        ],
        "intercepts": [
            0.0,
            0.0,
            -0.608499512947791,
            -0.8835643233703994,
            -2.515001251554537,
            -0.0026077194873407876,
            -0.047478623057892314,
            -0.08203930409252254,
            -0.28580569810409906,
            -0.4801667335681057,
            -0.7764750530230472
        ],
        "model_type": "LIBSVMNUSVR",
        "slopes": [
            0.010097087378640776,
            2.0,
            1.608499512947791,
            1.8835643233703991,
            3.515001251554537,
            0.0658832399405847,
            0.06785731316856453,
            1.0820392911303012,
            1.2858060650284484,
            1.480167484761588,
            1.7764758964900356
        ],
        "feature_dict": {
            "VMAF_feature": [
                "vif_scale0",
                "vif_scale1",
                "vif_scale2",
                "vif_scale3",
                "adm_scale0",
                "adm_scale1",
                "adm_scale2",
                "adm_scale3",
                "motion",
                "motion2"
            ]
        }
    }
}