{
    "param_dict": {
        "C": 2.5,
        "score_transform": {
            "p0": 40.0,
            "p1": 1.0,
            "knots": [[0.0, -36.66], [90.0, 83.04], [95.0, 95.0], [100.0, 100.0]],
            "enabled": true
        },
        "norm_type": "custom_clip_0to1",
        "score_clip": [
            0.0,
            100.0
        ],
        "custom_clip_0to1_map": {
            "VMAF_feature_adm_scale0_score": [
                0.0,
                0.5
            ]
        },
        "nu": 0.9,
        "gamma": 0.025
    },
    "model_dict": {
        "model": "svm_type nu_svr\nkernel_type rbf\ngamma 0.025\nnr_class 2\ntotal_sv 273\nrho -1.41432\nSV\n-2.5 1:2 2:1 3:1 4:1 5:0.62088962 6:0.99999729 7:0.99999079 8:0.99998943 9:0.9999878 \n-2.5 1:2 2:1 3:1 4:1 5:0.65543527 6:0.99999928 7:0.99999008 8:0.99999023 9:0.99999072 \n2.5 1:2 2:1 3:1 4:1 5:0.085951526 6:0.99999967 7:0.99999931 8:0.99999872 9:0.99999861 \n2.5 1:2 2:1 3:1 4:1 5:0.029394122 6:0.99999928 7:0.99999873 8:0.99999804 9:0.99999741 \n1.412422996633629 1:2 2:1 3:1 4:1 5:0.1472883 6:0.9999987 7:0.99999371 8:0.99999143 9:0.99998967 \n2.5 1:2 2:1 3:1 4:1 5:0.14026126 6:0.99999973 7:0.9999937 8:0.99999259 9:0.99999167 \n2.5 1:2 2:1 3:1 4:1 5:0.038831993 6:0.99999999 7:0.99998544 8:0.99998769 9:0.99998762 \n2.5 1:2 2:1 3:1 4:1 5:0.064303106 6:0.99999729 7:0.9999976 8:0.99999642 9:0.99999501 \n-2.5 1:2 2:1 3:1 4:1 5:0.61859638 6:0.99999967 7:0.99999961 8:0.99999956 9:0.99999942 \n2.5 1:2 2:1 3:1 4:1 5:0.082560249 6:0.99999978 7:1 8:0.99999986 9:0.99999943 \n-2.311812163981451 1:2 2:1 3:1 4:1 5:0.46816011 6:0.99999997 7:0.99999972 8:0.99999951 9:0.99999944 \n2.5 1:2 2:1 3:1 4:1 5:0.069072748 6:0.99999875 7:0.99999776 8:0.99999696 9:0.99999679 \n2.5 1:2 2:1 3:1 4:1 5:0.024838168 6:0.99999423 7:0.99999014 8:0.99998509 9:0.99998361 \n-2.5 1:2 2:1 3:1 4:1 5:0.6153528 6:0.99999787 7:0.99999755 8:0.99999626 9:0.99999604 \n2.5 1:2 2:1 3:1 4:1 6:0.99998133 7:0.999983 8:0.99997894 9:0.99997401 \n-2.5 1:2 2:1 3:1 4:1 5:1 6:0.99999962 7:0.99999866 8:0.99999751 9:0.9999972 \n-2.5 1:1.9987862 2:0.72695279 3:0.46525462 4:0.57098571 5:0.62088962 6:0.28471828 7:0.6599357 8:0.74227364 9:0.79604181 \n-2.5 1:1.9988979 2:0.7793769 3:0.63985121 4:0.71793319 5:0.62088962 6:0.32379833 7:0.73192239 8:0.8091119 9:0.85075263 \n-2.5 1:1.9989097 2:0.78429425 3:0.65660748 4:0.74241529 5:0.62088962 6:0.34310539 7:0.7710166 8:0.84821007 9:0.88803982 \n2.5 1:1.9990362 2:0.83167203 3:0.76086329 4:0.81636843 5:0.62088962 6:0.37137887 7:0.81441984 8:0.88205746 9:0.91458784 \n2.5 1:1.999037 2:0.84158131 3:0.78987861 4:0.84240007 5:0.62088962 6:0.39967972 7:0.85595164 8:0.9157471 9:0.94250616 \n2.5 1:1.9992575 2:0.90447978 3:0.87882873 4:0.9044625 5:0.62088962 6:0.43471552 7:0.88766843 8:0.93741664 9:0.9585333 \n2.5 1:1.999531 2:0.94605424 3:0.93195457 4:0.94486189 5:0.62088962 6:0.46452669 7:0.9182414 8:0.9574509 9:0.97241904 \n2.5 1:1.999552 2:0.94939509 3:0.9384283 4:0.95303129 5:0.62088962 6:0.48597643 7:0.9305327 8:0.96475729 9:0.97745993 \n-2.5 1:1.9988005 2:0.69690022 3:0.40555373 4:0.57293404 5:0.15953708 6:0.36317217 7:0.68950873 8:0.78239809 9:0.85158747 \n-2.5 1:1.9989412 2:0.75141347 3:0.61454031 4:0.73713455 5:0.15953708 6:0.41417736 7:0.78235666 8:0.86244965 9:0.90555751 \n-2.5 1:1.998948 2:0.75396895 3:0.62180878 4:0.74596863 5:0.15953708 6:0.42508332 7:0.80053532 8:0.87876269 9:0.9200904 \n-2.5 1:1.9991253 2:0.81272085 3:0.7529639 4:0.82981851 5:0.15953708 6:0.46459101 7:0.85524901 8:0.91515255 9:0.94242838 \n2.5 1:1.9994059 2:0.91269705 3:0.89439823 4:0.91716359 5:0.15953708 6:0.55908212 7:0.92010017 8:0.95523582 9:0.97025951 \n1.771644436632871 1:1.9996878 2:0.9635586 3:0.95611534 4:0.96368298 5:0.15953708 6:0.59100246 7:0.94263235 8:0.97007599 9:0.98057943 \n2.5 1:1.9996991 2:0.9654259 3:0.95933798 4:0.96730875 5:0.15953708 6:0.60591716 7:0.94910376 8:0.97388347 9:0.98321652 \n2.5 1:1.9982634 2:0.71242335 3:0.48328704 4:0.53026833 5:0.65543527 6:0.1105355 7:0.53484871 8:0.64893422 9:0.70087464 \n2.5 1:1.998328 2:0.7488999 3:0.62942359 4:0.67413161 5:0.65543527 6:0.12495822 7:0.58400599 8:0.70635954 9:0.7607453 \n2.5 1:1.9983377 2:0.75291306 3:0.64842949 4:0.70517953 5:0.65543527 6:0.13451679 7:0.62138477 8:0.74951468 9:0.80606243 \n2.5 1:1.998426 2:0.79098301 3:0.73401666 4:0.78317958 5:0.65543527 6:0.14417567 7:0.65373301 8:0.78298915 9:0.83855278 \n2.5 1:1.998415 2:0.80339799 3:0.76695212 4:0.81650896 5:0.65543527 6:0.15923306 7:0.70074504 8:0.82731771 9:0.87915168 \n2.5 1:1.9986057 2:0.84859731 3:0.83348051 4:0.87782616 5:0.65543527 6:0.17190925 7:0.73024183 8:0.8525341 9:0.90082959 \n2.5 1:1.9988228 2:0.87560017 3:0.87373706 4:0.91358978 5:0.65543527 6:0.19792868 7:0.78521967 8:0.89113105 9:0.92976191 \n2.5 1:1.9988762 2:0.88084079 3:0.88232334 4:0.92182699 5:0.65543527 6:0.21717035 7:0.81133787 8:0.90743787 9:0.94136968 \n-2.5 1:1.9929056 2:0.34733791 3:0.54908057 4:0.73279628 5:0.085951526 6:0.34502639 7:0.68077003 8:0.81835904 9:0.90302768 \n-2.5 1:1.9929077 2:0.34851271 3:0.55122108 4:0.73454324 5:0.085951526 6:0.35280783 7:0.69186542 8:0.82773063 9:0.91068732 \n-2.5 1:1.9936565 2:0.49053106 3:0.71963164 4:0.83840224 5:0.085951526 6:0.42866317 7:0.81686449 8:0.91192661 9:0.9553054 \n-2.5 1:1.9936592 2:0.51737867 3:0.74123444 4:0.84619804 5:0.085951526 6:0.45592342 7:0.84370894 8:0.92588355 9:0.96391712 \n2.5 1:1.9954306 2:0.77496353 3:0.89760083 4:0.93805512 5:0.085951526 6:0.60981082 7:0.95094606 8:0.97756305 9:0.987971 \n-2.5 1:1.9998232 2:0.99250311 3:0.99733277 4:0.99785337 5:0.085951526 6:0.88719184 7:0.99179222 8:0.99604317 9:0.99746942 \n2.5 1:1.9932583 2:0.16888342 3:0.28267373 4:0.53502514 5:0.029394122 6:0.21781789 7:0.44794961 8:0.63031085 9:0.80683337 \n-2.5 1:1.993942 2:0.33008757 3:0.54680076 4:0.72940839 5:0.029394122 6:0.31217271 7:0.64691363 8:0.81222875 9:0.91233255 \n-2.5 1:1.994832 2:0.49338893 3:0.71263801 4:0.83126933 5:0.029394122 6:0.39695052 7:0.78959953 8:0.90634845 9:0.95720779 \n2.5 1:1.9947797 2:0.51643895 3:0.73591827 4:0.8390962 5:0.029394122 6:0.42163817 7:0.81669421 8:0.91935657 9:0.96453704 \n2.5 1:1.9965756 2:0.77732242 3:0.89552881 4:0.93617411 5:0.029394122 6:0.61994475 7:0.94847901 8:0.97833681 9:0.98936287 \n-2.5 1:1.9998989 2:0.99700647 3:0.99903575 4:0.99924473 5:0.029394122 6:0.93628712 7:0.99679004 8:0.99846782 9:0.99903209 \n2.5 1:1.993012 2:0.25712941 3:0.36012639 4:0.59175437 5:0.26253304 6:0.53747682 7:0.67709658 8:0.78147292 9:0.89438501 \n2.5 1:1.9933779 2:0.40526125 3:0.57829311 4:0.76447221 5:0.26253304 6:0.57154132 7:0.78374675 8:0.88273797 9:0.95231028 \n2.5 1:1.9933772 2:0.40594306 3:0.57977311 4:0.76479708 5:0.26253304 6:0.57217174 7:0.78570521 8:0.88458261 9:0.95372026 \n2.5 1:1.9940627 2:0.54195394 3:0.73667412 4:0.85770859 5:0.26253304 6:0.60415211 7:0.86708224 8:0.94261359 9:0.979918 \n2.5 1:1.9940625 2:0.56284508 3:0.75584828 4:0.86669913 5:0.26253304 6:0.61437831 7:0.88329317 8:0.95083985 9:0.98427286 \n2.5 1:1.9957229 2:0.79872334 3:0.90462908 4:0.9466273 5:0.26253304 6:0.70327387 7:0.96928503 8:0.99028698 9:0.99745142 \n-2.5 1:1.9999844 2:0.99916496 3:0.99978198 4:0.99966723 5:0.26253304 6:0.98492824 7:0.9992265 8:0.99963817 9:0.99980213 \n-2.5 1:1.9981998 2:0.77072918 3:0.44117569 4:0.49408591 5:0.1472883 6:0.12341491 7:0.54445995 8:0.67434031 9:0.75364476 \n-2.5 1:1.9982434 2:0.80360446 3:0.61431878 4:0.65665081 5:0.1472883 6:0.14633602 7:0.63327038 8:0.75440653 9:0.81559812 \n1.307761295367502 1:1.9982497 2:0.80706806 3:0.62679236 4:0.68323401 5:0.1472883 6:0.15450261 7:0.67157493 8:0.79117927 9:0.84890402 \n-2.5 1:1.998327 2:0.84217393 3:0.7391327 4:0.76754503 5:0.1472883 6:0.17154761 7:0.7289832 8:0.83464135 9:0.88241998 \n2.5 1:1.9983361 2:0.85144969 3:0.77126739 4:0.79121975 5:0.1472883 6:0.18695323 7:0.77677651 8:0.87086013 9:0.91093923 \n2.5 1:1.9984791 2:0.89631214 3:0.85839871 4:0.86027875 5:0.1472883 6:0.20823857 7:0.81077431 8:0.89483047 9:0.92942566 \n2.5 1:1.9987453 2:0.91920937 3:0.90392811 4:0.91222197 5:0.1472883 6:0.21949493 7:0.84833637 8:0.9221387 9:0.95035945 \n-2.5 1:1.9988085 2:0.92285777 3:0.90999355 4:0.9157988 5:0.1472883 6:0.23205669 7:0.8665599 8:0.93295684 9:0.9578712 \n2.5 1:1.9972873 2:0.57210158 3:0.34148414 4:0.51963318 5:0.14026126 6:0.10126273 7:0.56047317 8:0.68925028 9:0.78221287 \n-2.5 1:1.9974327 2:0.63178046 3:0.55983192 4:0.70320171 5:0.14026126 6:0.13445395 7:0.67918973 8:0.79420208 9:0.85404397 \n-2.5 1:1.9974433 2:0.63551133 3:0.56772818 4:0.71299078 5:0.14026126 6:0.13997738 7:0.70414892 8:0.81793359 9:0.87534595 \n2.5 1:1.9976885 2:0.71046124 3:0.71291949 4:0.80560626 5:0.14026126 6:0.16320772 7:0.77304885 8:0.86505001 9:0.90628063 \n2.5 1:1.9977032 2:0.72908919 3:0.74487574 4:0.82108584 5:0.14026126 6:0.17651395 7:0.80764189 8:0.88905123 9:0.92412745 \n2.5 1:1.9982528 2:0.85640161 3:0.87331957 4:0.89492201 5:0.14026126 6:0.20803404 7:0.84764705 8:0.91409677 9:0.94167352 \n2.5 1:1.9990898 2:0.94442788 3:0.94164801 4:0.9487919 5:0.14026126 6:0.22166253 7:0.87279839 8:0.93343785 9:0.95689315 \n2.5 1:1.9991151 2:0.94637559 3:0.94406291 4:0.9542329 5:0.14026126 6:0.23011673 7:0.8828666 8:0.9399397 9:0.9617025 \n-2.5 1:1.9981933 2:0.75656433 3:0.50868025 4:0.60256221 5:0.19986203 6:0.14383844 7:0.73829094 8:0.81603677 9:0.85595957 \n2.5 1:1.9982633 2:0.79628535 3:0.67472487 4:0.74218787 5:0.19986203 6:0.15680151 7:0.78772395 8:0.8630424 9:0.89601386 \n2.5 1:1.9982663 2:0.79789265 3:0.68124647 4:0.75350196 5:0.19986203 6:0.16041931 7:0.8054275 8:0.8795366 9:0.91128178 \n2.5 1:1.9983626 2:0.83533927 3:0.77895055 4:0.82660583 5:0.19986203 6:0.16789364 7:0.83127922 8:0.90072936 9:0.92855272 \n2.5 1:1.9983627 2:0.84464025 3:0.80104309 4:0.84381646 5:0.19986203 6:0.17571056 7:0.85519703 8:0.91900384 9:0.94337939 \n2.5 1:1.9985505 2:0.89658391 3:0.88254427 4:0.90737351 5:0.19986203 6:0.18526461 7:0.87114837 8:0.93120916 9:0.95345941 \n-2.5 1:1.9988517 2:0.92963164 3:0.92949943 4:0.94798814 5:0.19986203 6:0.19310586 7:0.88842969 8:0.94366205 9:0.96310817 \n-2.5 1:1.9988878 2:0.93182847 3:0.93195883 4:0.95160521 5:0.19986203 6:0.20141739 7:0.89806671 8:0.94947889 9:0.96737567 \n-2.5 1:1.998107 2:0.7581566 3:0.52672367 4:0.63067291 5:0.038831993 6:0.035257292 7:0.77763839 8:0.87719208 9:0.91955713 \n-2.5 1:1.9981883 2:0.79964279 3:0.6850063 4:0.77222997 5:0.038831993 6:0.050518663 7:0.83305085 8:0.91281074 9:0.94141895 \n-2.5 1:1.9981897 2:0.8001274 3:0.68679887 4:0.77315484 5:0.038831993 6:0.052081399 7:0.83907743 8:0.91704552 9:0.9446071 \n-2.5 1:1.9982642 2:0.84452506 3:0.78526352 4:0.84606946 5:0.038831993 6:0.062534439 7:0.86688941 8:0.9322795 9:0.95445375 \n-2.5 1:1.9982547 2:0.85114761 3:0.80023989 4:0.85355044 5:0.038831993 6:0.069073803 7:0.8778967 8:0.93833493 9:0.95877692 \n-2.5 1:1.9984354 2:0.89948221 3:0.8904036 4:0.91872518 5:0.038831993 6:0.082598264 7:0.89034091 8:0.94600748 9:0.96449379 \n2.5 1:1.9987222 2:0.92820332 3:0.93893489 4:0.96124082 5:0.038831993 6:0.090058083 7:0.90364058 8:0.95512668 9:0.9718359 \n-2.5 1:1.9987547 2:0.92990337 3:0.94065384 4:0.96363115 5:0.038831993 6:0.09804474 7:0.90878157 8:0.95787056 9:0.97379221 \n2.5 1:1.9964055 2:0.45242731 3:0.3064244 4:0.52955393 5:0.064303106 6:0.13527901 7:0.4834432 8:0.67518466 9:0.80684482 \n2.5 1:1.9966439 2:0.54166818 3:0.54530803 4:0.71351253 5:0.064303106 6:0.18654831 7:0.63969039 8:0.80095472 9:0.87875528 \n2.5 1:1.9966557 2:0.54500326 3:0.54896213 4:0.71709012 5:0.064303106 6:0.19402856 7:0.66197431 8:0.81857986 9:0.89165332 \n2.5 1:1.9969995 2:0.63671322 3:0.70911297 4:0.81080007 5:0.064303106 6:0.24078005 7:0.76540787 8:0.87719689 9:0.92301153 \n-2.5 1:1.9970142 2:0.65588511 3:0.73184685 4:0.8200811 5:0.064303106 6:0.26327283 7:0.80213103 8:0.89678707 9:0.9355038 \n2.5 1:1.9978592 2:0.82675607 3:0.87562331 4:0.9098849 5:0.064303106 6:0.36007261 7:0.87565985 8:0.93315733 9:0.95814037 \n2.5 1:1.9993163 2:0.95074302 3:0.95875645 4:0.97031781 5:0.064303106 6:0.4409094 7:0.91717064 8:0.95885475 9:0.97572253 \n2.5 1:1.9962052 2:0.51184129 3:0.33500276 4:0.58487813 5:0.22687834 6:0.37828753 7:0.59283997 8:0.6986829 9:0.76721953 \n-1.569136205047518 1:1.9966992 2:0.59583461 3:0.57581274 4:0.74702345 5:0.22687834 6:0.43406042 7:0.69545545 8:0.78844497 9:0.83548565 \n-2.5 1:1.9967106 2:0.60345996 3:0.58581636 4:0.76746993 5:0.22687834 6:0.4533295 7:0.73365473 8:0.8283423 9:0.87437613 \n-2.5 1:1.9968645 2:0.69094504 3:0.72211085 4:0.84260515 5:0.22687834 6:0.50368236 7:0.80877338 8:0.88125545 9:0.91311785 \n2.5 1:1.9968885 2:0.71102003 3:0.750361 4:0.86300127 5:0.22687834 6:0.53929031 7:0.85927598 8:0.92157707 9:0.94661509 \n2.5 1:1.9979189 2:0.85689704 3:0.88419617 4:0.93394777 5:0.22687834 6:0.64342603 7:0.92235378 8:0.95594401 9:0.97022052 \n2.5 1:1.9997647 2:0.97267041 3:0.97889383 4:0.9826335 5:0.22687834 6:0.74867139 7:0.96174708 8:0.97865813 9:0.9855907 \n-2.5 1:1.9997772 2:0.97620501 3:0.98269015 4:0.98565684 5:0.22687834 6:0.76761303 7:0.96943688 8:0.98331581 9:0.98886018 \n2.5 1:1.9935069 2:0.2015269 3:0.12946405 4:0.31240591 5:0.37637442 6:0.11345038 7:0.17140411 8:0.2101569 9:0.24593902 \n-2.5 1:1.9939394 2:0.29883556 3:0.35049743 4:0.49459479 5:0.37637442 6:0.14082884 7:0.24538952 8:0.29907456 9:0.33850931 \n-2.5 1:1.9940123 2:0.3162391 3:0.39477057 4:0.56381724 5:0.37637442 6:0.16006938 7:0.3034939 8:0.37958679 9:0.43704105 \n-2.5 1:1.9944209 2:0.44003008 3:0.5468699 4:0.65866904 5:0.37637442 6:0.19192638 7:0.37748708 8:0.45920897 9:0.51712537 \n-2.5 1:1.994547 2:0.48055647 3:0.62808306 4:0.7387397 5:0.37637442 6:0.23713622 7:0.49728842 8:0.59955195 9:0.6663985 \n-2.5 1:1.9984101 2:0.87385355 3:0.88536105 4:0.89527401 5:0.37637442 6:0.41179694 7:0.71798944 8:0.79723708 9:0.84286184 \n2.5 1:1.9986388 2:0.89725841 3:0.90946426 4:0.91981387 5:0.37637442 6:0.45966149 7:0.78017661 8:0.85110756 9:0.88888462 \n2.5 1:1.9957178 2:0.40977573 3:0.29960742 4:0.53744625 5:0.32132965 6:0.30484151 7:0.50062555 8:0.6075909 9:0.6916297 \n-2.5 1:1.9960706 2:0.49284397 3:0.52675399 4:0.71334005 5:0.32132965 6:0.35108935 7:0.61349485 8:0.71796257 9:0.78182012 \n-2.5 1:1.9961072 2:0.50175757 3:0.55037601 4:0.7424918 5:0.32132965 6:0.37319636 7:0.66423814 8:0.77332779 9:0.83534355 \n2.5 1:1.9963909 2:0.60792096 3:0.69607854 4:0.81858697 5:0.32132965 6:0.42426835 7:0.75235195 8:0.83955092 9:0.88310738 \n2.5 1:1.9975621 2:0.80301439 3:0.8762196 4:0.92453265 5:0.32132965 6:0.58573512 7:0.90352557 8:0.94326462 9:0.96180164 \n-2.5 1:1.999657 2:0.96909066 3:0.96957034 4:0.97765335 5:0.32132965 6:0.73526545 7:0.95321168 8:0.97343144 9:0.98211012 \n-2.5 1:1.9935859 2:0.23753174 3:0.18409303 4:0.36975145 5:0.61859638 6:0.16875999 7:0.25114873 8:0.28759208 9:0.31490107 \n-2.5 1:1.9940867 2:0.33809401 3:0.41883873 4:0.55302642 5:0.61859638 6:0.20391488 7:0.34120445 8:0.39310304 9:0.42440037 \n-2.5 1:1.9941497 2:0.3582956 3:0.46612171 4:0.64075476 5:0.61859638 6:0.23048751 7:0.41232132 8:0.48952139 9:0.54289809 \n-2.5 1:1.9945614 2:0.48543636 3:0.6160955 4:0.73383354 5:0.61859638 6:0.27237018 7:0.50152943 8:0.58096558 9:0.6325797 \n-2.5 1:1.9946793 2:0.52235799 3:0.68864514 4:0.81541041 5:0.61859638 6:0.32696573 7:0.62757068 8:0.72294932 9:0.77900186 \n-2.5 1:1.9962025 2:0.72618772 3:0.83622041 4:0.88725997 5:0.61859638 6:0.42294902 7:0.73414303 8:0.80712466 9:0.84916155 \n-2.5 1:1.9991691 2:0.94030057 3:0.94400225 4:0.95446263 5:0.61859638 6:0.57383306 7:0.84897827 8:0.90027011 9:0.92623884 \n-2.5 1:1.9993333 2:0.95493244 3:0.96007187 4:0.96985754 5:0.61859638 6:0.62990919 7:0.8953473 8:0.93503901 9:0.95375127 \n2.5 1:1.9932312 2:2.220446e-16 3:0.15581602 4:0.4752608 5:0.082560249 6:0.19874924 7:0.40337922 8:0.61274472 9:0.8105974 \n2.5 1:1.9941313 2:0.17999699 3:0.44721111 4:0.68960328 5:0.082560249 6:0.27738962 7:0.60155207 8:0.79900726 9:0.91107745 \n2.5 1:1.9941335 2:0.18098487 3:0.44825847 4:0.69195378 5:0.082560249 6:0.27887687 7:0.60612125 8:0.80427185 9:0.91644232 \n2.5 1:1.9954903 2:0.37682441 3:0.64260203 4:0.80842161 5:0.082560249 6:0.36218223 7:0.75727682 8:0.90334086 9:0.95976102 \n2.5 1:1.9955768 2:0.41819389 3:0.67092505 4:0.82067917 5:0.082560249 6:0.38762586 7:0.78874054 8:0.91736487 9:0.96694371 \n2.5 1:1.9977497 2:0.75314042 3:0.87379858 4:0.93115414 5:0.082560249 6:0.64450377 7:0.94508005 8:0.97969348 9:0.99102268 \n-2.5 1:1.9999619 2:0.99904689 3:0.99967014 4:0.99964238 5:0.082560249 6:0.97746638 7:0.99901236 8:0.99947611 9:0.99962996 \n2.5 1:1.9978153 2:0.45668696 3:0.22639833 4:0.38978839 5:0.46816011 6:0.13789351 7:0.20301332 8:0.27524587 9:0.35544723 \n-2.5 1:1.9980678 2:0.55067064 3:0.46640454 4:0.59032132 5:0.46816011 6:0.20219962 7:0.32497873 8:0.4156472 9:0.49611268 \n-2.5 1:1.9981072 2:0.56458894 3:0.49893868 4:0.63377503 5:0.46816011 6:0.23196381 7:0.38746799 8:0.49536771 9:0.58549098 \n-2.5 1:1.9984103 2:0.66501861 3:0.65342647 4:0.73858297 5:0.46816011 6:0.28654516 7:0.48528814 8:0.59504417 9:0.6771264 \n2.5 1:1.9984482 2:0.70208081 3:0.71285768 4:0.78759269 5:0.46816011 6:0.3590985 7:0.60832279 8:0.72010505 9:0.79414841 \n2.5 1:1.9988985 2:0.84204015 3:0.84596606 4:0.87481124 5:0.46816011 6:0.44536756 7:0.71497393 8:0.80801879 9:0.86447757 \n2.5 1:1.999322 2:0.92164049 3:0.92398288 4:0.93841985 5:0.46816011 6:0.51887586 7:0.80652647 8:0.88255092 9:0.92186388 \n2.5 1:1.9993579 2:0.92986447 3:0.93502334 4:0.94919509 5:0.46816011 6:0.54907403 7:0.8391454 8:0.90645951 9:0.93960665 \n-2.5 1:1.9979018 2:0.55714804 3:0.30293321 4:0.48681577 5:0.19672318 6:0.29328746 7:0.47360809 8:0.59075682 9:0.68128026 \n-2.5 1:1.9980685 2:0.62565184 3:0.52508907 4:0.66603247 5:0.19672318 6:0.37032887 7:0.60851358 8:0.71604844 9:0.78016622 \n-2.5 1:1.9980951 2:0.63521566 3:0.55051353 4:0.69560748 5:0.19672318 6:0.39823887 7:0.65939628 8:0.76826198 9:0.82978871 \n-2.5 1:1.9983418 2:0.71447561 3:0.69425345 4:0.7890473 5:0.19672318 6:0.46569919 7:0.75225255 8:0.83717394 9:0.88159531 \n2.5 1:1.9988708 2:0.86355475 3:0.8719868 4:0.90590128 5:0.19672318 6:0.63112255 7:0.89800537 8:0.93912658 9:0.95852999 \n2.5 1:1.9995213 2:0.95207945 3:0.95137251 4:0.96378759 5:0.19672318 6:0.70137563 7:0.94440835 8:0.96878542 9:0.97882619 \n2.5 1:1.999565 2:0.95819486 3:0.9589363 4:0.97052358 5:0.19672318 6:0.72446384 7:0.95565683 8:0.97557133 9:0.98359429 \n-2.5 1:1.9985021 2:0.65619369 3:0.4118482 4:0.55508966 5:0.069072748 6:0.35138469 7:0.56659314 8:0.67483952 9:0.76663324 \n-2.5 1:1.9986172 2:0.71167052 3:0.60457945 4:0.7242294 5:0.069072748 6:0.44282088 7:0.71260179 8:0.80516445 9:0.86128409 \n-2.5 1:1.9986357 2:0.71807549 3:0.62044498 4:0.73823237 5:0.069072748 6:0.46673562 7:0.75116919 8:0.83945619 9:0.89013655 \n-2.5 1:1.9988112 2:0.7759405 3:0.74982621 4:0.82427352 5:0.069072748 6:0.52945971 7:0.83293186 8:0.89618364 9:0.92784044 \n-2.5 1:1.9988181 2:0.79521325 3:0.78216672 4:0.84588363 5:0.069072748 6:0.57507576 7:0.87741477 8:0.92642719 9:0.9503449 \n2.5 1:1.9991918 2:0.89807987 3:0.89780149 4:0.92517826 5:0.069072748 6:0.66615338 7:0.93016663 8:0.95852513 9:0.97195902 \n2.5 1:1.9996471 2:0.96528899 3:0.95945469 4:0.97249477 5:0.069072748 6:0.7048268 7:0.95506189 8:0.97471334 9:0.98274394 \n2.5 1:1.999663 2:0.96760042 3:0.96287844 4:0.9757205 5:0.069072748 6:0.71883431 7:0.96070982 8:0.97811927 9:0.9851199 \n-2.5 1:1.9988781 2:0.72928292 3:0.42885246 4:0.53632582 5:0.32024296 6:0.46738067 7:0.61522089 8:0.66393896 9:0.69033856 \n-2.5 1:1.9989811 2:0.77391822 3:0.60762882 4:0.69539912 5:0.32024296 6:0.49668554 7:0.67097253 8:0.72838492 9:0.75985279 \n-1.11905163097103 1:1.998994 2:0.77910263 3:0.63071409 4:0.72391189 5:0.32024296 6:0.52098374 7:0.71662894 8:0.78064948 9:0.81645797 \n-2.5 1:1.9991194 2:0.82856414 3:0.73731464 4:0.80414539 5:0.32024296 6:0.5461248 7:0.75910395 8:0.82175845 9:0.85532884 \n2.5 1:1.9991381 2:0.84303317 3:0.78298854 4:0.84354552 5:0.32024296 6:0.59885706 7:0.83808461 8:0.89334991 9:0.91997101 \n2.5 1:1.9993947 2:0.91386814 3:0.88725688 4:0.90961625 5:0.32024296 6:0.64492493 7:0.88591045 8:0.92952674 9:0.94932761 \n-2.5 1:1.9997248 2:0.9664824 3:0.95379277 4:0.96431191 5:0.32024296 6:0.68941955 7:0.93381569 8:0.96303272 9:0.97470906 \n-2.5 1:1.9997511 2:0.9716021 3:0.96259585 4:0.9730018 5:0.32024296 6:0.71439359 7:0.95040237 8:0.97316178 9:0.98194096 \n-2.5 1:1.9993495 2:0.82781752 3:0.51767263 4:0.54052239 5:0.24615236 6:0.69193697 7:0.78256967 8:0.81221005 9:0.82634328 \n-2.5 1:1.9994082 2:0.85824184 3:0.66270695 4:0.6846076 5:0.24615236 6:0.72638362 7:0.83182981 8:0.86311597 9:0.87753352 \n2.5 1:1.9994161 2:0.86167873 3:0.68511897 4:0.71962202 5:0.24615236 6:0.74776807 7:0.86204247 8:0.8942894 9:0.90965459 \n2.5 1:1.9994934 2:0.89314993 3:0.77731347 4:0.80358783 5:0.24615236 6:0.77507907 7:0.89690184 8:0.92487946 9:0.9374063 \n2.5 1:1.9995044 2:0.90233071 3:0.81582661 4:0.84414934 5:0.24615236 6:0.81166689 7:0.93470572 8:0.95598757 9:0.96484279 \n2.5 1:1.999656 2:0.94666635 3:0.90194743 4:0.91117794 5:0.24615236 6:0.8436011 7:0.95907188 8:0.97354318 9:0.979415 \n2.5 1:1.999842 2:0.98048037 3:0.96310129 4:0.96853066 5:0.24615236 6:0.86670871 7:0.97955311 8:0.98803337 9:0.99122745 \n2.5 1:1.9998583 2:0.98374103 3:0.97132626 4:0.97693313 5:0.24615236 6:0.87923717 7:0.98514841 8:0.99149005 9:0.99380957 \n-2.5 1:1.9991532 2:0.80871278 3:0.53670262 4:0.62638649 5:0.024838168 6:0.51468219 7:0.79483189 8:0.88321878 9:0.9263062 \n-2.5 1:1.9992191 2:0.83873939 3:0.68841418 4:0.76894528 5:0.024838168 6:0.57291591 7:0.86925502 8:0.93061293 9:0.95516441 \n-2.5 1:1.9992219 2:0.83984831 3:0.69225594 4:0.77385496 5:0.024838168 6:0.5801107 7:0.87717016 8:0.93607329 9:0.95944694 \n-2.5 1:1.9993194 2:0.8746219 3:0.79608551 4:0.85139151 5:0.024838168 6:0.62296384 7:0.91969545 8:0.95796192 9:0.97268796 \n-2.5 1:1.9993235 2:0.88299945 3:0.8161538 4:0.86388998 5:0.024838168 6:0.64607783 7:0.93262649 8:0.9647976 9:0.97786449 \n2.5 1:1.9995167 2:0.94068931 3:0.91250887 4:0.93254019 5:0.024838168 6:0.7139568 7:0.96316834 8:0.9806948 9:0.98772162 \n-2.5 1:1.9997857 2:0.97819824 3:0.96380933 4:0.9759672 5:0.024838168 6:0.74812149 7:0.98152169 8:0.99071408 9:0.99379 \n-2.5 1:1.9997929 2:0.97911247 3:0.96584561 4:0.97809724 5:0.024838168 6:0.75624021 7:0.98314579 8:0.99163341 9:0.99445729 \n-2.5 1:1.9986744 2:0.6443589 3:0.39473663 4:0.50916 5:0.6153528 6:0.28650659 7:0.44032868 8:0.49893965 9:0.53616644 \n-2.5 1:1.998808 2:0.70513 3:0.58067362 4:0.65820415 5:0.6153528 6:0.34170162 7:0.53406346 8:0.59898643 9:0.63557015 \n-2.5 1:1.9988387 2:0.71618008 3:0.611139 4:0.70485193 5:0.6153528 6:0.37674609 7:0.60057939 8:0.67619954 9:0.72017069 \n-2.5 1:1.9990156 2:0.77981012 3:0.73111679 4:0.78442707 5:0.6153528 6:0.42815776 7:0.67827647 8:0.7490101 9:0.78847351 \n2.5 1:1.9990527 2:0.80197679 3:0.77708313 4:0.82999663 5:0.6153528 6:0.49221371 7:0.77578745 8:0.84176221 9:0.87579157 \n-2.5 1:1.9993259 2:0.89278589 3:0.87797747 4:0.89985661 5:0.6153528 6:0.55937906 7:0.84103547 8:0.89259059 9:0.91839638 \n-2.5 1:1.9996332 2:0.95432436 3:0.94706 4:0.95973162 5:0.6153528 6:0.60300643 7:0.90236333 8:0.94024623 9:0.95680315 \n2.225099541421186 1:1.9996597 2:0.96067944 3:0.95726088 4:0.96869838 5:0.6153528 6:0.62987853 7:0.92538555 8:0.95620843 9:0.969191 \n-2.5 1:1.9992903 2:0.85311993 3:0.58724625 4:0.6359905 6:0.5682756 7:0.86215027 8:0.91612413 9:0.93851985 \n-2.5 1:1.9993239 2:0.86953292 3:0.71663116 4:0.76694946 6:0.61047319 7:0.91205526 8:0.94943272 9:0.96141581 \n-2.5 1:1.9993266 2:0.87078868 3:0.72265811 4:0.77243427 6:0.61652077 7:0.91721776 8:0.95283683 9:0.96443685 \n-2.5 1:1.999398 2:0.8960308 3:0.8111199 4:0.84297585 6:0.65087011 7:0.94571492 8:0.96911258 9:0.97599917 \n-2.5 1:1.9994019 2:0.90257207 3:0.83181368 4:0.85980003 6:0.66891799 7:0.95471412 8:0.97396024 9:0.97998427 \n2.5 1:1.9995673 2:0.94879643 3:0.91518336 4:0.92351569 6:0.72619437 7:0.97495675 8:0.98604062 9:0.98960284 \n2.5 1:1.9998113 2:0.98097055 3:0.95840443 4:0.96270686 6:0.75060173 7:0.98615297 8:0.99340881 9:0.99571252 \n2.5 1:1.9975691 2:0.47678193 3:0.11726713 4:0.08045774 5:1 6:0.11725732 7:0.13109167 8:0.11805903 9:0.087059539 \n2.5 1:1.997722 2:0.54043861 3:0.31507879 4:0.28396699 5:1 6:0.14636365 7:0.19587081 8:0.20760081 9:0.2024455 \n-2.5 1:1.997771 2:0.55855909 3:0.37611019 4:0.39744426 5:1 6:0.17675934 7:0.26323633 8:0.30259899 9:0.32806308 \n-2.5 1:1.998026 2:0.63791387 3:0.51491133 4:0.51783929 5:1 6:0.21026268 7:0.33537249 8:0.39177966 9:0.43265232 \n-2.5 1:1.9981195 2:0.67624772 3:0.62579193 4:0.65128052 5:1 6:0.28200884 7:0.47995242 8:0.566257 9:0.62858553 \n-2.5 1:1.9986737 2:0.80483619 3:0.76614661 4:0.75239172 5:1 6:0.35302636 7:0.59254129 8:0.68185198 9:0.74324126 \n2.5 1:1.999395 2:0.91997283 3:0.90294289 4:0.90075933 5:1 6:0.48241047 7:0.80699052 8:0.87796641 9:0.91439654 \n2.5 1:2 2:1 3:1 4:1 5:0.019471744 6:0.99999941 7:0.99999574 8:0.99999491 9:0.99999593 \n-2.5 1:2 2:1 3:1 4:1 5:0.57184836 6:1 7:0.9999995 8:0.99999914 9:0.99999875 \n-2.5 1:2 2:1 3:1 4:1 5:0.73894863 6:0.99999937 7:0.99999802 8:0.99999697 9:0.99999632 \n-2.5 1:2 2:1 3:1 4:1 5:0.50537432 6:0.99999736 7:0.99999482 8:0.99999327 9:0.99999186 \n-2.5 1:2 2:1 3:1 4:1 5:0.5376216 6:0.99999853 7:0.99999627 8:0.99999468 9:0.99999297 \n-2.5 1:2 2:1 3:1 4:1 5:0.77320757 6:0.99999999 7:0.99999949 8:0.99999896 9:0.9999987 \n-2.5 1:1.9948499 2:0.3733687 3:0.24598358 4:0.48596084 5:0.26788105 6:0.14880892 7:0.39723988 8:0.55093369 9:0.66454538 \n-2.5 1:1.9951387 2:0.4631425 3:0.47377532 4:0.65950653 5:0.26788105 6:0.19722036 7:0.53712785 8:0.68388172 9:0.76682187 \n-2.5 1:1.995155 2:0.46855225 3:0.49470333 4:0.69051863 5:0.26788105 6:0.22024317 7:0.59921562 8:0.7485305 9:0.8264393 \n-2.5 1:1.9956264 2:0.58800102 3:0.68148521 4:0.78952344 5:0.26788105 6:0.27642153 7:0.71410968 8:0.8226547 9:0.87404565 \n2.5 1:1.9956534 2:0.59683826 3:0.70229139 4:0.82021021 5:0.26788105 6:0.31892986 7:0.79653796 8:0.88902562 9:0.92720955 \n2.5 1:1.9968405 2:0.79660745 3:0.86394435 4:0.90963138 5:0.26788105 6:0.44247265 7:0.89218395 8:0.93823649 9:0.95809467 \n2.5 1:1.9968675 2:0.80208746 3:0.87251561 4:0.92076467 5:0.26788105 6:0.47413087 7:0.92095479 8:0.95660608 9:0.97126897 \n-2.5 1:1.999418 2:0.95221364 3:0.94849471 4:0.95359596 5:0.26788105 6:0.58448455 7:0.90977535 8:0.94729808 9:0.96305607 \n2.5 1:1.9994685 2:0.95764392 3:0.95416965 4:0.96016645 5:0.26788105 6:0.61289525 7:0.92353134 8:0.95596795 9:0.96933354 \n-2.5 1:1.9980999 2:0.64923244 3:0.40741256 4:0.5860146 5:0.019471744 6:0.38836184 7:0.75826373 8:0.84406609 9:0.89508423 \n-2.5 1:1.9981032 2:0.65073538 3:0.41389214 4:0.59430466 5:0.019471744 6:0.40192329 7:0.78307203 8:0.86525381 9:0.91252574 \n-2.5 1:1.9982424 2:0.71567904 3:0.60376383 4:0.74581329 5:0.019471744 6:0.42521979 7:0.8330908 8:0.90153311 9:0.93405062 \n-2.5 1:1.9982462 2:0.7170897 3:0.60882655 4:0.75034452 5:0.019471744 6:0.43751926 7:0.85257099 8:0.91574681 9:0.94460461 \n-2.5 1:1.9984378 2:0.78447904 3:0.76425585 4:0.84161763 5:0.019471744 6:0.45460835 7:0.88191737 8:0.93215888 9:0.95417335 \n-2.5 1:1.9988384 2:0.89165941 3:0.89012169 4:0.91749424 5:0.019471744 6:0.48206869 7:0.9071518 8:0.9470606 9:0.96487315 \n2.5 1:1.999481 2:0.96643624 3:0.9589035 4:0.96662008 5:0.019471744 6:0.49883076 7:0.9230607 8:0.9578558 9:0.97233833 \n2.5 1:1.9942284 2:0.16120458 4:0.046244359 5:0.57184836 6:-1.3877788e-17 7:5.5511151e-17 \n-2.5 1:1.9952345 2:0.44699633 3:0.58284864 4:0.6560538 5:0.57184836 6:0.12857951 7:0.40136241 8:0.52639591 9:0.61154456 \n-2.5 1:1.997696 2:0.76630635 3:0.7741521 4:0.75487613 5:0.57184836 6:0.18413975 7:0.49865908 8:0.61041927 9:0.68222311 \n-2.5 1:1.9979972 2:0.81136772 3:0.82785468 4:0.81879035 5:0.57184836 6:0.23733655 7:0.60531333 8:0.71438921 9:0.77830168 \n-2.5 1:1.9982294 2:0.84426014 3:0.86401148 4:0.86049124 5:0.57184836 6:0.28558237 7:0.68675229 8:0.78660791 9:0.84081181 \n2.5 1:1.9984705 2:0.87472616 3:0.89546574 4:0.89676784 5:0.57184836 6:0.3409056 7:0.76416987 8:0.84941558 9:0.89195694 \n0.7830717299448123 1:1.998774 2:0.90884957 3:0.92837256 4:0.93443614 5:0.57184836 6:0.42007733 7:0.84854374 8:0.91085642 9:0.93875622 \n2.5 1:1.9975991 2:0.49650887 3:0.14094808 4:0.1857021 5:0.73894863 6:0.10791346 7:0.14680138 8:0.16845189 9:0.17979297 \n-2.5 1:1.9977613 2:0.56904442 3:0.39783105 4:0.49097551 5:0.73894863 6:0.16953359 7:0.29339239 8:0.37053194 9:0.42928841 \n2.5 1:1.9980527 2:0.68416692 3:0.6570074 4:0.72212476 5:0.73894863 6:0.28650877 7:0.54325083 8:0.65303573 9:0.72252565 \n2.5 1:1.9991693 2:0.88938383 3:0.85995395 4:0.86929036 5:0.73894863 6:0.40217281 7:0.72326223 8:0.81343054 9:0.86237369 \n2.5 1:1.9992938 2:0.91236885 3:0.89618363 4:0.90857555 5:0.73894863 6:0.46813214 7:0.8036618 8:0.87757159 9:0.91422921 \n2.5 1:1.9993921 2:0.92907625 3:0.92112937 4:0.9335644 5:0.73894863 6:0.52583662 7:0.85994278 8:0.91777955 9:0.94444287 \n2.5 1:1.9970402 2:0.51052196 3:0.10835123 5:0.50537432 6:0.088546983 7:0.08489065 8:0.063710047 9:0.018497865 \n2.5 1:1.9974453 2:0.63734102 3:0.47346585 4:0.44907979 5:0.50537432 6:0.16931489 7:0.27746204 8:0.32957949 9:0.36452535 \n2.5 1:1.997951 2:0.72405667 3:0.58739979 4:0.55362277 5:0.50537432 6:0.20775152 7:0.35490039 8:0.42421223 9:0.47398047 \n2.5 1:1.9984012 2:0.76899404 3:0.6305057 4:0.6008548 5:0.50537432 6:0.21359395 7:0.38823433 8:0.46552238 9:0.51658141 \n2.5 1:1.9980476 2:0.74854173 3:0.64501243 4:0.63251692 5:0.50537432 6:0.24532275 7:0.433707 8:0.5190611 9:0.58093764 \n2.5 1:1.9985512 2:0.79751089 3:0.68911245 4:0.67826839 5:0.50537432 6:0.25117129 7:0.46847919 8:0.55943113 9:0.61867492 \n2.5 1:1.9988251 2:0.84816454 3:0.78641819 4:0.79406598 5:0.50537432 6:0.33630494 7:0.629892 8:0.72893633 9:0.78645585 \n2.5 1:1.9990536 2:0.88661731 3:0.85159717 4:0.86461602 5:0.50537432 6:0.41611988 7:0.75124872 8:0.83579174 9:0.87875592 \n2.5 1:1.9992188 2:0.91158694 3:0.89027193 4:0.9019409 5:0.50537432 6:0.48011754 7:0.82547834 8:0.89218436 9:0.92303961 \n2.5 1:1.9968897 2:0.41286472 3:0.19105899 4:0.40313764 5:0.5376216 6:0.25388315 7:0.42468328 8:0.52818056 9:0.61044403 \n2.5 1:1.9971968 2:0.52994747 3:0.47646672 4:0.65876943 5:0.5376216 6:0.33757382 7:0.61717352 8:0.73687058 9:0.80630558 \n2.5 1:1.9975034 2:0.63586097 3:0.6523501 4:0.74856311 5:0.5376216 6:0.35302074 7:0.63336871 8:0.73527483 9:0.79288091 \n2.5 1:1.9976142 2:0.67180432 3:0.70917607 4:0.81639576 5:0.5376216 6:0.46462989 7:0.82460745 8:0.90086281 9:0.93411717 \n-2.5 1:1.9991589 2:0.92796242 3:0.93872507 4:0.94465844 5:0.5376216 6:0.55750662 7:0.87351791 8:0.92517572 9:0.94832031 \n-2.5 1:1.9996125 2:0.97593204 3:0.98336883 4:0.98557499 5:0.5376216 6:0.76920047 7:0.97447972 8:0.98666061 9:0.99114208 \n2.5 1:1.9955531 2:0.33134046 3:0.21980464 4:0.4361674 5:0.21946612 6:0.044665195 7:0.39766692 8:0.56732669 9:0.70652029 \n-2.5 1:1.99588 2:0.44078065 3:0.49034982 4:0.66411715 5:0.21946612 6:0.096622337 7:0.59717873 8:0.75893387 9:0.84265862 \n-2.5 1:1.9962878 2:0.55734141 3:0.67980356 4:0.75956061 5:0.21946612 6:0.13297753 7:0.68083625 8:0.80204185 9:0.8608337 \n-2.5 1:1.9963768 2:0.57604966 3:0.7012916 4:0.79290178 5:0.21946612 6:0.16186552 7:0.77936913 8:0.88146282 9:0.92299088 \n2.5 1:1.9974182 2:0.78499071 3:0.8635612 4:0.89208776 5:0.21946612 6:0.25145782 7:0.86353422 8:0.92242861 9:0.94817197 \n2.5 1:1.9974474 2:0.78798046 3:0.86603581 4:0.89663965 5:0.21946612 6:0.26005157 7:0.87688405 8:0.93121026 9:0.95449853 \n2.5 1:1.9989926 2:0.93598074 3:0.94943107 4:0.95820393 5:0.21946612 6:0.31261683 7:0.90736454 8:0.95137819 9:0.9685259 \n2.5 1:1.9948531 2:0.2904126 3:0.036020961 4:0.090239668 5:0.77320757 6:0.0034211358 7:0.065595734 8:0.088071375 9:0.10111672 \n2.5 1:1.9956857 2:0.53379223 3:0.58040105 4:0.63755257 5:0.77320757 6:0.10166264 7:0.43889626 8:0.55930869 9:0.63557174 \n2.5 1:1.9965379 2:0.68757387 3:0.70256213 4:0.67872459 5:0.77320757 6:0.12780958 7:0.46795265 8:0.57738143 9:0.64923049 \n2.5 1:1.996665 2:0.7124872 3:0.7441304 4:0.73602777 5:0.77320757 6:0.15711041 7:0.55134409 8:0.66305237 9:0.73186017 \n-2.5 1:1.9980993 2:0.83127104 3:0.81811976 4:0.78465566 5:0.77320757 6:0.17873176 7:0.59206595 8:0.70160442 9:0.76500248 \n2.5 1:1.9983519 2:0.86331553 3:0.85863527 4:0.83808484 5:0.77320757 6:0.22057684 7:0.68154534 8:0.78312756 9:0.83712587 \n2.5 1:1.9985471 2:0.88683737 3:0.88762332 4:0.87435542 5:0.77320757 6:0.25845185 7:0.750957 8:0.84062665 9:0.88486359 \n-2.5 1:1.9989478 2:0.9281833 3:0.93479971 4:0.93510043 5:0.77320757 6:0.34967328 7:0.87263679 8:0.92874269 9:0.9524502 \n-2.5 1:1.9990668 2:0.93880605 3:0.94711952 4:0.94920587 5:0.77320757 6:0.38363181 7:0.90195369 8:0.94721313 9:0.96546559 \n-2.5 1:1.9991843 2:0.79045237 3:0.48520684 4:0.50343446 5:0.46663059 6:0.30613996 7:0.55018829 8:0.6350736 9:0.69921848 \n-2.5 1:1.9992683 2:0.84155346 3:0.66721646 4:0.69234593 5:0.46663059 6:0.39213515 7:0.69127303 8:0.77191062 9:0.82345731 \n-2.5 1:1.9993309 2:0.88198882 3:0.7718225 4:0.77622265 5:0.46663059 6:0.43249771 7:0.74714033 8:0.81818514 9:0.86246184 \n-2.5 1:1.9993517 2:0.89065855 3:0.80354003 4:0.82531438 5:0.46663059 6:0.49339213 7:0.82858556 8:0.88579014 9:0.91928421 \n-2.5 1:1.999481 2:0.93424375 3:0.88236191 4:0.89000921 5:0.46663059 6:0.5428863 7:0.87835737 8:0.92321475 9:0.94810537 \n",
        "score_transform": {
            "p0": 40.0,
            "p1": 1.0,
            "knots": [[0.0, -36.66], [90.0, 83.04], [95.0, 95.0], [100.0, 100.0]],
            "enabled": true
        },
        "norm_type": "linear_rescale",
        "score_clip": [
            0.0,
            100.0
        ],
        "feature_names": [
            "VMAF_feature_adm_scale0_score",
            "VMAF_feature_adm_scale1_score",
            "VMAF_feature_adm_scale2_score",
            "VMAF_feature_adm_scale3_score",
            "VMAF_feature_motion_score",
            "VMAF_feature_vif_scale0_score",
            "VMAF_feature_vif_scale1_score",
            "VMAF_feature_vif_scale2_score",
            "VMAF_feature_vif_scale3_score"
        ],
        "intercepts": [
            -0.01818181818181818,
            0.0,
            -1.402605482765072,
            -0.9013780076860014,
            -2.4014359688539897,
            -0.03671084490620134,
            -0.08203910092775053,
            -0.2858058491124272,
            -0.480167543060334,
            -0.7764756920485143
        ],
        "model_type": "LIBSVMNUSVR",
        "slopes": [
            0.009454545454545453,
            2.0,
            2.4026054827650722,
            1.9013780076860014,
            3.4014359688539897,
            0.05246778812837607,
            1.0820390945805258,
            1.2858061763913162,
            1.4801682848883448,
            1.7764765384047878
        ],
        "feature_dict": {
            "VMAF_feature": [
                "vif_scale0",
                "vif_scale1",
                "vif_scale2",
                "vif_scale3",
                "adm_scale0",
                "adm_scale1",
                "adm_scale2",
                "adm_scale3",
                "motion"
            ]
        }
    }
}