{
    "param_dict": {
        "C": 4.0,
        "norm_type": "custom_clip_0to1",
        "score_clip": [
            0.0,
            100.0
        ],
        "custom_clip_0to1_map": {
            "VMAF_feature_adm_scale0_score": [
                0.0,
                0.5
            ]
        },
        "nu": 0.9,
        "gamma": 0.025
    },
    "model_dict": {
        "model": "svm_type nu_svr\nkernel_type rbf\ngamma 0.025\nnr_class 2\ntotal_sv 192\nrho -0.994072\nSV\n-4 1:1.9148746 2:0.75864156 3:0.64403439 4:0.67316816 5:0.3515354 6:0.34515851 7:0.71217715 8:0.77073058 9:0.79985603 \n4 1:1.7132076 2:0.040701724 3:0.051008675 4:0.11617268 5:0.57269222 6:0.062406266 7:-2.220446e-16 \n4 1:1.7452851 2:0.26506772 3:0.24802268 4:0.2734839 5:0.57269222 6:0.1227484 7:0.13335181 8:0.16398778 9:0.19696857 \n4 1:1.8412437 2:0.72969013 3:0.72134697 4:0.76052848 5:0.57269222 6:0.44879152 7:0.71317411 8:0.78688272 9:0.82655177 \n4 1:1.8279465 2:0.64870041 3:0.59156371 4:0.63092967 5:0.57269222 6:0.33622205 7:0.53768041 8:0.62250213 9:0.67694402 \n-4 1:1.8118166 2:0.54476347 3:0.41645697 4:0.42642274 5:0.57269222 6:0.22487559 7:0.3211156 8:0.38558096 9:0.43697767 \n4 1:1.9117777 2:0.85998161 3:0.79074853 4:0.82477008 5:0.57269222 6:0.58421292 7:0.81172424 8:0.866122 9:0.89179569 \n4 1:1.8970352 2:0.78708887 3:0.68210003 4:0.7184447 5:0.57269222 6:0.46235094 7:0.67631825 8:0.75062559 9:0.79085367 \n4 1:1.8801296 2:0.69978937 3:0.53528764 4:0.56542882 5:0.57269222 6:0.34025306 7:0.49533919 8:0.57270049 9:0.62064282 \n4 1:1.7793268 2:0.1883946 3:0.39306988 4:0.55115324 5:0.13068759 6:0.25789914 7:0.46980376 8:0.54327454 9:0.58185976 \n-4 1:1.8052807 2:0.410597 3:0.5281443 4:0.60434626 5:0.13068759 6:0.31932706 7:0.55707894 8:0.62922678 9:0.66699584 \n4 1:1.8825206 2:0.77896453 3:0.80141557 4:0.85097091 5:0.13068759 6:0.55603303 7:0.85127351 8:0.89667577 9:0.91727692 \n-4 1:1.8745401 2:0.72938982 3:0.72805215 4:0.78383161 5:0.13068759 6:0.4842316 7:0.76846915 8:0.82848154 9:0.857022 \n-4 1:1.865136 2:0.6747887 3:0.62945944 4:0.67981233 5:0.13068759 6:0.40519391 7:0.65409368 8:0.7227927 9:0.75942424 \n4 1:1.9405303 2:0.91282428 3:0.84815619 4:0.88865307 5:0.13068759 6:0.65241017 7:0.89476463 8:0.92926305 9:0.94408069 \n4 1:1.932438 2:0.87683716 3:0.79942589 4:0.84409907 5:0.13068759 6:0.57803791 7:0.83128277 8:0.87974875 9:0.90179174 \n-4 1:1.8160623 2:0.43124626 3:0.45751332 4:0.4845078 5:0.16548966 6:0.33111696 7:0.45714553 8:0.529359 9:0.57836585 \n4 1:1.8887513 2:0.80499943 3:0.79186559 4:0.81451722 5:0.16548966 6:0.61236959 7:0.83420555 8:0.87670794 9:0.89717819 \n-4 1:1.8652788 2:0.65701788 3:0.58236128 4:0.58488474 5:0.16548966 6:0.42702297 7:0.58922449 8:0.65738507 9:0.6989851 \n4 1:1.934002 2:0.90191267 3:0.83258422 4:0.85417635 5:0.16548966 6:0.71755375 7:0.88734728 8:0.91765542 9:0.93184696 \n4 1:1.9222271 2:0.84564586 3:0.75476049 4:0.77753226 5:0.16548966 6:0.62228688 7:0.80759323 8:0.85354767 9:0.87780893 \n4 1:1.9083754 2:0.77598477 3:0.6596886 4:0.67362545 5:0.16548966 6:0.52449694 7:0.69779522 8:0.75620759 9:0.78931107 \n-4 1:1.9215663 2:0.82228261 3:0.71427711 4:0.78455032 5:0.13068759 6:0.49371427 7:0.74030228 8:0.80214498 9:0.83245828 \n-4 1:1.9342504 2:0.85283429 3:0.75633316 4:0.72144275 5:0.010730854 6:0.66648983 7:0.86559851 8:0.90472633 9:0.92199044 \n4 1:1.8012951 2:0.17619241 3:0.43837967 4:0.43500394 5:0.010730854 6:0.43251801 7:0.68301982 8:0.75278627 9:0.78810644 \n4 1:1.8910728 2:0.80798898 3:0.85155413 4:0.8171974 5:0.010730854 6:0.70482025 7:0.92976345 8:0.95236293 9:0.96001301 \n-1.633854482141333 1:1.8854641 2:0.76854637 3:0.7938865 4:0.74076293 5:0.010730854 6:0.64153308 7:0.87948867 8:0.91428168 9:0.9281939 \n4 1:1.9503728 2:0.93689221 3:0.88151358 4:0.85360059 5:0.010730854 6:0.80747166 7:0.95407705 8:0.96984006 9:0.97551161 \n4 1:1.9438213 2:0.90312053 3:0.83561707 4:0.78577388 5:0.010730854 6:0.7399006 7:0.91877025 8:0.94483188 9:0.95591314 \n4 1:1.2620727 2:0.0067889531 3:0.73275611 4:0.85623147 5:0.01987236 7:0.74900935 8:0.85296085 9:0.88393575 \n-4 1:1.3587997 2:0.37199105 3:0.84117269 4:0.90660249 5:0.01987236 6:0.081432802 7:0.8395901 8:0.89723115 9:0.92048152 \n-4 1:1.5762512 2:0.79605197 3:0.96127045 4:0.98806753 5:0.01987236 6:0.29991007 7:0.98376044 8:0.99147331 9:0.99398616 \n-4 1:1.567833 2:0.76987447 3:0.92252252 4:0.94703537 5:0.01987236 6:0.26107766 7:0.91117569 8:0.94042379 9:0.95399487 \n4 1:1.8217541 2:1 3:1 4:1 5:0.01987236 6:0.67180253 7:0.99890193 8:1 9:1 \n4 1:1.8175737 2:0.98901086 3:0.98878165 4:0.99278837 5:0.01987236 6:0.63475788 7:0.98105982 8:0.98816617 9:0.99081738 \n4 1:1.8094776 2:0.97327275 3:0.97136042 4:0.97475284 5:0.01987236 6:0.58442194 7:0.94926153 8:0.96658637 9:0.97449953 \n-4 1:1.8112949 2:0.25226241 3:0.27633556 4:0.34465388 5:0.3515354 6:0.16451831 7:0.42229176 8:0.47153068 9:0.49426296 \n-4 1:1.8335142 2:0.43680831 3:0.41548286 4:0.44487512 5:0.3515354 6:0.20435535 7:0.50107042 8:0.55865427 9:0.58971992 \n-4 1:1.8929358 2:0.78134488 3:0.76875207 4:0.8130589 5:0.3515354 6:0.40849152 7:0.83377575 8:0.8806368 9:0.90147867 \n-4 1:1.8848397 2:0.724436 3:0.67220509 4:0.7188167 5:0.3515354 6:0.343894 7:0.7410745 8:0.79934964 9:0.82816151 \n-4 1:1.875475 2:0.64882791 3:0.55141541 4:0.56848141 5:0.3515354 6:0.27434987 7:0.61847561 8:0.679403 9:0.71172108 \n4 1:1.9342379 2:0.87636469 3:0.82328851 4:0.86577826 5:0.3515354 6:0.48746967 7:0.88490268 8:0.92101231 9:0.9362396 \n-4 1:1.9256451 2:0.82675151 3:0.74683073 4:0.78244529 5:0.3515354 6:0.41972563 7:0.81272353 8:0.86184654 9:0.88458208 \n-4 1:1.8900896 2:0.48999414 3:0.3890776 4:0.51785301 5:0.26126032 6:0.37704384 7:0.43305592 8:0.48044568 9:0.5122183 \n-4 1:1.9073535 2:0.58052453 3:0.48331412 4:0.5804326 5:0.26126032 6:0.4191415 7:0.50775329 8:0.5625622 9:0.59918781 \n-4 1:1.9400264 2:0.80271827 3:0.77463655 4:0.85521347 5:0.26126032 6:0.63347116 7:0.81509325 8:0.86607058 9:0.89238197 \n-4 1:1.9357831 2:0.75403255 3:0.6890872 4:0.77389119 5:0.26126032 6:0.56201316 7:0.7239385 8:0.78440461 9:0.81877664 \n-4 1:1.9306688 2:0.69677749 3:0.57606138 4:0.65127522 5:0.26126032 6:0.48341237 7:0.60493432 8:0.66641176 9:0.7050066 \n-4 1:1.9584608 2:0.8547153 3:0.80259454 4:0.88005849 5:0.26126032 6:0.69987192 7:0.86228263 8:0.90487102 9:0.92565951 \n-4 1:1.9538989 2:0.8068936 3:0.72788444 4:0.81163184 5:0.26126032 6:0.62638934 7:0.78615948 8:0.8410468 9:0.87020887 \n-4 1:1.9484585 2:0.74984909 3:0.63107001 4:0.71749859 5:0.26126032 6:0.54711758 7:0.68394995 8:0.74583296 9:0.78309254 \n-4 1:1.798482 2:0.28482785 3:0.47963405 4:0.61493825 5:0.48632142 6:0.32683282 7:0.50826009 8:0.58438869 9:0.6133245 \n-4 1:1.8200614 2:0.47311083 3:0.59328836 4:0.66754341 5:0.48632142 6:0.37670859 7:0.58981635 8:0.66370841 9:0.6955695 \n4 1:1.8834315 2:0.81005061 3:0.85220501 4:0.90675149 5:0.48632142 6:0.59528775 7:0.87182497 8:0.90948809 9:0.925598 \n-4 1:1.8753436 2:0.75869145 3:0.78917688 4:0.84636744 5:0.48632142 6:0.52713866 7:0.7975296 8:0.84986157 9:0.87404639 \n-4 1:1.8662529 2:0.69454221 3:0.70493304 4:0.76589904 5:0.48632142 6:0.45028239 7:0.6922867 8:0.75877991 9:0.78932441 \n4 1:1.9312031 2:0.90513144 3:0.8841964 4:0.93246823 5:0.48632142 6:0.6898621 7:0.9156529 8:0.94196152 9:0.95347005 \n0.8971684452405768 1:1.9221814 2:0.860987 3:0.83072486 4:0.88969646 5:0.48632142 6:0.61714394 7:0.86181908 8:0.90070481 9:0.91833238 \n-4 1:1.8720693 2:0.4141848 3:0.54757088 4:0.65089841 6:0.55698013 7:0.75037434 8:0.80859741 9:0.8424957 \n-4 1:1.8868973 2:0.58540627 3:0.66076437 4:0.70287571 6:0.61040942 7:0.80173347 8:0.85087466 9:0.87918808 \n4 1:1.9309653 2:0.86680029 3:0.86728936 4:0.90030106 6:0.81367566 7:0.95164299 8:0.96693103 9:0.97374195 \n-4 1:1.9258306 2:0.82621031 3:0.80342779 4:0.84288813 6:0.74951899 7:0.90745028 8:0.93479832 9:0.94807912 \n-4 1:1.919752 2:0.77556337 3:0.73243164 4:0.76336928 6:0.68154087 7:0.84613797 8:0.88584434 9:0.90682257 \n4 1:1.9634903 2:0.94858464 3:0.89366966 4:0.92233072 6:0.8895355 7:0.96790722 8:0.97811231 9:0.98255899 \n4 1:1.9579885 2:0.91317554 3:0.84472696 4:0.8779826 6:0.83165744 7:0.93824639 8:0.95682089 9:0.96523495 \n4 1:1.9508956 2:0.87202053 3:0.78420057 4:0.80759168 6:0.76414153 7:0.8936926 8:0.92338975 9:0.93871401 \n4 1:1.7360545 2:0.14294888 3:0.35824735 4:0.49773533 5:0.10943305 6:0.13409201 7:0.46669845 8:0.55886267 9:0.61913357 \n-4 1:1.7651933 2:0.36908295 3:0.50591897 4:0.5785404 5:0.10943305 6:0.18127329 7:0.55952918 8:0.64334389 9:0.6962875 \n1.68606903927882 1:1.8501366 2:0.76577025 3:0.79889172 4:0.84236736 5:0.10943305 6:0.36539396 7:0.84951229 8:0.89699586 9:0.91852439 \n4 1:1.9103557 2:0.87614319 3:0.842448 4:0.88662042 5:0.10943305 6:0.45692633 7:0.8924297 8:0.92789334 9:0.94395355 \n4 1:1.8978718 2:0.83033963 3:0.78727249 4:0.83239025 5:0.10943305 6:0.39466707 7:0.83391973 8:0.88317562 9:0.90737168 \n-4 1:1.8021659 2:0.37565284 3:0.53396944 4:0.6398494 5:0.092359763 6:0.24993539 7:0.52345367 8:0.60287182 9:0.65098169 \n-4 1:1.9109017 2:0.80522138 3:0.75798561 4:0.82329562 5:0.48632142 6:0.53113733 7:0.778862 8:0.83211531 9:0.85695847 \n-4 1:1.8816541 2:0.76384893 3:0.70334264 4:0.74355904 5:0.10943305 6:0.32751913 7:0.74807748 8:0.81179915 9:0.84580743 \n-4 1:1.8233096 2:0.55576398 3:0.65670999 4:0.70061455 5:0.092359763 6:0.29660898 7:0.59594637 8:0.67198313 9:0.71672805 \n-4 1:1.8773597 2:0.81207164 3:0.8200972 4:0.84644317 5:0.092359763 6:0.43405981 7:0.7976766 8:0.85476575 9:0.88321811 \n-4 1:1.8681674 2:0.75486423 3:0.73763489 4:0.75841024 5:0.092359763 6:0.36411434 7:0.68859833 8:0.75738998 9:0.7957492 \n4 1:1.9322863 2:0.93466654 3:0.90192532 4:0.92837266 5:0.092359763 6:0.56044675 7:0.91194168 8:0.94347386 9:0.95696598 \n-4 1:1.9227308 2:0.8978828 3:0.8546391 4:0.88645286 5:0.092359763 6:0.49518172 7:0.85022998 8:0.89706451 9:0.91906801 \n-4 1:1.9124207 2:0.84837269 3:0.79742507 4:0.81812078 5:0.092359763 6:0.42332919 7:0.76254065 8:0.82365537 9:0.85474932 \n-4 1:1.7878793 2:0.33130828 3:0.63804109 4:0.73239425 5:0.049339323 6:0.4276297 7:0.68310844 8:0.75878522 9:0.80039591 \n-4 1:1.8165862 2:0.5671287 3:0.7348302 4:0.76868825 5:0.049339323 6:0.52312992 7:0.7573421 8:0.81320173 9:0.84162596 \n-4 1:1.8851886 2:0.88068905 3:0.92097238 4:0.9359867 5:0.049339323 6:0.74800436 7:0.94294645 8:0.96101404 9:0.96804879 \n-4 1:1.878976 2:0.84763725 3:0.88187908 4:0.8940399 5:0.049339323 6:0.68556358 7:0.89624127 8:0.92576975 9:0.94049292 \n-4 1:1.8712813 2:0.80574607 3:0.81898488 4:0.83397446 5:0.049339323 6:0.60517098 7:0.82185696 8:0.86790947 9:0.89348845 \n4 1:1.9402815 2:0.9772474 3:0.944008 4:0.95377463 5:0.049339323 6:0.86911737 7:0.96641958 8:0.97667357 9:0.98040024 \n-4 1:1.9327311 2:0.95033806 3:0.91349931 4:0.91661143 5:0.049339323 6:0.79817005 7:0.93356298 8:0.95437435 9:0.96351754 \n-4 1:1.701918 2:0.20687215 3:0.31446484 4:0.51133791 5:1 6:0.28835999 7:0.32500115 8:0.33740781 9:0.34448898 \n-4 1:1.7493623 2:0.40167929 3:0.46435551 4:0.59356954 5:1 6:0.32899205 7:0.40292095 8:0.43158037 9:0.45828087 \n-4 1:1.823597 2:0.80632959 3:0.81329749 4:0.89450569 5:1 6:0.54597152 7:0.79089312 8:0.8440376 9:0.87477548 \n-4 1:1.8154604 2:0.75179881 3:0.72788087 4:0.81568419 5:1 6:0.48201867 7:0.68393787 8:0.74228982 9:0.7809614 \n-4 1:1.8053205 2:0.68052993 3:0.62432045 4:0.71555667 5:1 6:0.41452028 7:0.55380388 8:0.60328335 9:0.64097566 \n2.601134500844064 1:1.9103131 2:0.89731998 3:0.86716216 4:0.93031485 5:1 6:0.63448151 7:0.85925466 8:0.90208745 9:0.92478602 \n-4 1:1.9007798 2:0.84768608 3:0.79864211 4:0.87354082 5:1 6:0.56568011 7:0.77289089 8:0.8278302 9:0.8610863 \n-4 1:1.8885264 2:0.79010725 3:0.70916432 4:0.79048142 5:1 6:0.49253097 7:0.66032278 8:0.7181868 9:0.75850747 \n4 1:1.7285284 2:0.12608489 3:0.23795516 4:0.30034826 5:0.4063884 6:0.15677773 7:0.11480088 8:0.1337061 9:0.17174145 \n-2.289722863490355 1:1.7700281 2:0.31792933 3:0.37321929 4:0.3939541 5:0.4063884 6:0.20734832 7:0.20932217 8:0.24728066 9:0.29725341 \n4 1:1.8357604 2:0.72365519 3:0.76798398 4:0.82031498 5:0.4063884 6:0.4849798 7:0.72014206 8:0.79476893 9:0.83775275 \n4 1:1.8139947 2:0.5417661 3:0.51789102 4:0.53069828 5:0.4063884 6:0.29044967 7:0.3700193 8:0.43402226 9:0.49442321 \n4 1:1.9108558 2:0.83644815 3:0.82523228 4:0.86729693 5:0.4063884 6:0.59425235 7:0.81145406 8:0.86879901 9:0.89878936 \n4 1:1.8852586 2:0.67403312 3:0.61930092 4:0.64527522 5:0.4063884 6:0.38839329 7:0.52285798 8:0.59854676 9:0.65505368 \n-4 1:1.626189 2:0.18779738 3:0.64685083 4:0.81442272 5:0.089080724 6:0.3390622 7:0.75351034 8:0.81946286 9:0.85205597 \n-4 1:1.6773735 2:0.47296883 3:0.7746885 4:0.85963434 5:0.089080724 6:0.42460263 7:0.81863863 8:0.86501926 9:0.88813353 \n-4 1:1.795334 2:0.85919783 3:0.95679938 4:0.98086299 5:0.089080724 6:0.6826859 7:0.97741806 8:0.98531781 9:0.98825433 \n-4 1:1.7894465 2:0.8295694 3:0.92533182 4:0.96253942 5:0.089080724 6:0.64485203 7:0.94752024 8:0.9640531 9:0.97168024 \n-4 1:1.7794518 2:0.78852817 3:0.87894483 4:0.92054202 5:0.089080724 6:0.59476795 7:0.90026617 8:0.92720358 9:0.94113926 \n4 1:1.9069788 2:0.99209425 3:0.98006145 4:0.99526971 5:0.089080724 6:0.91358183 7:0.99522076 8:0.99665289 9:0.99677321 \n-4 1:1.8873216 2:0.93309897 3:0.9283862 4:0.95200562 5:0.089080724 6:0.79872248 7:0.94582598 8:0.96093174 9:0.96793722 \n-4 1:1.7736237 2:0.44790694 3:0.67400805 4:0.90964442 5:0.14199994 6:0.70349603 7:0.89835 8:0.91806783 9:0.91650718 \n-4 1:1.7962761 2:0.62794014 3:0.75982372 4:0.91504718 5:0.14199994 6:0.80358297 7:0.94815953 8:0.95492679 9:0.95109873 \n-4 1:1.8681935 2:0.88993241 3:0.91187195 4:0.97755692 5:0.14199994 6:0.84870331 7:0.98889026 8:0.98624716 9:0.98395076 \n-4 1:1.8645576 2:0.866162 3:0.8833891 4:0.96634557 5:0.14199994 6:0.83971907 7:0.97585234 8:0.97410152 9:0.97163343 \n-4 1:1.8592331 2:0.83926969 3:0.85399942 4:0.96699429 5:0.14199994 6:0.82600623 7:0.95216116 8:0.9531535 9:0.95162035 \n-4 1:1.9392108 2:0.99687328 3:0.94640688 4:0.97476182 5:0.14199994 6:1 7:1 8:0.99616495 9:0.99381287 \n-4 1:1.936148 2:0.9909025 3:0.93215589 4:0.9482155 5:0.14199994 6:0.98858872 7:0.9921539 8:0.98899908 9:0.98653568 \n4 1:1.8278092 2:0.28495442 3:0.35090714 4:0.4187985 5:0.21985354 6:0.34709172 7:0.449157 8:0.51627724 9:0.55580921 \n4 1:1.8470796 2:0.46602172 3:0.47551677 4:0.49395022 5:0.21985354 6:0.38526119 7:0.52570097 8:0.59729184 9:0.63916736 \n4 1:1.9008041 2:0.80447248 3:0.79492198 4:0.83370925 5:0.21985354 6:0.60952828 7:0.85929209 8:0.90262334 9:0.92109429 \n4 1:1.8934709 2:0.74473598 3:0.70984613 4:0.74447445 5:0.21985354 6:0.53323712 7:0.76898206 8:0.82958972 9:0.85796907 \n4 1:1.8851546 2:0.66979678 3:0.58507844 4:0.61311721 5:0.21985354 6:0.45373446 7:0.64763319 8:0.71918438 9:0.7571285 \n4 1:1.9413505 2:0.89941418 3:0.84167541 4:0.87903954 5:0.21985354 6:0.68230451 7:0.90708431 8:0.93736252 9:0.9499279 \n4 1:1.9326869 2:0.84952554 3:0.76853489 4:0.80710116 5:0.21985354 6:0.60126124 7:0.83894524 8:0.88567608 9:0.90689445 \n1.215628014636574 1:1.9211691 2:0.78319089 3:0.66860335 4:0.70103242 5:0.21985354 6:0.51859709 7:0.74117792 8:0.80376382 9:0.8348058 \n-4 1:1.9235673 2:0.91156852 3:0.86091062 4:0.87400137 5:0.049339323 6:0.71410149 7:0.88000457 8:0.9144118 9:0.93103723 \n4 1:1.8988078 2:0.76535466 3:0.73669496 4:0.77975854 5:0.4063884 6:0.49136868 7:0.68562629 8:0.76049217 9:0.80666746 \n-4 1:1.9322464 2:0.97262703 3:0.91658379 4:0.94412968 5:0.14199994 6:0.96229215 7:0.97730477 8:0.9768158 9:0.97540089 \n-4 1:1.8578556 2:0.39254446 3:0.31045719 4:0.39193907 5:0.14487599 6:0.49582773 7:0.57544126 8:0.62211771 9:0.64996949 \n-4 1:1.8746703 2:0.53136677 3:0.44020893 4:0.47021872 5:0.14487599 6:0.53700059 7:0.64547203 8:0.69441602 9:0.72195397 \n-4 1:1.9201629 2:0.82306731 3:0.78350005 4:0.82862451 5:0.14487599 6:0.73855372 7:0.89761183 8:0.92572717 9:0.93768171 \n-4 1:1.9138666 2:0.76529734 3:0.69148441 4:0.73639669 5:0.14487599 6:0.67263195 7:0.82846521 8:0.86833681 9:0.88697185 \n-4 1:1.9060634 2:0.6995942 3:0.5646684 4:0.60581755 5:0.14487599 6:0.60461335 7:0.73825904 8:0.78626102 9:0.81153618 \n4 1:1.9520012 2:0.89923651 3:0.82309979 4:0.86550332 5:0.14487599 6:0.81047796 7:0.93350516 8:0.95266357 9:0.96061591 \n4 1:1.9444537 2:0.84975321 3:0.75275728 4:0.79926596 5:0.14487599 6:0.74150045 7:0.88151656 8:0.91191417 9:0.92567497 \n4 1:1.4467247 2:-4.4408921e-16 3:0.61161554 4:0.77026191 5:0.10301188 6:0.19787614 7:0.68371653 8:0.75964556 9:0.78831199 \n4 1:1.5236618 2:0.35694615 3:0.74681095 4:0.83674613 5:0.10301188 6:0.26901071 7:0.76078457 8:0.81715666 9:0.84195838 \n4 1:1.7001135 2:0.80025068 3:0.93698641 4:0.96702058 5:0.10301188 6:0.51118847 7:0.95113307 8:0.96692739 9:0.97317929 \n-4 1:1.6944468 2:0.77910959 3:0.9008123 4:0.93816105 5:0.10301188 6:0.46641388 7:0.90744771 8:0.93440342 9:0.94655081 \n-4 1:1.6862857 2:0.74405225 3:0.85484132 4:0.89372528 5:0.10301188 6:0.40955032 7:0.83896351 8:0.8797694 9:0.89943274 \n4 1:1.8712456 2:0.98351252 3:0.97276759 4:0.98013216 5:0.10301188 6:0.75577538 7:0.97359577 8:0.9822559 9:0.98589117 \n4 1:1.8635158 2:0.96100416 3:0.9469281 4:0.95836422 5:0.10301188 6:0.68696546 7:0.94229086 8:0.95968067 9:0.96745854 \n4 1:1.8518765 2:0.93103973 3:0.91126066 4:0.92444528 5:0.10301188 6:0.6049856 7:0.89443199 8:0.92330917 9:0.93657811 \n4 1:1.6473123 2:0.031541103 3:0.2601218 4:0.37916631 5:0.55692159 6:0.15806583 7:0.2013231 8:0.23082628 9:0.2387793 \n4 1:1.687851 2:0.2908784 3:0.43012989 4:0.47924733 5:0.55692159 6:0.21358568 7:0.30531669 8:0.34860885 9:0.3695645 \n4 1:1.8074906 2:0.75471166 3:0.79440243 4:0.82363728 5:0.55692159 6:0.47535283 7:0.74173896 8:0.80363047 9:0.83391325 \n4 1:1.7728574 2:0.59204384 3:0.58600751 4:0.59944374 5:0.55692159 6:0.30406028 7:0.44872687 8:0.50679417 9:0.53873195 \n4 1:1.8971835 2:0.89397234 3:0.84821872 4:0.87581846 5:0.55692159 6:0.5984143 7:0.82605227 8:0.87273999 9:0.89468253 \n4 1:1.8799054 2:0.83494698 3:0.77869535 4:0.7989738 5:0.55692159 6:0.50000203 7:0.71867644 8:0.77879248 9:0.80861785 \n-1.971401903068235 1:1.7801993 2:0.13589268 4:-1.7763568e-15 5:0.92668019 6:0.12572368 7:0.11165516 8:0.1303493 9:0.14347847 \n-4 1:1.8006642 2:0.31342064 3:0.18482351 4:0.15729118 5:0.92668019 6:0.17555754 7:0.23239641 8:0.27941674 9:0.31462219 \n-3.267295965601847 1:1.8594964 2:0.64499882 3:0.55020505 4:0.56630167 5:0.92668019 6:0.35415958 7:0.59565877 8:0.67787503 9:0.72487138 \n-4 1:1.8444421 2:0.5317377 3:0.36695246 4:0.35261606 5:0.92668019 6:0.25807845 7:0.40682369 8:0.48018816 9:0.52827942 \n4 1:1.9204547 2:0.83878214 3:0.76260401 4:0.79641252 5:0.92668019 6:0.55222152 7:0.83431675 8:0.88506807 9:0.90926315 \n4 1:1.9060846 2:0.75881606 3:0.65010895 4:0.67549031 5:0.92668019 6:0.4484336 7:0.719079 8:0.78974197 9:0.82656261 \n4 1:1.8534411 2:0.24178275 3:0.16969494 4:0.11422241 5:0.035155374 6:0.21965792 7:0.41909382 8:0.5591256 9:0.65042998 \n4 1:1.8657006 2:0.41857209 3:0.31321349 4:0.19129343 5:0.035155374 6:0.2583305 7:0.49821308 8:0.63344304 9:0.71027888 \n4 1:1.9116368 2:0.78019162 3:0.72525764 4:0.70550991 5:0.035155374 6:0.50731714 7:0.86247495 8:0.9241653 9:0.94849722 \n4 1:1.9034121 2:0.71479015 3:0.62263302 4:0.56618406 5:0.035155374 6:0.41250698 7:0.75866149 8:0.85520552 9:0.8983216 \n4 1:1.8941659 2:0.62140631 3:0.45905789 4:0.36493616 5:0.035155374 6:0.32214626 7:0.60336534 8:0.72902646 9:0.79575928 \n4 1:1.9433644 2:0.88358821 3:0.78848983 4:0.78601614 5:0.035155374 6:0.60659486 7:0.90682081 8:0.9496691 9:0.96679564 \n4 1:1.9339341 2:0.8248183 3:0.70084835 4:0.66976579 5:0.035155374 6:0.49382532 7:0.82398071 8:0.89826094 9:0.93024338 \n4 1:1.9228322 2:0.74046001 3:0.56215663 4:0.50027641 5:0.035155374 6:0.38484246 7:0.68614522 8:0.79764568 9:0.85397729 \n4 1:1.7809139 2:0.070067819 3:0.25337784 4:0.39564235 5:0.42801156 6:0.24247789 7:0.29143497 8:0.31206175 9:0.31751726 \n4 1:1.7964642 2:0.31332198 3:0.34598211 4:0.48051771 5:0.42801156 6:0.28190272 7:0.36005884 8:0.39133327 9:0.40630406 \n4 1:1.8647298 2:0.72716166 3:0.76030951 4:0.81153679 5:0.42801156 6:0.51160753 7:0.75836707 8:0.81855205 9:0.84977905 \n4 1:1.8539512 2:0.66078472 3:0.67036803 4:0.70702748 5:0.42801156 6:0.43752826 7:0.63443525 8:0.69958462 9:0.73694466 \n4 1:1.8412493 2:0.58382332 3:0.56520204 4:0.56868819 5:0.42801156 6:0.36613174 7:0.49128625 8:0.54385612 9:0.57562006 \n4 1:1.9147184 2:0.85079748 3:0.82239833 4:0.86397475 5:0.42801156 6:0.60453585 7:0.84141798 8:0.88842154 9:0.91089438 \n4 1:1.9011808 2:0.78905782 3:0.75059425 4:0.77963654 5:0.42801156 6:0.52175181 7:0.74014364 8:0.80126925 9:0.83384871 \n-4 1:1.9345513 2:0.78496487 3:0.6427149 4:0.68736099 5:0.14487599 6:0.66557832 7:0.80453817 8:0.84610384 9:0.86674908 \n4 1:1.8573806 2:0.75292888 3:0.67822422 4:0.69715193 5:0.55692159 6:0.40020645 7:0.57872852 8:0.64242929 9:0.67596782 \n4 1:1.8885283 2:0.65697173 3:0.49064848 4:0.51271062 5:0.92668019 6:0.34364969 7:0.55838823 8:0.63820051 9:0.68545803 \n4 1:1.8861754 2:0.71375101 3:0.64193265 4:0.65147796 5:0.42801156 6:0.44113314 7:0.61034089 8:0.67329335 9:0.71076244 \n-4 1:1.906497 2:0.76714534 3:0.62995764 4:0.61771613 5:0.49231891 6:0.36093582 7:0.6448024 8:0.71674197 9:0.75759857 \n4 1:1.7950949 2:0.30163026 3:0.3877661 4:0.47991564 5:0.1516878 6:0.27506616 7:0.43683742 8:0.5170176 9:0.572142 \n-4 1:1.8129023 2:0.46257607 3:0.51376529 4:0.55784325 5:0.1516878 6:0.33003953 7:0.52781864 8:0.60802258 9:0.65867439 \n4 1:1.8744903 2:0.79802974 3:0.81346394 4:0.85350963 5:0.1516878 6:0.55727274 7:0.85723077 8:0.90344732 9:0.92432093 \n-4 1:1.8655226 2:0.73928044 3:0.73417022 4:0.77463337 5:0.1516878 6:0.48492176 7:0.76850765 8:0.83247557 9:0.86506866 \n4 1:1.9233651 2:0.8903644 3:0.85217517 4:0.88859802 5:0.1516878 6:0.6331642 7:0.90224877 8:0.93614386 9:0.95082833 \n4 1:1.9127974 2:0.84076789 3:0.78682529 4:0.82549069 5:0.1516878 6:0.55528825 7:0.83301735 8:0.88358297 9:0.90773962 \n-4 1:1.8990847 2:0.76878303 3:0.69419843 4:0.73137347 5:0.1516878 6:0.47109372 7:0.73312758 8:0.80074421 9:0.83639724 \n-4 1:1.8034919 2:0.39838253 3:0.39722247 4:0.3730969 5:0.49231891 6:0.19506263 7:0.38789161 8:0.44884746 9:0.49238303 \n4 1:1.8774596 2:0.77869938 3:0.76726827 4:0.7762686 5:0.49231891 6:0.44452634 7:0.79538351 8:0.85376204 9:0.88286236 \n-4 1:1.8687859 2:0.72038856 3:0.67010483 4:0.67346125 5:0.49231891 6:0.3683936 7:0.68021875 8:0.75102156 9:0.79100644 \n4 1:1.9290343 2:0.88834872 3:0.81866592 4:0.83472063 5:0.49231891 6:0.53129129 7:0.85994563 8:0.90515155 9:0.92607782 \n4 1:1.9194497 2:0.83592046 3:0.73865539 4:0.74720937 5:0.49231891 6:0.4491828 7:0.77097019 8:0.83285379 9:0.86481759 \n-1.237724785698264 1:1.9008224 2:0.44781371 3:0.20670152 4:0.095042963 5:0.0095770713 6:0.5636092 7:0.65661338 8:0.6948353 9:0.70865504 \n-4 1:1.910725 2:0.56484729 3:0.31034571 4:0.18175822 5:0.0095770713 6:0.5971119 7:0.70649577 8:0.74539672 9:0.76010373 \n-4 1:1.9350043 2:0.79358472 3:0.61614347 4:0.56377385 5:0.0095770713 6:0.71727894 7:0.8665223 8:0.89797927 9:0.90919766 \n4 1:1.930949 2:0.73659037 3:0.45330052 4:0.36843087 5:0.0095770713 6:0.64498331 7:0.77604143 8:0.81607029 9:0.83087434 \n4 1:1.9636295 2:0.90929151 3:0.78375251 4:0.77147331 5:0.0095770713 6:0.82807098 7:0.95114656 8:0.96537675 9:0.96997777 \n-4 1:1.9589357 2:0.86568099 3:0.6948766 4:0.66068021 5:0.0095770713 6:0.76849739 7:0.90473169 8:0.92892159 9:0.93749524 \n-4 1:1.9527253 2:0.80141436 3:0.5609054 4:0.5043825 5:0.0095770713 6:0.69918619 7:0.83367576 8:0.86780377 9:0.87977899 \n",
        "norm_type": "linear_rescale",
        "score_clip": [
            0.0,
            100.0
        ],
        "feature_names": [
            "VMAF_feature_adm_scale0_score",
            "VMAF_feature_adm_scale1_score",
            "VMAF_feature_adm_scale2_score",
            "VMAF_feature_adm_scale3_score",
            "VMAF_feature_motion_score",
            "VMAF_feature_vif_scale0_score",
            "VMAF_feature_vif_scale1_score",
            "VMAF_feature_vif_scale2_score",
            "VMAF_feature_vif_scale3_score"
        ],
        "intercepts": [
            -0.13909288952855103,
            0.0,
            -2.0954341314755776,
            -4.923836449445973,
            -9.570106805110386,
            -0.029099635334491916,
            -0.3308040447462557,
            -1.2433625062056013,
            -2.094368169469629,
            -3.283799928944859
        ],
        "model_type": "LIBSVMNUSVR",
        "slopes": [
            0.014799204085835028,
            2.0,
            3.1515480371120703,
            5.924494245364313,
            10.570211421731672,
            0.05932144908349685,
            1.5090007890075907,
            2.262202837062878,
            3.1056613108480957,
            4.291644405212896
        ],
        "feature_dict": {
            "VMAF_feature": [
                "vif_scale0",
                "vif_scale1",
                "vif_scale2",
                "vif_scale3",
                "adm_scale0",
                "adm_scale1",
                "adm_scale2",
                "adm_scale3",
                "motion"
            ]
        }
    }
}