svm_type nu_svr
kernel_type rbf
gamma 0.04
nr_class 2
total_sv 212
rho -1.08406
SV
-0.8743350082444694 1:0.91951481 2:0.16787772 3:0.7239389 4:0.94244479 5:0.9681932 6:0.97806033 
4 1:0.88220599 2:0.20820673 3:0.40997978 4:0.82462749 5:0.89794736 6:0.93142825 
-4 1:0.82949905 2:0.047285912 3:0.51559706 4:0.90512389 5:0.93743101 6:0.9492968 
4 1:0.90799305 2:0.54342577 3:0.37898741 4:0.85252726 5:0.92049615 6:0.94848246 
4 1:0.77998422 2:0.49739676 3:0.43832146 4:0.63397606 5:0.7240692 6:0.78367237 
4 1:0.98791521 2:0.04579546 3:0.90293444 4:0.99181622 5:0.99642641 6:0.9978864 
-4 1:0.74565796 2:0.15600331 3:0.089218917 4:0.58797907 5:0.69284768 6:0.74971699 
4 1:0.77998422 2:0.49739676 3:0.43832146 4:0.63397606 5:0.7240692 6:0.78367237 
4 1:0.9418574 2:0.08765484 3:0.72226864 4:0.93291747 5:0.960644 6:0.97304054 
4 1:0.4197563 2:0.20629643 3:0.10015785 4:0.36799816 5:0.4733947 6:0.55804832 
4 1:0.4730794 3:0.11866359 4:0.58816959 5:0.86435738 6:0.96191842 
4 1:0.89192404 2:0.49612229 3:0.59146724 4:0.78105663 5:0.84916292 6:0.8882561 
-4 1:0.70300609 2:0.15600331 3:0.091457045 4:0.60849701 5:0.72282659 6:0.78137183 
4 1:0.80993214 2:0.15600331 3:0.13401869 4:0.75274384 5:0.8506531 6:0.89321405 
-3.364281862347453 1:0.75431872 2:0.083369236 3:0.42082971 4:0.66591147 5:0.77995959 6:0.84260661 
4 1:0.46600264 3:0.11185039 4:0.56180003 5:0.83415721 6:0.93617329 
4 1:0.19680854 2:0.58937038 3:0.21585801 4:0.1754362 5:0.20844015 6:0.23846443 
4 1:0.25896526 2:0.04579546 3:0.31879 4:0.45852885 5:0.59717781 6:0.71487885 
4 1:0.87998127 2:0.15600331 3:0.1625414 4:0.81948421 5:0.90185357 6:0.9347395 
4 1:0.19680854 2:0.58937038 3:0.21585801 4:0.1754362 5:0.20844015 6:0.23846443 
4 1:0.79391726 2:0.49612229 3:0.444392 4:0.61630491 5:0.71210086 6:0.77386496 
4 1:0.49591192 2:0.22767235 3:0.13362033 4:0.43434224 5:0.49900609 6:0.53177669 
4 1:0.90799305 2:0.54342577 3:0.37898741 4:0.85252726 5:0.92049615 6:0.94848246 
-4 1:0.75664435 2:0.54342577 3:0.22334634 4:0.60145902 5:0.70573225 6:0.76318544 
4 1:0.85355434 2:0.34681232 3:0.18754744 4:0.83526909 5:0.90421808 6:0.93421072 
4 1:0.75731817 2:0.42532178 3:0.35347476 4:0.69239941 5:0.78245146 6:0.83117443 
4 1:0.61928338 2:0.22767235 3:0.15963705 4:0.51010642 5:0.59283393 6:0.63883591 
-4 1:0.84765099 2:0.014623935 3:0.81445984 4:0.96615706 5:0.98858241 6:0.99176534 
4 1:0.57308967 2:0.055921852 3:0.29301498 4:0.67070014 5:0.83429953 6:0.89348041 
4 1:0.73710984 2:0.23066177 3:0.49544357 4:0.66648649 5:0.76052819 6:0.81482311 
-4 1:0.71777065 2:0.08765484 3:0.47011786 4:0.66069877 5:0.75226598 6:0.80539407 
-4 1:0.59976014 2:0.04579546 3:0.42297435 4:0.72390263 5:0.83364665 6:0.88344569 
-4 1:0.37392021 2:1 3:0.10644455 4:0.21484368 5:0.25587544 6:0.27527817 
4 1:0.68521786 2:0.58937038 3:0.35481019 4:0.45269287 5:0.53578336 6:0.59116487 
-4 1:0.75331875 2:0.047285912 3:0.46606653 4:0.81323145 5:0.84847474 6:0.85892657 
-4 1:0.88260358 2:0.083369236 3:0.57279245 4:0.85249389 5:0.91751611 6:0.94621989 
4 1:0.67227079 2:0.22767235 3:0.19328493 4:0.60107975 5:0.69684945 6:0.74949279 
-4 1:0.75331875 2:0.047285912 3:0.46606653 4:0.81323145 5:0.84847474 6:0.85892657 
4 1:0.4197563 2:0.20629643 3:0.10015785 4:0.36799816 5:0.4733947 6:0.55804832 
4 1:0.9418574 2:0.08765484 3:0.72226864 4:0.93291747 5:0.960644 6:0.97304054 
4 1:0.75731817 2:0.42532178 3:0.35347476 4:0.69239941 5:0.78245146 6:0.83117443 
4 1:0.87931568 2:0.22767235 3:0.31750162 4:0.85145925 5:0.9121085 6:0.93772147 
4 1:0.78333908 2:0.20629643 3:0.24707248 4:0.72284103 5:0.83178838 6:0.88053503 
4 1:0.83017845 2:0.16787772 3:0.64309172 4:0.86078024 5:0.90892223 6:0.92908907 
-4 1:0.74999802 2:0.08765484 3:0.52069978 4:0.74484555 5:0.83431246 6:0.87935204 
-4 1:0.71167822 2:0.014623935 3:0.78422805 4:0.88268036 5:0.94383829 6:0.96596858 
4 1:0.69386127 3:0.2174879 4:0.84423613 5:0.9662906 6:0.98430594 
-4 1:0.5797031 2:0.25207203 3:0.21631076 4:0.45848604 5:0.51102137 6:0.53823055 
4 1:0.81789029 2:0.48885268 3:0.44075432 4:0.7803455 5:0.86328719 6:0.90222545 
4 1:0.61928338 2:0.22767235 3:0.15963705 4:0.51010642 5:0.59283393 6:0.63883591 
4 1:0.89725962 2:0.48885268 3:0.5143645 4:0.8587242 5:0.91841685 6:0.94498293 
4 1:0.46600264 3:0.11185039 4:0.56180003 5:0.83415721 6:0.93617329 
-4 1:0.78167533 2:0.15600331 3:0.11289462 4:0.67598462 5:0.78117168 6:0.83259364 
4 1:0.99718538 2:0.014623935 3:1 4:1 5:1 6:1 
-4 1:0.8048121 2:0.25207203 3:0.3681723 4:0.80658472 5:0.8702283 6:0.90583519 
4 1:0.68521786 2:0.58937038 3:0.35481019 4:0.45269287 5:0.53578336 6:0.59116487 
-4 1:0.43871049 2:0.15600331 3:0.030541611 4:0.37279112 5:0.4588284 6:0.52004828 
4 1:0.79670443 2:0.54342577 3:0.26295318 4:0.6905031 5:0.79291823 6:0.84469464 
4 1:0.67022121 2:0.49612229 3:0.27766156 4:0.33407105 5:0.40732401 6:0.46359154 
-4 1:0.74999802 2:0.08765484 3:0.52069978 4:0.74484555 5:0.83431246 6:0.87935204 
-4 1:0.80929502 2:0.08765484 3:0.52947327 4:0.7501341 5:0.82294191 6:0.86264385 
4 1:0.39257764 2:0.22767235 3:0.12019254 4:0.3951559 5:0.44657802 6:0.46771549 
-4 1:0.45809369 2:0.08765484 3:0.36628046 4:0.45852823 5:0.56005228 6:0.65708595 
4 1:0.66051984 2:0.58937038 3:0.40045124 4:0.55415203 5:0.66628031 6:0.73418465 
4 1:0.98644504 2:0.055921852 3:0.7405327 4:0.96928567 5:0.9853799 6:0.99080378 
-4 1:0.89171605 2:0.25207203 3:0.52475418 4:0.85053413 5:0.90454501 6:0.93093678 
-4 1:0.72871424 2:0.014623935 3:0.78701408 4:0.89679281 5:0.96056131 6:0.977629 
4 1:0.56142653 2:0.49739676 3:0.24752355 4:0.28326524 5:0.33261781 6:0.37104424 
4 1:0.18980624 3:0.034330388 4:0.25480402 5:0.54197045 6:0.78020579 
-4 1:0.51012298 2:0.25207203 3:0.2005129 4:0.41516485 5:0.45282017 6:0.47396143 
4 1:0.71492133 2:0.42532178 3:0.31296983 4:0.60525302 5:0.69243388 6:0.7432587 
4 1:0.76382055 2:0.22767235 3:0.22331233 4:0.67735915 5:0.77029889 6:0.81802539 
-4 1:0.65624547 2:0.34681232 3:0.092281981 4:0.61278125 5:0.70626575 6:0.75613977 
-4 1:0.70300609 2:0.15600331 3:0.091457045 4:0.60849701 5:0.72282659 6:0.78137183 
-4 1:0.79681394 2:0.083369236 3:0.48094343 4:0.76665994 5:0.86191893 6:0.90760934 
-4 1:0.35760888 2:0.34681232 3:0.027607294 4:0.40659646 5:0.45456869 6:0.48256597 
-4 1:0.59976014 2:0.04579546 3:0.42297435 4:0.72390263 5:0.83364665 6:0.88344569 
4 1:0.87998127 2:0.15600331 3:0.1625414 4:0.81948421 5:0.90185357 6:0.9347395 
4 1:0.19680854 2:0.58937038 3:0.21585801 4:0.1754362 5:0.20844015 6:0.23846443 
4 1:0.73710984 2:0.23066177 3:0.49544357 4:0.66648649 5:0.76052819 6:0.81482311 
4 1:0.68521786 2:0.58937038 3:0.35481019 4:0.45269287 5:0.53578336 6:0.59116487 
-4 1:0.77121222 2:0.25207203 3:0.33053889 4:0.73085549 5:0.80341439 6:0.84546456 
-4 1:0.84765099 2:0.014623935 3:0.81445984 4:0.96615706 5:0.98858241 6:0.99176534 
4 1:0.94938914 2:0.055921852 3:0.61526026 4:0.94655706 5:0.97211195 6:0.98210701 
-4 1:0.43871049 2:0.15600331 3:0.030541611 4:0.37279112 5:0.4588284 6:0.52004828 
4 1:0.39257764 2:0.22767235 3:0.12019254 4:0.3951559 5:0.44657802 6:0.46771549 
4 1:0.73867648 2:0.49612229 3:0.35967401 4:0.47825205 5:0.57045236 6:0.63752441 
-4 1:0.71167822 2:0.014623935 3:0.78422805 4:0.88268036 5:0.94383829 6:0.96596858 
-0.2575443588609431 1:0.69908122 2:1 3:0.2367756 4:0.5367057 5:0.64063877 6:0.70451767 
-4 1:0.51012298 2:0.25207203 3:0.2005129 4:0.41516485 5:0.45282017 6:0.47396143 
-4 1:0.8048121 2:0.25207203 3:0.3681723 4:0.80658472 5:0.8702283 6:0.90583519 
4 1:0.80993214 2:0.15600331 3:0.13401869 4:0.75274384 5:0.8506531 6:0.89321405 
-4 1:0.54042467 2:0.15600331 3:0.046271684 4:0.4328793 5:0.5309142 6:0.59282089 
4 1:0.57348929 2:0.42532178 3:0.24033766 4:0.43855753 5:0.50243186 6:0.53322825 
-4 1:0.69891028 2:0.20820673 3:0.26679137 4:0.55816547 5:0.65579282 6:0.71593631 
4 1:0.78333908 2:0.20629643 3:0.24707248 4:0.72284103 5:0.83178838 6:0.88053503 
4 1:0.5898908 2:0.055921852 3:0.31791569 4:0.72365433 5:0.88324129 6:0.93484545 
4 1:0.94938914 2:0.055921852 3:0.61526026 4:0.94655706 5:0.97211195 6:0.98210701 
4 1:0.87998127 2:0.15600331 3:0.1625414 4:0.81948421 5:0.90185357 6:0.9347395 
4 1:0.76526298 2:0.055921852 3:0.38714172 4:0.81340799 5:0.90059649 6:0.93006702 
-4 1:0.48213397 2:0.16787772 3:0.49792761 4:0.59161372 5:0.62979552 6:0.64254584 
4 1:1 3:0.83319067 4:0.98956086 5:0.99577089 6:0.99784595 
4 1:0.2214182 2:0.49612229 3:0.10534315 4:-1.110223e-16 6:2.220446e-16 
4 1:0.19680854 2:0.58937038 3:0.21585801 4:0.1754362 5:0.20844015 6:0.23846443 
-4 1:0.65624547 2:0.34681232 3:0.092281981 4:0.61278125 5:0.70626575 6:0.75613977 
4 1:0.29443857 2:0.055921852 3:0.19401703 4:0.41679982 5:0.61495039 6:0.74140301 
-4 1:0.87823623 2:0.20629643 3:0.36755712 4:0.8681203 5:0.93297792 6:0.95700049 
4 1:0.91728681 2:0.20820673 3:0.45891267 4:0.87823329 5:0.93535353 6:0.95883927 
-4 1:0.69517962 2:0.083369236 3:0.36350305 4:0.54888271 5:0.66506794 6:0.73685112 
-4 1:0.79342163 2:0.16787772 3:0.60849279 4:0.80724494 5:0.86183239 6:0.88618408 
-0.4860976037123063 1:0.43289262 2:0.49739676 3:0.19942282 4:0.18051614 5:0.20657779 6:0.22630829 
-4 1:0.69891028 2:0.20820673 3:0.26679137 4:0.55816547 5:0.65579282 6:0.71593631 
-4 1:0.40634904 2:0.04579546 3:0.35412414 4:0.55926446 5:0.70175505 6:0.79649177 
-4 1:0.5724789 2:0.014623935 3:0.77708563 4:0.84258654 5:0.91016348 6:0.95440359 
4 1:0.62437406 2:1 3:0.18559792 4:0.41535212 5:0.50422336 6:0.56173557 
4 1:0.78101613 2:0.055921852 3:0.42192974 4:0.86711004 5:0.94030868 6:0.96084539 
4 1:0.89725962 2:0.48885268 3:0.5143645 4:0.8587242 5:0.91841685 6:0.94498293 
4 1:0.68521786 2:0.58937038 3:0.35481019 4:0.45269287 5:0.53578336 6:0.59116487 
-4 1:0.40634904 2:0.04579546 3:0.35412414 4:0.55926446 5:0.70175505 6:0.79649177 
-4 1:0.4688131 2:0.34681232 3:0.041939301 4:0.45284872 5:0.5157613 6:0.55335821 
-4 1:0.75664435 2:0.54342577 3:0.22334634 4:0.60145902 5:0.70573225 6:0.76318544 
4 1:0.69386127 3:0.2174879 4:0.84423613 5:0.9662906 6:0.98430594 
-4 1:0.69691564 2:0.48885268 3:0.35289928 4:0.61359907 5:0.7217863 6:0.78790011 
-4 1:0.65317124 2:0.25207203 3:0.23994344 4:0.52538719 5:0.5891732 6:0.62164073 
-4 1:0.42428709 2:0.93973481 3:0.20295859 4:0.39290035 5:0.43632323 6:0.45871216 
1.870157944946051 1:0.32002648 2:0.54342577 3:0.072456434 4:0.24261286 5:0.29785605 6:0.33368644 
4 1:0.91839373 2:0.04579546 3:0.69472114 4:0.97790884 5:0.9891237 6:0.993277 
-4 1:0.65970734 2:1 3:0.23706331 4:0.5477205 5:0.66054901 6:0.7269284 
4 1:0.89192404 2:0.49612229 3:0.59146724 4:0.78105663 5:0.84916292 6:0.8882561 
-4 1:0.72319868 2:0.16787772 3:0.57600091 4:0.75310216 5:0.81471966 6:0.84249923 
-4 1:0.3070772 2:0.93973481 3:0.18757116 4:0.34864297 5:0.3777168 6:0.38922611 
4 1:0.5343717 2:0.49612229 3:0.20276685 4:0.2004308 5:0.25758651 6:0.30054029 
3.043073135333841 1:0.32002648 2:0.54342577 3:0.072456434 4:0.24261286 5:0.29785605 6:0.33368644 
-4 1:0.79740378 2:0.047285912 3:0.49225957 4:0.86357299 5:0.89948127 6:0.91221155 
-4 1:0.91785848 2:0.083369236 3:0.63999999 4:0.90398906 5:0.94897505 6:0.96762621 
-4 1:0.6566649 2:0.54342577 3:0.18169045 4:0.51611903 5:0.62179755 6:0.68216176 
-4 1:0.5810431 2:0.047285912 3:0.43113594 4:0.74141738 5:0.76929188 6:0.77018949 
4 1:0.80993214 2:0.15600331 3:0.13401869 4:0.75274384 5:0.8506531 6:0.89321405 
-4 1:0.74644956 2:0.34681232 3:0.12095689 4:0.68834617 5:0.77453583 6:0.81892861 
-4 1:0.47722492 2:0.014623935 3:0.75468972 4:0.76017077 5:0.83753774 6:0.92265059 
4 1:0.9418574 2:0.08765484 3:0.72226864 4:0.93291747 5:0.960644 6:0.97304054 
-4 1:0.66144997 2:0.15600331 3:0.068820233 4:0.51732819 5:0.62198733 6:0.67977328 
-4 1:0.69622281 2:0.25207203 3:0.27393051 4:0.60399854 5:0.68000038 6:0.72275152 
-4 1:0.65970734 2:1 3:0.23706331 4:0.5477205 5:0.66054901 6:0.7269284 
-4 1:0.47722492 2:0.014623935 3:0.75468972 4:0.76017077 5:0.83753774 6:0.92265059 
-4 1:0.74565796 2:0.15600331 3:0.089218917 4:0.58797907 5:0.69284768 6:0.74971699 
4 1:0.81789029 2:0.48885268 3:0.44075432 4:0.7803455 5:0.86328719 6:0.90222545 
-4 1:0.69891028 2:0.20820673 3:0.26679137 4:0.55816547 5:0.65579282 6:0.71593631 
-4 1:0.93556416 2:0.58937038 3:0.65797705 4:0.87169952 5:0.92200942 6:0.94454256 
-4 1:0.51603659 2:1 3:0.14452095 4:0.31406915 5:0.38353445 6:0.42653517 
4 1:0.10775597 2:0.055921852 3:0.1590151 4:0.30536689 5:0.48614515 6:0.64344462 
4 1:0.98644504 2:0.055921852 3:0.7405327 4:0.96928567 5:0.9853799 6:0.99080378 
-4 1:0.69908122 2:1 3:0.2367756 4:0.5367057 5:0.64063877 6:0.70451767 
-4 1:0.74644956 2:0.34681232 3:0.12095689 4:0.68834617 5:0.77453583 6:0.81892861 
-4 1:0.75664435 2:0.54342577 3:0.22334634 4:0.60145902 5:0.70573225 6:0.76318544 
-4 1:0.60311017 2:0.34681232 3:0.067548447 4:0.53383404 5:0.61287548 6:0.65468717 
4 1:0.67569895 2:0.49739676 3:0.30599867 4:0.39201262 5:0.45927759 6:0.51239284 
-4 1:0.84127012 2:0.014623935 3:0.81253935 4:0.95982371 5:0.98309178 6:0.9870796 
-3.233648632393172 1:0.35760888 2:0.34681232 3:0.027607294 4:0.40659646 5:0.45456869 6:0.48256597 
-4 1:0.6566649 2:0.54342577 3:0.18169045 4:0.51611903 5:0.62179755 6:0.68216176 
-4 1:0.75331875 2:0.047285912 3:0.46606653 4:0.81323145 5:0.84847474 6:0.85892657 
-4 1:0.89778056 2:1 3:0.43235998 4:0.86707094 5:0.92632217 6:0.95151451 
4 1:0.54792627 2:0.055921852 3:0.26207179 4:0.59416461 5:0.75957205 6:0.82870539 
4 1:0.79670443 2:0.54342577 3:0.26295318 4:0.6905031 5:0.79291823 6:0.84469464 
4 1:1 3:0.83319067 4:0.98956086 5:0.99577089 6:0.99784595 
4 1:0.92683589 2:0.48885268 3:0.55208861 4:0.89938377 5:0.94642982 6:0.96615102 
-4 1:0.5762709 2:0.93973481 3:0.23537634 4:0.48984694 5:0.55363885 6:0.5853905 
-4 1:0.74285042 2:0.48885268 3:0.35394597 4:0.61189191 5:0.70897304 6:0.77099691 
4 1:0.66256481 2:0.42532178 3:0.27479904 4:0.51802649 5:0.59270541 6:0.63560969 
4 1:0.61928338 2:0.22767235 3:0.15963705 4:0.51010642 5:0.59283393 6:0.63883591 
4 1:0.71492133 2:0.42532178 3:0.31296983 4:0.60525302 5:0.69243388 6:0.7432587 
-4 1:0.69518774 2:0.20629643 3:0.1796405 4:0.56432133 5:0.68049028 6:0.74616621 
-4 1:0.74565796 2:0.15600331 3:0.089218917 4:0.58797907 5:0.69284768 6:0.74971699 
-4 1:0.74644956 2:0.34681232 3:0.12095689 4:0.68834617 5:0.77453583 6:0.81892861 
4 1:0.87062235 2:0.49739676 3:0.53966638 4:0.77392585 5:0.84784447 6:0.89031641 
-4 1:0.26623337 2:1 3:0.084027451 4:0.15537936 5:0.17410072 6:0.17212333 
4 1:0.67482533 2:0.49612229 3:0.35268026 4:0.4805681 5:0.59603341 6:0.67408692 
4 1:0.81789029 2:0.48885268 3:0.44075432 4:0.7803455 5:0.86328719 6:0.90222545 
4 1:0.87062235 2:0.49739676 3:0.53966638 4:0.77392585 5:0.84784447 6:0.89031641 
-4 1:0.47722492 2:0.014623935 3:0.75468972 4:0.76017077 5:0.83753774 6:0.92265059 
-4 1:0.76580991 2:0.93973481 3:0.32205372 4:0.7176044 5:0.80237787 6:0.84588741 
4 4:0.10344019 5:0.34323945 6:0.63855969 
-4 1:0.71167822 2:0.014623935 3:0.78422805 4:0.88268036 5:0.94383829 6:0.96596858 
-4 1:0.69622281 2:0.25207203 3:0.27393051 4:0.60399854 5:0.68000038 6:0.72275152 
4 1:0.90795371 2:0.58937038 3:0.58823535 4:0.80035053 5:0.86988422 6:0.90533033 
-4 1:0.76258425 2:0.16787772 3:0.60695536 4:0.80906778 5:0.87125816 6:0.89810007 
-4 1:0.82949905 2:0.047285912 3:0.51559706 4:0.90512389 5:0.93743101 6:0.9492968 
4 1:0.68521786 2:0.58937038 3:0.35481019 4:0.45269287 5:0.53578336 6:0.59116487 
-2.066901918839273 1:0.69816754 2:0.34681232 3:0.11526222 4:0.68549511 5:0.78556255 6:0.83507583 
1.08676891972011 1:0.91737037 2:0.49612229 3:0.66823667 4:0.86050887 5:0.90873162 6:0.93335071 
4 1:0.87062235 2:0.49739676 3:0.53966638 4:0.77392585 5:0.84784447 6:0.89031641 
-4 1:0.4874691 2:0.23066177 3:0.32329421 4:0.33686197 5:0.39456977 6:0.44944683 
4 1:0.72746732 2:0.23066177 3:0.43952897 4:0.55736023 5:0.63319876 6:0.68402869 
-4 1:0.84765099 2:0.014623935 3:0.81445984 4:0.96615706 5:0.98858241 6:0.99176534 
4 1:0.68660174 3:0.20657211 4:0.81196884 5:0.94140702 6:0.96680805 
-4 1:0.75431872 2:0.083369236 3:0.42082971 4:0.66591147 5:0.77995959 6:0.84260661 
4 1:0.91061528 2:0.22767235 3:0.35742938 4:0.89821492 5:0.94339974 6:0.96076173 
-4 1:0.70532989 2:0.54342577 3:0.18169339 4:0.50290989 5:0.59875259 6:0.65332628 
-3.717190615602383 1:0.43289262 2:0.49739676 3:0.19942282 4:0.18051614 5:0.20657779 6:0.22630829 
4 1:0.40588686 2:0.42532178 3:0.20589097 4:0.35241209 5:0.40358156 6:0.42577381 
4 1:0.87062235 2:0.49739676 3:0.53966638 4:0.77392585 5:0.84784447 6:0.89031641 
4 1:0.82277534 2:0.23066177 3:0.56208506 4:0.76164281 5:0.83176644 6:0.86914911 
-4 1:0.72960023 2:0.93973481 3:0.29554025 4:0.64471949 5:0.72634443 6:0.77062686 
-4 1:0.44711702 2:0.54342577 3:0.10123262 4:0.31581962 5:0.38571265 6:0.42827036 
-4 1:0.70532989 2:0.54342577 3:0.18169339 4:0.50290989 5:0.59875259 6:0.65332628 
-4 1:0.83887552 2:0.08765484 3:0.58154998 4:0.82429855 5:0.8858516 6:0.91563291 
4 1:0.88220599 2:0.20820673 3:0.40997978 4:0.82462749 5:0.89794736 6:0.93142825 
-4 1:0.93556416 2:0.58937038 3:0.65797705 4:0.87169952 5:0.92200942 6:0.94454256 
-4 1:0.74285042 2:0.48885268 3:0.35394597 4:0.61189191 5:0.70897304 6:0.77099691 
-4 1:0.76258425 2:0.16787772 3:0.60695536 4:0.80906778 5:0.87125816 6:0.89810007 
-4 1:0.62949718 2:0.04579546 3:0.44400319 4:0.77920819 5:0.88713866 6:0.92903178 
-4 1:0.60311017 2:0.34681232 3:0.067548447 4:0.53383404 5:0.61287548 6:0.65468717 
