svm_type nu_svr
kernel_type rbf
gamma 0.85
nr_class 2
total_sv 80
rho -81.9753
SV
69 1:0.51976033 2:0.95433448 3:0.70664633 4:0.6375746 
-9.197413488493105 1:0.45268681 2:0.92433556 3:0.65393852 4:0.6375746 
-69 1:0.45265772 2:0.90777395 3:0.64667235 4:0.6375746 
-69 1:0.45457447 2:0.87566775 3:0.64033468 4:0.6375746 
-69 1:0.42289226 2:0.85854458 3:0.61698782 4:0.6375746 
-69 1:0.3898882 2:0.79454531 3:0.58453025 4:0.6375746 
-69 1:0.32459772 2:0.67394802 3:0.52456378 4:0.6375746 
69 1:0.66117357 2:0.94604234 3:0.5327675 4:0.063767617 
-47.49173486794111 1:0.45409202 2:0.85411624 3:0.39594518 4:0.063767617 
69 1:0.31194204 2:0.64649086 3:0.27957804 4:0.063767617 
69 1:0.61443271 2:0.97960254 3:0.63313123 4:0.29843054 
-69 1:0.43214433 2:0.87200586 3:0.48017813 4:0.29843054 
-69 1:0.31954096 2:0.69552413 3:0.38421778 4:0.29843054 
69 1:0.6426635 2:0.92375101 3:0.58695409 4:0.26591241 
69 1:0.5433864 2:0.86991199 3:0.49987385 4:0.26591241 
69 1:0.52091212 2:0.83025675 3:0.48006248 4:0.26591241 
69 1:0.48532387 2:0.77073948 3:0.44795364 4:0.26591241 
69 1:0.64679272 2:0.96831314 3:0.64817876 4:0.032376293 
-69 1:0.54885461 2:0.91559606 3:0.57067437 4:0.032376293 
-69 1:0.50403001 2:0.85870913 3:0.53649203 4:0.032376293 
-69 1:0.47291851 2:0.79481335 3:0.51219028 4:0.032376293 
-69 1:0.42191291 2:0.69382331 3:0.47545827 4:0.032376293 
-27.25245737487881 1:0.67611062 2:0.96814846 3:0.61158845 4:0.2939012 
-69 1:0.46445696 2:0.84351616 3:0.45234615 4:0.2939012 
-69 1:0.4201765 2:0.82647934 3:0.43227047 4:0.2939012 
-69 1:0.33523871 2:0.72186606 3:0.37190493 4:0.2939012 
-69 1:0.51156883 2:0.68186789 3:0.63017684 4:0.055731322 
69 1:0.26780177 2:0.95426822 3:0.5469869 4:0.22956029 
69 1:0.26468446 2:0.95302431 3:0.54405344 4:0.22956029 
69 1:0.25782726 2:0.92374629 3:0.53586532 4:0.22956029 
-69 1:0.23417931 2:0.85848996 3:0.50416551 4:0.22956029 
-69 1:0.67803967 2:0.9781841 3:0.59567606 4:0.25769702 
-69 1:0.60156059 2:0.93305292 3:0.51993286 4:0.25769702 
61.87358869334383 1:0.52411365 2:0.87520945 3:0.44833229 4:0.25769702 
-69 1:0.44576759 2:0.84762776 3:0.4008771 4:0.25769702 
-69 1:0.4211399 2:0.7917074 3:0.37439838 4:0.25769702 
-69 1:0.39531501 2:0.77946802 3:0.35867259 4:0.25769702 
-69 1:0.3295234 2:0.65488773 3:0.30518126 4:0.25769702 
69 1:0.64664752 2:0.97030413 3:0.59065681 4:0.39772544 
-69 1:0.40527863 2:0.8856757 3:0.41379189 4:0.39772544 
-69 1:0.38734128 2:0.86194898 3:0.40076705 4:0.39772544 
-69 1:0.35356446 2:0.8406836 3:0.37487635 4:0.39772544 
-69 1:0.3200218 2:0.79549281 3:0.35283943 4:0.39772544 
-4.316167653420815 1:0.17598834 2:0.52072937 3:0.24120289 4:0.39772544 
69 1:0.5524485 2:0.9560478 3:0.53724919 4:0.59104839 
69 1:0.42948793 2:0.91149544 3:0.45224554 4:0.59104839 
-69 1:0.32589136 2:0.84876194 3:0.3744961 4:0.59104839 
-21.29980364694718 1:0.10867218 2:0.38557666 3:0.18925271 4:0.59104839 
-69 1:0.4996147 2:0.91432431 3:0.53262797 4:0.74498378 
-7.141690063842472 1:0.41479676 2:0.85157134 3:0.46723601 4:0.74498378 
-69 1:0.38345027 2:0.80506322 3:0.44310177 4:0.74498378 
-69 1:0.25245979 2:0.653381 3:0.35225084 4:0.74498378 
69 1:0.56382827 2:0.93041813 3:0.66835066 4:0.52288375 
69 1:0.50329147 2:0.90511412 3:0.63005715 4:0.52288375 
69 1:0.42301615 2:0.85950122 3:0.57731186 4:0.52288375 
69 1:0.33177883 2:0.78751195 3:0.51493707 4:0.52288375 
69 1:0.32180349 2:0.75683042 3:0.50047176 4:0.52288375 
69 1:0.28982966 2:0.74139346 3:0.48432412 4:0.52288375 
69 1:0.27998743 2:0.71040098 3:0.47110228 4:0.52288375 
-69 1:0.59688511 2:0.96121266 3:0.69469827 4:0.55144777 
69 1:0.25837705 2:0.55223053 3:0.43423354 4:0.55144777 
7.126411306656149 1:0.67567266 2:0.93488239 3:0.51450984 4:0.11552692 
69 1:0.45977871 2:0.83537136 3:0.39204025 4:0.11552692 
69 1:0.41043741 2:0.81159357 3:0.36657688 4:0.11552692 
69 1:0.34454308 2:0.72734146 3:0.31819693 4:0.11552692 
69 1:0.24760613 2:0.57381248 3:0.26197895 4:0.11552692 
69 1:0.45957473 2:0.96886019 3:0.62337865 4:0.25245219 
69 1:0.41479723 2:0.91870735 3:0.56796741 4:0.25245219 
69 1:0.40640278 2:0.91625462 3:0.56219466 4:0.25245219 
69 1:0.25300649 2:0.72209287 3:0.42235349 4:0.25245219 
69 1:0.52491846 2:0.96518073 3:0.50301103 4:0.78278868 
69 1:0.4954733 2:0.95637298 3:0.48341591 4:0.78278868 
69 1:0.41029264 2:0.92007754 3:0.41839937 4:0.78278868 
69 1:0.37215249 2:0.89824073 3:0.38767888 4:0.78278868 
69 1:0.30626552 2:0.8248972 3:0.32595478 4:0.78278868 
-21.30073290447658 1:0.19554022 2:0.66650242 3:0.23443242 4:0.78278868 
-69 1:0.57348017 2:0.87846139 3:0.70994964 4:0.48440282 
-69 1:0.51217571 2:0.85061862 3:0.66459152 4:0.48440282 
-69 1:0.47300378 2:0.79026311 3:0.63184378 4:0.48440282 
-69 1:0.38355158 2:0.66861728 3:0.56448137 4:0.48440282 
