svm_type nu_svr
kernel_type rbf
gamma 0.1
nr_class 2
total_sv 279
rho -1.07971
SV
-3.1 1:1 2:0.9023797 3:0.62009279 4:1 
-2.10253912373279 1:1 2:0.78580702 3:0.15702556 4:1 
-3.1 1:1 2:0.90598891 3:0.65360354 4:1 
1.678959823513808 1:1 2:0.6571096 3:0.28207571 4:1 
-3.1 1:1 2:0.82419551 3:0.19908625 4:1 
0.9888450308367026 1:1 2:0.58727563 3:0.061964183 4:1 
3.1 1:1 2:0.64891012 3:0.37995933 4:1 
3.1 1:1 2:0.67548841 3:0.62386588 4:1 
3.1 1:1 2:0.60150691 3:0.1012817 4:1 
-3.1 1:1 2:0.86412963 3:0.19607431 4:1 
-0.6792382430744661 1:1 2:0.87354364 3:0.066725896 4:1 
-3.1 1:1 2:0.81706577 3:0.31813065 4:1 
-3.1 1:1 2:0.86043223 3:0.24484638 4:1 
-0.491352724126849 1:1 2:0.83592028 4:1 
0.02372126687158226 1:1 2:0.75487863 3:1 4:1 
-3.1 1:0.500758 2:0.44434935 3:0.62009279 4:0.25504335 
-3.1 1:0.66395488 2:0.49545656 3:0.62009279 4:0.30315084 
-3.1 1:0.68710445 2:0.51616008 3:0.62009279 4:0.32840241 
3.1 1:0.77682167 2:0.55184234 3:0.62009279 4:0.36126897 
3.1 1:0.80552743 2:0.57886981 3:0.62009279 4:0.3952589 
3.1 1:0.88273764 2:0.61682479 3:0.62009279 4:0.43234181 
-3.1 1:0.93116188 2:0.65752339 3:0.62009279 4:0.46598966 
3.1 1:0.93943344 2:0.67382416 3:0.62009279 4:0.48875504 
3.1 1:0.48032161 2:0.26272159 3:0.15702556 4:0.27429199 
-3.1 1:0.66810372 2:0.32302188 3:0.15702556 4:0.33873779 
-3.1 1:0.67688588 2:0.33334899 3:0.15702556 4:0.35306846 
3.1 1:0.78413086 2:0.37980881 3:0.15702556 4:0.39916953 
3.1 1:0.80344636 2:0.40239211 3:0.15702556 4:0.42973317 
3.1 1:0.90011555 2:0.46382991 3:0.15702556 4:0.49825574 
-3.1 1:0.95658637 2:0.51134587 3:0.15702556 4:0.53464063 
3.1 1:0.96029608 2:0.52485236 3:0.15702556 4:0.55200374 
3.014764359005449 1:0.50372797 2:0.45107197 3:0.65360354 4:0.13898928 
-3.1 1:0.6476565 2:0.4814289 3:0.65360354 4:0.15960103 
3.1 1:0.67501524 2:0.49775418 3:0.65360354 4:0.17409954 
3.1 1:0.75617281 2:0.51702674 3:0.65360354 4:0.18783211 
3.1 1:0.79008741 2:0.53686054 3:0.65360354 4:0.20893624 
3.1 1:0.85403547 2:0.55355255 3:0.65360354 4:0.22488902 
-3.1 1:0.8920263 2:0.58056686 3:0.65360354 4:0.25696445 
-3.1 1:0.90077795 2:0.59512653 3:0.65360354 4:0.27832407 
-3.1 1:0.45615707 2:0.15502741 3:0.1007927 4:0.28271343 
-3.1 1:0.6589256 2:0.2347531 3:0.1007927 4:0.3947729 
-3.1 1:0.66075687 2:0.23617521 3:0.1007927 4:0.40364809 
-3.1 1:0.78680383 2:0.30989034 3:0.1007927 4:0.48951574 
3.1 1:0.80002049 2:0.32873187 3:0.1007927 4:0.51715224 
3.1 1:0.91894161 2:0.46619089 3:0.1007927 4:0.6638753 
3.1 1:0.99750863 2:0.62747416 3:0.1007927 4:0.90315739 
2.881003234418858 1:0.65435141 2:0.21779297 3:0.046808211 4:0.34632169 
-3.1 1:0.65519079 2:0.2182804 3:0.046808211 4:0.35101052 
-3.1 1:0.77999724 2:0.29259565 3:0.046808211 4:0.44902479 
3.1 1:0.79372033 2:0.31017378 3:0.046808211 4:0.4749309 
3.1 1:0.91710352 2:0.45437437 3:0.046808211 4:0.66549345 
3.1 1:0.99910085 2:0.62307047 3:0.046808211 4:0.94344783 
3.1 1:0.50908059 2:0.16768568 3:0.28207571 4:0.22007668 
3.1 1:0.69276045 2:0.24471093 3:0.28207571 4:0.3087109 
3.1 1:0.69347847 2:0.2453485 3:0.28207571 4:0.31055546 
3.1 1:0.80753513 2:0.31750623 3:0.28207571 4:0.38509619 
-3.1 1:0.82020415 2:0.33702921 3:0.28207571 4:0.40555862 
3.1 1:0.9277018 2:0.48222337 3:0.28207571 4:0.56265521 
-3.1 1:0.99968646 2:0.65541159 3:0.28207571 4:0.97716656 
3.1 1:0.40648543 2:0.21352709 3:0.14532926 4:0.10636327 
3.1 1:0.58997968 2:0.252973 3:0.14532926 4:0.14058412 
3.1 1:0.61307616 2:0.26549895 3:0.14532926 4:0.15440325 
3.1 1:0.71981157 2:0.29488433 3:0.14532926 4:0.17848225 
3.1 1:0.74989483 2:0.31662006 3:0.14532926 4:0.20014771 
3.1 1:0.83675891 2:0.34313191 3:0.14532926 4:0.2240692 
3.1 1:0.89265676 2:0.36397454 3:0.14532926 4:0.24044488 
3.1 1:0.42833195 2:0.26668685 3:0.1376926 4:0.13430818 
-3.1 1:0.62765352 2:0.3225835 3:0.1376926 4:0.18165112 
-3.1 1:0.63693396 2:0.33063261 3:0.1376926 4:0.19076624 
3.1 1:0.75342497 2:0.37348216 3:0.1376926 4:0.22142921 
3.1 1:0.77611527 2:0.39218793 3:0.1376926 4:0.23880098 
3.1 1:0.87807649 2:0.44053123 3:0.1376926 4:0.27233274 
3.1 1:0.94282406 2:0.46728821 3:0.1376926 4:0.28841818 
3.1 1:0.94724171 2:0.47586514 3:0.1376926 4:0.29780097 
3.1 1:0.55022974 2:0.37677077 3:0.19908625 4:0.13993145 
3.1 1:0.70228825 2:0.41065868 3:0.19908625 4:0.16020672 
3.1 1:0.71225044 2:0.41933192 3:0.19908625 4:0.16684779 
3.1 1:0.79683949 2:0.43826809 3:0.19908625 4:0.17816881 
3.1 1:0.81652281 2:0.45300881 3:0.19908625 4:0.19016999 
3.1 1:0.89025411 2:0.468107 3:0.19908625 4:0.20163548 
-3.1 1:0.93569958 2:0.48157676 3:0.19908625 4:0.21208644 
-3.1 1:0.93913288 2:0.49123252 3:0.19908625 4:0.22195992 
-3.1 1:0.5613615 2:0.47821058 3:0.034816509 4:0.081947159 
-3.1 1:0.71661596 2:0.50542548 3:0.034816509 4:0.10288869 
-3.1 1:0.71792653 2:0.50792525 3:0.034816509 4:0.10539165 
-3.1 1:0.8060293 2:0.5229294 3:0.034816509 4:0.11870038 
2.759163818336796 1:0.8170115 2:0.5309274 3:0.034816509 4:0.1268531 
3.1 1:0.89730446 2:0.54080799 3:0.034816509 4:0.14094325 
-3.1 1:0.94573058 2:0.55084129 3:0.034816509 4:0.15019994 
-3.1 1:0.94809929 2:0.55792831 3:0.034816509 4:0.15880886 
-3.1 1:0.41059148 2:0.12282286 3:0.061964183 4:0.12878076 
-2.648085892024447 1:0.62044023 2:0.17917576 3:0.061964183 4:0.19955572 
3.1 1:0.62423996 2:0.18405772 3:0.061964183 4:0.2100222 
3.1 1:0.74904673 2:0.23639488 3:0.061964183 4:0.2673725 
-3.1 1:0.76470303 2:0.25419279 3:0.061964183 4:0.29306213 
3.1 1:0.88591654 2:0.34802784 3:0.061964183 4:0.38937669 
-3.1 1:0.96084799 2:0.42014758 3:0.061964183 4:0.45452251 
3.1 1:0.96282592 2:0.42881288 3:0.061964183 4:0.46728124 
3.1 1:0.4745609 2:0.18200267 3:0.23130691 4:0.26767254 
-3.1 1:0.66703242 2:0.24861296 3:0.23130691 4:0.34248223 
-3.1 1:0.68361815 2:0.26524478 3:0.23130691 4:0.36982031 
-3.1 1:0.78457344 2:0.32209063 3:0.23130691 4:0.43388438 
3.1 1:0.80856316 2:0.35113715 3:0.23130691 4:0.47936171 
3.1 1:0.90912597 2:0.4570275 3:0.23130691 4:0.59104161 
-3.1 1:0.98011205 2:0.57256903 3:0.23130691 4:0.69987699 
-3.1 1:0.98354192 2:0.5885804 3:0.23130691 4:0.72038426 
3.1 1:0.23737343 2:0.092648467 3:0.37995933 4:0.074975226 
-3.1 1:0.43053262 2:0.12481478 3:0.37995933 4:0.11338352 
-3.1 1:0.48855711 2:0.150659 3:0.37995933 4:0.14217743 
-3.1 1:0.60605382 2:0.18559397 3:0.37995933 4:0.18417781 
-3.1 1:0.68505081 2:0.23614196 3:0.37995933 4:0.24718934 
-3.1 1:0.79592925 2:0.30063732 3:0.37995933 4:0.33000913 
-3.1 1:0.89013303 2:0.39057937 3:0.37995933 4:0.43942102 
3.1 1:0.91458482 2:0.43330721 3:0.37995933 4:0.49236913 
-3.1 1:0.44292847 2:0.23360631 3:0.32712248 4:0.21957988 
-3.1 1:0.63425946 2:0.28995647 3:0.32712248 4:0.28690618 
-3.1 1:0.66092452 2:0.30993956 3:0.32712248 4:0.31960246 
-3.1 1:0.76329946 2:0.36521762 3:0.32712248 4:0.38583697 
-3.1 1:0.7970581 2:0.40152865 3:0.32712248 4:0.44677644 
-3.1 1:0.90052205 2:0.50628807 3:0.32712248 4:0.57003848 
-3.1 1:0.97414205 2:0.63094307 3:0.32712248 4:0.72152142 
3.1 1:0.98094538 2:0.65383234 3:0.32712248 4:0.75626495 
-3.1 1:0.31470615 2:0.10921428 3:0.62386588 4:0.12328982 
-3.1 1:0.50823936 2:0.15625977 3:0.62386588 4:0.17265339 
-3.1 1:0.57814755 2:0.19290178 3:0.62386588 4:0.21143065 
-3.1 1:0.68975328 2:0.24116742 3:0.62386588 4:0.265971 
-3.1 1:0.76491321 2:0.2989841 3:0.62386588 4:0.33989723 
-3.1 1:0.86588644 2:0.38591976 3:0.62386588 4:0.44351938 
-3.1 1:0.95130265 2:0.50711103 3:0.62386588 4:0.59607542 
-3.1 1:0.96659799 2:0.54981706 3:0.62386588 4:0.65360079 
3.1 1:0.32769235 2:0.11805063 3:0.1012817 4:0.15797584 
3.1 1:0.57102853 2:0.18673101 3:0.1012817 4:0.2692099 
3.1 1:0.57282199 2:0.18739048 3:0.1012817 4:0.27170222 
3.1 1:0.72359309 2:0.2571562 3:0.1012817 4:0.37594831 
3.1 1:0.74350533 2:0.27830189 3:0.1012817 4:0.40502819 
3.1 1:0.90049487 2:0.43091367 3:0.1012817 4:0.66579618 
-3.1 1:0.34454124 2:0.13646724 3:0.46629001 4:0.15289274 
-3.1 1:0.55182328 2:0.19707014 3:0.46629001 4:0.22887916 
-3.1 1:0.58998702 2:0.22368173 3:0.46629001 4:0.26557425 
-3.1 1:0.71011996 2:0.27614135 3:0.46629001 4:0.32836665 
3.1 1:0.76163957 2:0.33197521 3:0.46629001 4:0.4105769 
3.1 1:0.86529435 2:0.41073733 3:0.46629001 4:0.49994272 
3.1 1:0.93362768 2:0.48828001 3:0.46629001 4:0.57622042 
3.1 1:0.94426733 2:0.51454258 3:0.46629001 4:0.60656313 
-3.1 1:0.41172196 2:0.37454782 3:0.19607431 4:0.27706591 
-3.1 1:0.60496716 2:0.4365045 3:0.19607431 4:0.36845584 
-3.1 1:0.63286175 2:0.45793051 3:0.19607431 4:0.40337459 
-3.1 1:0.74572903 2:0.51474633 3:0.19607431 4:0.47825627 
-3.1 1:0.78782385 2:0.5589851 3:0.19607431 4:0.54567335 
-0.02263393499765885 1:0.95774772 2:0.73485939 3:0.19607431 4:0.71704207 
-3.1 1:0.9649349 2:0.7529231 3:0.19607431 4:0.73947302 
-3.1 1:0.50455108 2:0.37707906 3:0.066725896 4:0.37383292 
-3.1 1:0.67886099 2:0.45171655 3:0.066725896 4:0.47612724 
-3.1 1:0.69335422 2:0.46768614 3:0.066725896 4:0.50363859 
-3.1 1:0.79377173 2:0.52913678 3:0.066725896 4:0.56988358 
-3.1 1:0.81917828 2:0.56346863 3:0.066725896 4:0.61594965 
3.1 1:0.91322514 2:0.65354467 3:0.066725896 4:0.7000731 
3.1 1:0.96729751 2:0.71471484 3:0.066725896 4:0.7364402 
3.1 1:0.97059951 2:0.72682591 3:0.066725896 4:0.74927526 
3.1 1:0.48038412 2:0.23379852 3:0.31813065 4:0.18361558 
-3.1 1:0.6494774 2:0.27837021 3:0.31813065 4:0.22867305 
-3.1 1:0.67648047 2:0.3096224 3:0.31813065 4:0.26662141 
-3.1 1:0.76923458 2:0.34709787 3:0.31813065 4:0.30394459 
3.1 1:0.81179327 2:0.4051903 3:0.31813065 4:0.3809145 
-3.1 1:0.8956297 2:0.46193279 3:0.31813065 4:0.44146699 
-3.1 1:0.95803953 2:0.52505896 3:0.31813065 4:0.50173907 
-3.1 1:0.96714842 2:0.55388193 3:0.31813065 4:0.53377919 
3.1 1:0.48186529 2:0.28840495 3:0.24484638 4:0.35029221 
3.1 1:0.63910783 2:0.34199561 3:0.24484638 4:0.40973951 
3.1 1:0.67242576 2:0.37411679 3:0.24484638 4:0.44891858 
3.1 1:0.76844641 2:0.42165442 3:0.24484638 4:0.49511208 
3.1 1:0.81232229 2:0.47549925 3:0.24484638 4:0.5571142 
3.1 1:0.89573129 2:0.53507396 3:0.24484638 4:0.6057181 
3.1 1:0.96198872 2:0.59867279 3:0.24484638 4:0.64581725 
3.1 1:0.97130686 2:0.62463226 3:0.24484638 4:0.6670586 
-3.1 1:0.54409816 2:0.47771275 3:0.024412915 4:0.44465489 
-3.1 1:0.70378255 2:0.53593465 3:0.024412915 4:0.51210471 
-3.1 1:0.70869839 2:0.54357264 3:0.024412915 4:0.52082163 
-3.1 1:0.8056575 2:0.59171889 3:0.024412915 4:0.56825209 
3.1 1:0.91340004 2:0.67669648 3:0.024412915 4:0.6608159 
-0.2120177324707262 1:0.96944322 2:0.72824579 3:0.024412915 4:0.70660368 
-3.1 1:0.47841867 2:0.22724946 3:0.61324729 4:0.28192681 
-3.1 1:0.63484695 2:0.28242948 3:0.61324729 4:0.34625947 
-3.1 1:0.67502231 2:0.31532094 3:0.61324729 4:0.38883959 
-3.1 1:0.76652592 2:0.36736763 3:0.61324729 4:0.4464908 
3.1 1:0.81130451 2:0.42383137 3:0.61324729 4:0.51856905 
-3.1 1:0.89206502 2:0.49271001 3:0.61324729 4:0.58630069 
3.1 1:0.95502376 2:0.56662668 3:0.61324729 4:0.63387505 
3.1 1:0.96428826 2:0.59698594 3:0.61324729 4:0.66045615 
-3.1 1:0.51091654 2:0.36753212 4:0.32122832 
-3.1 1:0.67131199 2:0.40988734 4:0.37624653 
-3.1 1:0.67853479 2:0.41802337 4:0.38490923 
-3.1 1:0.77668766 2:0.4530568 4:0.42714338 
-3.1 1:0.80010279 2:0.47295605 4:0.44945901 
-3.1 1:0.89419414 2:0.52043749 4:0.51637124 
-3.1 1:0.94867588 2:0.55053174 4:0.55259659 
-3.1 1:0.95202741 2:0.56265542 4:0.56679466 
3.1 1:0.080816638 2:0.10224369 3:1 4:0.096522634 
3.1 1:0.2819517 2:0.13673148 3:1 4:0.13405098 
-3.1 1:0.37552113 2:0.17052558 3:1 4:0.17330297 
-3.1 1:0.50495742 2:0.20639051 3:1 4:0.21544897 
-3.1 1:0.62998381 2:0.27310353 3:1 4:0.30353179 
-3.1 1:0.75084058 2:0.33811623 3:1 4:0.38380081 
1.053542467015948 1:0.86417134 2:0.42515427 3:1 4:0.47677652 
3.1 1:0.89893124 2:0.4707805 3:1 4:0.53088363 
3.1 1:1 2:0.60957429 3:0.57015555 4:1 
-3.1 1:1 2:0.83216729 3:0.50243453 4:1 
-3.1 1:1 2:0.84061366 3:0.54605511 4:1 
3.1 1:1 2:0.54793197 3:0.77164289 4:1 
-3.1 1:1 2:1 3:0.46336375 4:1 
-3.1 1:0.36338045 2:0.20017167 3:0.27174489 4:0.19030002 
-3.1 1:0.56016075 2:0.2511454 3:0.27174489 4:0.25418659 
-3.1 1:0.58720387 2:0.26591235 3:0.27174489 4:0.28451975 
-3.1 1:0.72561366 2:0.32432484 3:0.27174489 4:0.34947968 
3.1 1:0.7525563 2:0.34866202 3:0.27174489 4:0.3991584 
3.1 1:0.88089009 2:0.45568174 3:0.27174489 4:0.51691346 
3.1 1:0.89118788 2:0.47211671 3:0.27174489 4:0.54829173 
3.1 1:0.94970136 2:0.54170694 3:0.27174489 4:0.63661853 
3.1 1:0.95617102 2:0.55602795 3:0.27174489 4:0.66263285 
3.1 1:0.96902859 2:0.58505878 3:0.27174489 4:0.72053996 
3.1 1:0.49691615 2:0.56424104 3:0.019238957 4:0.45200919 
3.1 1:0.50469145 2:0.57181443 3:0.019238957 4:0.46818436 
-3.1 1:0.67458252 2:0.62423542 3:0.019238957 4:0.49597011 
-3.1 1:0.67941593 2:0.6324076 3:0.019238957 4:0.50994261 
-3.1 1:0.79839909 2:0.68132931 3:0.019238957 4:0.52861368 
3.1 1:0.8998255 2:0.73591865 3:0.019238957 4:0.555713 
3.1 1:0.96138923 2:0.76908851 3:0.019238957 4:0.57268419 
3.1 1:0.96906849 2:0.7906865 3:0.019238957 4:0.59393192 
3.1 1:0.028315453 2:0.029721262 3:0.57015555 
-3.1 1:0.61695399 2:0.18704248 3:0.57015555 4:0.1814112 
-3.1 1:0.7608844 2:0.25428655 3:0.57015555 4:0.24370254 
-3.1 1:0.82057107 2:0.30563046 3:0.57015555 4:0.30618093 
-3.1 1:0.86008714 2:0.34853999 3:0.57015555 4:0.35992967 
-3.1 1:0.89455431 2:0.39394543 3:0.57015555 4:0.41860883 
-3.1 1:0.93054994 2:0.45158749 3:0.57015555 4:0.49788181 
3.1 1:0.16873718 2:0.15491045 3:0.73861347 4:0.079392181 
-3.1 1:0.45188506 2:0.22731935 3:0.73861347 4:0.16130023 
3.1 1:0.69176657 2:0.33745528 3:0.73861347 4:0.30827001 
-3.1 1:0.76536179 2:0.36671253 3:0.73861347 4:0.34343984 
-0.02554211357444341 1:0.86463628 2:0.44598536 3:0.73861347 4:0.43860171 
3.1 1:0.90279382 2:0.49917048 3:0.73861347 4:0.50883156 
3.1 1:0.9278218 2:0.54448511 3:0.73861347 4:0.56756291 
3.1 1:2.220446e-16 2:0.23907071 3:0.50243453 4:0.038179135 
3.1 1:0.42756068 2:0.33322794 3:0.50243453 4:0.144644 
3.1 1:0.54211376 2:0.37139949 3:0.50243453 4:0.1921988 
3.1 1:0.59120008 2:0.38742794 3:0.50243453 4:0.20324125 
3.1 1:0.61558961 2:0.40700327 3:0.50243453 4:0.23911229 
3.1 1:0.66410067 2:0.42453917 3:0.50243453 4:0.25030438 
3.1 1:0.77796278 2:0.50015434 3:0.50243453 4:0.35266323 
3.1 1:0.850087 2:0.56409596 3:0.50243453 4:0.44272339 
3.1 1:0.89007769 2:0.6105181 3:0.50243453 4:0.51063948 
3.1 1:0.2919114 2:0.32670389 3:0.54605511 4:0.16789622 
3.1 1:0.56327043 2:0.41097052 3:0.54605511 4:0.28869814 
-3.1 1:0.69223575 2:0.44677163 3:0.54605511 4:0.30435865 
3.1 1:0.7570134 2:0.52053937 3:0.54605511 4:0.45274665 
-3.1 1:0.93882855 2:0.64245784 3:0.54605511 4:0.54772182 
3.1 1:0.98348966 2:0.77515886 3:0.54605511 4:0.7707436 
3.1 1:0.30992869 2:0.24744957 3:0.21597041 4:0.08636103 
-3.1 1:0.56052264 2:0.31230263 3:0.21597041 4:0.16193225 
-3.1 1:0.70082836 2:0.36112001 3:0.21597041 4:0.2051139 
3.1 1:0.73029842 2:0.38872215 3:0.21597041 4:0.2447673 
3.1 1:0.86760546 2:0.48182811 3:0.21597041 4:0.33403096 
3.1 1:0.87147234 2:0.48882625 3:0.21597041 4:0.34344882 
3.1 1:0.95086917 2:0.55599973 3:0.21597041 4:0.39368584 
3.1 1:0.03020499 3:0.77164289 4:0.010458785 
-0.01859023599776738 1:0.47261196 2:0.084491417 3:0.77164289 4:0.097458927 
-3.1 1:0.58771434 2:0.13408384 3:0.77164289 4:0.1573028 
3.1 1:0.67102703 2:0.16297436 3:0.77164289 4:0.1833146 
3.1 1:0.72313816 2:0.19544136 3:0.77164289 4:0.22168406 
3.1 1:0.78939255 2:0.22653651 3:0.77164289 4:0.24606121 
3.1 1:0.83915519 2:0.27026774 3:0.77164289 4:0.29560442 
3.1 1:0.87367366 2:0.30750931 3:0.77164289 4:0.33839465 
-3.1 1:0.93106101 2:0.38632703 3:0.77164289 4:0.43396065 
-3.1 1:0.47596853 2:0.4846003 3:0.46336375 4:0.30839395 
-3.1 1:0.6683492 2:0.56626182 3:0.46336375 4:0.40875179 
-3.1 1:0.76380856 2:0.60596099 3:0.46336375 4:0.45269953 
-3.1 1:0.8078454 2:0.66094735 3:0.46336375 4:0.52147761 
3.1 1:0.88161084 2:0.71273046 3:0.46336375 4:0.57004196 
3.1 1:0.93055934 2:0.73684772 3:0.46336375 4:0.57987786 
