svm_type nu_svr
kernel_type rbf
gamma 0.05
nr_class 2
total_sv 146
rho -1.32632
SV
-4 1:1 2:0.8030051 3:0.99999729 4:0.99999079 5:0.99998943 6:0.9999878 
4 1:1 2:0.038015823 3:0.99999928 4:0.99999873 5:0.99999804 6:0.99999741 
4 1:1 2:0.25848432 3:0.99999903 4:0.99998969 5:0.99999013 6:0.99998978 
1.807335200204975 1:1 2:0.29342488 3:0.99999592 4:0.99999846 5:0.99999788 6:0.9999974 
4 1:1 2:0.10677631 3:0.99999978 4:1 5:0.99999986 6:0.99999943 
4 1:1 3:0.99998133 4:0.999983 5:0.99997894 6:0.99997401 
-4 1:0.69877011 2:0.56444262 3:0.50921148 4:0.76710784 5:0.82670241 6:0.86490642 
-4 1:0.79766167 2:0.56444262 3:0.53823533 4:0.81897065 5:0.87312034 6:0.90157336 
-4 1:0.72184702 2:0.81184392 3:0.34146118 4:0.77233099 5:0.85139308 6:0.8911112 
-4 1:0.80161708 2:0.8030051 3:0.37137887 4:0.81441984 5:0.88205746 6:0.91458784 
4 1:0.82707859 2:0.8030051 3:0.39967972 4:0.85595164 5:0.9157471 6:0.94250616 
4 1:0.89751482 2:0.8030051 3:0.43471552 4:0.88766843 5:0.93741664 6:0.9585333 
4 1:0.94175377 2:0.8030051 3:0.46452669 4:0.9182414 5:0.9574509 6:0.97241904 
4 1:0.94886773 2:0.8030051 3:0.48597643 4:0.9305327 5:0.96475729 6:0.97745993 
-2.510361020090557 1:0.40868489 2:0.038015823 3:0.21781789 4:0.44794961 5:0.63031085 6:0.80683337 
-4 1:0.63428342 2:0.038015823 3:0.30849583 4:0.64202249 5:0.80802081 6:0.90863282 
-4 1:0.63517266 2:0.038015823 3:0.31217271 4:0.64691363 5:0.81222875 6:0.91233255 
-4 1:0.76722119 2:0.038015823 3:0.39695052 4:0.78959953 5:0.90634845 6:0.95720779 
-4 1:0.78174139 2:0.038015823 3:0.42163817 4:0.81669421 5:0.91935657 6:0.96453704 
4 1:0.91228761 2:0.038015823 3:0.61994475 4:0.94847901 5:0.97833681 6:0.98936287 
-4 1:0.99904905 2:0.038015823 3:0.93628712 4:0.99679004 5:0.99846782 6:0.99903209 
-4 1:0.58827977 2:0.25848432 3:0.14383844 4:0.73829094 5:0.81603677 6:0.85595957 
2.902362693360934 1:0.72787846 2:0.25848432 3:0.15680151 4:0.78772395 5:0.8630424 6:0.89601386 
4 1:0.73686951 2:0.25848432 3:0.16041931 4:0.8054275 5:0.8795366 6:0.91128178 
4 1:0.81448451 2:0.25848432 3:0.16789364 4:0.83127922 5:0.90072936 6:0.92855272 
4 1:0.83243025 2:0.25848432 3:0.17571056 4:0.85519703 5:0.91900384 6:0.94337939 
4 1:0.90008949 2:0.25848432 3:0.18526461 4:0.87114837 5:0.93120916 6:0.95345941 
-4 1:0.9417379 2:0.25848432 3:0.19310586 4:0.88842969 5:0.94366205 6:0.96310817 
-4 1:0.94484695 2:0.25848432 3:0.20141739 4:0.89806671 5:0.94947889 6:0.96737567 
4 1:0.47978606 2:0.29342488 3:0.37828753 4:0.59283997 5:0.6986829 6:0.76721953 
-4 1:0.67041246 2:0.29342488 3:0.43406042 4:0.69545545 5:0.78844497 6:0.83548565 
-4 1:0.68687171 2:0.29342488 3:0.4533295 4:0.73365473 5:0.8283423 6:0.87437613 
-4 1:0.78675347 2:0.29342488 3:0.50368236 4:0.80877338 5:0.88125545 6:0.91311785 
4 1:0.81048742 2:0.29342488 3:0.53929031 4:0.85927598 5:0.92157707 6:0.94661509 
4 1:0.91008577 2:0.29342488 3:0.64342603 4:0.92235378 5:0.95594401 6:0.97022052 
4 1:0.98034419 2:0.29342488 3:0.74867139 4:0.96174708 5:0.97865813 6:0.9855907 
-4 1:0.98374845 2:0.29342488 3:0.76761303 4:0.96943688 5:0.98331581 6:0.98886018 
4 1:0.21485039 2:0.48677022 3:0.11345038 4:0.17140411 5:0.2101569 6:0.24593902 
-4 1:0.41372739 2:0.48677022 3:0.14082884 4:0.24538952 5:0.29907456 6:0.33850931 
-4 1:0.47345302 2:0.48677022 3:0.16006938 4:0.3034939 5:0.37958679 6:0.43704105 
-4 1:0.59443212 2:0.48677022 3:0.19192638 4:0.37748708 5:0.45920897 6:0.51712537 
-4 1:0.67574515 2:0.48677022 3:0.23713622 4:0.49728842 5:0.59955195 6:0.6663985 
4 1:0.78992412 2:0.48677022 3:0.31211637 4:0.59455234 5:0.68412552 6:0.74174321 
4 1:0.88689388 2:0.48677022 3:0.41179694 4:0.71798944 5:0.79723708 6:0.84286184 
4 1:0.91206375 2:0.48677022 3:0.45966149 4:0.78017661 5:0.85110756 6:0.88888462 
4 1:0.29413383 2:0.10677631 3:0.19874924 4:0.40337922 5:0.61274472 6:0.8105974 
4 1:0.54963028 2:0.10677631 3:0.27738962 4:0.60155207 5:0.79900726 6:0.91107745 
4 1:0.55151187 2:0.10677631 3:0.27887687 4:0.60612125 5:0.80427185 6:0.91644232 
4 1:0.70981251 2:0.10677631 3:0.36218223 4:0.75727682 5:0.90334086 6:0.95976102 
4 1:0.73071821 2:0.10677631 3:0.38762586 4:0.78874054 5:0.91736487 6:0.96694371 
4 1:0.89553278 2:0.10677631 3:0.64450377 4:0.94508005 5:0.97969348 6:0.99102268 
-4 1:0.99960553 2:0.10677631 3:0.97746638 4:0.99901236 5:0.99947611 6:0.99962996 
-4 1:0.51836093 2:0.41417463 3:0.46738067 4:0.61522089 5:0.66393896 6:0.69033856 
-4 1:0.67524849 2:0.41417463 3:0.49668554 4:0.67097253 5:0.72838492 6:0.75985279 
-4 1:0.70028015 2:0.41417463 3:0.52098374 4:0.71662894 5:0.78064948 6:0.81645797 
-4 1:0.78642744 2:0.41417463 3:0.5461248 4:0.75910395 5:0.82175845 6:0.85532884 
4 1:0.90383507 2:0.41417463 3:0.64492493 4:0.88591045 5:0.92952674 6:0.94932761 
-4 1:0.96168905 2:0.41417463 3:0.68941955 4:0.93381569 5:0.96303272 6:0.97470906 
-4 1:0.97005681 2:0.41417463 3:0.71439359 4:0.95040237 5:0.97316178 6:0.98194096 
-4 1:0.56380049 2:0.31835223 3:0.69193697 4:0.78256967 5:0.81221005 6:0.82634328 
-4 1:0.69707209 2:0.31835223 3:0.72638362 4:0.83182981 5:0.86311597 6:0.87753352 
4 1:0.80573645 2:0.31835223 3:0.77507907 4:0.89690184 5:0.92487946 6:0.9374063 
4 1:0.84202195 2:0.31835223 3:0.81166689 4:0.93470572 5:0.95598757 6:0.96484279 
4 1:0.91272894 2:0.31835223 3:0.8436011 4:0.95907188 5:0.97354318 6:0.979415 
4 1:0.9686358 2:0.31835223 3:0.86670871 4:0.97955311 5:0.98803337 6:0.99122745 
4 1:0.97633312 2:0.31835223 3:0.87923717 4:0.98514841 5:0.99149005 6:0.99380957 
-4 1:0.65588273 3:0.5682756 4:0.86215027 5:0.91612413 6:0.93851985 
-4 1:0.7688504 3:0.61047319 4:0.91205526 5:0.94943272 6:0.96141581 
-4 1:0.77375719 3:0.61652077 4:0.91721776 5:0.95283683 6:0.96443685 
-4 1:0.84303094 3:0.65087011 4:0.94571492 5:0.96911258 6:0.97599917 
-4 1:0.859513 3:0.66891799 4:0.95471412 5:0.97396024 6:0.97998427 
4 1:0.92610378 3:0.72619437 4:0.97495675 5:0.98604062 6:0.98960284 
4 1:0.96469997 3:0.75060173 4:0.98615297 5:0.99340881 6:0.99571252 
4 1:1 2:0.025183075 3:0.99999941 4:0.99999574 5:0.99999491 6:0.99999593 
-4 1:1 2:0.73957936 3:1 4:0.9999995 5:0.99999914 6:0.99999875 
-4 1:1 2:0.95569244 3:0.99999937 4:0.99999802 5:0.99999697 6:0.99999632 
-4 1:1 2:0.65360757 3:0.99999736 4:0.99999482 5:0.99999327 6:0.99999186 
-4 1:1 2:0.69531342 3:0.99999853 4:0.99999627 5:0.99999468 6:0.99999297 
4 1:1 2:0.28383856 3:0.99999999 4:0.99999528 5:0.99999508 6:0.99999322 
-4 1:1 2:1 3:0.99999999 4:0.99999949 5:0.99999896 6:0.9999987 
-2.433009748878295 1:1 2:0.60349977 3:0.99999749 4:0.99999136 5:0.99999 6:0.99998873 
-4 1:0.37561501 2:0.34645426 3:0.14880892 4:0.39723988 5:0.55093369 6:0.66454538 
-4 1:0.56863072 2:0.34645426 3:0.19722036 4:0.53712785 5:0.68388172 6:0.76682187 
-4 1:0.59508041 2:0.34645426 3:0.22024317 4:0.59921562 5:0.7485305 6:0.8264393 
-4 1:0.73093101 2:0.34645426 3:0.27642153 4:0.71410968 5:0.8226547 6:0.87404565 
4 1:0.75725861 2:0.34645426 3:0.31892986 4:0.79653796 5:0.88902562 6:0.92720955 
4 1:0.88324205 2:0.34645426 3:0.44247265 4:0.89218395 5:0.93823649 6:0.95809467 
4 1:0.89330531 2:0.34645426 3:0.47413087 4:0.92095479 5:0.95660608 6:0.97126897 
-4 1:0.95081368 2:0.34645426 3:0.58448455 4:0.90977535 5:0.94729808 6:0.96305607 
4 1:0.95713957 2:0.34645426 3:0.61289525 4:0.92353134 5:0.95596795 6:0.96933354 
-4 1:0.52995072 2:0.025183075 3:0.38836184 4:0.75826373 5:0.84406609 6:0.89508423 
-4 1:0.53720256 2:0.025183075 3:0.40192329 4:0.78307203 5:0.86525381 6:0.91252574 
-4 1:0.69594771 2:0.025183075 3:0.42521979 4:0.8330908 5:0.90153311 6:0.93405062 
-4 1:0.70045697 2:0.025183075 3:0.43751926 4:0.85257099 5:0.91574681 6:0.94460461 
-4 1:0.81165203 2:0.025183075 3:0.45460835 4:0.88191737 5:0.93215888 6:0.95417335 
-2.173340096752099 1:0.9064202 2:0.025183075 3:0.48206869 4:0.9071518 5:0.9470606 6:0.96487315 
4 1:0.96394483 2:0.025183075 3:0.49883076 4:0.9230607 5:0.9578558 6:0.97233833 
4 1:0.97111669 2:0.025183075 3:0.52021085 4:0.94257658 5:0.97053128 6:0.98157252 
4 1:2.220446e-16 2:0.73957936 3:-1.3877788e-17 4:5.5511151e-17 
-4 1:0.60579537 2:0.73957936 3:0.12857951 4:0.40136241 5:0.52639591 6:0.61154456 
-4 1:0.75391998 2:0.73957936 3:0.18413975 4:0.49865908 5:0.61041927 6:0.68222311 
-4 1:0.81534386 2:0.73957936 3:0.23733655 4:0.60531333 5:0.71438921 6:0.77830168 
3.690302106434123 1:0.85601348 2:0.73957936 3:0.28558237 4:0.68675229 5:0.78660791 6:0.84081181 
4 1:0.89148224 2:0.73957936 3:0.3409056 4:0.76416987 5:0.84941558 6:0.89195694 
-1.271874187873331 1:0.1754006 2:0.95569244 3:0.10791346 4:0.14680138 5:0.16845189 6:0.17979297 
-4 1:0.45636047 2:0.95569244 3:0.16953359 4:0.29339239 5:0.37053194 6:0.42928841 
-4 1:0.76725045 2:0.95569244 3:0.3199056 4:0.58267543 5:0.68446781 6:0.74947444 
4 1:0.86571468 2:0.95569244 3:0.40217281 4:0.72326223 5:0.81343054 6:0.86237369 
4 1:0.90357654 2:0.95569244 3:0.46813214 4:0.8036618 5:0.87757159 6:0.91422921 
4 1:0.92841067 2:0.95569244 3:0.52583662 4:0.85994278 5:0.91777955 6:0.94444287 
4 1:0.057190813 2:0.65360757 3:0.088546983 4:0.08489065 5:0.063710047 6:0.018497865 
4 1:0.4633528 2:0.65360757 3:0.16931489 4:0.27746204 5:0.32957949 6:0.36452535 
4 1:0.57170849 2:0.65360757 3:0.20775152 4:0.35490039 5:0.42421223 6:0.47398047 
4 1:0.61771166 2:0.65360757 3:0.21359395 4:0.38823433 5:0.46552238 6:0.51658141 
4 1:0.64058555 2:0.65360757 3:0.24532275 4:0.433707 5:0.5190611 6:0.58093764 
4 1:0.68648384 2:0.65360757 3:0.25117129 4:0.46847919 5:0.55943113 6:0.61867492 
4 1:0.79302622 2:0.65360757 3:0.33630494 4:0.629892 5:0.72893633 6:0.78645585 
4 1:0.86050673 2:0.65360757 3:0.41611988 4:0.75124872 5:0.83579174 6:0.87875592 
4 1:0.89790018 2:0.65360757 3:0.48011754 4:0.82547834 5:0.89218436 6:0.92303961 
4 1:0.29904526 2:0.69531342 3:0.25388315 4:0.42468328 5:0.52818056 6:0.61044403 
4 1:0.56768372 2:0.69531342 3:0.33757382 4:0.61717352 5:0.73687058 6:0.80630558 
4 1:0.69534457 2:0.69531342 3:0.35302074 4:0.63336871 5:0.73527483 6:0.79288091 
4 1:0.75945312 2:0.69531342 3:0.46462989 4:0.82460745 5:0.90086281 6:0.93411717 
-0.01141494640575525 1:0.93943015 2:0.69531342 3:0.55750662 4:0.87351791 5:0.92517572 6:0.94832031 
-4 1:0.98364831 2:0.69531342 3:0.76920047 4:0.97447972 5:0.98666061 6:0.99114208 
4 1:0.32003025 2:0.28383856 3:0.044665195 4:0.39766692 5:0.56732669 6:0.70652029 
-4 1:0.56695519 2:0.28383856 3:0.096622337 4:0.59717873 5:0.75893387 6:0.84265862 
-4 1:0.70520449 2:0.28383856 3:0.13297753 4:0.68083625 5:0.80204185 6:0.8608337 
-4 1:0.73424539 2:0.28383856 3:0.16186552 4:0.77936913 5:0.88146282 6:0.92299088 
4 1:0.8695414 2:0.28383856 3:0.25145782 4:0.86353422 5:0.92242861 6:0.94817197 
4 1:0.87335334 2:0.28383856 3:0.26005157 4:0.87688405 5:0.93121026 6:0.95449853 
4 1:0.95158906 2:0.28383856 3:0.31261683 4:0.90736454 5:0.95137819 6:0.9685259 
-4 1:0.4815428 2:1 3:0.061536953 4:0.28565784 5:0.37684552 6:0.44080166 
-4 1:0.59467 2:1 3:0.10166264 4:0.43889626 5:0.55930869 6:0.63557174 
4 1:0.67663613 2:1 3:0.12780958 4:0.46795265 5:0.57738143 6:0.64923049 
4 1:0.72783807 2:1 3:0.15711041 4:0.55134409 5:0.66305237 6:0.73186017 
-4 1:0.79298469 2:1 3:0.17873176 4:0.59206595 5:0.70160442 6:0.76500248 
4 1:0.84189744 2:1 3:0.22057684 4:0.68154534 5:0.78312756 6:0.83712587 
4 1:0.87583173 2:1 3:0.25845185 4:0.750957 5:0.84062665 6:0.88486359 
-4 1:0.93224076 2:1 3:0.34967328 4:0.87263679 5:0.92874269 6:0.9524502 
-4 1:0.94593929 2:1 3:0.38363181 4:0.90195369 5:0.94721313 6:0.96546559 
-4 1:0.51879581 2:0.60349977 3:0.30613996 4:0.55018829 5:0.6350736 6:0.69921848 
-4 1:0.69563366 2:0.60349977 3:0.39213515 4:0.69127303 5:0.77191062 6:0.82345731 
-4 1:0.78343124 2:0.60349977 3:0.43249771 4:0.74714033 5:0.81818514 6:0.86246184 
-4 1:0.8236257 2:0.60349977 3:0.49339213 4:0.82858556 5:0.88579014 6:0.91928421 
-4 1:0.89144739 2:0.60349977 3:0.5428863 4:0.87835737 5:0.92321475 6:0.94810537 
