svm_type nu_svr
kernel_type rbf
gamma 0.1
nr_class 2
total_sv 145
rho -0.518509
SV
-1.908779772857038 1:1 2:0.9023797 3:0.80360073 4:1 
3.1 1:1 2:0.6268493 3:0.060660457 4:1 
-3.1 1:1 2:0.82419551 3:0.25800309 4:1 
3.1 1:1 2:0.60150691 3:0.13125463 4:1 
-3.1 1:1 2:0.81706577 3:0.41227705 4:1 
-3.1 1:1 2:0.86043223 3:0.3173053 4:1 
-3.1 1:0.500758 2:0.44434935 3:0.80360073 4:0.25504335 
-3.1 1:0.66395488 2:0.49545656 3:0.80360073 4:0.30315084 
-3.1 1:0.68710445 2:0.51616008 3:0.80360073 4:0.32840241 
3.1 1:0.77682167 2:0.55184234 3:0.80360073 4:0.36126897 
3.1 1:0.80552743 2:0.57886981 3:0.80360073 4:0.3952589 
3.1 1:0.88273764 2:0.61682479 3:0.80360073 4:0.43234181 
-3.1 1:0.93116188 2:0.65752339 3:0.80360073 4:0.46598966 
3.1 1:0.93943344 2:0.67382416 3:0.80360073 4:0.48875504 
-3.1 1:0.44111817 2:0.13943156 3:0.060660457 4:0.23164915 
-3.1 1:0.65519079 2:0.2182804 3:0.060660457 4:0.35101052 
-3.1 1:0.77999724 2:0.29259565 3:0.060660457 4:0.44902479 
3.1 1:0.79372033 2:0.31017378 3:0.060660457 4:0.4749309 
3.1 1:0.91710352 2:0.45437437 3:0.060660457 4:0.66549345 
3.1 1:0.99910085 2:0.62307047 3:0.060660457 4:0.94344783 
3.1 1:0.70228825 2:0.41065868 3:0.25800309 4:0.16020672 
3.1 1:0.71225044 2:0.41933192 3:0.25800309 4:0.16684779 
3.1 1:0.79683949 2:0.43826809 3:0.25800309 4:0.17816881 
3.1 1:0.81652281 2:0.45300881 3:0.25800309 4:0.19016999 
3.1 1:0.89025411 2:0.468107 3:0.25800309 4:0.20163548 
-3.1 1:0.93569958 2:0.48157676 3:0.25800309 4:0.21208644 
3.1 1:0.93913288 2:0.49123252 3:0.25800309 4:0.22195992 
-3.1 1:0.66703242 2:0.24861296 3:0.29975901 4:0.34248223 
-3.1 1:0.68361815 2:0.26524478 3:0.29975901 4:0.36982031 
-3.1 1:0.78457344 2:0.32209063 3:0.29975901 4:0.43388438 
3.1 1:0.80856316 2:0.35113715 3:0.29975901 4:0.47936171 
3.1 1:0.90912597 2:0.4570275 3:0.29975901 4:0.59104161 
-1.95125371595871 1:0.98011205 2:0.57256903 3:0.29975901 4:0.69987699 
-3.1 1:0.98354192 2:0.5885804 3:0.29975901 4:0.72038426 
0.8928938865007994 1:0.23737343 2:0.092648467 3:0.49240306 4:0.074975226 
-3.1 1:0.43053262 2:0.12481478 3:0.49240306 4:0.11338352 
-3.1 1:0.48855711 2:0.150659 3:0.49240306 4:0.14217743 
-3.1 1:0.60605382 2:0.18559397 3:0.49240306 4:0.18417781 
-3.1 1:0.68505081 2:0.23614196 3:0.49240306 4:0.24718934 
-3.1 1:0.79592925 2:0.30063732 3:0.49240306 4:0.33000913 
-3.1 1:0.89013303 2:0.39057937 3:0.49240306 4:0.43942102 
3.1 1:0.91458482 2:0.43330721 3:0.49240306 4:0.49236913 
3.1 1:0.32769235 2:0.11805063 3:0.13125463 4:0.15797584 
3.1 1:0.57102853 2:0.18673101 3:0.13125463 4:0.2692099 
3.1 1:0.57282199 2:0.18739048 3:0.13125463 4:0.27170222 
3.1 1:0.72359309 2:0.2571562 3:0.13125463 4:0.37594831 
3.1 1:0.74350533 2:0.27830189 3:0.13125463 4:0.40502819 
3.1 1:0.90049487 2:0.43091367 3:0.13125463 4:0.66579618 
1.439296923646941 1:0.99962385 2:0.60052019 3:0.13125463 4:0.97801244 
-3.1 1:0.48038412 2:0.23379852 3:0.41227705 4:0.18361558 
-3.1 1:0.6494774 2:0.27837021 3:0.41227705 4:0.22867305 
-3.1 1:0.67648047 2:0.3096224 3:0.41227705 4:0.26662141 
-3.1 1:0.76923458 2:0.34709787 3:0.41227705 4:0.30394459 
-3.1 1:0.8956297 2:0.46193279 3:0.41227705 4:0.44146699 
-3.1 1:0.95803953 2:0.52505896 3:0.41227705 4:0.50173907 
-3.1 1:0.96714842 2:0.55388193 3:0.41227705 4:0.53377919 
3.1 1:0.48186529 2:0.28840495 3:0.3173053 4:0.35029221 
3.1 1:0.63910783 2:0.34199561 3:0.3173053 4:0.40973951 
3.1 1:0.67242576 2:0.37411679 3:0.3173053 4:0.44891858 
3.1 1:0.76844641 2:0.42165442 3:0.3173053 4:0.49511208 
3.1 1:0.81232229 2:0.47549925 3:0.3173053 4:0.5571142 
3.1 1:0.89573129 2:0.53507396 3:0.3173053 4:0.6057181 
3.1 1:0.96198872 2:0.59867279 3:0.3173053 4:0.64581725 
1.375294662803866 1:0.97130686 2:0.62463226 3:0.3173053 4:0.6670586 
-3.1 1:0.51091654 2:0.36753212 4:0.32122832 
-3.1 1:0.67131199 2:0.40988734 4:0.37624653 
-3.1 1:0.67853479 2:0.41802337 4:0.38490923 
-3.1 1:0.77668766 2:0.4530568 4:0.42714338 
-3.1 1:0.80010279 2:0.47295605 4:0.44945901 
-2.649966511184513 1:0.94867588 2:0.55053174 4:0.55259659 
-3.1 1:0.95202741 2:0.56265542 4:0.56679466 
-3.1 1:1 2:0.83216729 3:0.65112312 4:1 
-3.1 1:1 2:0.84061366 3:0.70765261 4:1 
-3.1 1:1 2:0.71738209 3:0.27988388 4:1 
3.1 1:1 2:0.54793197 3:1 4:1 
-3.1 1:1 2:1 3:0.60048989 4:1 
-3.1 1:0.36338045 2:0.20017167 3:0.35216405 4:0.19030002 
-3.1 1:0.56016075 2:0.2511454 3:0.35216405 4:0.25418659 
-3.1 1:0.58720387 2:0.26591235 3:0.35216405 4:0.28451975 
-3.1 1:0.72561366 2:0.32432484 3:0.35216405 4:0.34947968 
3.1 1:0.7525563 2:0.34866202 3:0.35216405 4:0.3991584 
3.1 1:0.88089009 2:0.45568174 3:0.35216405 4:0.51691346 
3.1 1:0.89118788 2:0.47211671 3:0.35216405 4:0.54829173 
3.1 1:0.94970136 2:0.54170694 3:0.35216405 4:0.63661853 
3.1 1:0.95617102 2:0.55602795 3:0.35216405 4:0.66263285 
3.1 1:0.96902859 2:0.58505878 3:0.35216405 4:0.72053996 
-3.1 1:0.49691615 2:0.56424104 3:0.024932462 4:0.45200919 
-3.1 1:0.50469145 2:0.57181443 3:0.024932462 4:0.46818436 
-3.1 1:0.67458252 2:0.62423542 3:0.024932462 4:0.49597011 
-3.1 1:0.67941593 2:0.6324076 3:0.024932462 4:0.50994261 
-3.1 1:0.79839909 2:0.68132931 3:0.024932462 4:0.52861368 
3.1 1:0.8998255 2:0.73591865 3:0.024932462 4:0.555713 
3.1 1:0.96138923 2:0.76908851 3:0.024932462 4:0.57268419 
3.1 1:0.96906849 2:0.7906865 3:0.024932462 4:0.59393192 
3.1 1:0.028315453 2:0.029721262 3:0.73888524 
-3.1 1:0.61695399 2:0.18704248 3:0.73888524 4:0.1814112 
-3.1 1:0.7608844 2:0.25428655 3:0.73888524 4:0.24370254 
-3.1 1:0.82057107 2:0.30563046 3:0.73888524 4:0.30618093 
-3.1 1:0.86008714 2:0.34853999 3:0.73888524 4:0.35992967 
-3.1 1:0.89455431 2:0.39394543 3:0.73888524 4:0.41860883 
-3.1 1:0.93054994 2:0.45158749 3:0.73888524 4:0.49788181 
-3.1 1:0.16873718 2:0.15491045 3:0.95719598 4:0.079392181 
-3.1 1:0.45188506 2:0.22731935 3:0.95719598 4:0.16130023 
-3.1 1:0.69176657 2:0.33745528 3:0.95719598 4:0.30827001 
-3.1 1:0.76536179 2:0.36671253 3:0.95719598 4:0.34343984 
-3.1 1:0.86463628 2:0.44598536 3:0.95719598 4:0.43860171 
3.1 1:0.90279382 2:0.49917048 3:0.95719598 4:0.50883156 
3.1 1:0.9278218 2:0.54448511 3:0.95719598 4:0.56756291 
3.1 1:2.220446e-16 2:0.23907071 3:0.65112312 4:0.038179135 
3.1 1:0.42756068 2:0.33322794 3:0.65112312 4:0.144644 
3.1 1:0.54211376 2:0.37139949 3:0.65112312 4:0.1921988 
3.1 1:0.59120008 2:0.38742794 3:0.65112312 4:0.20324125 
3.1 1:0.61558961 2:0.40700327 3:0.65112312 4:0.23911229 
3.1 1:0.66410067 2:0.42453917 3:0.65112312 4:0.25030438 
3.1 1:0.77796278 2:0.50015434 3:0.65112312 4:0.35266323 
3.1 1:0.850087 2:0.56409596 3:0.65112312 4:0.44272339 
3.1 1:0.89007769 2:0.6105181 3:0.65112312 4:0.51063948 
3.1 1:0.2919114 2:0.32670389 3:0.70765261 4:0.16789622 
3.1 1:0.56327043 2:0.41097052 3:0.70765261 4:0.28869814 
-3.1 1:0.69223575 2:0.44677163 3:0.70765261 4:0.30435865 
3.1 1:0.7570134 2:0.52053937 3:0.70765261 4:0.45274665 
-3.1 1:0.93882855 2:0.64245784 3:0.70765261 4:0.54772182 
3.1 1:0.30992869 2:0.24744957 3:0.27988388 4:0.08636103 
-3.1 1:0.56052264 2:0.31230263 3:0.27988388 4:0.16193225 
-3.1 1:0.70082836 2:0.36112001 3:0.27988388 4:0.2051139 
3.1 1:0.73029842 2:0.38872215 3:0.27988388 4:0.2447673 
3.1 1:0.86760546 2:0.48182811 3:0.27988388 4:0.33403096 
3.1 1:0.87147234 2:0.48882625 3:0.27988388 4:0.34344882 
3.1 1:0.95086917 2:0.55599973 3:0.27988388 4:0.39368584 
3.1 1:0.03020499 3:1 4:0.010458785 
-3.1 1:0.47261196 2:0.084491417 3:1 4:0.097458927 
-3.1 1:0.58771434 2:0.13408384 3:1 4:0.1573028 
3.1 1:0.67102703 2:0.16297436 3:1 4:0.1833146 
3.1 1:0.72313816 2:0.19544136 3:1 4:0.22168406 
3.1 1:0.78939255 2:0.22653651 3:1 4:0.24606121 
3.1 1:0.83915519 2:0.27026774 3:1 4:0.29560442 
3.1 1:0.87367366 2:0.30750931 3:1 4:0.33839465 
-3.1 1:0.93106101 2:0.38632703 3:1 4:0.43396065 
2.802514527048651 1:0.94499913 2:0.41008163 3:1 4:0.46699577 
-3.1 1:0.47596853 2:0.4846003 3:0.60048989 4:0.30839395 
-3.1 1:0.6683492 2:0.56626182 3:0.60048989 4:0.40875179 
-3.1 1:0.76380856 2:0.60596099 3:0.60048989 4:0.45269953 
-3.1 1:0.8078454 2:0.66094735 3:0.60048989 4:0.52147761 
3.1 1:0.88161084 2:0.71273046 3:0.60048989 4:0.57004196 
3.1 1:0.93055934 2:0.73684772 3:0.60048989 4:0.57987786 
