{
    "param_dict": {
        "C": 1.0,
        "norm_type": "clip_0to1",
        "score_clip": [
            0.0,
            100.0
        ],
        "cache_size": 200,
        "nu": 0.5,
        "gamma": 0.85
    },
    "model_dict": {
        "norm_type": "linear_rescale",
        "score_clip": [
            0.0,
            100.0
        ],
        "feature_names": [
            "VMAF_feature_adm_score",
            "VMAF_feature_ansnr_score",
            "VMAF_feature_motion_score",
            "VMAF_feature_vif_score"
        ],
        "intercepts": [
            -0.1909090909090909,
            -1.635828565827225,
            -0.5027725296167747,
            -0.022214587359292954,
            -0.12191917348723096
        ],
        "model_type": "LIBSVMNUSVR",
        "slopes": [
            0.010909090909090908,
            2.635828565827225,
            0.030306790717580585,
            0.06846153126171134,
            1.121919173487231
        ],
        "model": "svm_type nu_svr\nkernel_type rbf\ngamma 0.85\nnr_class 2\ntotal_sv 87\nrho -0.678599\nSV\n-1 1:0.500758 2:0.44434935 3:0.80360073 4:0.25504335 \n-1 1:0.66395488 2:0.49545656 3:0.80360073 4:0.30315084 \n-1 1:0.68710445 2:0.51616008 3:0.80360073 4:0.32840241 \n1 1:0.80552743 2:0.57886981 3:0.80360073 4:0.3952589 \n1 1:0.93943344 2:0.67382416 3:0.80360073 4:0.48875504 \n-0.6005168509118413 1:0.44111817 2:0.13943156 3:0.060660457 4:0.23164915 \n0.3001652364483464 1:0.79372033 2:0.31017378 3:0.060660457 4:0.4749309 \n1 1:0.91710352 2:0.45437437 3:0.060660457 4:0.66549345 \n0.2347757543790557 1:0.99910085 2:0.62307047 3:0.060660457 4:0.94344783 \n0.9879940111050362 1:0.70228825 2:0.41065868 3:0.25800309 4:0.16020672 \n1 1:0.71225044 2:0.41933192 3:0.25800309 4:0.16684779 \n1 1:0.79683949 2:0.43826809 3:0.25800309 4:0.17816881 \n1 1:0.81652281 2:0.45300881 3:0.25800309 4:0.19016999 \n-1 1:0.93569958 2:0.48157676 3:0.25800309 4:0.21208644 \n-0.05952502774634448 1:0.93913288 2:0.49123252 3:0.25800309 4:0.22195992 \n-1 1:0.78457344 2:0.32209063 3:0.29975901 4:0.43388438 \n-0.08537060065670415 1:0.98011205 2:0.57256903 3:0.29975901 4:0.69987699 \n-1 1:0.98354192 2:0.5885804 3:0.29975901 4:0.72038426 \n-1 1:0.43053262 2:0.12481478 3:0.49240306 4:0.11338352 \n-1 1:0.48855711 2:0.150659 3:0.49240306 4:0.14217743 \n-1 1:0.60605382 2:0.18559397 3:0.49240306 4:0.18417781 \n-0.7923822897377828 1:0.68505081 2:0.23614196 3:0.49240306 4:0.24718934 \n-0.08210621586290766 1:0.89013303 2:0.39057937 3:0.49240306 4:0.43942102 \n1 1:0.32769235 2:0.11805063 3:0.13125463 4:0.15797584 \n1 1:0.57102853 2:0.18673101 3:0.13125463 4:0.2692099 \n1 1:0.57282199 2:0.18739048 3:0.13125463 4:0.27170222 \n1 1:0.74350533 2:0.27830189 3:0.13125463 4:0.40502819 \n1 1:0.90049487 2:0.43091367 3:0.13125463 4:0.66579618 \n-1 1:0.6494774 2:0.27837021 3:0.41227705 4:0.22867305 \n-1 1:0.76923458 2:0.34709787 3:0.41227705 4:0.30394459 \n-1 1:0.95803953 2:0.52505896 3:0.41227705 4:0.50173907 \n-1 1:0.96714842 2:0.55388193 3:0.41227705 4:0.53377919 \n1 1:0.48186529 2:0.28840495 3:0.3173053 4:0.35029221 \n1 1:0.63910783 2:0.34199561 3:0.3173053 4:0.40973951 \n1 1:0.67242576 2:0.37411679 3:0.3173053 4:0.44891858 \n1 1:0.81232229 2:0.47549925 3:0.3173053 4:0.5571142 \n-1 1:0.51091654 2:0.36753212 4:0.32122832 \n-1 1:0.67131199 2:0.40988734 4:0.37624653 \n-1 1:0.67853479 2:0.41802337 4:0.38490923 \n-1 1:0.77668766 2:0.4530568 4:0.42714338 \n-1 1:0.80010279 2:0.47295605 4:0.44945901 \n0.2238122443981977 1:1 2:0.78323367 3:0.95719598 4:1 \n-1 1:0.36338045 2:0.20017167 3:0.35216405 4:0.19030002 \n-1 1:0.56016075 2:0.2511454 3:0.35216405 4:0.25418659 \n-1 1:0.72561366 2:0.32432484 3:0.35216405 4:0.34947968 \n1 1:0.7525563 2:0.34866202 3:0.35216405 4:0.3991584 \n1 1:0.88089009 2:0.45568174 3:0.35216405 4:0.51691346 \n-1 1:0.67458252 2:0.62423542 3:0.024932462 4:0.49597011 \n-1 1:0.67941593 2:0.6324076 3:0.024932462 4:0.50994261 \n-1 1:0.79839909 2:0.68132931 3:0.024932462 4:0.52861368 \n0.765497786395351 1:0.96138923 2:0.76908851 3:0.024932462 4:0.57268419 \n1 1:0.96906849 2:0.7906865 3:0.024932462 4:0.59393192 \n-1 1:0.61695399 2:0.18704248 3:0.73888524 4:0.1814112 \n-1 1:0.7608844 2:0.25428655 3:0.73888524 4:0.24370254 \n-1 1:0.82057107 2:0.30563046 3:0.73888524 4:0.30618093 \n-1 1:0.89455431 2:0.39394543 3:0.73888524 4:0.41860883 \n-1 1:0.16873718 2:0.15491045 3:0.95719598 4:0.079392181 \n-1 1:0.45188506 2:0.22731935 3:0.95719598 4:0.16130023 \n-0.8676044738986739 1:0.76536179 2:0.36671253 3:0.95719598 4:0.34343984 \n0.6504146395675607 1:2.220446e-16 2:0.23907071 3:0.65112312 4:0.038179135 \n1 1:0.42756068 2:0.33322794 3:0.65112312 4:0.144644 \n1 1:0.54211376 2:0.37139949 3:0.65112312 4:0.1921988 \n1 1:0.59120008 2:0.38742794 3:0.65112312 4:0.20324125 \n1 1:0.61558961 2:0.40700327 3:0.65112312 4:0.23911229 \n1 1:0.66410067 2:0.42453917 3:0.65112312 4:0.25030438 \n1 1:0.77796278 2:0.50015434 3:0.65112312 4:0.35266323 \n1 1:0.850087 2:0.56409596 3:0.65112312 4:0.44272339 \n0.3373403277064526 1:0.89007769 2:0.6105181 3:0.65112312 4:0.51063948 \n1 1:0.2919114 2:0.32670389 3:0.70765261 4:0.16789622 \n1 1:0.56327043 2:0.41097052 3:0.70765261 4:0.28869814 \n-0.9667756382666468 1:0.69223575 2:0.44677163 3:0.70765261 4:0.30435865 \n1 1:0.7570134 2:0.52053937 3:0.70765261 4:0.45274665 \n-1 1:0.93882855 2:0.64245784 3:0.70765261 4:0.54772182 \n-0.04571890291909872 1:0.56052264 2:0.31230263 3:0.27988388 4:0.16193225 \n-1 1:0.70082836 2:0.36112001 3:0.27988388 4:0.2051139 \n1 1:0.73029842 2:0.38872215 3:0.27988388 4:0.2447673 \n1 1:0.86760546 2:0.48182811 3:0.27988388 4:0.33403096 \n1 1:0.87147234 2:0.48882625 3:0.27988388 4:0.34344882 \n1 1:0.95086917 2:0.55599973 3:0.27988388 4:0.39368584 \n1 1:0.67102703 2:0.16297436 3:1 4:0.1833146 \n1 1:0.72313816 2:0.19544136 3:1 4:0.22168406 \n1 1:0.78939255 2:0.22653651 3:1 4:0.24606121 \n1 1:0.83915519 2:0.27026774 3:1 4:0.29560442 \n-1 1:0.47596853 2:0.4846003 3:0.60048989 4:0.30839395 \n-1 1:0.6683492 2:0.56626182 3:0.60048989 4:0.40875179 \n-1 1:0.76380856 2:0.60596099 3:0.60048989 4:0.45269953 \n-1 1:0.8078454 2:0.66094735 3:0.60048989 4:0.52147761 \n"
    }
}