svm_type nu_svr
kernel_type rbf
gamma 0.25
nr_class 2
total_sv 96
rho 0.206707
SV
0.01043634726652371 1:1.1229674 2:2.2777816 3:1.1523508 4:2.1184117 
-1 1:-1.1999181 2:-0.033123678 3:1.1523508 4:-0.73948663 
-1 1:-0.44059162 2:0.22472803 3:1.1523508 4:-0.5549305 
-1 1:-0.33288074 2:0.32918373 3:1.1523508 4:-0.45805718 
1 1:0.21812065 2:0.64557381 3:1.1523508 4:-0.2015737 
1 1:0.57736624 2:0.83706845 3:1.1523508 4:-0.059311508 
1 1:0.84116183 2:1.1246479 3:1.1523508 4:0.15710816 
-1 1:-1.4774118 2:-1.5715286 3:-1.2801229 4:-0.82923445 
-0.3002934039967475 1:0.099333123 2:-0.79876822 3:-1.2801229 4:0.0046899009 
1 1:0.16318427 2:-0.71008106 3:-1.2801229 4:0.10407422 
1 1:0.73726465 2:0.017455645 3:-1.2801229 4:0.83513475 
0.8857223075615253 1:1.1187839 2:0.86857982 3:-1.2801229 4:1.9014591 
1 1:-0.21588086 2:-0.15934439 3:-0.63399994 4:-1.0778337 
0.3507653515561927 1:0.17769716 2:-0.063805508 3:-0.63399994 4:-1.0344026 
1 1:0.26928022 2:0.010565995 3:-0.63399994 4:-0.98836213 
-1 1:0.82378887 2:0.15470014 3:-0.63399994 4:-0.90428343 
0.1684926412376913 1:-1.3218086 2:-1.3567441 3:-0.49728614 4:-0.69103689 
-1 1:-0.3491019 2:-0.93676184 3:-0.49728614 4:-0.29916449 
-1 1:0.12062539 2:-0.64995687 3:-0.49728614 4:-0.053393708 
-0.5297473153795377 1:1.0304323 2:0.61378441 3:-0.49728614 4:0.96704132 
-1 1:1.0463909 2:0.69456673 3:-0.49728614 4:1.0457139 
-0.5283191930128736 1:-2.4254004 2:-1.8075638 3:0.13345309 4:-1.4302871 
-1 1:-0.70999512 2:-1.3386249 3:0.13345309 4:-1.0113501 
0.09986772785124359 1:0.17346197 2:-0.7581955 3:0.13345309 4:-0.45189327 
0.06457682890652097 1:-2.0051623 2:-1.679402 3:-1.0489893 4:-1.1118695 
1 1:-0.87296167 2:-1.3328882 3:-1.0489893 4:-0.68513909 
1 1:-0.86461701 2:-1.3295609 3:-1.0489893 4:-0.67557773 
1 1:-0.07045735 2:-0.87088464 3:-1.0489893 4:-0.1640955 
1 1:-1.2947142 2:-1.0954179 3:-0.1288889 4:-1.013507 
-0.453389011399397 1:-0.50795284 2:-0.87053996 3:-0.1288889 4:-0.84065175 
-1 1:0.049256373 2:-0.52378757 3:-0.1288889 4:-0.55188539 
-0.2014589541004997 1:0.24727451 2:-0.23069322 3:-0.1288889 4:-0.25660356 
-1 1:0.63735072 2:0.05559023 3:-0.1288889 4:-0.024304305 
-0.4401505369611807 1:0.92773273 2:0.37408136 3:-0.1288889 4:0.20691918 
-1 1:0.97011481 2:0.51950217 3:-0.1288889 4:0.32983562 
1 1:-1.2878226 2:-0.81991156 3:-0.43983754 4:-0.3740807 
1 1:-0.55620063 2:-0.54953008 3:-0.43983754 4:-0.14602136 
0.7244558678200383 1:-0.40117812 2:-0.38746873 3:-0.43983754 4:0.0042824209 
-1 1:0.045589166 2:-0.14762666 3:-0.43983754 4:0.18149587 
1 1:0.24973592 2:0.12403723 3:-0.43983754 4:0.41935637 
-1 1:-1.1526522 2:-0.42069047 3:-1.4787323 4:-0.48557934 
-1 1:-0.40636027 2:-0.20699524 3:-1.4787323 4:-0.2745114 
-1 1:-0.37275388 2:-0.16594641 3:-1.4787323 4:-0.24127845 
-0.5896643580294093 1:0.19288073 2:0.11120601 3:-1.4787323 4:0.0063556879 
-0.1803198429385292 1:0.89975937 2:0.56376714 3:-1.4787323 4:0.45649378 
0.08914875289167028 1:1.1229674 2:2.4996532 3:-1.3971005 4:2.1184117 
0.8410043980280932 1:1.1229674 2:0.48948279 3:1.795385 4:2.1184117 
0.7524836150942976 1:1.1229674 2:2.7703063 3:0.48734203 4:2.1184117 
-1 1:-1.8391118 2:-1.2650759 3:-0.3257059 4:-0.98786329 
-1 1:-0.92352757 2:-1.0078976 3:-0.3257059 4:-0.74277345 
-1 1:-0.15370416 2:-0.6386846 3:-0.3257059 4:-0.37719782 
1 1:-0.028344732 2:-0.51589598 3:-0.3257059 4:-0.18661396 
1 1:0.56876988 2:0.024051722 3:-0.3257059 4:0.26513312 
1 1:0.91903888 2:0.5303295 3:-0.3257059 4:0.82416054 
-0.7691257539977251 1:-0.39114308 2:0.87445736 3:-1.3971005 4:0.18478757 
-1 1:0.18495373 2:1.1625138 3:-1.3971005 4:0.31001901 
0.6278370568462525 1:0.94331828 2:1.6052862 3:-1.3971005 4:0.47908797 
1 1:0.97904856 2:1.7142548 3:-1.3971005 4:0.56060123 
-1 1:-0.65927853 2:-1.3313167 3:0.94046465 4:-1.0219637 
-1 1:0.010404429 2:-0.99204949 3:0.94046465 4:-0.78299368 
-1 1:0.28811604 2:-0.73300355 3:0.94046465 4:-0.54330608 
-0.1193793450529546 1:-2.7447529 2:-1.4934328 3:1.6552396 4:-1.4133422 
-1 1:-1.4273154 2:-1.1281074 3:1.6552396 4:-1.099116 
-0.06568608417492766 1:-0.3111887 2:-0.57243744 3:1.6552396 4:-0.53529168 
-1 1:0.031236959 2:-0.42482551 3:1.6552396 4:-0.40036865 
-0.8297828584281023 1:0.49314375 2:-0.024869483 3:1.6552396 4:-0.035296485 
0.1388736203603159 1:0.78713493 2:0.47209233 3:1.6552396 4:0.45944103 
-0.5562167425357791 1:-3.5298574 2:-1.0688181 3:0.65312118 4:-1.571449 
1 1:-1.5404924 2:-0.5937657 3:0.65312118 4:-1.1630148 
1 1:-1.007497 2:-0.40117836 3:0.65312118 4:-0.98057893 
1 1:-0.77910699 2:-0.32030984 3:0.65312118 4:-0.93821648 
1 1:-0.66562679 2:-0.22154627 3:0.65312118 4:-0.80060339 
1 1:-0.43991331 2:-0.1330722 3:0.65312118 4:-0.75766685 
1 1:0.089867151 2:0.24842982 3:0.65312118 4:-0.36498469 
1 1:0.42544852 2:0.57103515 3:0.65312118 4:-0.019484336 
1 1:-0.90905877 2:-0.20153026 3:0.83820537 4:-0.61037581 
-1 1:-0.30900569 2:-0.020902501 3:0.83820537 4:-0.55029692 
1 1:-0.007606635 2:0.35127863 3:0.83820537 4:0.018968179 
-1 1:0.83834741 2:0.96639512 3:0.83820537 4:0.38332409 
-0.9364665999923375 1:-0.92184371 2:-0.69934037 3:-0.56235966 4:-1.0966914 
-1 1:-0.26902579 2:-0.45304154 3:-0.56235966 4:-0.93103238 
1 1:-0.13190677 2:-0.31378018 3:-0.56235966 4:-0.77890894 
1 1:0.50695883 2:0.15596831 3:-0.56235966 4:-0.4364642 
1 1:0.52495076 2:0.19127609 3:-0.56235966 4:-0.40033422 
1 1:0.89437032 2:0.53018716 3:-0.56235966 4:-0.20760851 
-1 1:-3.3893189 2:-2.2750041 3:1.795385 4:-1.6777933 
1 1:-0.16522223 2:-1.2889417 3:1.795385 4:-0.86746383 
1 1:0.14304788 2:-1.1320571 3:1.795385 4:-0.77394505 
1 1:0.3745847 2:-0.91141943 3:1.795385 4:-0.58388102 
0.565100468392977 1:0.53519313 2:-0.72352417 3:1.795385 4:-0.41972365 
0.09280312236888676 1:0.86705804 2:-0.20601496 3:1.795385 4:0.073632489 
-1 1:-1.3152592 2:0.16995485 3:0.48734203 4:-0.53481618 
-1 1:-0.42014564 2:0.58196259 3:0.48734203 4:-0.14981055 
-1 1:0.024010062 2:0.78225722 3:0.48734203 4:0.018787388 
-1 1:0.22890573 2:1.0596805 3:0.48734203 4:0.28264271 
0.08843189381777095 1:0.79987221 2:1.4426214 3:0.48734203 4:0.50668525 
