svm_type nu_svr
kernel_type rbf
gamma 0.6
nr_class 2
total_sv 89
rho -0.737361
SV
0.2529139087080438 2:1 3:0.83592028 5:1 
-0.4450850630253843 1:0.63285849 2:0.500758 3:0.44434935 4:0.80360073 5:0.25504335 
-1.5 1:0.63272348 2:0.66395488 3:0.49545656 4:0.80360073 5:0.30315084 
-1.5 1:0.63271487 2:0.68710445 3:0.51616008 4:0.80360073 5:0.32840241 
1.5 1:0.63268265 2:0.80552743 3:0.57886981 4:0.80360073 5:0.3952589 
1.5 1:0.63246425 2:0.88273764 3:0.61682479 4:0.80360073 5:0.43234181 
-1.5 1:0.63293579 2:0.93116188 3:0.65752339 4:0.80360073 5:0.46598966 
1.5 1:0.63297586 2:0.93943344 3:0.67382416 4:0.80360073 5:0.48875504 
-1.5 1:0.69353847 2:0.44111817 3:0.13943156 4:0.060660457 5:0.23164915 
-1.5 1:0.69353417 2:0.77999724 3:0.29259565 4:0.060660457 5:0.44902479 
1.5 1:0.69347119 2:0.91710352 3:0.45437437 4:0.060660457 5:0.66549345 
1.5 1:0.20684539 2:0.70228825 3:0.41065868 4:0.25800309 5:0.16020672 
1.5 1:0.20683263 2:0.71225044 3:0.41933192 4:0.25800309 5:0.16684779 
1.5 1:0.20679452 2:0.79683949 3:0.43826809 4:0.25800309 5:0.17816881 
1.5 1:0.20679287 2:0.81652281 3:0.45300881 4:0.25800309 5:0.19016999 
0.7714810454075676 1:0.20648144 2:0.89025411 3:0.468107 4:0.25800309 5:0.20163548 
-1.5 1:0.20686509 2:0.93569958 3:0.48157676 4:0.25800309 5:0.21208644 
0.572677843729098 1:0.13586197 2:0.4745609 3:0.18200267 4:0.29975901 5:0.26767254 
1.5 1:0.13553743 2:0.90912597 3:0.4570275 4:0.29975901 5:0.59104161 
-1.5 1:0.13587783 2:0.98354192 3:0.5885804 4:0.29975901 5:0.72038426 
-1.5 1:0.56204451 2:0.43053262 3:0.12481478 4:0.49240306 5:0.11338352 
-1.5 1:0.5622103 2:0.48855711 3:0.150659 4:0.49240306 5:0.14217743 
-1.5 1:0.5622329 2:0.60605382 3:0.18559397 4:0.49240306 5:0.18417781 
-0.8689673235671777 1:0.56276103 2:0.68505081 3:0.23614196 4:0.49240306 5:0.24718934 
-1.5 1:0.56313419 2:0.89013303 3:0.39057937 4:0.49240306 5:0.43942102 
1.5 1:0.73464824 2:0.32769235 3:0.11805063 4:0.13125463 5:0.15797584 
1.5 1:0.73464081 2:0.57102853 3:0.18673101 4:0.13125463 5:0.2692099 
1.440635539535014 1:0.73464135 2:0.57282199 3:0.18739048 4:0.13125463 5:0.27170222 
1.5 1:0.73469119 2:0.74350533 3:0.27830189 4:0.13125463 5:0.40502819 
1.5 1:0.73464639 2:0.90049487 3:0.43091367 4:0.13125463 5:0.66579618 
-0.9619648169524679 1:0.7349386 2:0.99962385 3:0.60052019 4:0.13125463 5:0.97801244 
-1.5 1:0.094104554 2:0.6494774 3:0.27837021 4:0.41227705 5:0.22867305 
-1.5 1:0.094113288 2:0.76923458 3:0.34709787 4:0.41227705 5:0.30394459 
-0.8618403120623901 1:0.094460437 2:0.95803953 3:0.52505896 4:0.41227705 5:0.50173907 
-1.5 1:0.094477431 2:0.96714842 3:0.55388193 4:0.41227705 5:0.53377919 
0.7574982844357614 1:0.014763988 2:0.48186529 3:0.28840495 4:0.3173053 5:0.35029221 
1.5 1:0.014701112 2:0.63910783 3:0.34199561 4:0.3173053 5:0.40973951 
1.5 1:0.014674867 2:0.67242576 3:0.37411679 4:0.3173053 5:0.44891858 
1.5 1:0.014630722 2:0.81232229 3:0.47549925 4:0.3173053 5:0.5571142 
-1.5 1:0.00033418436 2:0.51091654 3:0.36753212 5:0.32122832 
-1.5 1:0.00037617541 2:0.67131199 3:0.40988734 5:0.37624653 
-1.5 1:0.00023496632 2:0.67853479 3:0.41802337 5:0.38490923 
-0.1687003961444893 1:0.00018492801 2:0.80010279 3:0.47295605 5:0.44945901 
0.7845762336299573 1:0.99950247 2:1 3:0.9463555 4:0.024932462 5:1 
-1.5 1:0.52860545 2:0.56016075 3:0.2511454 4:0.35216405 5:0.25418659 
-1.5 1:0.52816324 2:0.72561366 3:0.32432484 4:0.35216405 5:0.34947968 
1.5 1:0.52815471 2:0.7525563 3:0.34866202 4:0.35216405 5:0.3991584 
1.5 1:0.52813812 2:0.88089009 3:0.45568174 4:0.35216405 5:0.51691346 
-0.6514836947262879 1:0.99915418 2:0.49691615 3:0.56424104 4:0.024932462 5:0.45200919 
-1.5 1:0.99978452 2:0.67458252 3:0.62423542 4:0.024932462 5:0.49597011 
-1.5 1:0.99976348 2:0.67941593 3:0.6324076 4:0.024932462 5:0.50994261 
-1.5 1:0.99946386 2:0.79839909 3:0.68132931 4:0.024932462 5:0.52861368 
1.01908737446811 1:1 2:0.96906849 3:0.7906865 4:0.024932462 5:0.59393192 
1.371610392412436 1:0.57287302 2:0.028315453 3:0.029721262 4:0.73888524 
-1.5 1:0.57216838 2:0.61695399 3:0.18704248 4:0.73888524 5:0.1814112 
-1.5 1:0.57377599 2:0.7608844 3:0.25428655 4:0.73888524 5:0.24370254 
-1.5 1:0.57311138 2:0.82057107 3:0.30563046 4:0.73888524 5:0.30618093 
-1.5 1:0.57242653 2:0.89455431 3:0.39394543 4:0.73888524 5:0.41860883 
-0.918964281932205 1:0.512231 2:0.16873718 3:0.15491045 4:0.95719598 5:0.079392181 
-1.5 1:0.51291013 2:0.45188506 3:0.22731935 4:0.95719598 5:0.16130023 
1.01606363284132 1:0.51279114 2:0.9278218 3:0.54448511 4:0.95719598 5:0.56756291 
1.5 1:0.88662275 2:0.42756068 3:0.33322794 4:0.65112312 5:0.144644 
1.5 1:0.88653717 2:0.54211376 3:0.37139949 4:0.65112312 5:0.1921988 
1.5 1:0.887133 2:0.59120008 3:0.38742794 4:0.65112312 5:0.20324125 
1.5 1:0.88654324 2:0.61558961 3:0.40700327 4:0.65112312 5:0.23911229 
1.5 1:0.88718996 2:0.66410067 3:0.42453917 4:0.65112312 5:0.25030438 
1.5 1:0.88726488 2:0.77796278 3:0.50015434 4:0.65112312 5:0.35266323 
1.5 1:0.8873379 2:0.850087 3:0.56409596 4:0.65112312 5:0.44272339 
0.102692862809826 1:0.88741346 2:0.89007769 3:0.6105181 4:0.65112312 5:0.51063948 
1.5 1:0.8321071 2:0.56327043 3:0.41097052 4:0.70765261 5:0.28869814 
-1.5 1:0.83179494 2:0.69223575 3:0.44677163 4:0.70765261 5:0.30435865 
1.5 1:0.83173836 2:0.7570134 3:0.52053937 4:0.70765261 5:0.45274665 
-1.5 1:0.83215909 2:0.93882855 3:0.64245784 4:0.70765261 5:0.54772182 
0.717444203799245 1:0.696492 2:0.30992869 3:0.24744957 4:0.27988388 5:0.08636103 
-1.5 1:0.69680555 2:0.56052264 3:0.31230263 4:0.27988388 5:0.16193225 
-1.5 1:0.69647466 2:0.70082836 3:0.36112001 4:0.27988388 5:0.2051139 
1.5 1:0.6962259 2:0.86760546 3:0.48182811 4:0.27988388 5:0.33403096 
1.5 1:0.69612691 2:0.87147234 3:0.48882625 4:0.27988388 5:0.34344882 
1.5 1:0.69664109 2:0.95086917 3:0.55599973 4:0.27988388 5:0.39368584 
-0.3729941115895967 1:0.2724996 2:0.03020499 4:1 5:0.010458785 
0.9433186782236197 1:0.27307455 2:0.67102703 3:0.16297436 4:1 5:0.1833146 
1.5 1:0.27292575 2:0.72313816 3:0.19544136 4:1 5:0.22168406 
1.5 1:0.27374243 2:0.78939255 3:0.22653651 4:1 5:0.24606121 
1.5 1:0.2735168 2:0.83915519 3:0.27026774 4:1 5:0.29560442 
-1.5 1:0.27316105 2:0.93106101 3:0.38632703 4:1 5:0.43396065 
-1.5 1:0.88835063 2:0.47596853 3:0.4846003 4:0.60048989 5:0.30839395 
-1.5 1:0.88903021 2:0.6683492 3:0.56626182 4:0.60048989 5:0.40875179 
-1.5 1:0.88848047 2:0.76380856 3:0.60596099 4:0.60048989 5:0.45269953 
-1.5 1:0.88853891 2:0.8078454 3:0.66094735 4:0.60048989 5:0.52147761 
