svm_type nu_svr
kernel_type rbf
gamma 0.39
nr_class 2
total_sv 157
rho -0.948897
SV
-2.5 1:0.66395488 2:0.49545656 3:0.62009279 4:0.30315084 
-2.5 1:0.68710445 2:0.51616008 3:0.62009279 4:0.32840241 
2.5 1:0.77682167 2:0.55184234 3:0.62009279 4:0.36126897 
2.5 1:0.80552743 2:0.57886981 3:0.62009279 4:0.3952589 
2.5 1:0.88273764 2:0.61682479 3:0.62009279 4:0.43234181 
-2.5 1:0.93116188 2:0.65752339 3:0.62009279 4:0.46598966 
2.5 1:0.48032161 2:0.26272159 3:0.15702556 4:0.27429199 
-2.5 1:0.6476565 2:0.4814289 3:0.65360354 4:0.15960103 
2.5 1:0.67501524 2:0.49775418 3:0.65360354 4:0.17409954 
2.5 1:0.75617281 2:0.51702674 3:0.65360354 4:0.18783211 
1.769613023360047 1:0.79008741 2:0.53686054 3:0.65360354 4:0.20893624 
-2.5 1:0.8920263 2:0.58056686 3:0.65360354 4:0.25696445 
-2.5 1:0.90077795 2:0.59512653 3:0.65360354 4:0.27832407 
-2.5 1:0.78680383 2:0.30989034 3:0.1007927 4:0.48951574 
2.5 1:0.91894161 2:0.46619089 3:0.1007927 4:0.6638753 
2.5 1:0.79372033 2:0.31017378 3:0.046808211 4:0.4749309 
2.5 1:0.91710352 2:0.45437437 3:0.046808211 4:0.66549345 
2.5 1:0.50908059 2:0.16768568 3:0.28207571 4:0.22007668 
2.5 1:0.69276045 2:0.24471093 3:0.28207571 4:0.3087109 
2.5 1:0.9277018 2:0.48222337 3:0.28207571 4:0.56265521 
-0.4356888068654591 1:0.99968646 2:0.65541159 3:0.28207571 4:0.97716656 
2.5 1:0.40648543 2:0.21352709 3:0.14532926 4:0.10636327 
2.5 1:0.58997968 2:0.252973 3:0.14532926 4:0.14058412 
2.5 1:0.61307616 2:0.26549895 3:0.14532926 4:0.15440325 
2.5 1:0.74989483 2:0.31662006 3:0.14532926 4:0.20014771 
2.5 1:0.83675891 2:0.34313191 3:0.14532926 4:0.2240692 
2.5 1:0.89265676 2:0.36397454 3:0.14532926 4:0.24044488 
-2.5 1:0.62765352 2:0.3225835 3:0.1376926 4:0.18165112 
-2.5 1:0.63693396 2:0.33063261 3:0.1376926 4:0.19076624 
2.5 1:0.75342497 2:0.37348216 3:0.1376926 4:0.22142921 
2.5 1:0.77611527 2:0.39218793 3:0.1376926 4:0.23880098 
2.5 1:0.87807649 2:0.44053123 3:0.1376926 4:0.27233274 
2.5 1:0.70228825 2:0.41065868 3:0.19908625 4:0.16020672 
2.5 1:0.71225044 2:0.41933192 3:0.19908625 4:0.16684779 
2.5 1:0.81652281 2:0.45300881 3:0.19908625 4:0.19016999 
-2.5 1:0.93569958 2:0.48157676 3:0.19908625 4:0.21208644 
-2.5 1:0.93913288 2:0.49123252 3:0.19908625 4:0.22195992 
-2.5 1:0.71661596 2:0.50542548 3:0.034816509 4:0.10288869 
-2.5 1:0.71792653 2:0.50792525 3:0.034816509 4:0.10539165 
-2.120568805251403 1:0.8060293 2:0.5229294 3:0.034816509 4:0.11870038 
-2.5 1:0.41059148 2:0.12282286 3:0.061964183 4:0.12878076 
-2.5 1:0.76470303 2:0.25419279 3:0.061964183 4:0.29306213 
1.023877711160684 1:0.96282592 2:0.42881288 3:0.061964183 4:0.46728124 
2.5 1:0.4745609 2:0.18200267 3:0.23130691 4:0.26767254 
1.401812069349933 1:0.80856316 2:0.35113715 3:0.23130691 4:0.47936171 
2.5 1:0.90912597 2:0.4570275 3:0.23130691 4:0.59104161 
-2.5 1:0.98354192 2:0.5885804 3:0.23130691 4:0.72038426 
-2.5 1:0.43053262 2:0.12481478 3:0.37995933 4:0.11338352 
-2.5 1:0.48855711 2:0.150659 3:0.37995933 4:0.14217743 
-2.5 1:0.60605382 2:0.18559397 3:0.37995933 4:0.18417781 
-2.5 1:0.68505081 2:0.23614196 3:0.37995933 4:0.24718934 
-1.815673180301303 1:0.89013303 2:0.39057937 3:0.37995933 4:0.43942102 
-2.5 1:0.63425946 2:0.28995647 3:0.32712248 4:0.28690618 
-2.5 1:0.90052205 2:0.50628807 3:0.32712248 4:0.57003848 
-2.5 1:0.97414205 2:0.63094307 3:0.32712248 4:0.72152142 
-2.5 1:0.31470615 2:0.10921428 3:0.62386588 4:0.12328982 
-2.5 1:0.50823936 2:0.15625977 3:0.62386588 4:0.17265339 
-2.5 1:0.57814755 2:0.19290178 3:0.62386588 4:0.21143065 
-2.5 1:0.68975328 2:0.24116742 3:0.62386588 4:0.265971 
-2.5 1:0.76491321 2:0.2989841 3:0.62386588 4:0.33989723 
-2.5 1:0.86588644 2:0.38591976 3:0.62386588 4:0.44351938 
-2.5 1:0.95130265 2:0.50711103 3:0.62386588 4:0.59607542 
-2.5 1:0.96659799 2:0.54981706 3:0.62386588 4:0.65360079 
2.5 1:0.32769235 2:0.11805063 3:0.1012817 4:0.15797584 
2.5 1:0.57102853 2:0.18673101 3:0.1012817 4:0.2692099 
2.5 1:0.57282199 2:0.18739048 3:0.1012817 4:0.27170222 
2.5 1:0.74350533 2:0.27830189 3:0.1012817 4:0.40502819 
2.5 1:0.90049487 2:0.43091367 3:0.1012817 4:0.66579618 
-0.08590962357210168 1:0.34454124 2:0.13646724 3:0.46629001 4:0.15289274 
-2.5 1:0.55182328 2:0.19707014 3:0.46629001 4:0.22887916 
-2.5 1:0.58998702 2:0.22368173 3:0.46629001 4:0.26557425 
-2.5 1:0.71011996 2:0.27614135 3:0.46629001 4:0.32836665 
2.5 1:0.76163957 2:0.33197521 3:0.46629001 4:0.4105769 
-2.5 1:0.41172196 2:0.37454782 3:0.19607431 4:0.27706591 
-2.5 1:0.60496716 2:0.4365045 3:0.19607431 4:0.36845584 
-2.5 1:0.63286175 2:0.45793051 3:0.19607431 4:0.40337459 
-2.5 1:0.74572903 2:0.51474633 3:0.19607431 4:0.47825627 
-2.5 1:0.78782385 2:0.5589851 3:0.19607431 4:0.54567335 
-2.5 1:0.50455108 2:0.37707906 3:0.066725896 4:0.37383292 
-2.5 1:0.67886099 2:0.45171655 3:0.066725896 4:0.47612724 
-2.5 1:0.69335422 2:0.46768614 3:0.066725896 4:0.50363859 
-2.5 1:0.79377173 2:0.52913678 3:0.066725896 4:0.56988358 
-2.5 1:0.81917828 2:0.56346863 3:0.066725896 4:0.61594965 
-2.5 1:0.6494774 2:0.27837021 3:0.31813065 4:0.22867305 
-2.5 1:0.76923458 2:0.34709787 3:0.31813065 4:0.30394459 
-2.5 1:0.95803953 2:0.52505896 3:0.31813065 4:0.50173907 
-2.5 1:0.96714842 2:0.55388193 3:0.31813065 4:0.53377919 
2.5 1:0.48186529 2:0.28840495 3:0.24484638 4:0.35029221 
2.5 1:0.63910783 2:0.34199561 3:0.24484638 4:0.40973951 
2.5 1:0.67242576 2:0.37411679 3:0.24484638 4:0.44891858 
2.5 1:0.76844641 2:0.42165442 3:0.24484638 4:0.49511208 
2.5 1:0.81232229 2:0.47549925 3:0.24484638 4:0.5571142 
2.5 1:0.89573129 2:0.53507396 3:0.24484638 4:0.6057181 
-2.5 1:0.54409816 2:0.47771275 3:0.024412915 4:0.44465489 
-2.5 1:0.70869839 2:0.54357264 3:0.024412915 4:0.52082163 
2.5 1:0.91340004 2:0.67669648 3:0.024412915 4:0.6608159 
-2.5 1:0.47841867 2:0.22724946 3:0.61324729 4:0.28192681 
-2.5 1:0.63484695 2:0.28242948 3:0.61324729 4:0.34625947 
-2.5 1:0.67502231 2:0.31532094 3:0.61324729 4:0.38883959 
-2.5 1:0.76652592 2:0.36736763 3:0.61324729 4:0.4464908 
2.5 1:0.81130451 2:0.42383137 3:0.61324729 4:0.51856905 
-2.5 1:0.51091654 2:0.36753212 4:0.32122832 
-2.5 1:0.67131199 2:0.40988734 4:0.37624653 
-2.5 1:0.67853479 2:0.41802337 4:0.38490923 
-2.5 1:0.77668766 2:0.4530568 4:0.42714338 
-2.5 1:0.80010279 2:0.47295605 4:0.44945901 
-1.244453650110769 1:0.94867588 2:0.55053174 4:0.55259659 
-2.5 1:0.95202741 2:0.56265542 4:0.56679466 
-0.02746665777021654 1:0.37552113 2:0.17052558 3:1 4:0.17330297 
-2.5 1:0.75084058 2:0.33811623 3:1 4:0.38380081 
2.5 1:0.89893124 2:0.4707805 3:1 4:0.53088363 
-2.5 1:0.56016075 2:0.2511454 3:0.27174489 4:0.25418659 
2.5 1:0.7525563 2:0.34866202 3:0.27174489 4:0.3991584 
2.5 1:0.88089009 2:0.45568174 3:0.27174489 4:0.51691346 
2.5 1:0.89118788 2:0.47211671 3:0.27174489 4:0.54829173 
2.5 1:0.95617102 2:0.55602795 3:0.27174489 4:0.66263285 
2.5 1:0.49691615 2:0.56424104 3:0.019238957 4:0.45200919 
2.5 1:0.50469145 2:0.57181443 3:0.019238957 4:0.46818436 
-2.258513393565412 1:0.79839909 2:0.68132931 3:0.019238957 4:0.52861368 
2.5 1:0.8998255 2:0.73591865 3:0.019238957 4:0.555713 
2.5 1:0.96906849 2:0.7906865 3:0.019238957 4:0.59393192 
-2.5 1:0.61695399 2:0.18704248 3:0.57015555 4:0.1814112 
-2.5 1:0.7608844 2:0.25428655 3:0.57015555 4:0.24370254 
-2.5 1:0.82057107 2:0.30563046 3:0.57015555 4:0.30618093 
-2.5 1:0.89455431 2:0.39394543 3:0.57015555 4:0.41860883 
-2.5 1:0.45188506 2:0.22731935 3:0.73861347 4:0.16130023 
2.5 1:0.69176657 2:0.33745528 3:0.73861347 4:0.30827001 
2.5 1:0.9278218 2:0.54448511 3:0.73861347 4:0.56756291 
2.5 1:2.220446e-16 2:0.23907071 3:0.50243453 4:0.038179135 
2.5 1:0.42756068 2:0.33322794 3:0.50243453 4:0.144644 
2.5 1:0.54211376 2:0.37139949 3:0.50243453 4:0.1921988 
2.5 1:0.59120008 2:0.38742794 3:0.50243453 4:0.20324125 
2.5 1:0.61558961 2:0.40700327 3:0.50243453 4:0.23911229 
2.5 1:0.66410067 2:0.42453917 3:0.50243453 4:0.25030438 
2.5 1:0.77796278 2:0.50015434 3:0.50243453 4:0.35266323 
2.5 1:0.850087 2:0.56409596 3:0.50243453 4:0.44272339 
2.5 1:0.89007769 2:0.6105181 3:0.50243453 4:0.51063948 
2.5 1:0.2919114 2:0.32670389 3:0.54605511 4:0.16789622 
2.5 1:0.56327043 2:0.41097052 3:0.54605511 4:0.28869814 
2.5 1:0.7570134 2:0.52053937 3:0.54605511 4:0.45274665 
-2.5 1:0.93882855 2:0.64245784 3:0.54605511 4:0.54772182 
-0.06328298845460008 1:0.56052264 2:0.31230263 3:0.21597041 4:0.16193225 
-2.5 1:0.70082836 2:0.36112001 3:0.21597041 4:0.2051139 
2.5 1:0.73029842 2:0.38872215 3:0.21597041 4:0.2447673 
2.5 1:0.86760546 2:0.48182811 3:0.21597041 4:0.33403096 
2.5 1:0.87147234 2:0.48882625 3:0.21597041 4:0.34344882 
2.5 1:0.95086917 2:0.55599973 3:0.21597041 4:0.39368584 
2.5 1:0.47261196 2:0.084491417 3:0.77164289 4:0.097458927 
2.5 1:0.67102703 2:0.16297436 3:0.77164289 4:0.1833146 
2.5 1:0.72313816 2:0.19544136 3:0.77164289 4:0.22168406 
2.5 1:0.78939255 2:0.22653651 3:0.77164289 4:0.24606121 
2.5 1:0.83915519 2:0.27026774 3:0.77164289 4:0.29560442 
2.5 1:0.87367366 2:0.30750931 3:0.77164289 4:0.33839465 
-1.948442894108733 1:0.47596853 2:0.4846003 3:0.46336375 4:0.30839395 
-2.5 1:0.6683492 2:0.56626182 3:0.46336375 4:0.40875179 
-2.5 1:0.8078454 2:0.66094735 3:0.46336375 4:0.52147761 
0.8046971961293342 1:0.88161084 2:0.71273046 3:0.46336375 4:0.57004196 
