svm_type nu_svr
kernel_type rbf
gamma 0.05
nr_class 2
total_sv 274
rho -1.45631
SV
-4 1:1 2:0.62009279 3:0.99999956 4:0.99999617 5:0.99999659 6:0.99999649 
-4 1:1 2:0.65360354 3:0.99999982 4:0.99999769 5:0.99999611 6:0.99999789 
3.590820754027711 1:1 2:0.034816509 3:0.99999998 4:0.99999562 5:0.99999437 6:0.9999976 
-4 1:1 2:0.62386588 3:0.99999991 4:0.99999987 5:0.9999999 6:0.99999983 
4 1:1 2:0.024412915 3:0.9999985 4:0.99999662 5:0.99999485 6:0.99999574 
-4 1:1 2:0.61324729 3:0.99999945 4:0.99999953 5:0.99999881 6:0.99999873 
4 1:1 3:0.9999953 4:0.99999163 5:0.99999444 6:0.9999906 
-2.897759923300417 1:1 2:1 3:0.99999989 4:0.99999962 5:0.9999994 6:0.99999896 
-4 1:0.55120029 2:0.62009279 3:0.26121942 4:0.6293366 5:0.71975367 6:0.78093108 
-4 1:0.69994822 2:0.62009279 3:0.30135725 4:0.70722144 5:0.79216822 6:0.83978283 
-4 1:0.72011021 2:0.62009279 3:0.32121318 4:0.74989787 5:0.83473257 6:0.87962097 
4 1:0.80161657 2:0.62009279 3:0.3501572 4:0.79684481 5:0.87136279 6:0.90727549 
4 1:0.82707856 2:0.62009279 3:0.37930406 4:0.84227672 5:0.90805726 6:0.93746453 
4 1:0.89751445 2:0.62009279 3:0.41517592 4:0.87673937 5:0.93162471 6:0.95441416 
-4 1:0.94175354 2:0.62009279 3:0.44577851 4:0.91006376 5:0.95340334 6:0.97037481 
4 1:0.94886911 2:0.62009279 3:0.46794139 4:0.92362274 5:0.96145271 6:0.97586663 
-3.338281756707829 1:0.52231028 2:0.15702556 3:0.32589559 4:0.6581287 5:0.76030191 6:0.83726695 
-4 1:0.69532892 2:0.15702556 3:0.37963798 4:0.75963071 5:0.84793528 6:0.89590344 
-4 1:0.70311899 2:0.15702556 3:0.39122605 4:0.77997186 5:0.86615863 6:0.91195763 
-4 1:0.80199769 2:0.15702556 3:0.43275766 4:0.83967337 5:0.90601589 6:0.93575795 
-4 1:0.81958249 2:0.15702556 3:0.46108289 4:0.86793163 5:0.92463208 6:0.94935262 
4 1:0.90910291 2:0.15702556 3:0.53184539 4:0.91070978 5:0.95009054 6:0.96632324 
-4 1:0.96127511 2:0.15702556 3:0.56535202 4:0.93581909 5:0.96661274 6:0.97845579 
4 1:0.96463426 2:0.15702556 3:0.58122093 4:0.94306733 5:0.97086662 6:0.98141713 
1.622886971368134 1:0.53215537 2:0.65360354 3:0.10503639 4:0.51343702 5:0.6311132 6:0.68810633 
-4 1:0.66952701 2:0.65360354 3:0.1196006 4:0.56492275 5:0.69164814 6:0.7502318 
4 1:0.69456875 2:0.65360354 3:0.12925873 4:0.60404133 5:0.73699834 6:0.79724738 
4 1:0.7719972 2:0.65360354 3:0.13902331 4:0.63790465 5:0.77218831 6:0.83039508 
4 1:0.80320895 2:0.65360354 3:0.15424042 4:0.68718524 5:0.81881741 6:0.87335226 
4 1:0.86489599 2:0.65360354 3:0.16699556 4:0.71785387 5:0.84510702 6:0.8951996 
-4 1:0.9012366 2:0.65360354 3:0.19299232 4:0.77508983 5:0.88553267 6:0.92699809 
-4 1:0.90926985 2:0.65360354 3:0.21237815 4:0.80244544 5:0.90269819 6:0.93899838 
4 1:0.42520716 2:0.1007927 3:0.24051621 4:0.48911974 5:0.65173668 6:0.80252903 
-4 1:0.64142951 2:0.1007927 3:0.34197188 4:0.6868242 5:0.82459154 6:0.91058618 
-4 1:0.77466028 2:0.1007927 3:0.41863934 4:0.81361802 5:0.91024986 6:0.95545869 
-4 1:0.78864036 2:0.1007927 3:0.44617483 4:0.84086386 5:0.92445862 6:0.96165042 
4 1:0.91433421 2:0.1007927 3:0.60215347 4:0.9500684 5:0.97717524 6:0.98807012 
4 1:0.99737302 2:0.1007927 3:0.88514414 4:0.99166058 5:0.99597225 6:0.99759774 
4 1:0.40868363 2:0.046808211 3:0.20127881 4:0.43690014 5:0.62303099 6:0.80462761 
4 1:0.63428306 2:0.046808211 3:0.29367506 4:0.63478131 5:0.80404493 6:0.90860113 
4 1:0.63517172 2:0.046808211 3:0.29742126 4:0.63976608 5:0.8083318 6:0.9121364 
-4 1:0.76722122 2:0.046808211 3:0.38377254 4:0.78514877 5:0.90429663 6:0.95734326 
4 1:0.78174155 2:0.046808211 3:0.40876054 4:0.81261902 5:0.91751826 6:0.96173956 
4 1:0.91228727 2:0.046808211 3:0.61082239 4:0.94727552 5:0.9778847 6:0.98952764 
4 1:0.99904844 2:0.046808211 3:0.93477801 4:0.99671741 5:0.99843624 6:0.99906019 
4 1:0.49105754 2:0.28207571 3:0.44508755 4:0.61523775 5:0.74189323 6:0.87563111 
4 1:0.68136646 2:0.28207571 3:0.48593046 4:0.74223628 5:0.8614384 6:0.94331526 
4 1:0.68210291 2:0.28207571 3:0.48669052 4:0.74459379 5:0.86363839 6:0.94501266 
-4 1:0.81359956 2:0.28207571 3:0.53734874 4:0.86091868 5:0.94191896 6:0.97933221 
4 1:0.92503175 2:0.28207571 3:0.64403646 4:0.96342638 5:0.98853736 6:0.99714538 
-4 1:0.99967515 2:0.28207571 3:0.9822076 4:0.99908738 5:0.99957506 6:0.99978085 
-4 1:0.49746334 2:0.14532926 3:0.10350364 4:0.51846908 5:0.65289765 6:0.74106992 
4 1:0.65336014 2:0.14532926 3:0.12674804 4:0.61146614 5:0.73713105 6:0.80489761 
4 1:0.67279707 2:0.14532926 3:0.135115 4:0.65228036 5:0.77672741 6:0.84049771 
-4 1:0.76331475 2:0.14532926 3:0.15236343 4:0.71258664 5:0.82279352 6:0.87473392 
4 1:0.7887033 2:0.14532926 3:0.16802837 4:0.76329081 5:0.86171606 6:0.90543866 
4 1:0.86258788 2:0.14532926 3:0.18926886 4:0.79880795 5:0.88711547 6:0.92422598 
4 1:0.90985192 2:0.14532926 3:0.20060343 4:0.83883768 5:0.91654156 6:0.94568362 
-4 1:0.91428295 2:0.14532926 3:0.21345907 4:0.85832183 5:0.92822182 6:0.95341603 
4 1:0.45211401 2:0.1376926 3:0.093365676 4:0.53436504 5:0.66768152 6:0.76806598 
-4 1:0.64314032 2:0.1376926 3:0.126883 4:0.6599956 5:0.78003752 6:0.84511695 
-4 1:0.65202563 2:0.1376926 3:0.13248219 4:0.68649599 5:0.8055084 6:0.86798412 
4 1:0.76369295 2:0.1376926 3:0.15600564 4:0.75980504 5:0.85619292 6:0.90022749 
4 1:0.78542957 2:0.1376926 3:0.16955145 4:0.79662339 5:0.8819087 6:0.91943759 
4 1:0.88316489 2:0.1376926 3:0.20161484 4:0.83942032 5:0.90903523 6:0.93822433 
4 1:0.94522113 2:0.1376926 3:0.21541255 4:0.8659426 5:0.92959161 6:0.95343241 
4 1:0.94944893 2:0.1376926 3:0.22398871 4:0.87664634 5:0.93653087 6:0.95848873 
-4 1:0.58827841 2:0.19908625 3:0.12270748 4:0.71032975 5:0.79612606 6:0.84328574 
4 1:0.72787772 2:0.19908625 3:0.13608056 4:0.7652198 5:0.84839563 6:0.88712536 
4 1:0.73686914 2:0.19908625 3:0.13980216 4:0.78480629 5:0.86663349 6:0.90357662 
4 1:0.81448411 2:0.19908625 3:0.14751601 4:0.81360437 5:0.89032105 6:0.92210299 
4 1:0.83242962 2:0.19908625 3:0.15555028 4:0.84004447 5:0.91050996 6:0.938502 
4 1:0.90008906 2:0.19908625 3:0.16537108 4:0.85778742 5:0.92412308 6:0.94895956 
-4 1:0.94173707 2:0.19908625 3:0.17317649 4:0.876681 5:0.93779975 6:0.95956764 
-4 1:0.94484618 2:0.19908625 3:0.18169384 4:0.88732249 5:0.94420428 6:0.96402826 
-4 1:0.6096341 2:0.034816509 3:0.035489331 4:0.74861966 5:0.86052646 6:0.91068353 
-4 1:0.74780125 2:0.034816509 3:0.050858579 4:0.81154469 5:0.90118239 6:0.93475 
-4 1:0.74896775 2:0.034816509 3:0.052429805 4:0.81834651 5:0.90596883 6:0.93809709 
-4 1:0.8273781 2:0.034816509 3:0.062994705 4:0.85005667 5:0.9234785 6:0.94925364 
-4 1:0.83715021 2:0.034816509 3:0.069556576 4:0.86243412 5:0.93033441 6:0.95414001 
4 1:0.90860432 2:0.034816509 3:0.083188088 4:0.87675453 5:0.93922686 6:0.9605319 
3.28969896443802 1:0.95170157 2:0.034816509 3:0.090498466 4:0.89162223 5:0.94953702 6:0.9678787 
-4 1:0.95380965 2:0.034816509 3:0.098497068 4:0.89744051 5:0.95262718 6:0.9699955 
-4 1:0.4273521 2:0.061964183 3:0.11570271 4:0.46042814 5:0.65892566 6:0.79870806 
-4 1:0.63123747 2:0.061964183 3:0.16837045 4:0.62404327 5:0.79121051 6:0.87365722 
4 1:0.63492766 2:0.061964183 3:0.17600869 4:0.64716959 5:0.80961905 6:0.88717112 
4 1:0.75618877 2:0.061964183 3:0.22395077 4:0.75529507 5:0.87114015 6:0.91934331 
-4 1:0.77139737 2:0.061964183 3:0.24694774 4:0.79349593 5:0.8916167 6:0.93200478 
-4 1:0.88916287 2:0.061964183 3:0.34620191 4:0.87035629 5:0.92985021 6:0.95589668 
-3.374677712651626 1:0.96196411 2:0.061964183 3:0.41573961 4:0.90598388 5:0.95288439 6:0.97066039 
4 1:0.96388489 2:0.061964183 3:0.42911181 4:0.91366718 5:0.9568521 6:0.97313108 
4 1:0.47977509 2:0.23130691 3:0.32928412 4:0.55282916 5:0.66791845 6:0.74863576 
-4 1:0.67040866 2:0.23130691 3:0.38943269 4:0.66545556 5:0.76680794 6:0.81985996 
-4 1:0.68687131 2:0.23130691 3:0.41023912 4:0.70740496 5:0.81078152 6:0.86221763 
-4 1:0.78674389 2:0.23130691 3:0.46460529 4:0.78994847 5:0.86913143 6:0.90516139 
4 1:0.81048086 2:0.23130691 3:0.50312748 4:0.84547503 5:0.91358495 6:0.94168743 
4 1:0.9100825 2:0.23130691 3:0.61552031 4:0.9147698 5:0.95147469 6:0.96681058 
-4 1:0.98034608 2:0.23130691 3:0.72900944 4:0.95802477 5:0.97650266 6:0.98413271 
-4 1:0.98374901 2:0.23130691 3:0.74947079 4:0.96647178 5:0.98163931 6:0.98773965 
4 1:0.21483779 2:0.37995933 3:0.091662564 4:0.1529332 5:0.19165383 6:0.23332771 
-4 1:0.41372639 2:0.37995933 3:0.11972516 4:0.22858077 5:0.28261732 6:0.32614433 
-4 1:0.4734512 2:0.37995933 3:0.13945528 4:0.28799635 5:0.36498566 6:0.42609007 
-4 1:0.5944247 2:0.37995933 3:0.17211443 4:0.36367814 5:0.44650577 6:0.50673632 
4 1:0.67573909 2:0.37995933 3:0.2184327 4:0.48605098 5:0.59000253 6:0.65971535 
4 1:0.78992142 2:0.37995933 3:0.29529412 4:0.58552372 5:0.67661896 6:0.73531212 
4 1:0.8868928 2:0.37995933 3:0.39750191 4:0.71176991 5:0.79245591 6:0.83806775 
4 1:0.91206245 2:0.37995933 3:0.44654064 4:0.77534857 5:0.84760758 6:0.88531211 
4 1:0.44277696 2:0.32712248 3:0.2599763 4:0.46254963 5:0.57667501 6:0.67118098 
-4 1:0.63417698 2:0.32712248 3:0.30918307 4:0.58384104 5:0.69563644 6:0.76460802 
-4 1:0.66078882 2:0.32712248 3:0.33283517 4:0.63861466 5:0.75549127 6:0.82270899 
-4 1:0.79693 2:0.32712248 3:0.43676431 4:0.81369323 5:0.89238679 6:0.92785696 
-4 1:0.9005211 2:0.32712248 3:0.55899913 4:0.8961204 5:0.93879525 6:0.95832406 
-4 1:0.97423624 2:0.32712248 3:0.7180499 4:0.94958431 5:0.97132544 6:0.98045708 
4 1:0.98100171 2:0.32712248 3:0.75300334 4:0.96341473 5:0.97959333 6:0.98621572 
-4 1:0.28606808 2:0.62386588 3:0.14210375 4:0.22758903 5:0.26524999 6:0.30116409 
-4 1:0.48768772 2:0.62386588 3:0.17836177 4:0.32035955 5:0.37398704 6:0.41311999 
-4 1:0.56051297 2:0.62386588 3:0.20581608 4:0.39367661 5:0.47331478 6:0.53190807 
-4 1:0.67678192 2:0.62386588 3:0.24903487 4:0.48565737 5:0.56757718 6:0.62285651 
-4 1:0.75508061 2:0.62386588 3:0.30546933 4:0.61573888 5:0.71406758 6:0.77311164 
-4 1:0.86028135 2:0.62386588 3:0.40453195 4:0.72562907 5:0.80089496 6:0.84439653 
-4 1:0.94927745 2:0.62386588 3:0.56011867 4:0.84417863 5:0.89711351 6:0.92293975 
-4 1:0.96520962 2:0.62386588 3:0.61798068 4:0.89199652 5:0.93295221 6:0.95147468 
4 1:0.29412838 2:0.1012817 3:0.16200315 4:0.37578485 5:0.59320682 6:0.80117536 
4 1:0.54962761 2:0.1012817 3:0.24393505 4:0.58209165 5:0.78851378 6:0.9067632 
4 1:0.55150951 2:0.1012817 3:0.24550611 4:0.58687978 5:0.79404623 6:0.91217056 
-4 1:0.70981097 2:0.1012817 3:0.33222561 4:0.74494592 5:0.89826659 6:0.95769783 
4 1:0.73071683 2:0.1012817 3:0.358983 4:0.7781418 5:0.91310488 6:0.9623323 
4 1:0.89553429 2:0.1012817 3:0.62745623 4:0.94236465 5:0.97874341 6:0.99066928 
-4 1:0.53689458 2:0.46629001 3:0.19931729 4:0.32410675 5:0.40982343 6:0.4893396 
-4 1:0.57624881 2:0.46629001 3:0.22920422 4:0.38661782 5:0.49026329 6:0.58000245 
-4 1:0.70047586 2:0.46629001 3:0.2840121 4:0.48455933 5:0.5905349 6:0.67129089 
4 1:0.75363108 2:0.46629001 3:0.3568512 4:0.60773492 5:0.71710254 6:0.79012087 
4 1:0.86083917 2:0.46629001 3:0.44349999 4:0.71472389 5:0.80584481 6:0.86160339 
4 1:0.93146088 2:0.46629001 3:0.51726316 4:0.80639703 5:0.88120321 6:0.92098303 
4 1:0.94243661 2:0.46629001 3:0.54756072 4:0.83902916 5:0.90540179 6:0.93886524 
-4 1:0.42185741 2:0.19607431 3:0.2743975 4:0.45697839 5:0.57535387 6:0.67024059 
-4 1:0.61177155 2:0.19607431 3:0.35322033 4:0.59523918 5:0.70441733 6:0.77272128 
-4 1:0.63918923 2:0.19607431 3:0.38192882 4:0.64785809 5:0.75882689 6:0.82455819 
-4 1:0.75010655 2:0.19607431 3:0.45087158 4:0.74328429 5:0.83021118 6:0.87644924 
-4 1:0.79147684 2:0.19607431 3:0.51214887 4:0.82369669 5:0.89445079 6:0.92801374 
4 1:0.89087419 2:0.19607431 3:0.62077958 4:0.89431127 5:0.93664518 6:0.95655314 
4 1:0.95847774 2:0.19607431 3:0.69261716 4:0.94236474 5:0.96752693 6:0.97818578 
-4 1:0.96554068 2:0.19607431 3:0.71637114 4:0.95403524 5:0.97458526 6:0.9830982 
-4 1:0.51519264 2:0.066725896 3:0.34372007 4:0.55995462 5:0.67051183 6:0.76546138 
-4 1:0.68574767 2:0.066725896 3:0.43594707 4:0.7078017 5:0.80221174 6:0.86027932 
-4 1:0.69993679 2:0.066725896 3:0.46023293 4:0.74720499 5:0.83721019 6:0.88949178 
-4 1:0.79819529 2:0.066725896 3:0.52356809 4:0.83017623 5:0.89471771 6:0.9266419 
-4 1:0.823065 2:0.066725896 3:0.56979595 4:0.87552964 5:0.92548908 6:0.94935861 
4 1:0.9150904 2:0.066725896 3:0.66189045 4:0.92904989 5:0.95799532 6:0.97146069 
4 1:0.9679991 2:0.066725896 3:0.70092087 4:0.95434885 5:0.97440829 6:0.98279652 
4 1:0.97123164 2:0.066725896 3:0.7151308 4:0.960102 5:0.97787508 6:0.98518173 
4 1:0.51835903 2:0.31813065 3:0.40082289 4:0.55345405 5:0.60797992 6:0.64355438 
-4 1:0.67524675 2:0.31813065 3:0.43396977 4:0.61807337 5:0.68289571 6:0.72351841 
4 1:0.70027899 2:0.31813065 3:0.46160919 4:0.67100337 5:0.74355703 6:0.78820216 
-4 1:0.78642738 2:0.31813065 3:0.49001346 4:0.72032998 5:0.79167775 6:0.83306235 
4 1:0.82574317 2:0.31813065 3:0.54962708 4:0.81174952 5:0.87501259 6:0.9070568 
4 1:0.9038342 2:0.31813065 3:0.60120088 4:0.8672518 5:0.91737821 6:0.94093945 
-4 1:0.9616841 2:0.31813065 3:0.65078047 4:0.92284738 5:0.95658586 6:0.97061867 
-4 1:0.97005642 2:0.31813065 3:0.67874954 4:0.94213598 5:0.96846928 6:0.97897375 
4 1:0.56379827 2:0.24484638 3:0.62725489 4:0.73401377 5:0.77061361 6:0.79233977 
4 1:0.69707073 2:0.24484638 3:0.66864069 4:0.79391324 5:0.8324878 6:0.85355213 
4 1:0.72448597 2:0.24484638 3:0.69473535 4:0.83115605 5:0.87085556 6:0.89202625 
2.944507701830927 1:0.80573572 2:0.24484638 3:0.72761205 4:0.87368756 5:0.90816269 6:0.92491864 
4 1:0.84202128 2:0.24484638 3:0.77195881 4:0.9200765 5:0.94626283 6:0.95775509 
4 1:0.91272868 2:0.24484638 3:0.81030574 4:0.9498361 5:0.96767523 6:0.97518431 
4 1:0.96863532 2:0.24484638 3:0.83826012 4:0.97494708 5:0.98538861 6:0.98958291 
4 1:0.97633249 2:0.24484638 3:0.85344648 4:0.98180902 5:0.9896203 6:0.99264501 
-4 1:0.62001105 2:0.024412915 3:0.48303676 4:0.77346009 5:0.86903616 6:0.91933256 
-4 1:0.75315336 2:0.024412915 3:0.54495254 4:0.8556029 5:0.92219373 6:0.95115286 
-4 1:0.75724951 2:0.024412915 3:0.55262807 4:0.86428342 5:0.9282135 6:0.95577208 
-4 1:0.83810789 2:0.024412915 3:0.59827116 4:0.91134508 5:0.95279962 6:0.96996019 
-4 1:0.85232946 2:0.024412915 3:0.62293909 4:0.92558872 5:0.96038708 6:0.97539389 
4 1:0.92792663 2:0.024412915 3:0.69545065 4:0.95936739 5:0.97831336 6:0.98620559 
1.980035724241328 1:0.97264863 2:0.024412915 3:0.73200601 4:0.97966853 5:0.98963673 6:0.99281027 
-4 1:0.48158977 2:0.61324729 3:0.27540875 4:0.42553765 5:0.48641897 6:0.53104738 
-4 1:0.63753866 2:0.61324729 3:0.33157417 4:0.5219651 5:0.58927718 6:0.63177685 
-4 1:0.67707961 2:0.61324729 3:0.36721782 4:0.59027691 5:0.66847711 6:0.71742217 
-4 1:0.76829625 2:0.61324729 3:0.41958997 4:0.67025967 5:0.74327658 6:0.78585557 
4 1:0.81258618 2:0.61324729 3:0.48476198 4:0.77032441 5:0.83826134 6:0.87434329 
1.907150309173137 1:0.89300178 2:0.61324729 3:0.55319441 4:0.83735236 5:0.89032475 6:0.91666457 
4 1:0.95569452 2:0.61324729 3:0.59744731 4:0.90011796 5:0.93900499 6:0.95615901 
4 1:0.96488572 2:0.61324729 3:0.62477426 4:0.92367983 5:0.95528787 6:0.9685549 
-4 1:0.6558802 3:0.50914684 4:0.83375963 5:0.89809846 6:0.92653187 
-4 1:0.76884943 3:0.55679293 4:0.89391591 5:0.93860454 6:0.95403218 
-4 1:0.77375631 3:0.5636812 4:0.90019662 5:0.9427445 6:0.9574506 
-4 1:0.84303042 3:0.60236618 4:0.93446437 5:0.96242475 6:0.97109062 
-4 1:0.85951211 3:0.6228269 4:0.94532487 5:0.96833445 6:0.97557224 
-4 1:0.9261042 3:0.68729659 4:0.96971448 5:0.98303447 6:0.98744411 
-4 1:0.96470143 3:0.7147545 4:0.98321849 5:0.9919861 6:0.99443831 
-4 1:0.967065 3:0.7243143 4:0.98476297 5:0.99277815 6:0.99502417 
4 1:0.099255226 2:1 3:0.10881751 4:0.12198057 5:0.1091675 6:0.088043328 
-2.459444514418235 1:0.29688918 2:1 3:0.13820799 4:0.18737935 5:0.19948561 6:0.20329466 
-4 1:0.38839319 2:1 3:0.16899654 4:0.25561373 5:0.29559208 6:0.3291397 
-4 1:0.51537476 2:1 3:0.20282799 4:0.32849203 5:0.38566584 6:0.43301855 
-4 1:0.63770606 2:1 3:0.27539534 4:0.47471422 5:0.56203958 6:0.6289053 
-4 1:0.75616331 2:1 3:0.34700476 4:0.58843901 5:0.67881337 6:0.74344488 
4 1:0.86716608 2:1 3:0.42670862 4:0.73642101 5:0.82051035 6:0.87077786 
4 1:0.90117017 2:1 3:0.47750457 4:0.80506581 5:0.87690238 6:0.91543318 
4 1:1 2:0.019238957 3:0.99999983 4:0.99999915 5:0.9999982 6:0.99999886 
-4 1:1 2:0.57015555 3:0.99999999 4:0.99999986 5:0.99999974 6:0.9999997 
-4 1:1 2:0.73861347 3:0.99999983 4:0.99999957 5:0.99999885 6:0.99999917 
-3.929836092921891 1:1 2:0.50243453 3:0.99999917 4:0.99999858 5:0.99999805 6:0.99999788 
-4 1:1 2:0.54605511 3:0.99999958 4:0.99999872 5:0.99999818 6:0.99999796 
-4 1:1 2:0.77164289 3:1 4:0.99999991 5:0.99999965 6:0.99999961 
-4 1:0.37561256 2:0.27174489 3:0.14564537 4:0.39790222 5:0.55106678 6:0.67008782 
-4 1:0.56862883 2:0.27174489 3:0.19411401 4:0.53707663 5:0.68373405 6:0.77053495 
-4 1:0.59507913 2:0.27174489 3:0.21726037 4:0.59928839 5:0.74861604 6:0.82928713 
-4 1:0.73092966 2:0.27174489 3:0.27356025 4:0.71390094 5:0.82257087 6:0.87444689 
4 1:0.75725767 2:0.27174489 3:0.31634112 4:0.79654122 5:0.88915412 6:0.9273156 
4 1:0.88324277 2:0.27174489 3:0.4403716 4:0.8922293 5:0.93831942 6:0.95845059 
4 1:0.8933052 2:0.27174489 3:0.47228748 4:0.92107255 5:0.95675014 6:0.97151317 
4 1:0.9508125 2:0.27174489 3:0.58168899 4:0.90979133 5:0.94735255 6:0.96398348 
4 1:0.95713874 2:0.27174489 3:0.61027713 4:0.92360129 5:0.95604732 6:0.97013831 
4 1:0.96971772 2:0.27174489 3:0.67509147 4:0.9486493 5:0.97123348 6:0.98048503 
-4 1:0.52994813 2:0.019238957 3:0.38547432 4:0.75372022 5:0.84123041 6:0.89486139 
-4 1:0.53720078 2:0.019238957 3:0.3990632 4:0.77884256 5:0.86263175 6:0.9119893 
-4 1:0.69594659 2:0.019238957 3:0.42249933 4:0.83012148 5:0.89999703 6:0.9343333 
-4 1:0.70045567 2:0.019238957 3:0.43485895 4:0.84990814 5:0.91438168 6:0.94468986 
-4 1:0.81165128 2:0.019238957 3:0.45209767 4:0.87998379 5:0.93121657 6:0.95417334 
4 1:0.90641987 2:0.019238957 3:0.47995579 4:0.90591955 5:0.94655395 6:0.96494883 
4 1:0.96394448 2:0.019238957 3:0.49703719 4:0.92208917 5:0.95739033 6:0.97352851 
4 1:0.97111644 2:0.019238957 3:0.51850714 4:0.94179388 5:0.97018449 6:0.98213448 
4 2:0.57015555 6:0.010154919 
-4 1:0.60579512 2:0.57015555 3:0.12893302 4:0.40260054 5:0.52794625 6:0.61631229 
-4 1:0.75391926 2:0.57015555 3:0.18461005 4:0.49989687 5:0.61178122 6:0.68884477 
-4 1:0.8153429 2:0.57015555 3:0.23793372 4:0.60651572 5:0.71554025 6:0.78255239 
-4 1:0.85600941 2:0.57015555 3:0.28629085 4:0.68788242 5:0.78757701 6:0.84353583 
-4 1:0.89148132 2:0.57015555 3:0.34171535 4:0.76509994 5:0.85013067 6:0.8935626 
-4 1:0.92852788 2:0.57015555 3:0.42100368 4:0.84916897 5:0.91127553 6:0.93940013 
4 1:0.1753977 2:0.73861347 3:0.09552304 4:0.13054246 5:0.15035856 6:0.1699603 
-4 1:0.45635833 2:0.73861347 3:0.158209 4:0.28040177 5:0.35751004 6:0.42348738 
4 1:0.69430386 2:0.73861347 3:0.27712969 4:0.53553712 5:0.64647804 6:0.71969773 
4 1:0.76724888 2:0.73861347 3:0.31108262 4:0.57582518 5:0.67863928 6:0.74667418 
4 1:0.86571411 2:0.73861347 3:0.3944368 4:0.71882415 5:0.81004305 6:0.8623959 
4 1:0.90357706 2:0.73861347 3:0.46136994 4:0.80064289 5:0.87542246 6:0.91386276 
4 1:0.92840891 2:0.73861347 3:0.51989475 4:0.8578363 5:0.9163383 6:0.94388077 
4 1:0.057186579 2:0.50243453 3:0.074302209 4:0.064066487 5:0.038191765 
4 1:0.46335071 2:0.50243453 3:0.15651072 4:0.26099077 5:0.31080835 6:0.35093188 
4 1:0.57170622 2:0.50243453 3:0.19565839 4:0.34034574 5:0.40815216 6:0.46499326 
4 1:0.61771078 2:0.50243453 3:0.2013411 4:0.37388838 5:0.44991385 6:0.51391699 
4 1:0.64058636 2:0.50243453 3:0.23392852 4:0.42110826 5:0.50581137 6:0.57392097 
4 1:0.68648276 2:0.50243453 3:0.23959609 4:0.45613658 5:0.54666909 6:0.61876644 
4 1:0.79301714 2:0.50243453 3:0.32622773 4:0.62144616 5:0.7212244 6:0.78795799 
4 1:0.86049974 2:0.50243453 3:0.40728198 4:0.74550855 5:0.83106809 6:0.87888976 
4 1:0.89790028 2:0.50243453 3:0.47222451 4:0.82140625 5:0.88905388 6:0.92286615 
4 1:0.29904095 2:0.54605511 3:0.21472932 4:0.38914781 5:0.49769154 6:0.59083219 
4 1:0.56768263 2:0.54605511 3:0.30308084 4:0.59347344 5:0.71982347 6:0.79614483 
4 1:0.69533755 2:0.54605511 3:0.31948376 4:0.61068179 5:0.71809681 6:0.78192463 
4 1:0.75945348 2:0.54605511 3:0.43714837 4:0.81360207 5:0.89436962 6:0.92985049 
-4 1:0.93943076 2:0.54605511 3:0.53480784 4:0.86577728 5:0.92039762 6:0.94567054 
4 1:0.98364834 2:0.54605511 3:0.75735767 4:0.97288667 5:0.98579289 6:0.99060009 
4 1:0.32002749 2:0.21597041 3:0.045063964 4:0.37692216 5:0.55140675 6:0.69796544 
-4 1:0.56695344 2:0.21597041 3:0.097210209 4:0.58397601 5:0.7508394 6:0.83948605 
-4 1:0.70520428 2:0.21597041 3:0.13385033 4:0.67160615 5:0.79655301 6:0.85818695 
4 1:0.73424456 2:0.21597041 3:0.16265978 4:0.77271887 5:0.87781115 6:0.92030835 
4 1:0.86954132 2:0.21597041 3:0.25291857 4:0.86032679 5:0.92065002 6:0.94719087 
4 1:0.87335209 2:0.21597041 3:0.26150142 4:0.87394579 5:0.92955244 6:0.95361972 
4 1:0.95158679 2:0.21597041 3:0.31469782 4:0.90564041 5:0.9505662 6:0.96731494 
4 1:0.046480997 2:0.77164289 3:0.0036752949 4:0.063426258 5:0.083975821 6:0.10357933 
4 1:0.4815399 2:0.77164289 3:0.061680284 4:0.28308554 5:0.37269791 6:0.4415304 
-4 1:0.59466693 2:0.77164289 3:0.10183633 4:0.43686442 5:0.55619455 6:0.63614229 
4 1:0.67663499 2:0.77164289 3:0.12768853 4:0.46551139 5:0.57412631 6:0.64893256 
4 1:0.727837 2:0.77164289 3:0.15698565 4:0.54933575 5:0.66054291 6:0.73141004 
4 1:0.79298458 2:0.77164289 3:0.1783044 4:0.58984439 5:0.69884629 6:0.76566769 
4 1:0.84189758 2:0.77164289 3:0.2201085 4:0.67980569 5:0.78117365 6:0.8374729 
0.6648995749207404 1:0.87582783 2:0.77164289 3:0.25791546 4:0.74958011 5:0.83919212 6:0.88469242 
-4 1:0.93223983 2:0.77164289 3:0.34905641 4:0.87203088 5:0.92820957 6:0.95189869 
-4 1:0.94593957 2:0.77164289 3:0.38300199 4:0.90150605 5:0.9468388 6:0.96487186 
-4 1:0.51879331 2:0.46336375 3:0.30175677 4:0.53715556 5:0.6201217 6:0.69126522 
-4 1:0.69563267 2:0.46336375 3:0.38974197 4:0.68280797 5:0.7624929 6:0.81933882 
-4 1:0.78342288 2:0.46336375 3:0.43017021 4:0.73828939 5:0.81072072 6:0.85931014 
-4 1:0.82362468 2:0.46336375 3:0.49268118 4:0.82332639 5:0.88132959 6:0.91765632 
4 1:0.89144668 2:0.46336375 3:0.53894393 4:0.87349384 5:0.92016796 6:0.94654988 
4 1:0.93642466 2:0.46336375 3:0.54466735 4:0.89946619 5:0.94109895 6:0.96142482 
