svm_type nu_svr
kernel_type rbf
gamma 0.05
nr_class 2
total_sv 272
rho -1.40161
SV
-4 1:1 2:0.9023797 3:0.62009279 4:0.99999956 5:0.99999617 6:0.99999659 7:0.99999649 
-4 1:1 2:0.90598891 3:0.65360354 4:0.99999982 5:0.99999769 6:0.99999611 7:0.99999789 
3.71066388041585 1:1 2:0.63966644 3:0.1007927 4:0.99999988 5:0.99999985 6:0.99999974 7:0.99999956 
4 1:1 2:0.6268493 3:0.046808211 4:0.99999979 5:0.9999997 6:0.9999995 7:0.99999916 
4 1:1 2:0.58727563 3:0.061964183 4:0.99999926 5:0.99999929 6:0.99999891 7:0.99999862 
-4 1:1 2:0.67548841 3:0.62386588 4:0.99999991 5:0.99999987 6:0.9999999 7:0.99999983 
3.288729549724419 1:1 2:0.60150691 3:0.1012817 4:0.99999995 5:1 6:0.99999997 7:0.99999982 
-4 1:1 2:0.80993081 3:0.61324729 4:0.99999945 5:0.99999953 6:0.99999881 7:0.99999873 
4 1:1 2:0.83592028 4:0.9999953 5:0.99999163 6:0.99999444 7:0.9999906 
-1.348139568452444 1:1 2:0.75487863 3:1 4:0.99999989 5:0.99999962 6:0.9999994 7:0.99999896 
-4 1:0.55120029 2:0.44434935 3:0.62009279 4:0.26121942 5:0.6293366 6:0.71975367 7:0.78093108 
-4 1:0.69994822 2:0.49545656 3:0.62009279 4:0.30135725 5:0.70722144 6:0.79216822 7:0.83978283 
-4 1:0.72011021 2:0.51616008 3:0.62009279 4:0.32121318 5:0.74989787 6:0.83473257 7:0.87962097 
4 1:0.80161657 2:0.55184234 3:0.62009279 4:0.3501572 5:0.79684481 6:0.87136279 7:0.90727549 
4 1:0.82707856 2:0.57886981 3:0.62009279 4:0.37930406 5:0.84227672 6:0.90805726 7:0.93746453 
4 1:0.89751445 2:0.61682479 3:0.62009279 4:0.41517592 5:0.87673937 6:0.93162471 7:0.95441416 
-4 1:0.94175354 2:0.65752339 3:0.62009279 4:0.44577851 5:0.91006376 6:0.95340334 7:0.97037481 
4 1:0.94886911 2:0.67382416 3:0.62009279 4:0.46794139 5:0.92362274 6:0.96145271 7:0.97586663 
-4 1:0.52231028 2:0.26272159 3:0.15702556 4:0.32589559 5:0.6581287 6:0.76030191 7:0.83726695 
-4 1:0.69532892 2:0.32302188 3:0.15702556 4:0.37963798 5:0.75963071 6:0.84793528 7:0.89590344 
-4 1:0.70311899 2:0.33334899 3:0.15702556 4:0.39122605 5:0.77997186 6:0.86615863 7:0.91195763 
-4 1:0.80199769 2:0.37980881 3:0.15702556 4:0.43275766 5:0.83967337 6:0.90601589 7:0.93575795 
-4 1:0.81958249 2:0.40239211 3:0.15702556 4:0.46108289 5:0.86793163 6:0.92463208 7:0.94935262 
4 1:0.90910291 2:0.46382991 3:0.15702556 4:0.53184539 5:0.91070978 6:0.95009054 7:0.96632324 
-4 1:0.96127511 2:0.51134587 3:0.15702556 4:0.56535202 5:0.93581909 6:0.96661274 7:0.97845579 
4 1:0.96463426 2:0.52485236 3:0.15702556 4:0.58122093 5:0.94306733 6:0.97086662 7:0.98141713 
4 1:0.53215537 2:0.45107197 3:0.65360354 4:0.10503639 5:0.51343702 6:0.6311132 7:0.68810633 
-4 1:0.66952701 2:0.4814289 3:0.65360354 4:0.1196006 5:0.56492275 6:0.69164814 7:0.7502318 
4 1:0.69456875 2:0.49775418 3:0.65360354 4:0.12925873 5:0.60404133 6:0.73699834 7:0.79724738 
4 1:0.7719972 2:0.51702674 3:0.65360354 4:0.13902331 5:0.63790465 6:0.77218831 7:0.83039508 
4 1:0.80320895 2:0.53686054 3:0.65360354 4:0.15424042 5:0.68718524 6:0.81881741 7:0.87335226 
4 1:0.86489599 2:0.55355255 3:0.65360354 4:0.16699556 5:0.71785387 6:0.84510702 7:0.8951996 
-4 1:0.9012366 2:0.58056686 3:0.65360354 4:0.19299232 5:0.77508983 6:0.88553267 7:0.92699809 
-4 1:0.90926985 2:0.59512653 3:0.65360354 4:0.21237815 5:0.80244544 6:0.90269819 7:0.93899838 
4 1:0.42520716 2:0.15502741 3:0.1007927 4:0.24051621 5:0.48911974 6:0.65173668 7:0.80252903 
-4 1:0.64142951 2:0.23617521 3:0.1007927 4:0.34197188 5:0.6868242 6:0.82459154 7:0.91058618 
-4 1:0.77466028 2:0.30989034 3:0.1007927 4:0.41863934 5:0.81361802 6:0.91024986 7:0.95545869 
-4 1:0.78864036 2:0.32873187 3:0.1007927 4:0.44617483 5:0.84086386 6:0.92445862 7:0.96165042 
4 1:0.91433421 2:0.46619089 3:0.1007927 4:0.60215347 5:0.9500684 6:0.97717524 7:0.98807012 
4 1:0.99737302 2:0.62747416 3:0.1007927 4:0.88514414 5:0.99166058 6:0.99597225 7:0.99759774 
4 1:0.40868363 2:0.13943156 3:0.046808211 4:0.20127881 5:0.43690014 6:0.62303099 7:0.80462761 
4 1:0.63428306 2:0.21779297 3:0.046808211 4:0.29367506 5:0.63478131 6:0.80404493 7:0.90860113 
4 1:0.63517172 2:0.2182804 3:0.046808211 4:0.29742126 5:0.63976608 6:0.8083318 7:0.9121364 
-4 1:0.76722122 2:0.29259565 3:0.046808211 4:0.38377254 5:0.78514877 6:0.90429663 7:0.95734326 
4 1:0.78174155 2:0.31017378 3:0.046808211 4:0.40876054 5:0.81261902 6:0.91751826 7:0.96173956 
4 1:0.91228727 2:0.45437437 3:0.046808211 4:0.61082239 5:0.94727552 6:0.9778847 7:0.98952764 
4 1:0.99904844 2:0.62307047 3:0.046808211 4:0.93477801 5:0.99671741 6:0.99843624 7:0.99906019 
4 1:0.49105754 2:0.16768568 3:0.28207571 4:0.44508755 5:0.61523775 6:0.74189323 7:0.87563111 
4 1:0.68136646 2:0.24471093 3:0.28207571 4:0.48593046 5:0.74223628 6:0.8614384 7:0.94331526 
4 1:0.68210291 2:0.2453485 3:0.28207571 4:0.48669052 5:0.74459379 6:0.86363839 7:0.94501266 
-4 1:0.81359956 2:0.33702921 3:0.28207571 4:0.53734874 5:0.86091868 6:0.94191896 7:0.97933221 
4 1:0.92503175 2:0.48222337 3:0.28207571 4:0.64403646 5:0.96342638 6:0.98853736 7:0.99714538 
-4 1:0.99967515 2:0.65541159 3:0.28207571 4:0.9822076 5:0.99908738 6:0.99957506 7:0.99978085 
-4 1:0.49746334 2:0.21352709 3:0.14532926 4:0.10350364 5:0.51846908 6:0.65289765 7:0.74106992 
4 1:0.65336014 2:0.252973 3:0.14532926 4:0.12674804 5:0.61146614 6:0.73713105 7:0.80489761 
4 1:0.67279707 2:0.26549895 3:0.14532926 4:0.135115 5:0.65228036 6:0.77672741 7:0.84049771 
-4 1:0.76331475 2:0.29488433 3:0.14532926 4:0.15236343 5:0.71258664 6:0.82279352 7:0.87473392 
4 1:0.7887033 2:0.31662006 3:0.14532926 4:0.16802837 5:0.76329081 6:0.86171606 7:0.90543866 
4 1:0.86258788 2:0.34313191 3:0.14532926 4:0.18926886 5:0.79880795 6:0.88711547 7:0.92422598 
4 1:0.90985192 2:0.36397454 3:0.14532926 4:0.20060343 5:0.83883768 6:0.91654156 7:0.94568362 
-4 1:0.91428295 2:0.37775991 3:0.14532926 4:0.21345907 5:0.85832183 6:0.92822182 7:0.95341603 
4 1:0.45211401 2:0.26668685 3:0.1376926 4:0.093365676 5:0.53436504 6:0.66768152 7:0.76806598 
-4 1:0.64314032 2:0.3225835 3:0.1376926 4:0.126883 5:0.6599956 6:0.78003752 7:0.84511695 
-4 1:0.65202563 2:0.33063261 3:0.1376926 4:0.13248219 5:0.68649599 6:0.8055084 7:0.86798412 
4 1:0.76369295 2:0.37348216 3:0.1376926 4:0.15600564 5:0.75980504 6:0.85619292 7:0.90022749 
4 1:0.78542957 2:0.39218793 3:0.1376926 4:0.16955145 5:0.79662339 6:0.8819087 7:0.91943759 
4 1:0.88316489 2:0.44053123 3:0.1376926 4:0.20161484 5:0.83942032 6:0.90903523 7:0.93822433 
4 1:0.94522113 2:0.46728821 3:0.1376926 4:0.21541255 5:0.8659426 6:0.92959161 7:0.95343241 
4 1:0.94944893 2:0.47586514 3:0.1376926 4:0.22398871 5:0.87664634 6:0.93653087 7:0.95848873 
-4 1:0.58827841 2:0.37677077 3:0.19908625 4:0.12270748 5:0.71032975 6:0.79612606 7:0.84328574 
4 1:0.72787772 2:0.41065868 3:0.19908625 4:0.13608056 5:0.7652198 6:0.84839563 7:0.88712536 
4 1:0.73686914 2:0.41933192 3:0.19908625 4:0.13980216 5:0.78480629 6:0.86663349 7:0.90357662 
4 1:0.81448411 2:0.43826809 3:0.19908625 4:0.14751601 5:0.81360437 6:0.89032105 7:0.92210299 
4 1:0.83242962 2:0.45300881 3:0.19908625 4:0.15555028 5:0.84004447 6:0.91050996 7:0.938502 
4 1:0.90008906 2:0.468107 3:0.19908625 4:0.16537108 5:0.85778742 6:0.92412308 7:0.94895956 
-4 1:0.94173707 2:0.48157676 3:0.19908625 4:0.17317649 5:0.876681 6:0.93779975 7:0.95956764 
-4 1:0.94484618 2:0.49123252 3:0.19908625 4:0.18169384 5:0.88732249 6:0.94420428 7:0.96402826 
-4 1:0.6096341 2:0.47821058 3:0.034816509 4:0.035489331 5:0.74861966 6:0.86052646 7:0.91068353 
-4 1:0.74780125 2:0.50542548 3:0.034816509 4:0.050858579 5:0.81154469 6:0.90118239 7:0.93475 
-4 1:0.74896775 2:0.50792525 3:0.034816509 4:0.052429805 5:0.81834651 6:0.90596883 7:0.93809709 
-4 1:0.8273781 2:0.5229294 3:0.034816509 4:0.062994705 5:0.85005667 6:0.9234785 7:0.94925364 
-4 1:0.83715021 2:0.5309274 3:0.034816509 4:0.069556576 5:0.86243412 6:0.93033441 7:0.95414001 
4 1:0.90860432 2:0.54080799 3:0.034816509 4:0.083188088 5:0.87675453 6:0.93922686 7:0.9605319 
2.036702539916611 1:0.95170157 2:0.55084129 3:0.034816509 4:0.090498466 5:0.89162223 6:0.94953702 7:0.9678787 
-4 1:0.95380965 2:0.55792831 3:0.034816509 4:0.098497068 5:0.89744051 6:0.95262718 7:0.9699955 
-4 1:0.4273521 2:0.12282286 3:0.061964183 4:0.11570271 5:0.46042814 6:0.65892566 7:0.79870806 
-4 1:0.63123747 2:0.17917576 3:0.061964183 4:0.16837045 5:0.62404327 6:0.79121051 7:0.87365722 
4 1:0.63492766 2:0.18405772 3:0.061964183 4:0.17600869 5:0.64716959 6:0.80961905 7:0.88717112 
4 1:0.75618877 2:0.23639488 3:0.061964183 4:0.22395077 5:0.75529507 6:0.87114015 7:0.91934331 
-4 1:0.77139737 2:0.25419279 3:0.061964183 4:0.24694774 5:0.79349593 6:0.8916167 7:0.93200478 
-4 1:0.88916287 2:0.34802784 3:0.061964183 4:0.34620191 5:0.87035629 6:0.92985021 7:0.95589668 
4 1:0.96388489 2:0.42881288 3:0.061964183 4:0.42911181 5:0.91366718 6:0.9568521 7:0.97313108 
4 1:0.47977509 2:0.18200267 3:0.23130691 4:0.32928412 5:0.55282916 6:0.66791845 7:0.74863576 
-4 1:0.67040866 2:0.24861296 3:0.23130691 4:0.38943269 5:0.66545556 6:0.76680794 7:0.81985996 
-4 1:0.68687131 2:0.26524478 3:0.23130691 4:0.41023912 5:0.70740496 6:0.81078152 7:0.86221763 
-4 1:0.78674389 2:0.32209063 3:0.23130691 4:0.46460529 5:0.78994847 6:0.86913143 7:0.90516139 
4 1:0.81048086 2:0.35113715 3:0.23130691 4:0.50312748 5:0.84547503 6:0.91358495 7:0.94168743 
4 1:0.9100825 2:0.4570275 3:0.23130691 4:0.61552031 5:0.9147698 6:0.95147469 7:0.96681058 
-4 1:0.98034608 2:0.57256903 3:0.23130691 4:0.72900944 5:0.95802477 6:0.97650266 7:0.98413271 
-4 1:0.98374901 2:0.5885804 3:0.23130691 4:0.74947079 5:0.96647178 6:0.98163931 7:0.98773965 
4 1:0.21483779 2:0.092648467 3:0.37995933 4:0.091662564 5:0.1529332 6:0.19165383 7:0.23332771 
-4 1:0.41372639 2:0.12481478 3:0.37995933 4:0.11972516 5:0.22858077 6:0.28261732 7:0.32614433 
-4 1:0.4734512 2:0.150659 3:0.37995933 4:0.13945528 5:0.28799635 6:0.36498566 7:0.42609007 
-4 1:0.5944247 2:0.18559397 3:0.37995933 4:0.17211443 5:0.36367814 6:0.44650577 7:0.50673632 
4 1:0.67573909 2:0.23614196 3:0.37995933 4:0.2184327 5:0.48605098 6:0.59000253 7:0.65971535 
4 1:0.78992142 2:0.30063732 3:0.37995933 4:0.29529412 5:0.58552372 6:0.67661896 7:0.73531212 
4 1:0.8868928 2:0.39057937 3:0.37995933 4:0.39750191 5:0.71176991 6:0.79245591 7:0.83806775 
4 1:0.91206245 2:0.43330721 3:0.37995933 4:0.44654064 5:0.77534857 6:0.84760758 7:0.88531211 
4 1:0.44277696 2:0.23360631 3:0.32712248 4:0.2599763 5:0.46254963 6:0.57667501 7:0.67118098 
-4 1:0.63417698 2:0.28995647 3:0.32712248 4:0.30918307 5:0.58384104 6:0.69563644 7:0.76460802 
-4 1:0.66078882 2:0.30993956 3:0.32712248 4:0.33283517 5:0.63861466 6:0.75549127 7:0.82270899 
-4 1:0.79693 2:0.40152865 3:0.32712248 4:0.43676431 5:0.81369323 6:0.89238679 7:0.92785696 
-4 1:0.9005211 2:0.50628807 3:0.32712248 4:0.55899913 5:0.8961204 6:0.93879525 7:0.95832406 
-4 1:0.97423624 2:0.63094307 3:0.32712248 4:0.7180499 5:0.94958431 6:0.97132544 7:0.98045708 
4 1:0.98100171 2:0.65383234 3:0.32712248 4:0.75300334 5:0.96341473 6:0.97959333 7:0.98621572 
-4 1:0.28606808 2:0.10921428 3:0.62386588 4:0.14210375 5:0.22758903 6:0.26524999 7:0.30116409 
-4 1:0.48768772 2:0.15625977 3:0.62386588 4:0.17836177 5:0.32035955 6:0.37398704 7:0.41311999 
-4 1:0.56051297 2:0.19290178 3:0.62386588 4:0.20581608 5:0.39367661 6:0.47331478 7:0.53190807 
-4 1:0.67678192 2:0.24116742 3:0.62386588 4:0.24903487 5:0.48565737 6:0.56757718 7:0.62285651 
-4 1:0.75508061 2:0.2989841 3:0.62386588 4:0.30546933 5:0.61573888 6:0.71406758 7:0.77311164 
-4 1:0.86028135 2:0.38591976 3:0.62386588 4:0.40453195 5:0.72562907 6:0.80089496 7:0.84439653 
-4 1:0.94927745 2:0.50711103 3:0.62386588 4:0.56011867 5:0.84417863 6:0.89711351 7:0.92293975 
-4 1:0.96520962 2:0.54981706 3:0.62386588 4:0.61798068 5:0.89199652 6:0.93295221 7:0.95147468 
4 1:0.29412838 2:0.11805063 3:0.1012817 4:0.16200315 5:0.37578485 6:0.59320682 7:0.80117536 
4 1:0.54962761 2:0.18673101 3:0.1012817 4:0.24393505 5:0.58209165 6:0.78851378 7:0.9067632 
4 1:0.55150951 2:0.18739048 3:0.1012817 4:0.24550611 5:0.58687978 6:0.79404623 7:0.91217056 
-4 1:0.70981097 2:0.2571562 3:0.1012817 4:0.33222561 5:0.74494592 6:0.89826659 7:0.95769783 
4 1:0.73071683 2:0.27830189 3:0.1012817 4:0.358983 5:0.7781418 6:0.91310488 7:0.9623323 
4 1:0.89553429 2:0.43091367 3:0.1012817 4:0.62745623 5:0.94236465 6:0.97874341 7:0.99066928 
-4 1:0.53689458 2:0.19707014 3:0.46629001 4:0.19931729 5:0.32410675 6:0.40982343 7:0.4893396 
-4 1:0.57624881 2:0.22368173 3:0.46629001 4:0.22920422 5:0.38661782 6:0.49026329 7:0.58000245 
-4 1:0.70047586 2:0.27614135 3:0.46629001 4:0.2840121 5:0.48455933 6:0.5905349 7:0.67129089 
4 1:0.75363108 2:0.33197521 3:0.46629001 4:0.3568512 5:0.60773492 6:0.71710254 7:0.79012087 
4 1:0.86083917 2:0.41073733 3:0.46629001 4:0.44349999 5:0.71472389 6:0.80584481 7:0.86160339 
4 1:0.93146088 2:0.48828001 3:0.46629001 4:0.51726316 5:0.80639703 6:0.88120321 7:0.92098303 
4 1:0.94243661 2:0.51454258 3:0.46629001 4:0.54756072 5:0.83902916 6:0.90540179 7:0.93886524 
-4 1:0.42185741 2:0.37454782 3:0.19607431 4:0.2743975 5:0.45697839 6:0.57535387 7:0.67024059 
-4 1:0.61177155 2:0.4365045 3:0.19607431 4:0.35322033 5:0.59523918 6:0.70441733 7:0.77272128 
-4 1:0.63918923 2:0.45793051 3:0.19607431 4:0.38192882 5:0.64785809 6:0.75882689 7:0.82455819 
-4 1:0.75010655 2:0.51474633 3:0.19607431 4:0.45087158 5:0.74328429 6:0.83021118 7:0.87644924 
-4 1:0.79147684 2:0.5589851 3:0.19607431 4:0.51214887 5:0.82369669 6:0.89445079 7:0.92801374 
4 1:0.89087419 2:0.64870523 3:0.19607431 4:0.62077958 5:0.89431127 6:0.93664518 7:0.95655314 
4 1:0.95847774 2:0.73485939 3:0.19607431 4:0.69261716 5:0.94236474 6:0.96752693 7:0.97818578 
-4 1:0.96554068 2:0.7529231 3:0.19607431 4:0.71637114 5:0.95403524 6:0.97458526 7:0.9830982 
-4 1:0.51519264 2:0.37707906 3:0.066725896 4:0.34372007 5:0.55995462 6:0.67051183 7:0.76546138 
-4 1:0.68574767 2:0.45171655 3:0.066725896 4:0.43594707 5:0.7078017 6:0.80221174 7:0.86027932 
-4 1:0.69993679 2:0.46768614 3:0.066725896 4:0.46023293 5:0.74720499 6:0.83721019 7:0.88949178 
-4 1:0.79819529 2:0.52913678 3:0.066725896 4:0.52356809 5:0.83017623 6:0.89471771 7:0.9266419 
-4 1:0.823065 2:0.56346863 3:0.066725896 4:0.56979595 5:0.87552964 6:0.92548908 7:0.94935861 
4 1:0.9150904 2:0.65354467 3:0.066725896 4:0.66189045 5:0.92904989 6:0.95799532 7:0.97146069 
4 1:0.9679991 2:0.71471484 3:0.066725896 4:0.70092087 5:0.95434885 6:0.97440829 7:0.98279652 
4 1:0.97123164 2:0.72682591 3:0.066725896 4:0.7151308 5:0.960102 6:0.97787508 7:0.98518173 
4 1:0.51835903 2:0.23379852 3:0.31813065 4:0.40082289 5:0.55345405 6:0.60797992 7:0.64355438 
-4 1:0.67524675 2:0.27837021 3:0.31813065 4:0.43396977 5:0.61807337 6:0.68289571 7:0.72351841 
4 1:0.70027899 2:0.3096224 3:0.31813065 4:0.46160919 5:0.67100337 6:0.74355703 7:0.78820216 
-4 1:0.78642738 2:0.34709787 3:0.31813065 4:0.49001346 5:0.72032998 6:0.79167775 7:0.83306235 
4 1:0.82574317 2:0.4051903 3:0.31813065 4:0.54962708 5:0.81174952 6:0.87501259 7:0.9070568 
4 1:0.9038342 2:0.46193279 3:0.31813065 4:0.60120088 5:0.8672518 6:0.91737821 7:0.94093945 
-4 1:0.9616841 2:0.52505896 3:0.31813065 4:0.65078047 5:0.92284738 6:0.95658586 7:0.97061867 
-4 1:0.97005642 2:0.55388193 3:0.31813065 4:0.67874954 5:0.94213598 6:0.96846928 7:0.97897375 
4 1:0.56379827 2:0.28840495 3:0.24484638 4:0.62725489 5:0.73401377 6:0.77061361 7:0.79233977 
4 1:0.69707073 2:0.34199561 3:0.24484638 4:0.66864069 5:0.79391324 6:0.8324878 7:0.85355213 
4 1:0.72448597 2:0.37411679 3:0.24484638 4:0.69473535 5:0.83115605 6:0.87085556 7:0.89202625 
2.963904029943124 1:0.80573572 2:0.42165442 3:0.24484638 4:0.72761205 5:0.87368756 6:0.90816269 7:0.92491864 
4 1:0.84202128 2:0.47549925 3:0.24484638 4:0.77195881 5:0.9200765 6:0.94626283 7:0.95775509 
4 1:0.91272868 2:0.53507396 3:0.24484638 4:0.81030574 5:0.9498361 6:0.96767523 7:0.97518431 
4 1:0.96863532 2:0.59867279 3:0.24484638 4:0.83826012 5:0.97494708 6:0.98538861 7:0.98958291 
4 1:0.97633249 2:0.62463226 3:0.24484638 4:0.85344648 5:0.98180902 6:0.9896203 7:0.99264501 
-4 1:0.62001105 2:0.47771275 3:0.024412915 4:0.48303676 5:0.77346009 6:0.86903616 7:0.91933256 
-4 1:0.75315336 2:0.53593465 3:0.024412915 4:0.54495254 5:0.8556029 6:0.92219373 7:0.95115286 
-4 1:0.75724951 2:0.54357264 3:0.024412915 4:0.55262807 5:0.86428342 6:0.9282135 7:0.95577208 
-4 1:0.83810789 2:0.59171889 3:0.024412915 4:0.59827116 5:0.91134508 6:0.95279962 7:0.96996019 
-4 1:0.85232946 2:0.61414994 3:0.024412915 4:0.62293909 5:0.92558872 6:0.96038708 7:0.97539389 
4 1:0.92792663 2:0.67669648 3:0.024412915 4:0.69545065 5:0.95936739 6:0.97831336 7:0.98620559 
-4 1:0.48158977 2:0.22724946 3:0.61324729 4:0.27540875 5:0.42553765 6:0.48641897 7:0.53104738 
-4 1:0.63753866 2:0.28242948 3:0.61324729 4:0.33157417 5:0.5219651 6:0.58927718 7:0.63177685 
-4 1:0.67707961 2:0.31532094 3:0.61324729 4:0.36721782 5:0.59027691 6:0.66847711 7:0.71742217 
-4 1:0.76829625 2:0.36736763 3:0.61324729 4:0.41958997 5:0.67025967 6:0.74327658 7:0.78585557 
4 1:0.81258618 2:0.42383137 3:0.61324729 4:0.48476198 5:0.77032441 6:0.83826134 7:0.87434329 
4 1:0.95569452 2:0.56662668 3:0.61324729 4:0.59744731 5:0.90011796 6:0.93900499 7:0.95615901 
4 1:0.96488572 2:0.59698594 3:0.61324729 4:0.62477426 5:0.92367983 6:0.95528787 7:0.9685549 
-4 1:0.6558802 2:0.36753212 4:0.50914684 5:0.83375963 6:0.89809846 7:0.92653187 
-4 1:0.76884943 2:0.40988734 4:0.55679293 5:0.89391591 6:0.93860454 7:0.95403218 
-4 1:0.77375631 2:0.41802337 4:0.5636812 5:0.90019662 6:0.9427445 7:0.9574506 
-4 1:0.84303042 2:0.4530568 4:0.60236618 5:0.93446437 6:0.96242475 7:0.97109062 
-4 1:0.85951211 2:0.47295605 4:0.6228269 5:0.94532487 6:0.96833445 7:0.97557224 
-4 1:0.9261042 2:0.52043749 4:0.68729659 5:0.96971448 6:0.98303447 7:0.98744411 
-4 1:0.96470143 2:0.55053174 4:0.7147545 5:0.98321849 6:0.9919861 7:0.99443831 
-4 1:0.967065 2:0.56265542 4:0.7243143 5:0.98476297 6:0.99277815 7:0.99502417 
4 1:0.099255226 2:0.10224369 3:1 4:0.10881751 5:0.12198057 6:0.1091675 7:0.088043328 
-3.128033778385676 1:0.29688918 2:0.13673148 3:1 4:0.13820799 5:0.18737935 6:0.19948561 7:0.20329466 
-4 1:0.38839319 2:0.17052558 3:1 4:0.16899654 5:0.25561373 6:0.29559208 7:0.3291397 
-4 1:0.51537476 2:0.20639051 3:1 4:0.20282799 5:0.32849203 6:0.38566584 7:0.43301855 
-4 1:0.63770606 2:0.27310353 3:1 4:0.27539534 5:0.47471422 6:0.56203958 7:0.6289053 
-4 1:0.75616331 2:0.33811623 3:1 4:0.34700476 5:0.58843901 6:0.67881337 7:0.74344488 
4 1:0.86716608 2:0.42515427 3:1 4:0.42670862 5:0.73642101 6:0.82051035 7:0.87077786 
4 1:0.90117017 2:0.4707805 3:1 4:0.47750457 5:0.80506581 6:0.87690238 7:0.91543318 
-4 1:1 2:0.60957429 3:0.57015555 4:0.99999999 5:0.99999986 6:0.99999974 7:0.9999997 
-4 1:1 2:0.78323367 3:0.73861347 4:0.99999983 5:0.99999957 6:0.99999885 7:0.99999917 
-3.523826653161877 1:1 2:0.83216729 3:0.50243453 4:0.99999917 5:0.99999858 6:0.99999805 7:0.99999788 
-4 1:1 2:0.84061366 3:0.54605511 4:0.99999958 5:0.99999872 6:0.99999818 7:0.99999796 
-4 1:1 2:0.54793197 3:0.77164289 4:1 5:0.99999991 6:0.99999965 7:0.99999961 
-4 1:1 2:1 3:0.46336375 4:0.99999945 5:0.99999719 6:0.99999675 7:0.99999724 
-4 1:0.37561256 2:0.20017167 3:0.27174489 4:0.14564537 5:0.39790222 6:0.55106678 7:0.67008782 
-4 1:0.56862883 2:0.2511454 3:0.27174489 4:0.19411401 5:0.53707663 6:0.68373405 7:0.77053495 
-4 1:0.59507913 2:0.26591235 3:0.27174489 4:0.21726037 5:0.59928839 6:0.74861604 7:0.82928713 
-4 1:0.73092966 2:0.32432484 3:0.27174489 4:0.27356025 5:0.71390094 6:0.82257087 7:0.87444689 
4 1:0.75725767 2:0.34866202 3:0.27174489 4:0.31634112 5:0.79654122 6:0.88915412 7:0.9273156 
4 1:0.88324277 2:0.45568174 3:0.27174489 4:0.4403716 5:0.8922293 6:0.93831942 7:0.95845059 
4 1:0.8933052 2:0.47211671 3:0.27174489 4:0.47228748 5:0.92107255 6:0.95675014 7:0.97151317 
4 1:0.9508125 2:0.54170694 3:0.27174489 4:0.58168899 5:0.90979133 6:0.94735255 7:0.96398348 
4 1:0.95713874 2:0.55602795 3:0.27174489 4:0.61027713 5:0.92360129 6:0.95604732 7:0.97013831 
4 1:0.96971772 2:0.58505878 3:0.27174489 4:0.67509147 5:0.9486493 6:0.97123348 7:0.98048503 
-4 1:0.52994813 2:0.56424104 3:0.019238957 4:0.38547432 5:0.75372022 6:0.84123041 7:0.89486139 
-4 1:0.53720078 2:0.57181443 3:0.019238957 4:0.3990632 5:0.77884256 6:0.86263175 7:0.9119893 
-4 1:0.69594659 2:0.62423542 3:0.019238957 4:0.42249933 5:0.83012148 6:0.89999703 7:0.9343333 
-4 1:0.70045567 2:0.6324076 3:0.019238957 4:0.43485895 5:0.84990814 6:0.91438168 7:0.94468986 
-4 1:0.81165128 2:0.68132931 3:0.019238957 4:0.45209767 5:0.87998379 6:0.93121657 7:0.95417334 
4 1:0.90641987 2:0.73591865 3:0.019238957 4:0.47995579 5:0.90591955 6:0.94655395 7:0.96494883 
4 1:0.96394448 2:0.76908851 3:0.019238957 4:0.49703719 5:0.92208917 6:0.95739033 7:0.97352851 
4 1:0.97111644 2:0.7906865 3:0.019238957 4:0.51850714 5:0.94179388 6:0.97018449 7:0.98213448 
4 2:0.029721262 3:0.57015555 7:0.010154919 
-4 1:0.60579512 2:0.18704248 3:0.57015555 4:0.12893302 5:0.40260054 6:0.52794625 7:0.61631229 
-4 1:0.75391926 2:0.25428655 3:0.57015555 4:0.18461005 5:0.49989687 6:0.61178122 7:0.68884477 
-4 1:0.8153429 2:0.30563046 3:0.57015555 4:0.23793372 5:0.60651572 6:0.71554025 7:0.78255239 
-4 1:0.85600941 2:0.34853999 3:0.57015555 4:0.28629085 5:0.68788242 6:0.78757701 7:0.84353583 
-4 1:0.89148132 2:0.39394543 3:0.57015555 4:0.34171535 5:0.76509994 6:0.85013067 7:0.8935626 
-4 1:0.92852788 2:0.45158749 3:0.57015555 4:0.42100368 5:0.84916897 6:0.91127553 7:0.93940013 
4 1:0.1753977 2:0.15491045 3:0.73861347 4:0.09552304 5:0.13054246 6:0.15035856 7:0.1699603 
-4 1:0.45635833 2:0.22731935 3:0.73861347 4:0.158209 5:0.28040177 6:0.35751004 7:0.42348738 
4 1:0.69430386 2:0.33745528 3:0.73861347 4:0.27712969 5:0.53553712 6:0.64647804 7:0.71969773 
4 1:0.76724888 2:0.36671253 3:0.73861347 4:0.31108262 5:0.57582518 6:0.67863928 7:0.74667418 
4 1:0.86571411 2:0.44598536 3:0.73861347 4:0.3944368 5:0.71882415 6:0.81004305 7:0.8623959 
4 1:0.90357706 2:0.49917048 3:0.73861347 4:0.46136994 5:0.80064289 6:0.87542246 7:0.91386276 
4 1:0.92840891 2:0.54448511 3:0.73861347 4:0.51989475 5:0.8578363 6:0.9163383 7:0.94388077 
4 1:0.057186579 2:0.23907071 3:0.50243453 4:0.074302209 5:0.064066487 6:0.038191765 
4 1:0.46335071 2:0.33322794 3:0.50243453 4:0.15651072 5:0.26099077 6:0.31080835 7:0.35093188 
4 1:0.57170622 2:0.37139949 3:0.50243453 4:0.19565839 5:0.34034574 6:0.40815216 7:0.46499326 
4 1:0.61771078 2:0.38742794 3:0.50243453 4:0.2013411 5:0.37388838 6:0.44991385 7:0.51391699 
4 1:0.64058636 2:0.40700327 3:0.50243453 4:0.23392852 5:0.42110826 6:0.50581137 7:0.57392097 
4 1:0.68648276 2:0.42453917 3:0.50243453 4:0.23959609 5:0.45613658 6:0.54666909 7:0.61876644 
4 1:0.79301714 2:0.50015434 3:0.50243453 4:0.32622773 5:0.62144616 6:0.7212244 7:0.78795799 
4 1:0.86049974 2:0.56409596 3:0.50243453 4:0.40728198 5:0.74550855 6:0.83106809 7:0.87888976 
4 1:0.89790028 2:0.6105181 3:0.50243453 4:0.47222451 5:0.82140625 6:0.88905388 7:0.92286615 
4 1:0.29904095 2:0.32670389 3:0.54605511 4:0.21472932 5:0.38914781 6:0.49769154 7:0.59083219 
4 1:0.56768263 2:0.41097052 3:0.54605511 4:0.30308084 5:0.59347344 6:0.71982347 7:0.79614483 
4 1:0.69533755 2:0.44677163 3:0.54605511 4:0.31948376 5:0.61068179 6:0.71809681 7:0.78192463 
4 1:0.75945348 2:0.52053937 3:0.54605511 4:0.43714837 5:0.81360207 6:0.89436962 7:0.92985049 
-4 1:0.93943076 2:0.64245784 3:0.54605511 4:0.53480784 5:0.86577728 6:0.92039762 7:0.94567054 
4 1:0.98364834 2:0.77515886 3:0.54605511 4:0.75735767 5:0.97288667 6:0.98579289 7:0.99060009 
4 1:0.32002749 2:0.24744957 3:0.21597041 4:0.045063964 5:0.37692216 6:0.55140675 7:0.69796544 
-4 1:0.56695344 2:0.31230263 3:0.21597041 4:0.097210209 5:0.58397601 6:0.7508394 7:0.83948605 
-4 1:0.70520428 2:0.36112001 3:0.21597041 4:0.13385033 5:0.67160615 6:0.79655301 7:0.85818695 
4 1:0.73424456 2:0.38872215 3:0.21597041 4:0.16265978 5:0.77271887 6:0.87781115 7:0.92030835 
4 1:0.86954132 2:0.48182811 3:0.21597041 4:0.25291857 5:0.86032679 6:0.92065002 7:0.94719087 
4 1:0.87335209 2:0.48882625 3:0.21597041 4:0.26150142 5:0.87394579 6:0.92955244 7:0.95361972 
4 1:0.95158679 2:0.55599973 3:0.21597041 4:0.31469782 5:0.90564041 6:0.9505662 7:0.96731494 
4 1:0.046480997 3:0.77164289 4:0.0036752949 5:0.063426258 6:0.083975821 7:0.10357933 
4 1:0.4815399 2:0.084491417 3:0.77164289 4:0.061680284 5:0.28308554 6:0.37269791 7:0.4415304 
-4 1:0.59466693 2:0.13408384 3:0.77164289 4:0.10183633 5:0.43686442 6:0.55619455 7:0.63614229 
4 1:0.67663499 2:0.16297436 3:0.77164289 4:0.12768853 5:0.46551139 6:0.57412631 7:0.64893256 
4 1:0.727837 2:0.19544136 3:0.77164289 4:0.15698565 5:0.54933575 6:0.66054291 7:0.73141004 
4 1:0.79298458 2:0.22653651 3:0.77164289 4:0.1783044 5:0.58984439 6:0.69884629 7:0.76566769 
4 1:0.84189758 2:0.27026774 3:0.77164289 4:0.2201085 5:0.67980569 6:0.78117365 7:0.8374729 
-4 1:0.93223983 2:0.38632703 3:0.77164289 4:0.34905641 5:0.87203088 6:0.92820957 7:0.95189869 
-4 1:0.94593957 2:0.41008163 3:0.77164289 4:0.38300199 5:0.90150605 6:0.9468388 7:0.96487186 
-4 1:0.51879331 2:0.4846003 3:0.46336375 4:0.30175677 5:0.53715556 6:0.6201217 7:0.69126522 
-4 1:0.69563267 2:0.56626182 3:0.46336375 4:0.38974197 5:0.68280797 6:0.7624929 7:0.81933882 
-4 1:0.78342288 2:0.60596099 3:0.46336375 4:0.43017021 5:0.73828939 6:0.81072072 7:0.85931014 
-4 1:0.82362468 2:0.66094735 3:0.46336375 4:0.49268118 5:0.82332639 6:0.88132959 7:0.91765632 
4 1:0.89144668 2:0.71273046 3:0.46336375 4:0.53894393 5:0.87349384 6:0.92016796 7:0.94654988 
4 1:0.93642466 2:0.73684772 3:0.46336375 4:0.54466735 5:0.89946619 6:0.94109895 7:0.96142482 
