svm_type nu_svr
kernel_type rbf
gamma 0.05
nr_class 2
total_sv 150
rho -1.07371
SV
-4 1:1 2:0.9023797 3:0.80360073 4:0.99999956 5:0.99999617 6:0.99999659 7:0.99999649 
4 1:1 2:0.6268493 3:0.060660457 4:0.99999979 5:0.9999997 6:0.9999995 7:0.99999916 
4 1:1 2:0.6945613 3:0.29975901 4:0.9999987 5:0.99999951 6:0.99999913 7:0.99999913 
4 1:1 2:0.60150691 3:0.13125463 4:0.99999995 5:1 6:0.99999997 7:0.99999982 
-4 1:1 2:0.81706577 3:0.41227705 4:0.99999519 5:0.99999624 6:0.99999547 7:0.99999532 
-4 1:1 2:0.86043223 3:0.3173053 4:0.99999559 5:0.9999956 6:0.99999629 7:0.99999512 
1.127761869652489 1:1 2:0.83592028 4:0.9999953 5:0.99999163 6:0.99999444 7:0.9999906 
-4 1:0.55120029 2:0.44434935 3:0.80360073 4:0.26121942 5:0.6293366 6:0.71975367 7:0.78093108 
-4 1:0.69994822 2:0.49545656 3:0.80360073 4:0.30135725 5:0.70722144 6:0.79216822 7:0.83978283 
-4 1:0.72011021 2:0.51616008 3:0.80360073 4:0.32121318 5:0.74989787 6:0.83473257 7:0.87962097 
-4 1:0.80161657 2:0.55184234 3:0.80360073 4:0.3501572 5:0.79684481 6:0.87136279 7:0.90727549 
4 1:0.82707856 2:0.57886981 3:0.80360073 4:0.37930406 5:0.84227672 6:0.90805726 7:0.93746453 
4 1:0.89751445 2:0.61682479 3:0.80360073 4:0.41517592 5:0.87673937 6:0.93162471 7:0.95441416 
-4 1:0.94175354 2:0.65752339 3:0.80360073 4:0.44577851 5:0.91006376 6:0.95340334 7:0.97037481 
4 1:0.94886911 2:0.67382416 3:0.80360073 4:0.46794139 5:0.92362274 6:0.96145271 7:0.97586663 
4 1:0.40868363 2:0.13943156 3:0.060660457 4:0.20127881 5:0.43690014 6:0.62303099 7:0.80462761 
1.984934200622846 1:0.63428306 2:0.21779297 3:0.060660457 4:0.29367506 5:0.63478131 6:0.80404493 7:0.90860113 
-4 1:0.63517172 2:0.2182804 3:0.060660457 4:0.29742126 5:0.63976608 6:0.8083318 7:0.9121364 
-4 1:0.76722122 2:0.29259565 3:0.060660457 4:0.38377254 5:0.78514877 6:0.90429663 7:0.95734326 
4 1:0.78174155 2:0.31017378 3:0.060660457 4:0.40876054 5:0.81261902 6:0.91751826 7:0.96173956 
4 1:0.91228727 2:0.45437437 3:0.060660457 4:0.61082239 5:0.94727552 6:0.9778847 7:0.98952764 
4 1:0.99904844 2:0.62307047 3:0.060660457 4:0.93477801 5:0.99671741 6:0.99843624 7:0.99906019 
-4 1:0.58827841 2:0.37677077 3:0.25800309 4:0.12270748 5:0.71032975 6:0.79612606 7:0.84328574 
-0.9346808495068268 1:0.72787772 2:0.41065868 3:0.25800309 4:0.13608056 5:0.7652198 6:0.84839563 7:0.88712536 
4 1:0.73686914 2:0.41933192 3:0.25800309 4:0.13980216 5:0.78480629 6:0.86663349 7:0.90357662 
4 1:0.81448411 2:0.43826809 3:0.25800309 4:0.14751601 5:0.81360437 6:0.89032105 7:0.92210299 
4 1:0.83242962 2:0.45300881 3:0.25800309 4:0.15555028 5:0.84004447 6:0.91050996 7:0.938502 
4 1:0.90008906 2:0.468107 3:0.25800309 4:0.16537108 5:0.85778742 6:0.92412308 7:0.94895956 
-4 1:0.94173707 2:0.48157676 3:0.25800309 4:0.17317649 5:0.876681 6:0.93779975 7:0.95956764 
-4 1:0.94484618 2:0.49123252 3:0.25800309 4:0.18169384 5:0.88732249 6:0.94420428 7:0.96402826 
-4 1:0.47977509 2:0.18200267 3:0.29975901 4:0.32928412 5:0.55282916 6:0.66791845 7:0.74863576 
-4 1:0.67040866 2:0.24861296 3:0.29975901 4:0.38943269 5:0.66545556 6:0.76680794 7:0.81985996 
-4 1:0.68687131 2:0.26524478 3:0.29975901 4:0.41023912 5:0.70740496 6:0.81078152 7:0.86221763 
-4 1:0.78674389 2:0.32209063 3:0.29975901 4:0.46460529 5:0.78994847 6:0.86913143 7:0.90516139 
4 1:0.81048086 2:0.35113715 3:0.29975901 4:0.50312748 5:0.84547503 6:0.91358495 7:0.94168743 
4 1:0.9100825 2:0.4570275 3:0.29975901 4:0.61552031 5:0.9147698 6:0.95147469 7:0.96681058 
4 1:0.98034608 2:0.57256903 3:0.29975901 4:0.72900944 5:0.95802477 6:0.97650266 7:0.98413271 
-4 1:0.98374901 2:0.5885804 3:0.29975901 4:0.74947079 5:0.96647178 6:0.98163931 7:0.98773965 
0.555136755565616 1:0.21483779 2:0.092648467 3:0.49240306 4:0.091662564 5:0.1529332 6:0.19165383 7:0.23332771 
-4 1:0.41372639 2:0.12481478 3:0.49240306 4:0.11972516 5:0.22858077 6:0.28261732 7:0.32614433 
-4 1:0.4734512 2:0.150659 3:0.49240306 4:0.13945528 5:0.28799635 6:0.36498566 7:0.42609007 
-4 1:0.5944247 2:0.18559397 3:0.49240306 4:0.17211443 5:0.36367814 6:0.44650577 7:0.50673632 
-4 1:0.67573909 2:0.23614196 3:0.49240306 4:0.2184327 5:0.48605098 6:0.59000253 7:0.65971535 
4 1:0.78992142 2:0.30063732 3:0.49240306 4:0.29529412 5:0.58552372 6:0.67661896 7:0.73531212 
4 1:0.8868928 2:0.39057937 3:0.49240306 4:0.39750191 5:0.71176991 6:0.79245591 7:0.83806775 
4 1:0.91206245 2:0.43330721 3:0.49240306 4:0.44654064 5:0.77534857 6:0.84760758 7:0.88531211 
4 1:0.29412838 2:0.11805063 3:0.13125463 4:0.16200315 5:0.37578485 6:0.59320682 7:0.80117536 
4 1:0.54962761 2:0.18673101 3:0.13125463 4:0.24393505 5:0.58209165 6:0.78851378 7:0.9067632 
4 1:0.55150951 2:0.18739048 3:0.13125463 4:0.24550611 5:0.58687978 6:0.79404623 7:0.91217056 
-4 1:0.70981097 2:0.2571562 3:0.13125463 4:0.33222561 5:0.74494592 6:0.89826659 7:0.95769783 
4 1:0.73071683 2:0.27830189 3:0.13125463 4:0.358983 5:0.7781418 6:0.91310488 7:0.9623323 
4 1:0.89553429 2:0.43091367 3:0.13125463 4:0.62745623 5:0.94236465 6:0.97874341 7:0.99066928 
4 1:0.99960552 2:0.60052019 3:0.13125463 4:0.97634186 5:0.99896487 6:0.99945077 7:0.99960846 
-4 1:0.51835903 2:0.23379852 3:0.41227705 4:0.40082289 5:0.55345405 6:0.60797992 7:0.64355438 
-4 1:0.67524675 2:0.27837021 3:0.41227705 4:0.43396977 5:0.61807337 6:0.68289571 7:0.72351841 
-0.9934134271455123 1:0.70027899 2:0.3096224 3:0.41227705 4:0.46160919 5:0.67100337 6:0.74355703 7:0.78820216 
-4 1:0.78642738 2:0.34709787 3:0.41227705 4:0.49001346 5:0.72032998 6:0.79167775 7:0.83306235 
4 1:0.82574317 2:0.4051903 3:0.41227705 4:0.54962708 5:0.81174952 6:0.87501259 7:0.9070568 
2.990520156159385 1:0.9038342 2:0.46193279 3:0.41227705 4:0.60120088 5:0.8672518 6:0.91737821 7:0.94093945 
0.04757917257313609 1:0.9616841 2:0.52505896 3:0.41227705 4:0.65078047 5:0.92284738 6:0.95658586 7:0.97061867 
-4 1:0.97005642 2:0.55388193 3:0.41227705 4:0.67874954 5:0.94213598 6:0.96846928 7:0.97897375 
-4 1:0.56379827 2:0.28840495 3:0.3173053 4:0.62725489 5:0.73401377 6:0.77061361 7:0.79233977 
4 1:0.69707073 2:0.34199561 3:0.3173053 4:0.66864069 5:0.79391324 6:0.8324878 7:0.85355213 
-4 1:0.80573572 2:0.42165442 3:0.3173053 4:0.72761205 5:0.87368756 6:0.90816269 7:0.92491864 
4 1:0.84202128 2:0.47549925 3:0.3173053 4:0.77195881 5:0.9200765 6:0.94626283 7:0.95775509 
4 1:0.91272868 2:0.53507396 3:0.3173053 4:0.81030574 5:0.9498361 6:0.96767523 7:0.97518431 
4 1:0.96863532 2:0.59867279 3:0.3173053 4:0.83826012 5:0.97494708 6:0.98538861 7:0.98958291 
4 1:0.97633249 2:0.62463226 3:0.3173053 4:0.85344648 5:0.98180902 6:0.9896203 7:0.99264501 
-4 1:0.6558802 2:0.36753212 4:0.50914684 5:0.83375963 6:0.89809846 7:0.92653187 
-4 1:0.76884943 2:0.40988734 4:0.55679293 5:0.89391591 6:0.93860454 7:0.95403218 
-4 1:0.77375631 2:0.41802337 4:0.5636812 5:0.90019662 6:0.9427445 7:0.9574506 
-4 1:0.84303042 2:0.4530568 4:0.60236618 5:0.93446437 6:0.96242475 7:0.97109062 
-4 1:0.85951211 2:0.47295605 4:0.6228269 5:0.94532487 6:0.96833445 7:0.97557224 
-4 1:0.9261042 2:0.52043749 4:0.68729659 5:0.96971448 6:0.98303447 7:0.98744411 
-4 1:0.96470143 2:0.55053174 4:0.7147545 5:0.98321849 6:0.9919861 7:0.99443831 
-4 1:0.967065 2:0.56265542 4:0.7243143 5:0.98476297 6:0.99277815 7:0.99502417 
0.9077719706534756 1:1 2:0.67643557 3:0.35216405 4:0.99999995 5:0.99999987 6:0.99999955 7:0.99999965 
-0.7129226862350851 1:1 2:0.9463555 3:0.024932462 4:0.99999983 5:0.99999915 6:0.9999982 7:0.99999886 
-4 1:1 2:0.78323367 3:0.95719598 4:0.99999983 5:0.99999957 6:0.99999885 7:0.99999917 
-4 1:1 2:0.83216729 3:0.65112312 4:0.99999917 5:0.99999858 6:0.99999805 7:0.99999788 
-4 1:1 2:0.84061366 3:0.70765261 4:0.99999958 5:0.99999872 6:0.99999818 7:0.99999796 
-1.758983037112612 1:1 2:0.54793197 3:1 4:1 5:0.99999991 6:0.99999965 7:0.99999961 
-4 1:1 2:1 3:0.60048989 4:0.99999945 5:0.99999719 6:0.99999675 7:0.99999724 
-4 1:0.37561256 2:0.20017167 3:0.35216405 4:0.14564537 5:0.39790222 6:0.55106678 7:0.67008782 
-4 1:0.56862883 2:0.2511454 3:0.35216405 4:0.19411401 5:0.53707663 6:0.68373405 7:0.77053495 
-4 1:0.59507913 2:0.26591235 3:0.35216405 4:0.21726037 5:0.59928839 6:0.74861604 7:0.82928713 
-4 1:0.73092966 2:0.32432484 3:0.35216405 4:0.27356025 5:0.71390094 6:0.82257087 7:0.87444689 
4 1:0.75725767 2:0.34866202 3:0.35216405 4:0.31634112 5:0.79654122 6:0.88915412 7:0.9273156 
4 1:0.88324277 2:0.45568174 3:0.35216405 4:0.4403716 5:0.8922293 6:0.93831942 7:0.95845059 
4 1:0.8933052 2:0.47211671 3:0.35216405 4:0.47228748 5:0.92107255 6:0.95675014 7:0.97151317 
4 1:0.9508125 2:0.54170694 3:0.35216405 4:0.58168899 5:0.90979133 6:0.94735255 7:0.96398348 
4 1:0.95713874 2:0.55602795 3:0.35216405 4:0.61027713 5:0.92360129 6:0.95604732 7:0.97013831 
4 1:0.96971772 2:0.58505878 3:0.35216405 4:0.67509147 5:0.9486493 6:0.97123348 7:0.98048503 
-4 1:0.52994813 2:0.56424104 3:0.024932462 4:0.38547432 5:0.75372022 6:0.84123041 7:0.89486139 
-4 1:0.53720078 2:0.57181443 3:0.024932462 4:0.3990632 5:0.77884256 6:0.86263175 7:0.9119893 
-4 1:0.69594659 2:0.62423542 3:0.024932462 4:0.42249933 5:0.83012148 6:0.89999703 7:0.9343333 
-4 1:0.70045567 2:0.6324076 3:0.024932462 4:0.43485895 5:0.84990814 6:0.91438168 7:0.94468986 
-4 1:0.81165128 2:0.68132931 3:0.024932462 4:0.45209767 5:0.87998379 6:0.93121657 7:0.95417334 
4 1:0.96394448 2:0.76908851 3:0.024932462 4:0.49703719 5:0.92208917 6:0.95739033 7:0.97352851 
4 1:0.97111644 2:0.7906865 3:0.024932462 4:0.51850714 5:0.94179388 6:0.97018449 7:0.98213448 
4 2:0.029721262 3:0.73888524 7:0.010154919 
-4 1:0.60579512 2:0.18704248 3:0.73888524 4:0.12893302 5:0.40260054 6:0.52794625 7:0.61631229 
-4 1:0.75391926 2:0.25428655 3:0.73888524 4:0.18461005 5:0.49989687 6:0.61178122 7:0.68884477 
-4 1:0.8153429 2:0.30563046 3:0.73888524 4:0.23793372 5:0.60651572 6:0.71554025 7:0.78255239 
-4 1:0.85600941 2:0.34853999 3:0.73888524 4:0.28629085 5:0.68788242 6:0.78757701 7:0.84353583 
-4 1:0.89148132 2:0.39394543 3:0.73888524 4:0.34171535 5:0.76509994 6:0.85013067 7:0.8935626 
-4 1:0.92852788 2:0.45158749 3:0.73888524 4:0.42100368 5:0.84916897 6:0.91127553 7:0.93940013 
-4 1:0.1753977 2:0.15491045 3:0.95719598 4:0.09552304 5:0.13054246 6:0.15035856 7:0.1699603 
-4 1:0.45635833 2:0.22731935 3:0.95719598 4:0.158209 5:0.28040177 6:0.35751004 7:0.42348738 
4 1:0.69430386 2:0.33745528 3:0.95719598 4:0.27712969 5:0.53553712 6:0.64647804 7:0.71969773 
3.900377532092378 1:0.86571411 2:0.44598536 3:0.95719598 4:0.3944368 5:0.71882415 6:0.81004305 7:0.8623959 
4 1:0.90357706 2:0.49917048 3:0.95719598 4:0.46136994 5:0.80064289 6:0.87542246 7:0.91386276 
4 1:0.92840891 2:0.54448511 3:0.95719598 4:0.51989475 5:0.8578363 6:0.9163383 7:0.94388077 
4 1:0.057186579 2:0.23907071 3:0.65112312 4:0.074302209 5:0.064066487 6:0.038191765 
4 1:0.46335071 2:0.33322794 3:0.65112312 4:0.15651072 5:0.26099077 6:0.31080835 7:0.35093188 
4 1:0.57170622 2:0.37139949 3:0.65112312 4:0.19565839 5:0.34034574 6:0.40815216 7:0.46499326 
4 1:0.61771078 2:0.38742794 3:0.65112312 4:0.2013411 5:0.37388838 6:0.44991385 7:0.51391699 
4 1:0.64058636 2:0.40700327 3:0.65112312 4:0.23392852 5:0.42110826 6:0.50581137 7:0.57392097 
4 1:0.68648276 2:0.42453917 3:0.65112312 4:0.23959609 5:0.45613658 6:0.54666909 7:0.61876644 
4 1:0.79301714 2:0.50015434 3:0.65112312 4:0.32622773 5:0.62144616 6:0.7212244 7:0.78795799 
4 1:0.86049974 2:0.56409596 3:0.65112312 4:0.40728198 5:0.74550855 6:0.83106809 7:0.87888976 
4 1:0.89790028 2:0.6105181 3:0.65112312 4:0.47222451 5:0.82140625 6:0.88905388 7:0.92286615 
4 1:0.29904095 2:0.32670389 3:0.70765261 4:0.21472932 5:0.38914781 6:0.49769154 7:0.59083219 
4 1:0.56768263 2:0.41097052 3:0.70765261 4:0.30308084 5:0.59347344 6:0.71982347 7:0.79614483 
-4 1:0.69533755 2:0.44677163 3:0.70765261 4:0.31948376 5:0.61068179 6:0.71809681 7:0.78192463 
4 1:0.75945348 2:0.52053937 3:0.70765261 4:0.43714837 5:0.81360207 6:0.89436962 7:0.92985049 
-4 1:0.93943076 2:0.64245784 3:0.70765261 4:0.53480784 5:0.86577728 6:0.92039762 7:0.94567054 
4 1:0.32002749 2:0.24744957 3:0.27988388 4:0.045063964 5:0.37692216 6:0.55140675 7:0.69796544 
-4 1:0.56695344 2:0.31230263 3:0.27988388 4:0.097210209 5:0.58397601 6:0.7508394 7:0.83948605 
-4 1:0.70520428 2:0.36112001 3:0.27988388 4:0.13385033 5:0.67160615 6:0.79655301 7:0.85818695 
4 1:0.73424456 2:0.38872215 3:0.27988388 4:0.16265978 5:0.77271887 6:0.87781115 7:0.92030835 
4 1:0.86954132 2:0.48182811 3:0.27988388 4:0.25291857 5:0.86032679 6:0.92065002 7:0.94719087 
4 1:0.87335209 2:0.48882625 3:0.27988388 4:0.26150142 5:0.87394579 6:0.92955244 7:0.95361972 
4 1:0.95158679 2:0.55599973 3:0.27988388 4:0.31469782 5:0.90564041 6:0.9505662 7:0.96731494 
3.908643990019688 1:0.046480997 3:1 4:0.0036752949 5:0.063426258 6:0.083975821 7:0.10357933 
-4 1:0.4815399 2:0.084491417 3:1 4:0.061680284 5:0.28308554 6:0.37269791 7:0.4415304 
-4 1:0.59466693 2:0.13408384 3:1 4:0.10183633 5:0.43686442 6:0.55619455 7:0.63614229 
4 1:0.67663499 2:0.16297436 3:1 4:0.12768853 5:0.46551139 6:0.57412631 7:0.64893256 
4 1:0.727837 2:0.19544136 3:1 4:0.15698565 5:0.54933575 6:0.66054291 7:0.73141004 
4 1:0.79298458 2:0.22653651 3:1 4:0.1783044 5:0.58984439 6:0.69884629 7:0.76566769 
4 1:0.84189758 2:0.27026774 3:1 4:0.2201085 5:0.67980569 6:0.78117365 7:0.8374729 
0.9772743526610148 1:0.87582783 2:0.30750931 3:1 4:0.25791546 5:0.74958011 6:0.83919212 7:0.88469242 
-4 1:0.93223983 2:0.38632703 3:1 4:0.34905641 5:0.87203088 6:0.92820957 7:0.95189869 
-4 1:0.94593957 2:0.41008163 3:1 4:0.38300199 5:0.90150605 6:0.9468388 7:0.96487186 
-4 1:0.51879331 2:0.4846003 3:0.60048989 4:0.30175677 5:0.53715556 6:0.6201217 7:0.69126522 
-4 1:0.69563267 2:0.56626182 3:0.60048989 4:0.38974197 5:0.68280797 6:0.7624929 7:0.81933882 
-4 1:0.78342288 2:0.60596099 3:0.60048989 4:0.43017021 5:0.73828939 6:0.81072072 7:0.85931014 
-4 1:0.82362468 2:0.66094735 3:0.60048989 4:0.49268118 5:0.82332639 6:0.88132959 7:0.91765632 
4 1:0.89144668 2:0.71273046 3:0.60048989 4:0.53894393 5:0.87349384 6:0.92016796 7:0.94654988 
4 1:0.93642466 2:0.73684772 3:0.60048989 4:0.54466735 5:0.89946619 6:0.94109895 7:0.96142482 
