svm_type nu_svr
kernel_type rbf
gamma 0.05
nr_class 2
total_sv 276
rho -1.51734
SV
-1.42344309313914 1:1 2:0.59960677 3:0.99999923 4:0.99999016 5:0.99999026 6:0.99999075 
4 1:1 2:0.0028368665 3:0.99999967 4:0.99999935 5:0.99999874 6:0.9999986 
4 1:1 3:0.99999927 4:0.99999882 5:0.999998 6:0.99999729 
4 1:1 2:0.073757895 3:0.99999999 4:0.99998553 5:0.99998771 6:0.99998768 
4 1:1 2:0.091889032 3:0.9999973 4:0.99999764 5:0.99999638 6:0.99999498 
4 1:1 2:0.079877164 3:0.99999978 4:1 5:0.99999991 6:0.99999945 
2.279531664781124 1:1 2:0.10220351 3:0.99999876 4:0.99999779 5:0.99999696 6:0.99999673 
4 1:1 2:0.047958585 3:0.99999421 4:0.99999022 5:0.99998517 6:0.9999836 
-4 1:1 2:0.61823337 3:0.99999786 4:0.99999762 5:0.99999626 6:0.99999605 
4 1:1 2:0.027726268 3:0.99998126 4:0.99998294 5:0.99997895 6:0.99997406 
-4 1:1 2:1 3:0.99999962 4:0.99999872 5:0.99999756 6:0.99999726 
-4 1:0.56354395 2:0.56974736 3:0.28471573 4:0.65993655 5:0.74227394 6:0.79604378 
-4 1:0.68510323 2:0.56974736 3:0.32379571 4:0.7319233 5:0.80911202 6:0.8507541 
-4 1:0.69951544 2:0.56974736 3:0.34310279 4:0.77101723 5:0.84821029 6:0.88804124 
-4 1:0.77541901 2:0.56974736 3:0.37137625 4:0.81442045 5:0.88205758 6:0.91458769 
4 1:0.79620992 2:0.56974736 3:0.39967717 4:0.85595229 5:0.91574692 6:0.94250595 
4 1:0.87186246 2:0.56974736 3:0.434713 4:0.88766895 5:0.9374168 6:0.95853365 
4 1:0.92212993 2:0.56974736 3:0.46452442 4:0.91824175 5:0.95745095 6:0.97241994 
4 1:0.928553 2:0.56974736 3:0.48597439 4:0.93053309 5:0.9647571 6:0.97746046 
-4 1:0.52698693 2:0.16881121 3:0.36317685 4:0.68950884 5:0.78239856 6:0.85158746 
-4 1:0.66877973 2:0.16881121 3:0.41418217 4:0.78235658 5:0.86244982 6:0.90555851 
-4 1:0.67484006 2:0.16881121 3:0.42508825 4:0.80053547 5:0.87876294 6:0.92009097 
-4 1:0.77038887 2:0.16881121 3:0.46459592 4:0.85524887 5:0.91515324 6:0.94242931 
-4 1:0.78768692 2:0.16881121 3:0.49147499 4:0.88086917 5:0.9319899 6:0.95515785 
4 1:0.88872186 2:0.16881121 3:0.55908699 4:0.92010032 5:0.95523583 6:0.97026042 
-4 1:0.94900618 2:0.16881121 3:0.59100719 4:0.94263234 5:0.97007609 6:0.98058028 
4 1:0.95223955 2:0.16881121 3:0.60592148 4:0.94910383 5:0.97388368 6:0.98321738 
-4 1:0.53261759 2:0.59960677 3:0.1105369 4:0.53484817 5:0.64893424 6:0.70087418 
-4 1:0.63961697 2:0.59960677 3:0.12495962 4:0.58400561 5:0.70635918 6:0.76074473 
4 1:0.65647138 2:0.59960677 3:0.13451819 4:0.6213844 5:0.7495146 6:0.806062 
4 1:0.72421423 2:0.59960677 3:0.14417706 4:0.65373243 5:0.78298929 6:0.83855203 
4 1:0.74894587 2:0.59960677 3:0.15923444 4:0.70074453 5:0.82731767 6:0.87915144 
4 1:0.81077584 2:0.59960677 3:0.17191059 4:0.73024153 5:0.85253415 6:0.90082938 
4 1:0.85014334 2:0.59960677 3:0.19792999 4:0.78521928 5:0.89113094 6:0.92976276 
4 1:0.85889623 2:0.59960677 3:0.21717165 4:0.81133774 5:0.90743803 6:0.94136993 
4 1:0.2986307 2:0.0028368665 3:0.25252042 4:0.49690257 5:0.65769216 6:0.80223073 
4 1:0.49935393 2:0.0028368665 3:0.34502741 4:0.68077008 5:0.81835921 6:0.90302719 
2.118539955842333 1:0.50105025 2:0.0028368665 3:0.35280904 4:0.69186543 5:0.82773057 6:0.91068742 
-4 1:0.64362297 2:0.0028368665 3:0.42866478 4:0.81686452 5:0.91192673 6:0.95530559 
4 1:0.66144942 2:0.0028368665 3:0.45592521 4:0.84370892 5:0.92588369 6:0.96391692 
4 1:0.83527718 2:0.0028368665 3:0.60981304 4:0.95094604 5:0.97756293 6:0.9879707 
-4 1:0.99415428 2:0.0028368665 3:0.88719388 4:0.99179217 5:0.99604316 6:0.99746947 
-4 1:0.29424272 3:0.21781852 4:0.44794963 5:0.63031125 6:0.80683299 
4 1:0.50541992 3:0.30849667 4:0.64202254 5:0.80802111 6:0.90863245 
-4 1:0.5062713 3:0.31217359 4:0.64691349 5:0.81222895 6:0.91233249 
-4 1:0.6532133 3:0.3969515 4:0.78959961 5:0.9063486 6:0.95720755 
4 1:0.67033011 3:0.42163924 4:0.8166942 5:0.91935662 6:0.96453675 
4 1:0.8475234 3:0.61994617 4:0.94847901 5:0.97833679 6:0.98936321 
-4 1:0.99738873 3:0.93628861 4:0.99679023 5:0.99846792 6:0.99903247 
4 1:0.35831184 2:0.27341353 3:0.53747671 4:0.6770993 5:0.78146705 6:0.89438383 
4 1:0.53489946 2:0.27341353 3:0.57154145 4:0.78374976 5:0.88273571 6:0.95231091 
4 1:0.53571485 2:0.27341353 3:0.57217183 4:0.78570799 5:0.88458062 6:0.95371942 
4 1:0.66610901 2:0.27341353 3:0.60415235 4:0.8670849 5:0.94261136 6:0.97991607 
4 1:0.68154488 2:0.27341353 3:0.61437839 4:0.88329531 5:0.95083788 6:0.98427297 
4 1:0.84318835 2:0.27341353 3:0.70327413 4:0.96928635 5:0.99028582 6:0.99745241 
-4 1:0.9993166 2:0.27341353 3:0.98492973 4:0.9992267 5:0.99963843 6:0.99980117 
-4 1:0.51083301 2:0.17951924 3:0.1234045 4:0.54446011 5:0.67433974 6:0.75364579 
-4 1:0.62448631 2:0.17951924 3:0.14632552 4:0.63327068 5:0.75440617 6:0.81559943 
-4 1:0.63682593 2:0.17951924 3:0.15449208 4:0.67157499 5:0.79117935 6:0.84890541 
-4 1:0.7132522 2:0.17951924 3:0.17153704 4:0.72898352 5:0.83464107 6:0.88242096 
4 1:0.7343795 2:0.17951924 3:0.18694259 4:0.77677679 5:0.87086003 6:0.91093956 
4 1:0.80736476 2:0.17951924 3:0.20822784 4:0.81077441 5:0.89482972 6:0.92942639 
4 1:0.85576288 2:0.17951924 3:0.21948417 4:0.84833653 5:0.92213819 6:0.95035966 
-4 1:0.86273412 2:0.17951924 3:0.23204585 4:0.86656018 5:0.93295646 6:0.9578713 
-4 1:0.40451216 2:0.16470949 3:0.10126096 4:0.56047331 5:0.68925022 6:0.78221221 
-4 1:0.55859696 2:0.16470949 3:0.13445214 4:0.67918988 5:0.7942022 6:0.85404375 
-4 1:0.565808 2:0.16470949 3:0.13997561 4:0.70414907 5:0.81793357 6:0.87534627 
4 1:0.67637525 2:0.16470949 3:0.16320592 4:0.77304901 5:0.86505004 6:0.90628023 
4 1:0.69939234 2:0.16470949 3:0.17651218 4:0.80764196 5:0.88905114 6:0.92412782 
4 1:0.82599524 2:0.16470949 3:0.2080322 4:0.8476471 5:0.91409665 6:0.94167274 
4 1:0.91701838 2:0.16470949 3:0.22166069 4:0.87279849 5:0.93343786 6:0.95689295 
4 1:0.9208224 2:0.16470949 3:0.23011491 4:0.88286668 5:0.93993964 6:0.96170244 
-4 1:0.56940447 2:0.19613664 3:0.14383366 4:0.73829184 5:0.8160364 6:0.85595914 
-4 1:0.68063651 2:0.19613664 3:0.15679668 4:0.78772483 5:0.86304259 6:0.89601329 
4 1:0.68669506 2:0.19613664 3:0.16041449 4:0.80542845 5:0.87953654 6:0.91128151 
4 1:0.75702121 2:0.19613664 3:0.16788882 4:0.8312799 5:0.90072928 6:0.92855259 
4 1:0.77279781 2:0.19613664 3:0.17570565 4:0.85519748 5:0.91900385 6:0.94337976 
4 1:0.84394722 2:0.19613664 3:0.18525968 4:0.87114896 5:0.93120873 6:0.95345917 
-4 1:0.89313478 2:0.19613664 3:0.19310103 4:0.88843028 5:0.94366176 6:0.96310806 
-4 1:0.89703541 2:0.19613664 3:0.20141253 4:0.89806736 5:0.94947858 6:0.96737576 
-4 1:0.57367828 2:0.073757895 3:0.035254694 4:0.77763857 5:0.87719172 6:0.91955806 
-4 1:0.68305717 2:0.073757895 3:0.050516057 4:0.83305095 5:0.91281069 6:0.94141928 
-4 1:0.68417626 2:0.073757895 3:0.052078806 4:0.83907742 5:0.91704514 6:0.94460753 
-4 1:0.7573362 2:0.073757895 3:0.062531836 4:0.8668896 5:0.93227937 6:0.9544546 
-4 1:0.76697749 2:0.073757895 3:0.069071169 4:0.87789693 5:0.93833453 6:0.95877774 
-0.2655870193917652 1:0.84121848 2:0.073757895 3:0.082595597 4:0.89034116 5:0.94600755 6:0.96449435 
4 1:0.89018005 2:0.073757895 3:0.090055337 4:0.90364079 5:0.95512657 6:0.97183566 
-4 1:0.89321278 2:0.073757895 3:0.098042004 4:0.90878155 5:0.95787061 6:0.97379306 
-4 1:0.33382055 2:0.091889032 3:0.13527448 4:0.48344352 5:0.67518514 6:0.80684485 
4 1:0.50841182 2:0.091889032 3:0.18654363 4:0.6396905 5:0.80095526 6:0.87875497 
4 1:0.51222216 2:0.091889032 3:0.19402399 4:0.66197456 5:0.81858026 6:0.89165323 
4 1:0.63757409 2:0.091889032 3:0.24077526 4:0.76540809 5:0.87719765 6:0.92301145 
0.2292444223441352 1:0.65608915 2:0.091889032 3:0.26326812 4:0.80213136 5:0.89678762 6:0.93550312 
4 1:0.81624317 2:0.091889032 3:0.36006726 4:0.87566017 5:0.93315759 6:0.95814009 
-4 1:0.93870695 2:0.091889032 3:0.42783119 4:0.90982655 5:0.95510913 6:0.97350113 
4 1:0.94171003 2:0.091889032 3:0.44090385 4:0.91717073 5:0.95885496 6:0.97572234 
4 1:0.40364491 2:0.25069964 3:0.37828612 4:0.59284036 5:0.69868148 6:0.76721939 
4 1:0.57607865 2:0.25069964 3:0.43405915 4:0.69545604 5:0.78844501 6:0.83548475 
-4 1:0.5886616 2:0.25069964 3:0.45332828 4:0.73365531 5:0.82834212 6:0.87437599 
4 1:0.69250168 2:0.25069964 3:0.50368118 4:0.80877379 5:0.88125471 6:0.91311767 
4 1:0.71631885 2:0.25069964 3:0.53928926 4:0.85927657 5:0.92157623 6:0.94661491 
4 1:0.85253484 2:0.25069964 3:0.6434251 4:0.92235419 5:0.95594319 6:0.97022011 
4 1:0.9720213 2:0.25069964 3:0.74867075 4:0.96174733 5:0.97865801 6:0.98559036 
-4 1:0.9758873 2:0.25069964 3:0.76761237 4:0.96943718 5:0.9833156 6:0.98886 
4 1:0.14137043 2:0.33757366 3:0.1134503 4:0.1714045 5:0.21015647 6:0.24593954 
4 1:0.31217051 2:0.33757366 3:0.14082878 4:0.24538979 5:0.29907459 6:0.3385096 
4 1:0.35568924 2:0.33757366 3:0.16006934 4:0.30349422 5:0.37958673 6:0.43704115 
4 1:0.5514191 2:0.33757366 3:0.23713623 4:0.4972889 5:0.59955115 6:0.66639856 
4 1:0.70825651 2:0.33757366 3:0.31211644 4:0.59455293 5:0.6841248 6:0.74174343 
4 1:0.86199179 2:0.33757366 3:0.41179721 4:0.7179897 5:0.79723695 6:0.8428619 
4 1:0.88890508 2:0.33757366 3:0.45966186 4:0.7801768 5:0.85110739 6:0.8888845 
4 1:0.35065149 2:0.27409825 3:0.30484095 4:0.50062635 5:0.60759014 6:0.69163162 
-4 1:0.51570728 2:0.27409825 3:0.35108889 4:0.61349554 5:0.71796189 6:0.7818208 
4 1:0.536388 2:0.27409825 3:0.37319598 4:0.66423905 5:0.77332724 6:0.8353456 
4 1:0.64900996 2:0.27409825 3:0.42426794 4:0.75235249 5:0.83955009 6:0.88310793 
4 1:0.68158288 2:0.27409825 3:0.47070908 4:0.82687556 5:0.90020643 6:0.93312078 
4 1:0.82731663 2:0.27409825 3:0.58573506 4:0.90352623 5:0.94326403 6:0.96180206 
-4 1:0.9649022 2:0.27409825 3:0.73526574 4:0.95321237 5:0.97343123 6:0.98210984 
-4 1:0.97257383 2:0.27409825 3:0.76806325 4:0.96602848 5:0.98108503 6:0.98732571 
-4 1:0.21747372 2:0.49415051 3:0.16876021 4:0.25114925 5:0.28759183 6:0.31490194 
-4 1:0.39379464 2:0.49415051 3:0.20391515 4:0.34120457 5:0.39310314 6:0.42440033 
-4 1:0.4457678 2:0.49415051 3:0.2304878 4:0.41232147 5:0.48952147 6:0.54289823 
-4 1:0.56875708 2:0.49415051 3:0.27237048 4:0.50153006 5:0.58096463 6:0.6325802 
-4 1:0.63356436 2:0.49415051 3:0.32696611 4:0.62757118 5:0.72294854 6:0.77900221 
4 1:0.78316682 2:0.49415051 3:0.42294943 4:0.73414383 5:0.80712397 6:0.84916188 
-4 1:0.93595151 2:0.49415051 3:0.5738338 4:0.84897864 5:0.90027001 6:0.92623902 
-4 1:0.95321184 2:0.49415051 3:0.62991004 4:0.89534764 5:0.93503889 6:0.95375123 
4 1:0.15040707 2:0.079877164 3:0.19874936 4:0.40337995 5:0.61274391 6:0.81059895 
4 1:0.38962654 2:0.079877164 3:0.27738977 4:0.60155269 5:0.79900627 6:0.91107838 
4 1:0.39107484 2:0.079877164 3:0.278877 4:0.60612185 5:0.8042709 6:0.91644293 
4 1:0.5727972 2:0.079877164 3:0.36218234 4:0.7572776 5:0.90334009 6:0.95976167 
4 1:0.60051985 2:0.079877164 3:0.38762592 4:0.78874114 5:0.91736413 6:0.96694311 
4 1:0.8334303 2:0.079877164 3:0.64450421 4:0.94508079 5:0.97969306 6:0.99102226 
-4 1:0.9989864 2:0.079877164 3:0.97746724 4:0.99901252 5:0.99947599 6:0.99963053 
-4 1:0.32540403 2:0.47699273 3:0.13789336 4:0.20301342 5:0.27524646 6:0.35544665 
-4 1:0.51187082 2:0.47699273 3:0.20219955 4:0.32497899 5:0.41564775 6:0.49611213 
-4 1:0.54304589 2:0.47699273 3:0.23196377 4:0.38746822 5:0.49536812 6:0.58549072 
-4 1:0.6673868 2:0.47699273 3:0.28654519 4:0.48528846 5:0.59504433 6:0.67712596 
4 1:0.71702009 2:0.47699273 3:0.35909861 4:0.60832297 5:0.72010513 6:0.79414792 
4 1:0.84015331 2:0.47699273 3:0.44536772 4:0.71497426 5:0.80801875 6:0.86447729 
4 1:0.91813708 2:0.47699273 3:0.51887607 4:0.80652673 5:0.88255078 6:0.92186412 
4 1:0.92872688 2:0.47699273 3:0.54907429 4:0.83914553 5:0.90645933 6:0.93960647 
-4 1:0.39783083 2:0.23038811 3:0.293288 4:0.47360828 5:0.59075671 6:0.68128029 
-4 1:0.55747672 2:0.23038811 3:0.3703296 4:0.60851369 5:0.71604819 6:0.78016604 
-4 1:0.57939548 2:0.23038811 3:0.39823994 4:0.65939648 5:0.76826168 6:0.82978862 
-4 1:0.69096815 2:0.23038811 3:0.4657005 4:0.75225267 5:0.83717389 6:0.88159509 
4 1:0.85304191 2:0.23038811 3:0.63112462 4:0.89800536 5:0.9391266 6:0.95853003 
4 1:0.94327274 2:0.23038811 3:0.7013779 4:0.94440841 5:0.96878535 6:0.97882596 
4 1:0.95119765 2:0.23038811 3:0.72446627 4:0.9556569 5:0.97557126 6:0.9835939 
-4 1:0.50695212 2:0.10220351 3:0.35138595 4:0.56659317 5:0.67483977 6:0.76663313 
-4 1:0.64734345 2:0.10220351 3:0.4428228 4:0.71260188 5:0.80516453 6:0.86128419 
-4 1:0.65982783 2:0.10220351 3:0.46673779 4:0.7511693 5:0.83945647 6:0.89013655 
-4 1:0.75452857 2:0.10220351 3:0.5294623 4:0.83293198 5:0.89618351 6:0.92784053 
-4 1:0.7793573 2:0.10220351 3:0.57507879 4:0.87741496 5:0.92642724 6:0.95034457 
4 1:0.88735118 2:0.10220351 3:0.66615697 4:0.9301667 5:0.95852518 6:0.97195912 
4 1:0.95621867 2:0.10220351 3:0.70483064 4:0.95506206 5:0.97471333 6:0.98274369 
4 1:0.95961653 2:0.10220351 3:0.71883836 4:0.9607098 5:0.97811933 6:0.98511993 
-4 1:0.5401291 2:0.31811472 3:0.46739179 4:0.61522165 5:0.66393953 6:0.69033574 
-4 1:0.66517998 2:0.31811472 3:0.49669683 4:0.67097365 5:0.72838437 6:0.75985141 
-4 1:0.68354243 2:0.31811472 3:0.5209952 4:0.71662996 5:0.78064968 6:0.81645496 
-4 1:0.76451379 2:0.31811472 3:0.54613649 4:0.75910465 5:0.82175868 6:0.85532683 
0.201702498742579 1:0.79728561 2:0.31811472 3:0.59886932 4:0.83808519 5:0.89334928 6:0.91997068 
4 1:0.88499397 2:0.31811472 3:0.64493763 4:0.885911 5:0.92952703 6:0.94932703 
-4 1:0.95168992 2:0.31811472 3:0.6894327 4:0.93381579 5:0.96303278 6:0.97470928 
-4 1:0.95986115 2:0.31811472 3:0.71440685 4:0.95040249 5:0.9731617 6:0.98194036 
-4 1:0.61818644 2:0.26190694 3:0.69194262 4:0.78256981 5:0.81220811 6:0.82634374 
-4 1:0.71827767 2:0.26190694 3:0.72638853 4:0.83182998 5:0.8631147 6:0.87753519 
-4 1:0.73615442 2:0.26190694 3:0.74777264 4:0.86204285 5:0.89428834 6:0.90965496 
2.509718956998376 1:0.80542099 2:0.26190694 3:0.77508325 4:0.89690231 5:0.92487887 6:0.93740711 
4 1:0.83262045 2:0.26190694 3:0.81167047 4:0.93470592 5:0.95598769 6:0.96484229 
4 1:0.90508782 2:0.26190694 3:0.84360425 4:0.95907219 5:0.97354245 6:0.97941481 
4 1:0.96324699 2:0.26190694 3:0.8667116 4:0.97955328 5:0.98803326 6:0.99122772 
4 1:0.97029536 2:0.26190694 3:0.87923993 4:0.9851486 5:0.99149034 6:0.99380933 
-4 1:0.63070102 2:0.047958585 3:0.51468613 4:0.79483202 5:0.88321841 6:0.92630594 
-4 1:0.73072134 2:0.047958585 3:0.57292054 4:0.86925517 5:0.9306127 6:0.95516447 
-4 1:0.73380959 2:0.047958585 3:0.58011542 4:0.8771701 5:0.93607325 6:0.95944637 
-4 1:0.80661883 2:0.047958585 3:0.62296902 4:0.91969545 5:0.95796187 6:0.9726877 
-4 1:0.82037912 2:0.047958585 3:0.64608341 4:0.93262656 5:0.96479774 6:0.97786515 
4 1:0.90476609 2:0.047958585 3:0.7139631 4:0.96316844 5:0.98069466 6:0.98772078 
-4 1:0.96128877 2:0.047958585 3:0.74812803 4:0.98152163 5:0.99071402 6:0.99378997 
-4 1:0.96324937 2:0.047958585 3:0.75624709 4:0.98314585 5:0.99163327 6:0.99445767 
-4 1:0.49409907 2:0.61823337 3:0.28650746 4:0.44032898 5:0.49893985 6:0.5361672 
-4 1:0.6279408 2:0.61823337 3:0.34170268 4:0.53406375 5:0.59898701 6:0.63557048 
-4 1:0.6575009 2:0.61823337 3:0.37674746 4:0.60057964 5:0.67619992 6:0.7201709 
-4 1:0.74760416 2:0.61823337 3:0.42815937 4:0.67827668 5:0.74901015 6:0.78847355 
-4 1:0.87657128 2:0.61823337 3:0.55938162 4:0.84103577 5:0.89259055 6:0.91839592 
-4 1:0.94480746 2:0.61823337 3:0.60300938 4:0.90236362 5:0.94024613 6:0.95680314 
-4 1:0.95383732 2:0.61823337 3:0.62988181 4:0.9253857 5:0.95620869 6:0.96919136 
-4 1:0.68009584 2:0.027726268 3:0.56829088 4:0.86215031 5:0.9161246 6:0.93851942 
-4 1:0.75541972 2:0.027726268 3:0.61048799 4:0.912055 5:0.94943256 6:0.96141601 
-4 1:0.75909525 2:0.027726268 3:0.6165352 4:0.91721785 5:0.95283708 6:0.96443744 
-4 1:0.8175272 2:0.027726268 3:0.65088428 4:0.94571519 5:0.96911236 6:0.97600015 
-4 1:0.83128608 2:0.027726268 3:0.66893175 4:0.95471377 5:0.97396015 6:0.97998475 
-2.310969887469093 1:0.90495134 2:0.027726268 3:0.72620753 4:0.97495671 5:0.98604069 6:0.98960254 
4 1:0.95680547 2:0.027726268 3:0.75061457 4:0.98615288 5:0.99340895 6:0.99571298 
-4 1:0.95878036 2:0.027726268 3:0.75899387 4:0.9874388 5:0.99407867 6:0.99620562 
0.6612625012914517 1:0.177577 2:1 3:0.11725755 4:0.13109206 5:0.11805876 6:0.087061255 
-4 1:0.33449684 2:1 3:0.14636402 4:0.19587094 5:0.20760047 6:0.20244647 
-4 1:0.39755026 2:1 3:0.1767599 4:0.26323657 5:0.30259857 6:0.32806389 
-4 1:0.51551729 2:1 3:0.21026336 4:0.33537274 5:0.39177938 6:0.43265356 
-4 1:0.61042517 2:1 3:0.28200994 4:0.47995257 5:0.56625686 6:0.62858662 
-4 1:0.74554944 2:1 3:0.35302778 4:0.59254138 5:0.68185162 6:0.74324237 
-4 1:0.86272237 2:1 3:0.43214221 4:0.73912136 5:0.82217945 6:0.86885821 
4 1:0.89290215 2:1 3:0.48241309 4:0.80699066 5:0.87796617 6:0.91439679 
4 1:1 2:0.04992231 3:0.99999941 4:0.99999581 5:0.99999494 6:0.99999588 
-4 1:1 2:0.60261294 3:1 4:0.99999955 5:0.99999919 6:0.99999875 
-4 1:1 2:0.76662422 3:0.99999938 4:0.99999806 5:0.99999695 6:0.99999628 
-4 1:1 2:0.81168101 3:1 4:0.99999954 5:0.99999896 6:0.99999866 
-4 1:0.26571885 2:0.30151635 3:0.14880922 4:0.39723987 5:0.55093375 6:0.66454564 
-4 1:0.43140192 2:0.30151635 3:0.19722083 4:0.5371279 5:0.68388178 6:0.76682209 
-4 1:0.44996027 2:0.30151635 3:0.22024381 4:0.59921561 5:0.74853041 6:0.82643946 
-4 1:0.59529214 2:0.30151635 3:0.27642234 4:0.71410973 5:0.82265451 6:0.87404576 
4 1:0.61530686 2:0.30151635 3:0.31893108 4:0.79653791 5:0.88902566 6:0.92720972 
4 1:0.7921927 2:0.30151635 3:0.44247428 4:0.89218388 5:0.93823652 6:0.958095 
4 1:0.80104056 2:0.30151635 3:0.47413286 4:0.9209548 5:0.95660608 6:0.97126882 
-4 1:0.93774196 2:0.30151635 3:0.58448631 4:0.90977534 5:0.94729792 6:0.96305619 
4 1:0.94473061 2:0.30151635 3:0.61289723 4:0.92353134 5:0.95596799 6:0.96933369 
-4 1:0.95867541 2:0.30151635 3:0.67730289 4:0.94858746 5:0.971182 6:0.98014637 
-4 1:0.48909822 2:0.04992231 3:0.38836432 4:0.75826367 5:0.84406611 6:0.8950845 
-4 1:0.49435983 2:0.04992231 3:0.40192594 4:0.78307203 5:0.86525376 6:0.91252592 
-4 1:0.63024772 2:0.04992231 3:0.42522248 4:0.83309072 5:0.9015331 6:0.93405056 
-4 1:0.633917 2:0.04992231 3:0.43752203 4:0.85257102 5:0.91574692 6:0.94460468 
-4 1:0.7438749 2:0.04992231 3:0.45461108 4:0.88191736 5:0.93215883 6:0.95417317 
4 1:0.94570239 2:0.04992231 3:0.49883369 4:0.92306074 5:0.95785569 6:0.97233837 
-4 1:0.95405034 2:0.04992231 3:0.52021385 4:0.94257662 5:0.9705313 6:0.98157251 
4 2:0.60261294 3:-1.3877788e-17 6:1.110223e-16 
-4 1:0.50191053 2:0.60261294 3:0.12857962 4:0.40136245 5:0.52639576 6:0.61154432 
-4 1:0.73339953 2:0.60261294 3:0.18413984 4:0.49865911 5:0.61041915 6:0.68222308 
-4 1:0.79121935 2:0.60261294 3:0.23733669 4:0.60531342 5:0.71438892 6:0.7783016 
4 1:0.83106087 2:0.60261294 3:0.28558255 4:0.68675237 5:0.78660751 6:0.84081149 
4 1:0.86689531 2:0.60261294 3:0.34090583 4:0.76416994 5:0.84941538 6:0.89195688 
-4 1:0.90586248 2:0.60261294 3:0.42007767 4:0.84854376 5:0.91085624 6:0.93875611 
4 1:0.22352705 2:0.76662422 3:0.10791328 4:0.14680166 5:0.16845246 6:0.17979277 
-4 1:0.43677606 2:0.76662422 3:0.16953354 4:0.29339262 5:0.37053249 6:0.42928884 
4 1:0.64493414 2:0.76662422 3:0.28650909 4:0.54325111 5:0.6530361 6:0.72252556 
4 1:0.74371952 2:0.76662422 3:0.31990597 4:0.58267573 5:0.68446817 6:0.74947403 
4 1:0.85379321 2:0.76662422 3:0.40217349 4:0.72326261 5:0.81343083 6:0.86237362 
4 1:0.88940761 2:0.76662422 3:0.46813321 4:0.80366202 5:0.87757181 6:0.91422945 
4 1:0.91385319 2:0.76662422 3:0.5258381 4:0.85994289 5:0.91777986 6:0.94444254 
4 1:0.16598287 2:0.54421538 3:0.088546002 4:0.084891185 5:0.0637098 6:0.018499328 
4 1:0.47200473 2:0.54421538 3:0.16931434 4:0.27746261 5:0.32957915 6:0.36452615 
4 1:0.58223568 2:0.54421538 3:0.20775123 4:0.35490074 5:0.42421162 6:0.47398092 
4 1:0.63475529 2:0.54421538 3:0.21359362 4:0.3882347 5:0.46552185 6:0.51658228 
4 1:0.63527981 2:0.54421538 3:0.24532274 4:0.43370746 5:0.51906029 6:0.58093829 
4 1:0.69031853 2:0.54421538 3:0.25117123 4:0.46847962 5:0.55943079 6:0.61867507 
4 1:0.78114222 2:0.54421538 3:0.33630575 4:0.62989232 5:0.72893565 6:0.7864562 
4 1:0.84299656 2:0.54421538 3:0.41612161 4:0.75124892 5:0.83579143 6:0.87875657 
4 1:0.88004553 2:0.54421538 3:0.48012003 4:0.82547847 5:0.89218414 6:0.92303987 
4 1:0.25667469 2:0.48281641 3:0.25388284 4:0.42468318 5:0.52818092 6:0.61044487 
4 1:0.48389298 2:0.48281641 3:0.33757357 4:0.61717325 5:0.73687091 6:0.80630622 
4 1:0.61895635 2:0.48281641 3:0.35302049 4:0.63336843 5:0.735275 6:0.79288116 
4 1:0.67487599 2:0.48281641 3:0.4646298 4:0.82460708 5:0.90086296 6:0.93411735 
4 1:0.91740352 2:0.48281641 3:0.55750657 4:0.87351756 5:0.92517595 6:0.94832034 
-4 1:0.97257991 2:0.48281641 3:0.76920071 4:0.97447945 5:0.98666074 6:0.99114204 
4 1:0.2284467 2:0.24508299 3:0.044665086 4:0.39766706 5:0.56732679 6:0.70652029 
-4 1:0.43577592 2:0.24508299 3:0.096622258 4:0.59717884 5:0.75893397 6:0.84265881 
-4 1:0.58167667 2:0.24508299 3:0.13297748 4:0.68083636 5:0.80204177 6:0.86083389 
-4 1:0.60737743 2:0.24508299 3:0.1618655 4:0.7793692 5:0.88146282 6:0.92299096 
4 1:0.78981151 2:0.24508299 3:0.25145788 4:0.86353425 5:0.92242849 6:0.94817193 
4 1:0.7936679 2:0.24508299 3:0.26005162 4:0.87688414 5:0.93121025 6:0.95449859 
4 1:0.92335834 2:0.24508299 3:0.31261694 4:0.90736466 5:0.95137802 6:0.96852605 
4 1:0.041232312 2:0.81168101 3:0.0034208962 4:0.06559568 5:0.088072241 6:0.10111808 
4 1:0.40670099 2:0.81168101 3:0.061536675 4:0.2856579 5:0.37684597 6:0.44080203 
4 1:0.48942069 2:0.81168101 3:0.10166236 4:0.43889631 5:0.55930901 6:0.63557233 
4 1:0.61800395 2:0.81168101 3:0.1278093 4:0.46795261 5:0.5773817 6:0.64923091 
4 1:0.6604642 2:0.81168101 3:0.15711012 4:0.55134414 5:0.66305242 6:0.7318613 
4 1:0.8178368 2:0.81168101 3:0.22057656 4:0.68154537 5:0.78312763 6:0.83712647 
4 1:0.85105521 2:0.81168101 3:0.25845159 4:0.75095697 5:0.84062673 6:0.8848643 
-4 1:0.9084925 2:0.81168101 3:0.34967307 4:0.87263675 5:0.92874272 6:0.95245031 
-4 1:0.92329691 2:0.81168101 3:0.38363164 4:0.90195366 5:0.94721311 6:0.96546564 
-4 1:0.57344979 2:0.48181144 3:0.30613855 4:0.5501884 5:0.63507418 6:0.69921871 
-4 1:0.71142938 2:0.48181144 3:0.39213386 4:0.69127321 5:0.77191106 6:0.82345762 
-4 1:0.78886067 2:0.48181144 3:0.43249652 4:0.7471404 5:0.81818547 6:0.86246211 
-4 1:0.81787116 2:0.48181144 3:0.49339103 4:0.82858559 5:0.8857902 6:0.91928407 
-4 1:0.88449615 2:0.48181144 3:0.54288529 4:0.87835745 5:0.92321476 6:0.94810517 
-4 1:0.92772314 2:0.48181144 3:0.55310907 4:0.90350893 5:0.94336083 6:0.96265482 
