svm_type nu_svr
kernel_type rbf
gamma 0.04
nr_class 2
total_sv 211
rho -1.02859
SV
4 1:0.87062235 2:0.49739676 3:0.53966638 4:0.77392585 5:0.84784447 6:0.89031641 
-4 1:0.65966561 2:0.20820673 3:0.27420721 4:0.57889989 5:0.68485118 6:0.74837036 
4 1:0.30512267 2:0.42532178 3:0.18976794 4:0.30662908 5:0.34637104 6:0.3661022 
4 1:0.95273022 2:0.014623935 3:0.90135809 4:0.99584619 5:0.9970631 6:0.99757649 
-4 1:0.76258425 2:0.16787772 3:0.60695536 4:0.80906778 5:0.87125816 6:0.89810007 
-4 1:0.54042467 2:0.15600331 3:0.046271684 4:0.4328793 5:0.5309142 6:0.59282089 
4 1:0.79391726 2:0.49612229 3:0.444392 4:0.61630491 5:0.71210086 6:0.77386496 
-4 1:0.79740378 2:0.047285912 3:0.49225957 4:0.86357299 5:0.89948127 6:0.91221155 
4 1:0.40588686 2:0.42532178 3:0.20589097 4:0.35241209 5:0.40358156 6:0.42577381 
4 1:0.54792627 2:0.055921852 3:0.26207179 4:0.59416461 5:0.75957205 6:0.82870539 
4 1:0.74208953 2:0.055921852 3:0.34721658 4:0.73960747 5:0.84370247 6:0.88485372 
4 1:0.7890525 2:0.20820673 3:0.3510016 4:0.74206651 5:0.83508543 6:0.88101902 
-4 1:0.48387441 2:0.20820673 3:0.20172681 4:0.39715881 5:0.47368229 6:0.52781628 
-4 1:0.56800546 2:0.16787772 3:0.5149767 4:0.63026581 5:0.67890679 6:0.69964851 
-4 1:0.62949718 2:0.04579546 3:0.44400319 4:0.77920819 5:0.88713866 6:0.92903178 
-4 1:0.70997536 2:0.083369236 3:0.42718441 4:0.69347659 5:0.81124449 6:0.87136343 
4 1:0.9418574 2:0.08765484 3:0.72226864 4:0.93291747 5:0.960644 6:0.97304054 
4 1:0.45337497 3:0.10308547 4:0.52247575 5:0.78583924 6:0.89392193 
-4 1:0.73166122 2:0.25207203 3:0.3051639 4:0.67537297 5:0.75767261 6:0.80327187 
4 1:0.70099226 2:0.20820673 3:0.31094767 4:0.6676259 5:0.77726116 6:0.83518027 
4 1:0.39053999 2:0.20820673 3:0.17753958 4:0.33495583 5:0.39777832 6:0.44399359 
4 1:0.75700132 2:1 3:0.28883701 4:0.65284485 5:0.75623242 6:0.81297442 
4 1:0.67544021 3:0.19261438 4:0.76066415 5:0.89973293 6:0.93660362 
4 1:0.90799305 2:0.54342577 3:0.37898741 4:0.85252726 5:0.92049615 6:0.94848246 
-4 1:0.71777065 2:0.08765484 3:0.47011786 4:0.66069877 5:0.75226598 6:0.80539407 
-4 1:0.84765099 2:0.014623935 3:0.81445984 4:0.96615706 5:0.98858241 6:0.99176534 
-4 1:0.67240963 2:0.16787772 3:0.54473368 4:0.69254626 5:0.74796983 6:0.77177867 
-4 1:0.5724789 2:0.014623935 3:0.77708563 4:0.84258654 5:0.91016348 6:0.95440359 
4 1:0.89291952 2:0.16787772 3:0.69408521 4:0.91495146 5:0.94890261 6:0.96269344 
4 1:0.77998422 2:0.49739676 3:0.43832146 4:0.63397606 5:0.7240692 6:0.78367237 
-4 1:0.89171605 2:0.25207203 3:0.52475418 4:0.85053413 5:0.90454501 6:0.93093678 
4 1:0.40588686 2:0.42532178 3:0.20589097 4:0.35241209 5:0.40358156 6:0.42577381 
4 1:0.39257764 2:0.22767235 3:0.12019254 4:0.3951559 5:0.44657802 6:0.46771549 
-4 1:0.69891028 2:0.20820673 3:0.26679137 4:0.55816547 5:0.65579282 6:0.71593631 
3.364458180636829 1:0.67721467 2:0.49739676 3:0.37192301 4:0.52750491 5:0.62426522 6:0.6929947 
-4 1:0.76258425 2:0.16787772 3:0.60695536 4:0.80906778 5:0.87125816 6:0.89810007 
-4 1:0.65966561 2:0.20820673 3:0.27420721 4:0.57889989 5:0.68485118 6:0.74837036 
4 1:0.67482533 2:0.49612229 3:0.35268026 4:0.4805681 5:0.59603341 6:0.67408692 
-4 1:0.78583004 2:0.48885268 3:0.4012577 4:0.70792536 5:0.80063653 6:0.85083872 
-4 1:0.69605554 2:0.34681232 3:0.093755557 4:0.60913934 5:0.69117362 6:0.73495824 
4 1:0.7890525 2:0.20820673 3:0.3510016 4:0.74206651 5:0.83508543 6:0.88101902 
4 1:0.67227079 2:0.22767235 3:0.19328493 4:0.60107975 5:0.69684945 6:0.74949279 
4 1:0.25896526 2:0.04579546 3:0.31879 4:0.45852885 5:0.59717781 6:0.71487885 
4 1:0.6092064 2:0.58937038 3:0.34931828 4:0.4519606 5:0.54893247 6:0.61355219 
4 1:0.45337497 3:0.10308547 4:0.52247575 5:0.78583924 6:0.89392193 
-4 1:0.85355434 2:0.34681232 3:0.18754744 4:0.83526909 5:0.90421808 6:0.93421072 
4 1:0.91737037 2:0.49612229 3:0.66823667 4:0.86050887 5:0.90873162 6:0.93335071 
4 1:0.87998127 2:0.15600331 3:0.1625414 4:0.81948421 5:0.90185357 6:0.9347395 
-4 1:0.78399277 2:0.34681232 3:0.1457048 4:0.75791308 5:0.84155109 6:0.88132116 
4 1:0.8789356 2:0.54342577 3:0.32439292 4:0.78747769 5:0.87303614 6:0.91271252 
4 1:0.83017845 2:0.16787772 3:0.64309172 4:0.86078024 5:0.90892223 6:0.92908907 
-4 1:0.62949718 2:0.04579546 3:0.44400319 4:0.77920819 5:0.88713866 6:0.92903178 
4 1:0.76382055 2:0.22767235 3:0.22331233 4:0.67735915 5:0.77029889 6:0.81802539 
4 1:0.91839373 2:0.04579546 3:0.69472114 4:0.97790884 5:0.9891237 6:0.993277 
4 1:0.98791521 2:0.04579546 3:0.90293444 4:0.99181622 5:0.99642641 6:0.9978864 
4 1:0.74208953 2:0.055921852 3:0.34721658 4:0.73960747 5:0.84370247 6:0.88485372 
4 1:0.40588686 2:0.42532178 3:0.20589097 4:0.35241209 5:0.40358156 6:0.42577381 
4 1:0.90057657 2:0.23066177 3:0.65873851 4:0.86090402 5:0.90661213 6:0.93008753 
-4 1:0.74673262 2:0.20629643 3:0.21465833 4:0.65034545 5:0.76692184 6:0.82551595 
-4 1:0.71167822 2:0.014623935 3:0.78422805 4:0.88268036 5:0.94383829 6:0.96596858 
4 1:0.57348929 2:0.42532178 3:0.24033766 4:0.43855753 5:0.50243186 6:0.53322825 
-4 1:0.60283702 2:0.083369236 3:0.33229353 4:0.48675881 5:0.60141743 6:0.67458413 
4 1:0.71284767 2:0.22767235 3:0.2263303 4:0.68859985 5:0.78706365 6:0.83662428 
-4 1:0.3070772 2:0.93973481 3:0.18757116 4:0.34864297 5:0.3777168 6:0.38922611 
-4 1:0.78167533 2:0.15600331 3:0.11289462 4:0.67598462 5:0.78117168 6:0.83259364 
4 1:0.54792627 2:0.055921852 3:0.26207179 4:0.59416461 5:0.75957205 6:0.82870539 
4 1:0.76526298 2:0.055921852 3:0.38714172 4:0.81340799 5:0.90059649 6:0.93006702 
-4 1:0.35760888 2:0.34681232 3:0.027607294 4:0.40659646 5:0.45456869 6:0.48256597 
-4 1:0.74999802 2:0.08765484 3:0.52069978 4:0.74484555 5:0.83431246 6:0.87935204 
4 1:0.76382055 2:0.22767235 3:0.22331233 4:0.67735915 5:0.77029889 6:0.81802539 
-4 1:0.69004118 2:0.23066177 3:0.43933868 4:0.56327049 5:0.65339511 6:0.71348696 
-4 1:0.62474007 2:0.93973481 3:0.26141889 4:0.56602175 5:0.64775366 6:0.69263211 
-4 1:0.4874691 2:0.23066177 3:0.32329421 4:0.33686197 5:0.39456977 6:0.44944683 
4 1:0.79670443 2:0.54342577 3:0.26295318 4:0.6905031 5:0.79291823 6:0.84469464 
-4 1:0.85355434 2:0.34681232 3:0.18754744 4:0.83526909 5:0.90421808 6:0.93421072 
4 1:0.73867648 2:0.49612229 3:0.35967401 4:0.47825205 5:0.57045236 6:0.63752441 
-4 1:0.78399277 2:0.34681232 3:0.1457048 4:0.75791308 5:0.84155109 6:0.88132116 
-4 1:0.77121222 2:0.25207203 3:0.33053889 4:0.73085549 5:0.80341439 6:0.84546456 
-4 1:0.76258425 2:0.16787772 3:0.60695536 4:0.80906778 5:0.87125816 6:0.89810007 
4 1:0.61928338 2:0.22767235 3:0.15963705 4:0.51010642 5:0.59283393 6:0.63883591 
4 1:0.34770698 2:0.58937038 3:0.24672569 4:0.24188506 5:0.29544562 6:0.33843061 
-1.378305332305668 1:0.59637711 2:1 3:0.19031962 4:0.43030863 5:0.5277316 6:0.59069772 
4 1:0.85877443 2:0.42532178 3:0.43562507 4:0.80721931 5:0.87934044 6:0.91434143 
4 1:0.29443857 2:0.055921852 3:0.19401703 4:0.41679982 5:0.61495039 6:0.74140301 
-4 1:0.83089047 2:0.014623935 3:0.80905852 4:0.94637428 5:0.97242826 6:0.97946694 
4 1:0.95273022 2:0.014623935 3:0.90135809 4:0.99584619 5:0.9970631 6:0.99757649 
-4 1:0.85355434 2:0.34681232 3:0.18754744 4:0.83526909 5:0.90421808 6:0.93421072 
4 1:0.87911146 2:0.34681232 3:0.22411304 4:0.88845644 5:0.94169671 6:0.96221395 
-4 1:0.66144997 2:0.15600331 3:0.068820233 4:0.51732819 5:0.62198733 6:0.67977328 
4 1:0.65970734 2:1 3:0.23706331 4:0.5477205 5:0.66054901 6:0.7269284 
4 1:0.61928338 2:0.22767235 3:0.15963705 4:0.51010642 5:0.59283393 6:0.63883591 
-4 1:0.48213397 2:0.16787772 3:0.49792761 4:0.59161372 5:0.62979552 6:0.64254584 
4 1:0.75700132 2:1 3:0.28883701 4:0.65284485 5:0.75623242 6:0.81297442 
-4 1:0.62474007 2:0.93973481 3:0.26141889 4:0.56602175 5:0.64775366 6:0.69263211 
-4 1:0.45809369 2:0.08765484 3:0.36628046 4:0.45852823 5:0.56005228 6:0.65708595 
4 1:0.91061528 2:0.22767235 3:0.35742938 4:0.89821492 5:0.94339974 6:0.96076173 
4 1:0.76382055 2:0.22767235 3:0.22331233 4:0.67735915 5:0.77029889 6:0.81802539 
-4 1:0.44711702 2:0.54342577 3:0.10123262 4:0.31581962 5:0.38571265 6:0.42827036 
-4 1:0.69004118 2:0.23066177 3:0.43933868 4:0.56327049 5:0.65339511 6:0.71348696 
-4 1:0.63920442 2:0.20629643 3:0.16825499 4:0.55661206 5:0.69111529 6:0.7656762 
4 1:0.79391726 2:0.49612229 3:0.444392 4:0.61630491 5:0.71210086 6:0.77386496 
4 1:0.79670443 2:0.54342577 3:0.26295318 4:0.6905031 5:0.79291823 6:0.84469464 
-4 1:0.73166122 2:0.25207203 3:0.3051639 4:0.67537297 5:0.75767261 6:0.80327187 
-4 1:0.84127012 2:0.014623935 3:0.81253935 4:0.95982371 5:0.98309178 6:0.9870796 
4 1:0.54184698 2:0.58937038 3:0.29851601 4:0.34826788 5:0.42168642 6:0.47203603 
-4 1:0.62474007 2:0.93973481 3:0.26141889 4:0.56602175 5:0.64775366 6:0.69263211 
4 1:0.39053999 2:0.20820673 3:0.17753958 4:0.33495583 5:0.39777832 6:0.44399359 
4 1:0.61928338 2:0.22767235 3:0.15963705 4:0.51010642 5:0.59283393 6:0.63883591 
4 1:0.98644504 2:0.055921852 3:0.7405327 4:0.96928567 5:0.9853799 6:0.99080378 
-3.631578518804549 1:0.4807615 2:0.083369236 3:0.30044264 4:0.41587284 5:0.5230585 6:0.59468942 
4 1:0.90420201 2:0.15600331 3:0.19693206 4:0.86294641 5:0.92990351 6:0.95498998 
-4 1:0.69891028 2:0.20820673 3:0.26679137 4:0.55816547 5:0.65579282 6:0.71593631 
4 1:0.91202697 2:0.42532178 3:0.50912639 4:0.87959883 5:0.93223488 6:0.95450335 
-4 1:0.3070772 2:0.93973481 3:0.18757116 4:0.34864297 5:0.3777168 6:0.38922611 
4 1:0.68660174 3:0.20657211 4:0.81196884 5:0.94140702 6:0.96680805 
-4 1:0.6566649 2:0.54342577 3:0.18169045 4:0.51611903 5:0.62179755 6:0.68216176 
-4 1:0.47722492 2:0.014623935 3:0.75468972 4:0.76017077 5:0.83753774 6:0.92265059 
-4 1:0.72816168 2:0.047285912 3:0.47217411 4:0.83138845 5:0.8704229 6:0.88419439 
4 1:0.8811176 2:0.047285912 3:0.53826775 4:0.933335 5:0.95948954 6:0.96870909 
-4 1:0.43871049 2:0.15600331 3:0.030541611 4:0.37279112 5:0.4588284 6:0.52004828 
-4 1:0.69816754 2:0.34681232 3:0.11526222 4:0.68549511 5:0.78556255 6:0.83507583 
-4 1:0.40634904 2:0.04579546 3:0.35412414 4:0.55926446 5:0.70175505 6:0.79649177 
0.9413360986241683 1:0.72746732 2:0.23066177 3:0.43952897 4:0.55736023 5:0.63319876 6:0.68402869 
-4 1:0.88260358 2:0.083369236 3:0.57279245 4:0.85249389 5:0.91751611 6:0.94621989 
-4 1:0.69518774 2:0.20629643 3:0.1796405 4:0.56432133 5:0.68049028 6:0.74616621 
-4 1:0.93556416 2:0.58937038 3:0.65797705 4:0.87169952 5:0.92200942 6:0.94454256 
-4 1:0.69891028 2:0.20820673 3:0.26679137 4:0.55816547 5:0.65579282 6:0.71593631 
4 1:0.8811176 2:0.047285912 3:0.53826775 4:0.933335 5:0.95948954 6:0.96870909 
-4 1:0.67240963 2:0.16787772 3:0.54473368 4:0.69254626 5:0.74796983 6:0.77177867 
-4 1:0.41563731 2:0.48885268 3:0.2554221 4:0.36916892 5:0.43100226 6:0.50888404 
4 1:0.96968854 2:0.08765484 3:0.77391346 4:0.95596295 5:0.97544784 6:0.98405871 
4 1:1 3:0.83319067 4:0.98956086 5:0.99577089 6:0.99784595 
-4 1:0.78583004 2:0.48885268 3:0.4012577 4:0.70792536 5:0.80063653 6:0.85083872 
4 1:0.8789356 2:0.54342577 3:0.32439292 4:0.78747769 5:0.87303614 6:0.91271252 
-4 1:0.42428709 2:0.93973481 3:0.20295859 4:0.39290035 5:0.43632323 6:0.45871216 
4 1:0.8789356 2:0.54342577 3:0.32439292 4:0.78747769 5:0.87303614 6:0.91271252 
-4 1:0.88260358 2:0.083369236 3:0.57279245 4:0.85249389 5:0.91751611 6:0.94621989 
4 1:0.3594872 2:0.49612229 3:0.14024497 4:0.074708413 5:0.10231651 6:0.1259153 
-4 1:0.45809369 2:0.08765484 3:0.36628046 4:0.45852823 5:0.56005228 6:0.65708595 
-4 1:0.65624547 2:0.34681232 3:0.092281981 4:0.61278125 5:0.70626575 6:0.75613977 
4 1:0.72746732 2:0.23066177 3:0.43952897 4:0.55736023 5:0.63319876 6:0.68402869 
-4 1:0.93556416 2:0.58937038 3:0.65797705 4:0.87169952 5:0.92200942 6:0.94454256 
4 1:0.67022121 2:0.49612229 3:0.27766156 4:0.33407105 5:0.40732401 6:0.46359154 
-4 1:0.85355434 2:0.34681232 3:0.18754744 4:0.83526909 5:0.90421808 6:0.93421072 
-4 1:0.71167822 2:0.014623935 3:0.78422805 4:0.88268036 5:0.94383829 6:0.96596858 
4 1:1 3:0.83319067 4:0.98956086 5:0.99577089 6:0.99784595 
-4 1:0.43871049 2:0.15600331 3:0.030541611 4:0.37279112 5:0.4588284 6:0.52004828 
4 1:0.89291952 2:0.16787772 3:0.69408521 4:0.91495146 5:0.94890261 6:0.96269344 
-4 1:0.67850561 2:0.20629643 3:0.19487894 4:0.63045155 5:0.76931142 6:0.83706632 
-4 1:0.62474007 2:0.93973481 3:0.26141889 4:0.56602175 5:0.64775366 6:0.69263211 
-4 1:0.4874691 2:0.23066177 3:0.32329421 4:0.33686197 5:0.39456977 6:0.44944683 
4 1:0.75731817 2:0.42532178 3:0.35347476 4:0.69239941 5:0.78245146 6:0.83117443 
-4 1:0.74425089 2:0.014623935 3:0.78900741 4:0.90386551 5:0.96905764 6:0.98466408 
4 1:0.81789029 2:0.48885268 3:0.44075432 4:0.7803455 5:0.86328719 6:0.90222545 
4 1:0.83017845 2:0.16787772 3:0.64309172 4:0.86078024 5:0.90892223 6:0.92908907 
4 1:0.62349716 2:0.42532178 3:0.27349745 4:0.5196735 5:0.60339149 6:0.65103342 
4 1:0.79391726 2:0.49612229 3:0.444392 4:0.61630491 5:0.71210086 6:0.77386496 
-4 1:0.71258735 2:0.22767235 3:0.1864032 4:0.58471122 5:0.67581508 6:0.72558613 
-4 1:0.5724789 2:0.014623935 3:0.77708563 4:0.84258654 5:0.91016348 6:0.95440359 
4 1:0.66256481 2:0.42532178 3:0.27479904 4:0.51802649 5:0.59270541 6:0.63560969 
4 1:0.93011029 2:0.23066177 3:0.71439481 4:0.90904598 5:0.94146542 6:0.95674338 
-4 1:0.79342163 2:0.16787772 3:0.60849279 4:0.80724494 5:0.86183239 6:0.88618408 
-4 1:0.70532989 2:0.54342577 3:0.18169339 4:0.50290989 5:0.59875259 6:0.65332628 
4 1:0.91728681 2:0.20820673 3:0.45891267 4:0.87823329 5:0.93535353 6:0.95883927 
-4 1:0.44711702 2:0.54342577 3:0.10123262 4:0.31581962 5:0.38571265 6:0.42827036 
-4 1:0.70532989 2:0.54342577 3:0.18169339 4:0.50290989 5:0.59875259 6:0.65332628 
-4 1:0.93556416 2:0.58937038 3:0.65797705 4:0.87169952 5:0.92200942 6:0.94454256 
-4 1:0.56800546 2:0.16787772 3:0.5149767 4:0.63026581 5:0.67890679 6:0.69964851 
4 1:0.25896526 2:0.04579546 3:0.31879 4:0.45852885 5:0.59717781 6:0.71487885 
4 1:0.68521786 2:0.58937038 3:0.35481019 4:0.45269287 5:0.53578336 6:0.59116487 
-4 1:0.69816754 2:0.34681232 3:0.11526222 4:0.68549511 5:0.78556255 6:0.83507583 
4 1:0.40588686 2:0.42532178 3:0.20589097 4:0.35241209 5:0.40358156 6:0.42577381 
-0.890943140113851 1:0.93181136 2:0.49739676 3:0.62713449 4:0.86099016 5:0.91514168 6:0.94169199 
-4 1:0.69605554 2:0.34681232 3:0.093755557 4:0.60913934 5:0.69117362 6:0.73495824 
4 1:0.49591192 2:0.22767235 3:0.13362033 4:0.43434224 5:0.49900609 6:0.53177669 
4 1:0.49591192 2:0.22767235 3:0.13362033 4:0.43434224 5:0.49900609 6:0.53177669 
-4 1:0.75664435 2:0.54342577 3:0.22334634 4:0.60145902 5:0.70573225 6:0.76318544 
4 1:0.57348929 2:0.42532178 3:0.24033766 4:0.43855753 5:0.50243186 6:0.53322825 
-0.09917300877593396 1:0.59637711 2:1 3:0.19031962 4:0.43030863 5:0.5277316 6:0.59069772 
4 1:0.89192404 2:0.49612229 3:0.59146724 4:0.78105663 5:0.84916292 6:0.8882561 
4 1:0.10775597 2:0.055921852 3:0.1590151 4:0.30536689 5:0.48614515 6:0.64344462 
-4 1:0.91785848 2:0.083369236 3:0.63999999 4:0.90398906 5:0.94897505 6:0.96762621 
-4 1:0.71777065 2:0.08765484 3:0.47011786 4:0.66069877 5:0.75226598 6:0.80539407 
4 1:0.78020364 2:0.23066177 3:0.50145055 4:0.66525882 5:0.74327951 6:0.79017822 
4 1:0.73288362 2:0.48885268 3:0.38858001 4:0.69395818 5:0.80318832 6:0.85946067 
4 1:0.29443857 2:0.055921852 3:0.19401703 4:0.41679982 5:0.61495039 6:0.74140301 
4 1:0.62349716 2:0.42532178 3:0.27349745 4:0.5196735 5:0.60339149 6:0.65103342 
4 1:0.80993214 2:0.15600331 3:0.13401869 4:0.75274384 5:0.8506531 6:0.89321405 
-4 1:0.54042467 2:0.15600331 3:0.046271684 4:0.4328793 5:0.5309142 6:0.59282089 
4 1:0.39257764 2:0.22767235 3:0.12019254 4:0.3951559 5:0.44657802 6:0.46771549 
4 1:0.73867648 2:0.49612229 3:0.35967401 4:0.47825205 5:0.57045236 6:0.63752441 
-4 1:0.63920442 2:0.20629643 3:0.16825499 4:0.55661206 5:0.69111529 6:0.7656762 
4 1:0.10775597 2:0.055921852 3:0.1590151 4:0.30536689 5:0.48614515 6:0.64344462 
4 1:0.74778935 2:0.58937038 3:0.41507439 4:0.56413083 5:0.65815516 6:0.7166999 
-4 1:0.5724789 2:0.014623935 3:0.77708563 4:0.84258654 5:0.91016348 6:0.95440359 
-4 1:0.74598388 2:0.16787772 3:0.57222383 4:0.74405775 5:0.79993424 6:0.82484891 
-4 1:0.3070772 2:0.93973481 3:0.18757116 4:0.34864297 5:0.3777168 6:0.38922611 
-4 1:0.65624547 2:0.34681232 3:0.092281981 4:0.61278125 5:0.70626575 6:0.75613977 
-4 1:0.59976014 2:0.04579546 3:0.42297435 4:0.72390263 5:0.83364665 6:0.88344569 
-4 1:0.72960023 2:0.93973481 3:0.29554025 4:0.64471949 5:0.72634443 6:0.77062686 
-4 1:0.86064316 2:0.08765484 3:0.62680052 4:0.88208508 5:0.93041565 6:0.9505376 
4 1:0.90420201 2:0.15600331 3:0.19693206 4:0.86294641 5:0.92990351 6:0.95498998 
4 1:0.6092064 2:0.58937038 3:0.34931828 4:0.4519606 5:0.54893247 6:0.61355219 
-4 1:0.67240963 2:0.16787772 3:0.54473368 4:0.69254626 5:0.74796983 6:0.77177867 
-4 1:0.4688131 2:0.34681232 3:0.041939301 4:0.45284872 5:0.5157613 6:0.55335821 
4 1:0.67544021 3:0.19261438 4:0.76066415 5:0.89973293 6:0.93660362 
1.694205720739004 1:0.80993214 2:0.15600331 3:0.13401869 4:0.75274384 5:0.8506531 6:0.89321405 
-4 1:0.72960023 2:0.93973481 3:0.29554025 4:0.64471949 5:0.72634443 6:0.77062686 
-4 1:0.59976014 2:0.04579546 3:0.42297435 4:0.72390263 5:0.83364665 6:0.88344569 
-4 1:0.69816754 2:0.34681232 3:0.11526222 4:0.68549511 5:0.78556255 6:0.83507583 
4 1:0.68660174 3:0.20657211 4:0.81196884 5:0.94140702 6:0.96680805 
