svm_type nu_svr
kernel_type rbf
gamma 0.04
nr_class 2
total_sv 212
rho -0.953329
SV
4 1:0.71492133 2:0.42532178 3:0.31296983 4:0.60525302 5:0.69243388 6:0.7432587 
-4 1:0.77257175 2:0.08765484 3:0.5597726 4:0.80653689 5:0.88996341 6:0.92691132 
4 1:0.56142653 2:0.49739676 3:0.24752355 4:0.28326524 5:0.33261781 6:0.37104424 
4 1:0.61928338 2:0.22767235 3:0.15963705 4:0.51010642 5:0.59283393 6:0.63883591 
4 1:0.79670443 2:0.54342577 3:0.26295318 4:0.6905031 5:0.79291823 6:0.84469464 
-4 1:0.71258735 2:0.22767235 3:0.1864032 4:0.58471122 5:0.67581508 6:0.72558613 
-4 1:0.57776221 2:0.08765484 3:0.42071301 4:0.56376512 5:0.66454599 6:0.741236 
4 1:0.66777856 2:0.42532178 3:0.30879992 4:0.60375124 5:0.70097073 6:0.75507206 
-4 1:0.73815918 2:0.25207203 3:0.29691153 4:0.66166141 5:0.73408074 6:0.77757209 
4 1:0.98791521 2:0.04579546 3:0.90293444 4:0.99181622 5:0.99642641 6:0.9978864 
-4 1:0.74999802 2:0.08765484 3:0.52069978 4:0.74484555 5:0.83431246 6:0.87935204 
-4 1:0.87823623 2:0.20629643 3:0.36755712 4:0.8681203 5:0.93297792 6:0.95700049 
-4 1:0.88260358 2:0.083369236 3:0.57279245 4:0.85249389 5:0.91751611 6:0.94621989 
4 1:0.78180974 2:0.04579546 3:0.54174294 4:0.92424698 5:0.96600395 6:0.97868211 
4 1:0.91728681 2:0.20820673 3:0.45891267 4:0.87823329 5:0.93535353 6:0.95883927 
4 1:0.54792627 2:0.055921852 3:0.26207179 4:0.59416461 5:0.75957205 6:0.82870539 
4 1:0.91839373 2:0.04579546 3:0.69472114 4:0.97790884 5:0.9891237 6:0.993277 
4 1:0.37333711 2:0.23066177 3:0.29022709 4:0.26882214 5:0.30809596 6:0.35304275 
4 1:0.89291952 2:0.16787772 3:0.69408521 4:0.91495146 5:0.94890261 6:0.96269344 
4 1:0.28569186 2:0.20629643 3:0.076468978 4:0.29833807 5:0.37989948 6:0.4576277 
-4 1:0.56800546 2:0.16787772 3:0.5149767 4:0.63026581 5:0.67890679 6:0.69964851 
-4 1:0.66382463 2:0.93973481 3:0.28594627 4:0.63969879 5:0.73360583 6:0.78380069 
-4 1:0.68687464 2:0.93973481 3:0.2669659 4:0.56720118 5:0.63868728 6:0.67673331 
4 1:0.82277534 2:0.23066177 3:0.56208506 4:0.76164281 5:0.83176644 6:0.86914911 
-4 1:0.4874691 2:0.23066177 3:0.32329421 4:0.33686197 5:0.39456977 6:0.44944683 
-4 1:0.43289262 2:0.49739676 3:0.19942282 4:0.18051614 5:0.20657779 6:0.22630829 
-4 1:0.66382463 2:0.93973481 3:0.28594627 4:0.63969879 5:0.73360583 6:0.78380069 
-4 1:0.79681394 2:0.083369236 3:0.48094343 4:0.76665994 5:0.86191893 6:0.90760934 
4 1:0.73867648 2:0.49612229 3:0.35967401 4:0.47825205 5:0.57045236 6:0.63752441 
4 1:0.92683589 2:0.48885268 3:0.55208861 4:0.89938377 5:0.94642982 6:0.96615102 
-4 1:0.74598388 2:0.16787772 3:0.57222383 4:0.74405775 5:0.79993424 6:0.82484891 
-4 1:0.70997536 2:0.083369236 3:0.42718441 4:0.69347659 5:0.81124449 6:0.87136343 
-4 1:0.52033349 2:0.48885268 3:0.27824915 4:0.42915458 5:0.50850476 6:0.58585271 
-4 1:0.74285042 2:0.48885268 3:0.35394597 4:0.61189191 5:0.70897304 6:0.77099691 
4 1:0.56142653 2:0.49739676 3:0.24752355 4:0.28326524 5:0.33261781 6:0.37104424 
4 1:0.57308967 2:0.055921852 3:0.29301498 4:0.67070014 5:0.83429953 6:0.89348041 
4 1:0.78333908 2:0.20629643 3:0.24707248 4:0.72284103 5:0.83178838 6:0.88053503 
-4 1:0.43289262 2:0.49739676 3:0.19942282 4:0.18051614 5:0.20657779 6:0.22630829 
4 1:0.73867648 2:0.49612229 3:0.35967401 4:0.47825205 5:0.57045236 6:0.63752441 
-4 1:0.75331875 2:0.047285912 3:0.46606653 4:0.81323145 5:0.84847474 6:0.85892657 
-4 1:0.84765099 2:0.014623935 3:0.81445984 4:0.96615706 5:0.98858241 6:0.99176534 
4 1:0.96968854 2:0.08765484 3:0.77391346 4:0.95596295 5:0.97544784 6:0.98405871 
2.799098998361085 1:0.73710984 2:0.23066177 3:0.49544357 4:0.66648649 5:0.76052819 6:0.81482311 
4 1:0.8811176 2:0.047285912 3:0.53826775 4:0.933335 5:0.95948954 6:0.96870909 
-4 1:0.3070772 2:0.93973481 3:0.18757116 4:0.34864297 5:0.3777168 6:0.38922611 
-4 1:0.67850561 2:0.20629643 3:0.19487894 4:0.63045155 5:0.76931142 6:0.83706632 
-4 1:0.71777065 2:0.08765484 3:0.47011786 4:0.66069877 5:0.75226598 6:0.80539407 
-4 1:0.85355434 2:0.34681232 3:0.18754744 4:0.83526909 5:0.90421808 6:0.93421072 
4 1:0.72746732 2:0.23066177 3:0.43952897 4:0.55736023 5:0.63319876 6:0.68402869 
-4 1:0.59637711 2:1 3:0.19031962 4:0.43030863 5:0.5277316 6:0.59069772 
4 1:0.91341872 3:0.45198963 4:0.97703695 5:0.9907273 6:0.99510256 
-4 1:0.70532989 2:0.54342577 3:0.18169339 4:0.50290989 5:0.59875259 6:0.65332628 
4 1:0.8811176 2:0.047285912 3:0.53826775 4:0.933335 5:0.95948954 6:0.96870909 
4 1:0.69386127 3:0.2174879 4:0.84423613 5:0.9662906 6:0.98430594 
-4 1:0.5810431 2:0.047285912 3:0.43113594 4:0.74141738 5:0.76929188 6:0.77018949 
-4 1:0.77121222 2:0.25207203 3:0.33053889 4:0.73085549 5:0.80341439 6:0.84546456 
-4 1:0.91951481 2:0.16787772 3:0.7239389 4:0.94244479 5:0.9681932 6:0.97806033 
-3.50719143723042 1:0.63920442 2:0.20629643 3:0.16825499 4:0.55661206 5:0.69111529 6:0.7656762 
4 1:0.76382055 2:0.22767235 3:0.22331233 4:0.67735915 5:0.77029889 6:0.81802539 
-4 1:0.59637711 2:1 3:0.19031962 4:0.43030863 5:0.5277316 6:0.59069772 
4 1:0.91737037 2:0.49612229 3:0.66823667 4:0.86050887 5:0.90873162 6:0.93335071 
4 1:0.79373193 2:0.58937038 3:0.47493233 4:0.66775916 5:0.76196439 6:0.81489875 
4 1:0.66256481 2:0.42532178 3:0.27479904 4:0.51802649 5:0.59270541 6:0.63560969 
-4 1:0.5810431 2:0.047285912 3:0.43113594 4:0.74141738 5:0.76929188 6:0.77018949 
-4 1:0.65624547 2:0.34681232 3:0.092281981 4:0.61278125 5:0.70626575 6:0.75613977 
-4 1:0.72871424 2:0.014623935 3:0.78701408 4:0.89679281 5:0.96056131 6:0.977629 
-4 1:0.47722492 2:0.014623935 3:0.75468972 4:0.76017077 5:0.83753774 6:0.92265059 
4 1:0.91202697 2:0.42532178 3:0.50912639 4:0.87959883 5:0.93223488 6:0.95450335 
-4 1:0.43289262 2:0.49739676 3:0.19942282 4:0.18051614 5:0.20657779 6:0.22630829 
-4 1:0.3070772 2:0.93973481 3:0.18757116 4:0.34864297 5:0.3777168 6:0.38922611 
-4 1:0.74598388 2:0.16787772 3:0.57222383 4:0.74405775 5:0.79993424 6:0.82484891 
-4 1:0.60311017 2:0.34681232 3:0.067548447 4:0.53383404 5:0.61287548 6:0.65468717 
4 1:0.75731817 2:0.42532178 3:0.35347476 4:0.69239941 5:0.78245146 6:0.83117443 
-4 1:0.69891028 2:0.20820673 3:0.26679137 4:0.55816547 5:0.65579282 6:0.71593631 
-4 1:0.78399277 2:0.34681232 3:0.1457048 4:0.75791308 5:0.84155109 6:0.88132116 
4 1:0.73288362 2:0.48885268 3:0.38858001 4:0.69395818 5:0.80318832 6:0.85946067 
-4 1:0.44711702 2:0.54342577 3:0.10123262 4:0.31581962 5:0.38571265 6:0.42827036 
4 1:0.74778935 2:0.58937038 3:0.41507439 4:0.56413083 5:0.65815516 6:0.7166999 
-4 1:0.74425089 2:0.014623935 3:0.78900741 4:0.90386551 5:0.96905764 6:0.98466408 
-4 1:0.65317124 2:0.25207203 3:0.23994344 4:0.52538719 5:0.5891732 6:0.62164073 
4 1:0.56142653 2:0.49739676 3:0.24752355 4:0.28326524 5:0.33261781 6:0.37104424 
4 1:0.80205907 2:0.22767235 3:0.26078021 4:0.76359704 5:0.8470807 6:0.8858359 
-4 1:0.5762709 2:0.93973481 3:0.23537634 4:0.48984694 5:0.55363885 6:0.5853905 
-4 1:0.93556416 2:0.58937038 3:0.65797705 4:0.87169952 5:0.92200942 6:0.94454256 
-4 1:0.54042467 2:0.15600331 3:0.046271684 4:0.4328793 5:0.5309142 6:0.59282089 
-4 1:0.68443073 2:0.047285912 3:0.44652268 4:0.77691812 5:0.81043483 6:0.8177009 
4 1:0.5343717 2:0.49612229 3:0.20276685 4:0.2004308 5:0.25758651 6:0.30054029 
-4 1:0.84127012 2:0.014623935 3:0.81253935 4:0.95982371 5:0.98309178 6:0.9870796 
4 1:0.89291952 2:0.16787772 3:0.69408521 4:0.91495146 5:0.94890261 6:0.96269344 
-4 1:0.68443073 2:0.047285912 3:0.44652268 4:0.77691812 5:0.81043483 6:0.8177009 
4 1:0.78020364 2:0.23066177 3:0.50145055 4:0.66525882 5:0.74327951 6:0.79017822 
-4 1:0.73815918 2:0.25207203 3:0.29691153 4:0.66166141 5:0.73408074 6:0.77757209 
4 1:0.89291952 2:0.16787772 3:0.69408521 4:0.91495146 5:0.94890261 6:0.96269344 
-4 1:0.69004118 2:0.23066177 3:0.43933868 4:0.56327049 5:0.65339511 6:0.71348696 
0.5841343749640862 1:0.6483368 2:0.04579546 3:0.45989947 4:0.82115248 5:0.92520734 6:0.9594384 
-4 1:0.65966561 2:0.20820673 3:0.27420721 4:0.57889989 5:0.68485118 6:0.74837036 
4 1:0.95273022 2:0.014623935 3:0.90135809 4:0.99584619 5:0.9970631 6:0.99757649 
-4 1:0.60283702 2:0.083369236 3:0.33229353 4:0.48675881 5:0.60141743 6:0.67458413 
-4 1:0.60283702 2:0.083369236 3:0.33229353 4:0.48675881 5:0.60141743 6:0.67458413 
4 1:0.56142653 2:0.49739676 3:0.24752355 4:0.28326524 5:0.33261781 6:0.37104424 
4 1:0.72746732 2:0.23066177 3:0.43952897 4:0.55736023 5:0.63319876 6:0.68402869 
-4 1:0.68687464 2:0.93973481 3:0.2669659 4:0.56720118 5:0.63868728 6:0.67673331 
-4 1:0.68443073 2:0.047285912 3:0.44652268 4:0.77691812 5:0.81043483 6:0.8177009 
4 1:0.29443857 2:0.055921852 3:0.19401703 4:0.41679982 5:0.61495039 6:0.74140301 
4 1:0.61342581 2:0.49612229 3:0.27561601 4:0.33977371 5:0.4325213 6:0.50244952 
4 1:0.78101613 2:0.055921852 3:0.42192974 4:0.86711004 5:0.94030868 6:0.96084539 
4 1:0.61928338 2:0.22767235 3:0.15963705 4:0.51010642 5:0.59283393 6:0.63883591 
4 1:0.78333908 2:0.20629643 3:0.24707248 4:0.72284103 5:0.83178838 6:0.88053503 
4 1:0.83017845 2:0.16787772 3:0.64309172 4:0.86078024 5:0.90892223 6:0.92908907 
-4 1:0.82949905 2:0.047285912 3:0.51559706 4:0.90512389 5:0.93743101 6:0.9492968 
-4 1:0.70300609 2:0.15600331 3:0.091457045 4:0.60849701 5:0.72282659 6:0.78137183 
4 1:0.90057657 2:0.23066177 3:0.65873851 4:0.86090402 5:0.90661213 6:0.93008753 
-4 1:0.51603659 2:1 3:0.14452095 4:0.31406915 5:0.38353445 6:0.42653517 
4 1:0.8811176 2:0.047285912 3:0.53826775 4:0.933335 5:0.95948954 6:0.96870909 
-4 1:0.70532989 2:0.54342577 3:0.18169339 4:0.50290989 5:0.59875259 6:0.65332628 
-4 1:0.60283702 2:0.083369236 3:0.33229353 4:0.48675881 5:0.60141743 6:0.67458413 
-4 1:0.48213397 2:0.16787772 3:0.49792761 4:0.59161372 5:0.62979552 6:0.64254584 
4 1:0.74778935 2:0.58937038 3:0.41507439 4:0.56413083 5:0.65815516 6:0.7166999 
-4 1:0.56800546 2:0.16787772 3:0.5149767 4:0.63026581 5:0.67890679 6:0.69964851 
4 1:0.83017845 2:0.16787772 3:0.64309172 4:0.86078024 5:0.90892223 6:0.92908907 
-4 1:0.78583004 2:0.48885268 3:0.4012577 4:0.70792536 5:0.80063653 6:0.85083872 
4 1:0.6483368 2:0.04579546 3:0.45989947 4:0.82115248 5:0.92520734 6:0.9594384 
-4 1:0.84765099 2:0.014623935 3:0.81445984 4:0.96615706 5:0.98858241 6:0.99176534 
4 1:0.99718538 2:0.014623935 3:1 4:1 5:1 6:1 
-4 1:0.71167822 2:0.014623935 3:0.78422805 4:0.88268036 5:0.94383829 6:0.96596858 
-4 1:0.5797031 2:0.25207203 3:0.21631076 4:0.45848604 5:0.51102137 6:0.53823055 
4 1:0.69386127 3:0.2174879 4:0.84423613 5:0.9662906 6:0.98430594 
4 1:0.87062235 2:0.49739676 3:0.53966638 4:0.77392585 5:0.84784447 6:0.89031641 
-4 1:0.93556416 2:0.58937038 3:0.65797705 4:0.87169952 5:0.92200942 6:0.94454256 
-2.385364861414625 1:0.89778056 2:1 3:0.43235998 4:0.86707094 5:0.92632217 6:0.95151451 
-4 1:0.76258425 2:0.16787772 3:0.60695536 4:0.80906778 5:0.87125816 6:0.89810007 
-2.75836497743266 1:0.73251944 2:0.15600331 3:0.11085278 4:0.68794624 5:0.80350923 6:0.85660483 
4 1:0.19680854 2:0.58937038 3:0.21585801 4:0.1754362 5:0.20844015 6:0.23846443 
4 1:0.75731817 2:0.42532178 3:0.35347476 4:0.69239941 5:0.78245146 6:0.83117443 
4 1:0.62437406 2:1 3:0.18559792 4:0.41535212 5:0.50422336 6:0.56173557 
4 1:0.40588686 2:0.42532178 3:0.20589097 4:0.35241209 5:0.40358156 6:0.42577381 
2.354529904549924 1:0.5343717 2:0.49612229 3:0.20276685 4:0.2004308 5:0.25758651 6:0.30054029 
-4 1:0.57776221 2:0.08765484 3:0.42071301 4:0.56376512 5:0.66454599 6:0.741236 
4 1:0.79391726 2:0.49612229 3:0.444392 4:0.61630491 5:0.71210086 6:0.77386496 
4 1:0.34770698 2:0.58937038 3:0.24672569 4:0.24188506 5:0.29544562 6:0.33843061 
-4 1:0.89171605 2:0.25207203 3:0.52475418 4:0.85053413 5:0.90454501 6:0.93093678 
-4 1:0.59637711 2:1 3:0.19031962 4:0.43030863 5:0.5277316 6:0.59069772 
4 1:0.98644504 2:0.055921852 3:0.7405327 4:0.96928567 5:0.9853799 6:0.99080378 
4 1:0.8811176 2:0.047285912 3:0.53826775 4:0.933335 5:0.95948954 6:0.96870909 
-4 1:0.74999802 2:0.08765484 3:0.52069978 4:0.74484555 5:0.83431246 6:0.87935204 
-4 1:0.69716201 2:0.25207203 3:0.26283557 4:0.58611788 5:0.65192525 6:0.69015011 
4 1:0.66051984 2:0.58937038 3:0.40045124 4:0.55415203 5:0.66628031 6:0.73418465 
4 1:0.76526298 2:0.055921852 3:0.38714172 4:0.81340799 5:0.90059649 6:0.93006702 
4 1:0.68660174 3:0.20657211 4:0.81196884 5:0.94140702 6:0.96680805 
4 1:0.62349716 2:0.42532178 3:0.27349745 4:0.5196735 5:0.60339149 6:0.65103342 
-4 1:0.73815918 2:0.25207203 3:0.29691153 4:0.66166141 5:0.73408074 6:0.77757209 
4 1:0.91202697 2:0.42532178 3:0.50912639 4:0.87959883 5:0.93223488 6:0.95450335 
-4 1:0.79681394 2:0.083369236 3:0.48094343 4:0.76665994 5:0.86191893 6:0.90760934 
4 1:0.62437406 2:1 3:0.18559792 4:0.41535212 5:0.50422336 6:0.56173557 
4 1:0.74778935 2:0.58937038 3:0.41507439 4:0.56413083 5:0.65815516 6:0.7166999 
4 1:0.18980624 3:0.034330388 4:0.25480402 5:0.54197045 6:0.78020579 
-4 1:0.72960023 2:0.93973481 3:0.29554025 4:0.64471949 5:0.72634443 6:0.77062686 
4 1:0.87911146 2:0.34681232 3:0.22411304 4:0.88845644 5:0.94169671 6:0.96221395 
4 1:0.29443857 2:0.055921852 3:0.19401703 4:0.41679982 5:0.61495039 6:0.74140301 
-4 1:0.89171605 2:0.25207203 3:0.52475418 4:0.85053413 5:0.90454501 6:0.93093678 
-4 1:0.4874691 2:0.23066177 3:0.32329421 4:0.33686197 5:0.39456977 6:0.44944683 
4 1:0.70099226 2:0.20820673 3:0.31094767 4:0.6676259 5:0.77726116 6:0.83518027 
4 1:0.32002648 2:0.54342577 3:0.072456434 4:0.24261286 5:0.29785605 6:0.33368644 
-4 1:0.87823623 2:0.20629643 3:0.36755712 4:0.8681203 5:0.93297792 6:0.95700049 
-4 1:0.91951481 2:0.16787772 3:0.7239389 4:0.94244479 5:0.9681932 6:0.97806033 
4 1:0.49591192 2:0.22767235 3:0.13362033 4:0.43434224 5:0.49900609 6:0.53177669 
4 1:0.68660174 3:0.20657211 4:0.81196884 5:0.94140702 6:0.96680805 
-4 1:0.51733002 2:0.047285912 3:0.41965074 4:0.71632669 5:0.73953043 6:0.73487553 
4 1:0.91737037 2:0.49612229 3:0.66823667 4:0.86050887 5:0.90873162 6:0.93335071 
4 1:0.87931568 2:0.22767235 3:0.31750162 4:0.85145925 5:0.9121085 6:0.93772147 
-4 1:0.68687464 2:0.93973481 3:0.2669659 4:0.56720118 5:0.63868728 6:0.67673331 
4 1:0.66256481 2:0.42532178 3:0.27479904 4:0.51802649 5:0.59270541 6:0.63560969 
1.665617466998827 1:0.5343717 2:0.49612229 3:0.20276685 4:0.2004308 5:0.25758651 6:0.30054029 
4 1:0.66256481 2:0.42532178 3:0.27479904 4:0.51802649 5:0.59270541 6:0.63560969 
4 1:0.73288362 2:0.48885268 3:0.38858001 4:0.69395818 5:0.80318832 6:0.85946067 
4 1:0.28569186 2:0.20629643 3:0.076468978 4:0.29833807 5:0.37989948 6:0.4576277 
4 1:0.67022121 2:0.49612229 3:0.27766156 4:0.33407105 5:0.40732401 6:0.46359154 
3.926201903328468 1:0.6483368 2:0.04579546 3:0.45989947 4:0.82115248 5:0.92520734 6:0.9594384 
-4 1:0.71167822 2:0.014623935 3:0.78422805 4:0.88268036 5:0.94383829 6:0.96596858 
-4 1:0.69816754 2:0.34681232 3:0.11526222 4:0.68549511 5:0.78556255 6:0.83507583 
-4 1:0.91785848 2:0.083369236 3:0.63999999 4:0.90398906 5:0.94897505 6:0.96762621 
0.242221660202504 1:0.73710984 2:0.23066177 3:0.49544357 4:0.66648649 5:0.76052819 6:0.81482311 
4 1:0.96968854 2:0.08765484 3:0.77391346 4:0.95596295 5:0.97544784 6:0.98405871 
4 1:0.32027025 2:0.49739676 3:0.17094319 4:0.12195679 5:0.13277563 6:0.14165413 
-4 1:0.43871049 2:0.15600331 3:0.030541611 4:0.37279112 5:0.4588284 6:0.52004828 
4 1:0.92683589 2:0.48885268 3:0.55208861 4:0.89938377 5:0.94642982 6:0.96615102 
4 1:0.83017845 2:0.16787772 3:0.64309172 4:0.86078024 5:0.90892223 6:0.92908907 
2.428195691595104 1:0.69908122 2:1 3:0.2367756 4:0.5367057 5:0.64063877 6:0.70451767 
4 1:0.87998127 2:0.15600331 3:0.1625414 4:0.81948421 5:0.90185357 6:0.9347395 
-4 1:0.8048121 2:0.25207203 3:0.3681723 4:0.80658472 5:0.8702283 6:0.90583519 
4 1:0.66777856 2:0.42532178 3:0.30879992 4:0.60375124 5:0.70097073 6:0.75507206 
-4 1:0.74598388 2:0.16787772 3:0.57222383 4:0.74405775 5:0.79993424 6:0.82484891 
-4 1:0.44711702 2:0.54342577 3:0.10123262 4:0.31581962 5:0.38571265 6:0.42827036 
-4 1:0.5724789 2:0.014623935 3:0.77708563 4:0.84258654 5:0.91016348 6:0.95440359 
-4 1:0.73985421 2:0.04579546 3:0.499439 4:0.84012074 5:0.90229375 6:0.92936693 
-4 1:0.72871424 2:0.014623935 3:0.78701408 4:0.89679281 5:0.96056131 6:0.977629 
4 1:0.65970734 2:1 3:0.23706331 4:0.5477205 5:0.66054901 6:0.7269284 
-4 1:0.73815918 2:0.25207203 3:0.29691153 4:0.66166141 5:0.73408074 6:0.77757209 
-4 1:0.68687464 2:0.93973481 3:0.2669659 4:0.56720118 5:0.63868728 6:0.67673331 
-4 1:0.74673262 2:0.20629643 3:0.21465833 4:0.65034545 5:0.76692184 6:0.82551595 
4 1:0.77998422 2:0.49739676 3:0.43832146 4:0.63397606 5:0.7240692 6:0.78367237 
4 1:0.32027025 2:0.49739676 3:0.17094319 4:0.12195679 5:0.13277563 6:0.14165413 
-4 1:0.74425089 2:0.014623935 3:0.78900741 4:0.90386551 5:0.96905764 6:0.98466408 
4 1:0.68660174 3:0.20657211 4:0.81196884 5:0.94140702 6:0.96680805 
4 1:0.91728681 2:0.20820673 3:0.45891267 4:0.87823329 5:0.93535353 6:0.95883927 
4 1:0.87062235 2:0.49739676 3:0.53966638 4:0.77392585 5:0.84784447 6:0.89031641 
-4 1:0.51603659 2:1 3:0.14452095 4:0.31406915 5:0.38353445 6:0.42653517 
4 1:0.61342581 2:0.49612229 3:0.27561601 4:0.33977371 5:0.4325213 6:0.50244952 
4 1:0.79670443 2:0.54342577 3:0.26295318 4:0.6905031 5:0.79291823 6:0.84469464 
-2.434114453227482 1:0.48387441 2:0.20820673 3:0.20172681 4:0.39715881 5:0.47368229 6:0.52781628 
-2.914964270694813 1:0.73251944 2:0.15600331 3:0.11085278 4:0.68794624 5:0.80350923 6:0.85660483 
-4 1:0.69517962 2:0.083369236 3:0.36350305 4:0.54888271 5:0.66506794 6:0.73685112 
