svm_type nu_svr
kernel_type rbf
gamma 0.04
nr_class 2
total_sv 212
rho -1.2061
SV
4 1:0.67569895 2:0.49739676 3:0.30599867 4:0.39201262 5:0.45927759 6:0.51239284 
-4 1:0.83887552 2:0.08765484 3:0.58154998 4:0.82429855 5:0.8858516 6:0.91563291 
4 1:0.93011029 2:0.23066177 3:0.71439481 4:0.90904598 5:0.94146542 6:0.95674338 
4 1:0.98644504 2:0.055921852 3:0.7405327 4:0.96928567 5:0.9853799 6:0.99080378 
-4 1:0.74285042 2:0.48885268 3:0.35394597 4:0.61189191 5:0.70897304 6:0.77099691 
4 1:0.78101613 2:0.055921852 3:0.42192974 4:0.86711004 5:0.94030868 6:0.96084539 
-4 1:0.91951481 2:0.16787772 3:0.7239389 4:0.94244479 5:0.9681932 6:0.97806033 
4 1:0.7890525 2:0.20820673 3:0.3510016 4:0.74206651 5:0.83508543 6:0.88101902 
4 1:0.28569186 2:0.20629643 3:0.076468978 4:0.29833807 5:0.37989948 6:0.4576277 
4 1:0.98791521 2:0.04579546 3:0.90293444 4:0.99181622 5:0.99642641 6:0.9978864 
4 1:0.57308967 2:0.055921852 3:0.29301498 4:0.67070014 5:0.83429953 6:0.89348041 
4 1:0.4730794 3:0.11866359 4:0.58816959 5:0.86435738 6:0.96191842 
4 1:0.87911146 2:0.34681232 3:0.22411304 4:0.88845644 5:0.94169671 6:0.96221395 
4 1:0.3594872 2:0.49612229 3:0.14024497 4:0.074708413 5:0.10231651 6:0.1259153 
4 1:0.70099226 2:0.20820673 3:0.31094767 4:0.6676259 5:0.77726116 6:0.83518027 
-4 1:0.91951481 2:0.16787772 3:0.7239389 4:0.94244479 5:0.9681932 6:0.97806033 
-4 1:0.91951481 2:0.16787772 3:0.7239389 4:0.94244479 5:0.9681932 6:0.97806033 
-4 1:0.69605554 2:0.34681232 3:0.093755557 4:0.60913934 5:0.69117362 6:0.73495824 
-4 1:0.44711702 2:0.54342577 3:0.10123262 4:0.31581962 5:0.38571265 6:0.42827036 
-4 1:0.77257175 2:0.08765484 3:0.5597726 4:0.80653689 5:0.88996341 6:0.92691132 
4 1:0.61928338 2:0.22767235 3:0.15963705 4:0.51010642 5:0.59283393 6:0.63883591 
-4 1:0.60311017 2:0.34681232 3:0.067548447 4:0.53383404 5:0.61287548 6:0.65468717 
-4 1:0.47722492 2:0.014623935 3:0.75468972 4:0.76017077 5:0.83753774 6:0.92265059 
-4 1:0.89171605 2:0.25207203 3:0.52475418 4:0.85053413 5:0.90454501 6:0.93093678 
-4 1:0.74673262 2:0.20629643 3:0.21465833 4:0.65034545 5:0.76692184 6:0.82551595 
4 1:0.60617061 2:0.20820673 3:0.23419121 4:0.48018865 5:0.57200972 6:0.63197473 
4 1:0.87998127 2:0.15600331 3:0.1625414 4:0.81948421 5:0.90185357 6:0.9347395 
4 1:0.70099226 2:0.20820673 3:0.31094767 4:0.6676259 5:0.77726116 6:0.83518027 
-4 1:0.72871424 2:0.014623935 3:0.78701408 4:0.89679281 5:0.96056131 6:0.977629 
-4 1:0.62949394 2:0.23066177 3:0.3800888 4:0.44927578 5:0.52327759 6:0.57907725 
4 1:0.91061528 2:0.22767235 3:0.35742938 4:0.89821492 5:0.94339974 6:0.96076173 
4 1:0.90795371 2:0.58937038 3:0.58823535 4:0.80035053 5:0.86988422 6:0.90533033 
4 1:0.73867648 2:0.49612229 3:0.35967401 4:0.47825205 5:0.57045236 6:0.63752441 
4 1:0.85877443 2:0.42532178 3:0.43562507 4:0.80721931 5:0.87934044 6:0.91434143 
4 1:0.45337497 3:0.10308547 4:0.52247575 5:0.78583924 6:0.89392193 
4 1:0.79670443 2:0.54342577 3:0.26295318 4:0.6905031 5:0.79291823 6:0.84469464 
-4 1:0.5797031 2:0.25207203 3:0.21631076 4:0.45848604 5:0.51102137 6:0.53823055 
4 1:0.89192404 2:0.49612229 3:0.59146724 4:0.78105663 5:0.84916292 6:0.8882561 
-4 1:0.71167822 2:0.014623935 3:0.78422805 4:0.88268036 5:0.94383829 6:0.96596858 
-4 1:0.74285042 2:0.48885268 3:0.35394597 4:0.61189191 5:0.70897304 6:0.77099691 
0.08524522145850208 1:0.62552631 2:0.49739676 3:0.30895604 4:0.40532955 5:0.48355121 6:0.54476585 
4 1:0.66777856 2:0.42532178 3:0.30879992 4:0.60375124 5:0.70097073 6:0.75507206 
-4 1:0.91951481 2:0.16787772 3:0.7239389 4:0.94244479 5:0.9681932 6:0.97806033 
-4 1:0.69622281 2:0.25207203 3:0.27393051 4:0.60399854 5:0.68000038 6:0.72275152 
4 1:0.67544021 3:0.19261438 4:0.76066415 5:0.89973293 6:0.93660362 
4 1:0.83017845 2:0.16787772 3:0.64309172 4:0.86078024 5:0.90892223 6:0.92908907 
4 1:0.58396162 2:0.20629643 3:0.13877412 4:0.4724047 5:0.59295828 6:0.66834832 
4 1:0.81789029 2:0.48885268 3:0.44075432 4:0.7803455 5:0.86328719 6:0.90222545 
-4 1:0.70300609 2:0.15600331 3:0.091457045 4:0.60849701 5:0.72282659 6:0.78137183 
4 1:0.70099226 2:0.20820673 3:0.31094767 4:0.6676259 5:0.77726116 6:0.83518027 
4 1:0.96968854 2:0.08765484 3:0.77391346 4:0.95596295 5:0.97544784 6:0.98405871 
-4 1:0.79681394 2:0.083369236 3:0.48094343 4:0.76665994 5:0.86191893 6:0.90760934 
-4 1:0.74565796 2:0.15600331 3:0.089218917 4:0.58797907 5:0.69284768 6:0.74971699 
-4 1:0.89778056 2:1 3:0.43235998 4:0.86707094 5:0.92632217 6:0.95151451 
4 1:0.87931568 2:0.22767235 3:0.31750162 4:0.85145925 5:0.9121085 6:0.93772147 
4 1:0.91341872 3:0.45198963 4:0.97703695 5:0.9907273 6:0.99510256 
-4 1:0.74673262 2:0.20629643 3:0.21465833 4:0.65034545 5:0.76692184 6:0.82551595 
4 1:0.28569186 2:0.20629643 3:0.076468978 4:0.29833807 5:0.37989948 6:0.4576277 
-4 1:0.75431872 2:0.083369236 3:0.42082971 4:0.66591147 5:0.77995959 6:0.84260661 
-4 1:0.65966561 2:0.20820673 3:0.27420721 4:0.57889989 5:0.68485118 6:0.74837036 
-4 1:0.42428709 2:0.93973481 3:0.20295859 4:0.39290035 5:0.43632323 6:0.45871216 
4 1:0.91202697 2:0.42532178 3:0.50912639 4:0.87959883 5:0.93223488 6:0.95450335 
4 1:0.73867648 2:0.49612229 3:0.35967401 4:0.47825205 5:0.57045236 6:0.63752441 
-4 1:0.78167533 2:0.15600331 3:0.11289462 4:0.67598462 5:0.78117168 6:0.83259364 
4 1:0.67227079 2:0.22767235 3:0.19328493 4:0.60107975 5:0.69684945 6:0.74949279 
-4 1:0.91785848 2:0.083369236 3:0.63999999 4:0.90398906 5:0.94897505 6:0.96762621 
-4 1:0.76258425 2:0.16787772 3:0.60695536 4:0.80906778 5:0.87125816 6:0.89810007 
-4 1:0.75331875 2:0.047285912 3:0.46606653 4:0.81323145 5:0.84847474 6:0.85892657 
-4 1:0.41563731 2:0.48885268 3:0.2554221 4:0.36916892 5:0.43100226 6:0.50888404 
4 1:0.89192404 2:0.49612229 3:0.59146724 4:0.78105663 5:0.84916292 6:0.8882561 
-4 1:0.80929502 2:0.08765484 3:0.52947327 4:0.7501341 5:0.82294191 6:0.86264385 
-4 1:0.79740378 2:0.047285912 3:0.49225957 4:0.86357299 5:0.89948127 6:0.91221155 
-4 1:0.62949718 2:0.04579546 3:0.44400319 4:0.77920819 5:0.88713866 6:0.92903178 
4 1:0.71284767 2:0.22767235 3:0.2263303 4:0.68859985 5:0.78706365 6:0.83662428 
-4 1:0.72960023 2:0.93973481 3:0.29554025 4:0.64471949 5:0.72634443 6:0.77062686 
4 1:0.93011029 2:0.23066177 3:0.71439481 4:0.90904598 5:0.94146542 6:0.95674338 
4 1:0.78101613 2:0.055921852 3:0.42192974 4:0.86711004 5:0.94030868 6:0.96084539 
-4 1:0.74999802 2:0.08765484 3:0.52069978 4:0.74484555 5:0.83431246 6:0.87935204 
-4 1:0.72319868 2:0.16787772 3:0.57600091 4:0.75310216 5:0.81471966 6:0.84249923 
-4 1:0.57776221 2:0.08765484 3:0.42071301 4:0.56376512 5:0.66454599 6:0.741236 
4 1:0.99718538 2:0.014623935 3:1 4:1 5:1 6:1 
-4 1:0.73815918 2:0.25207203 3:0.29691153 4:0.66166141 5:0.73408074 6:0.77757209 
4 1:0.66051984 2:0.58937038 3:0.40045124 4:0.55415203 5:0.66628031 6:0.73418465 
4 1:0.87911146 2:0.34681232 3:0.22411304 4:0.88845644 5:0.94169671 6:0.96221395 
4 1:0.67721467 2:0.49739676 3:0.37192301 4:0.52750491 5:0.62426522 6:0.6929947 
4 1:0.75186201 2:0.20820673 3:0.31004997 4:0.6557112 5:0.75585014 6:0.81164989 
-4 1:0.91951481 2:0.16787772 3:0.7239389 4:0.94244479 5:0.9681932 6:0.97806033 
-4 1:0.41563731 2:0.48885268 3:0.2554221 4:0.36916892 5:0.43100226 6:0.50888404 
4 1:0.4197563 2:0.20629643 3:0.10015785 4:0.36799816 5:0.4733947 6:0.55804832 
4 1:0.32002648 2:0.54342577 3:0.072456434 4:0.24261286 5:0.29785605 6:0.33368644 
-4 1:0.41563731 2:0.48885268 3:0.2554221 4:0.36916892 5:0.43100226 6:0.50888404 
-0.5891381413483847 1:0.74673262 2:0.20629643 3:0.21465833 4:0.65034545 5:0.76692184 6:0.82551595 
-4 1:0.65289017 2:0.48885268 3:0.31268451 4:0.5167094 5:0.61224976 6:0.68477529 
-4 1:0.73815918 2:0.25207203 3:0.29691153 4:0.66166141 5:0.73408074 6:0.77757209 
-4 1:0.69518774 2:0.20629643 3:0.1796405 4:0.56432133 5:0.68049028 6:0.74616621 
4 1:0.87062235 2:0.49739676 3:0.53966638 4:0.77392585 5:0.84784447 6:0.89031641 
-4 1:0.71777065 2:0.08765484 3:0.47011786 4:0.66069877 5:0.75226598 6:0.80539407 
-4 1:0.44711702 2:0.54342577 3:0.10123262 4:0.31581962 5:0.38571265 6:0.42827036 
-4 1:0.79681394 2:0.083369236 3:0.48094343 4:0.76665994 5:0.86191893 6:0.90760934 
4 1:0.93011029 2:0.23066177 3:0.71439481 4:0.90904598 5:0.94146542 6:0.95674338 
4 1:0.89725962 2:0.48885268 3:0.5143645 4:0.8587242 5:0.91841685 6:0.94498293 
-4 1:0.66144997 2:0.15600331 3:0.068820233 4:0.51732819 5:0.62198733 6:0.67977328 
4 1:0.67569895 2:0.49739676 3:0.30599867 4:0.39201262 5:0.45927759 6:0.51239284 
-4 1:0.69691564 2:0.48885268 3:0.35289928 4:0.61359907 5:0.7217863 6:0.78790011 
-4 1:0.35760888 2:0.34681232 3:0.027607294 4:0.40659646 5:0.45456869 6:0.48256597 
4 1:0.7890525 2:0.20820673 3:0.3510016 4:0.74206651 5:0.83508543 6:0.88101902 
4 1:0.66777856 2:0.42532178 3:0.30879992 4:0.60375124 5:0.70097073 6:0.75507206 
4 1:0.3594872 2:0.49612229 3:0.14024497 4:0.074708413 5:0.10231651 6:0.1259153 
-4 1:0.70300609 2:0.15600331 3:0.091457045 4:0.60849701 5:0.72282659 6:0.78137183 
-4 1:0.5762709 2:0.93973481 3:0.23537634 4:0.48984694 5:0.55363885 6:0.5853905 
-4 1:0.79681394 2:0.083369236 3:0.48094343 4:0.76665994 5:0.86191893 6:0.90760934 
-4 1:0.72871424 2:0.014623935 3:0.78701408 4:0.89679281 5:0.96056131 6:0.977629 
4 1:0.57308967 2:0.055921852 3:0.29301498 4:0.67070014 5:0.83429953 6:0.89348041 
-4 1:0.88260358 2:0.083369236 3:0.57279245 4:0.85249389 5:0.91751611 6:0.94621989 
4 1:0.69386127 3:0.2174879 4:0.84423613 5:0.9662906 6:0.98430594 
-4 1:0.71258735 2:0.22767235 3:0.1864032 4:0.58471122 5:0.67581508 6:0.72558613 
-4 1:0.68687464 2:0.93973481 3:0.2669659 4:0.56720118 5:0.63868728 6:0.67673331 
-4 1:0.72871424 2:0.014623935 3:0.78701408 4:0.89679281 5:0.96056131 6:0.977629 
4 1:0.78101613 2:0.055921852 3:0.42192974 4:0.86711004 5:0.94030868 6:0.96084539 
4 1:0.58396162 2:0.20629643 3:0.13877412 4:0.4724047 5:0.59295828 6:0.66834832 
4 1:0.60617061 2:0.20820673 3:0.23419121 4:0.48018865 5:0.57200972 6:0.63197473 
-4 1:0.4688131 2:0.34681232 3:0.041939301 4:0.45284872 5:0.5157613 6:0.55335821 
-4 1:0.69605554 2:0.34681232 3:0.093755557 4:0.60913934 5:0.69117362 6:0.73495824 
4 1:0.79670443 2:0.54342577 3:0.26295318 4:0.6905031 5:0.79291823 6:0.84469464 
4 1:0.69908122 2:1 3:0.2367756 4:0.5367057 5:0.64063877 6:0.70451767 
4 1:0.54792627 2:0.055921852 3:0.26207179 4:0.59416461 5:0.75957205 6:0.82870539 
-4 1:0.37392021 2:1 3:0.10644455 4:0.21484368 5:0.25587544 6:0.27527817 
-4 1:0.5797031 2:0.25207203 3:0.21631076 4:0.45848604 5:0.51102137 6:0.53823055 
-0.02086475034401097 1:0.74673262 2:0.20629643 3:0.21465833 4:0.65034545 5:0.76692184 6:0.82551595 
4 1:0.78020364 2:0.23066177 3:0.50145055 4:0.66525882 5:0.74327951 6:0.79017822 
4 1:0.78020364 2:0.23066177 3:0.50145055 4:0.66525882 5:0.74327951 6:0.79017822 
-4 1:0.75664435 2:0.54342577 3:0.22334634 4:0.60145902 5:0.70573225 6:0.76318544 
-4 1:0.65966561 2:0.20820673 3:0.27420721 4:0.57889989 5:0.68485118 6:0.74837036 
4 1:0.79373193 2:0.58937038 3:0.47493233 4:0.66775916 5:0.76196439 6:0.81489875 
4 1:0.91728681 2:0.20820673 3:0.45891267 4:0.87823329 5:0.93535353 6:0.95883927 
-4 1:0.78167533 2:0.15600331 3:0.11289462 4:0.67598462 5:0.78117168 6:0.83259364 
4 1:0.25896526 2:0.04579546 3:0.31879 4:0.45852885 5:0.59717781 6:0.71487885 
4 1:0.76526298 2:0.055921852 3:0.38714172 4:0.81340799 5:0.90059649 6:0.93006702 
-4 1:0.51012298 2:0.25207203 3:0.2005129 4:0.41516485 5:0.45282017 6:0.47396143 
4 1:0.34770698 2:0.58937038 3:0.24672569 4:0.24188506 5:0.29544562 6:0.33843061 
4 1:0.34770698 2:0.58937038 3:0.24672569 4:0.24188506 5:0.29544562 6:0.33843061 
-4 1:0.65966561 2:0.20820673 3:0.27420721 4:0.57889989 5:0.68485118 6:0.74837036 
-4 1:0.65624547 2:0.34681232 3:0.092281981 4:0.61278125 5:0.70626575 6:0.75613977 
4 1:0.66256481 2:0.42532178 3:0.27479904 4:0.51802649 5:0.59270541 6:0.63560969 
4 1:0.74778935 2:0.58937038 3:0.41507439 4:0.56413083 5:0.65815516 6:0.7166999 
4 1:0.98791521 2:0.04579546 3:0.90293444 4:0.99181622 5:0.99642641 6:0.9978864 
4 1:1 3:0.83319067 4:0.98956086 5:0.99577089 6:0.99784595 
-4 1:0.54042467 2:0.15600331 3:0.046271684 4:0.4328793 5:0.5309142 6:0.59282089 
4 1:0.67544021 3:0.19261438 4:0.76066415 5:0.89973293 6:0.93660362 
4 1:0.98791521 2:0.04579546 3:0.90293444 4:0.99181622 5:0.99642641 6:0.9978864 
-4 1:0.57776221 2:0.08765484 3:0.42071301 4:0.56376512 5:0.66454599 6:0.741236 
-4 1:0.70532989 2:0.54342577 3:0.18169339 4:0.50290989 5:0.59875259 6:0.65332628 
-4 1:0.42428709 2:0.93973481 3:0.20295859 4:0.39290035 5:0.43632323 6:0.45871216 
4 1:0.94938914 2:0.055921852 3:0.61526026 4:0.94655706 5:0.97211195 6:0.98210701 
-4 1:0.69891028 2:0.20820673 3:0.26679137 4:0.55816547 5:0.65579282 6:0.71593631 
4 1:0.28569186 2:0.20629643 3:0.076468978 4:0.29833807 5:0.37989948 6:0.4576277 
-1.077848909261228 1:0.91737037 2:0.49612229 3:0.66823667 4:0.86050887 5:0.90873162 6:0.93335071 
4 1:0.71492133 2:0.42532178 3:0.31296983 4:0.60525302 5:0.69243388 6:0.7432587 
-4 1:0.57776221 2:0.08765484 3:0.42071301 4:0.56376512 5:0.66454599 6:0.741236 
4 1:0.6092064 2:0.58937038 3:0.34931828 4:0.4519606 5:0.54893247 6:0.61355219 
-4 1:0.69691564 2:0.48885268 3:0.35289928 4:0.61359907 5:0.7217863 6:0.78790011 
-4 1:0.65624547 2:0.34681232 3:0.092281981 4:0.61278125 5:0.70626575 6:0.75613977 
-4 1:0.70997536 2:0.083369236 3:0.42718441 4:0.69347659 5:0.81124449 6:0.87136343 
4 1:0.74778935 2:0.58937038 3:0.41507439 4:0.56413083 5:0.65815516 6:0.7166999 
4 1:0.73867648 2:0.49612229 3:0.35967401 4:0.47825205 5:0.57045236 6:0.63752441 
4 1:0.78020364 2:0.23066177 3:0.50145055 4:0.66525882 5:0.74327951 6:0.79017822 
4 1:0.69386127 3:0.2174879 4:0.84423613 5:0.9662906 6:0.98430594 
4 1:0.87998127 2:0.15600331 3:0.1625414 4:0.81948421 5:0.90185357 6:0.9347395 
4 1:0.71492133 2:0.42532178 3:0.31296983 4:0.60525302 5:0.69243388 6:0.7432587 
-4 1:0.82949905 2:0.047285912 3:0.51559706 4:0.90512389 5:0.93743101 6:0.9492968 
4 1:0.98791521 2:0.04579546 3:0.90293444 4:0.99181622 5:0.99642641 6:0.9978864 
-4 1:0.85632141 2:0.93973481 3:0.36718425 4:0.81512123 5:0.88887359 6:0.92320992 
-4 1:0.59976014 2:0.04579546 3:0.42297435 4:0.72390263 5:0.83364665 6:0.88344569 
-4 1:0.74425089 2:0.014623935 3:0.78900741 4:0.90386551 5:0.96905764 6:0.98466408 
-4 1:0.60311017 2:0.34681232 3:0.067548447 4:0.53383404 5:0.61287548 6:0.65468717 
4 1:0.89725962 2:0.48885268 3:0.5143645 4:0.8587242 5:0.91841685 6:0.94498293 
-3.064936983552354 1:0.51603659 2:1 3:0.14452095 4:0.31406915 5:0.38353445 6:0.42653517 
-4 1:0.66382463 2:0.93973481 3:0.28594627 4:0.63969879 5:0.73360583 6:0.78380069 
-4 1:0.84127012 2:0.014623935 3:0.81253935 4:0.95982371 5:0.98309178 6:0.9870796 
4 1:0.5343717 2:0.49612229 3:0.20276685 4:0.2004308 5:0.25758651 6:0.30054029 
4 1:0.91061528 2:0.22767235 3:0.35742938 4:0.89821492 5:0.94339974 6:0.96076173 
-4 1:0.78583004 2:0.48885268 3:0.4012577 4:0.70792536 5:0.80063653 6:0.85083872 
-4 1:0.52033349 2:0.48885268 3:0.27824915 4:0.42915458 5:0.50850476 6:0.58585271 
-4 1:0.73815918 2:0.25207203 3:0.29691153 4:0.66166141 5:0.73408074 6:0.77757209 
-4 1:0.77257175 2:0.08765484 3:0.5597726 4:0.80653689 5:0.88996341 6:0.92691132 
4 1:0.3594872 2:0.49612229 3:0.14024497 4:0.074708413 5:0.10231651 6:0.1259153 
-4 1:0.78167533 2:0.15600331 3:0.11289462 4:0.67598462 5:0.78117168 6:0.83259364 
4 1:0.5987601 2:0.54342577 3:0.14271477 4:0.41491191 5:0.50173488 6:0.55220392 
1.914754778541499 1:0.75186201 2:0.20820673 3:0.31004997 4:0.6557112 5:0.75585014 6:0.81164989 
4 1:0.87911146 2:0.34681232 3:0.22411304 4:0.88845644 5:0.94169671 6:0.96221395 
-1.247211215494023 1:0.95273022 2:0.014623935 3:0.90135809 4:0.99584619 5:0.9970631 6:0.99757649 
4 1:0.67544021 3:0.19261438 4:0.76066415 5:0.89973293 6:0.93660362 
4 1:0.87062235 2:0.49739676 3:0.53966638 4:0.77392585 5:0.84784447 6:0.89031641 
4 1:0.66256481 2:0.42532178 3:0.27479904 4:0.51802649 5:0.59270541 6:0.63560969 
4 1:0.90795371 2:0.58937038 3:0.58823535 4:0.80035053 5:0.86988422 6:0.90533033 
-4 1:0.5762709 2:0.93973481 3:0.23537634 4:0.48984694 5:0.55363885 6:0.5853905 
-4 1:0.65317124 2:0.25207203 3:0.23994344 4:0.52538719 5:0.5891732 6:0.62164073 
-4 1:0.89171605 2:0.25207203 3:0.52475418 4:0.85053413 5:0.90454501 6:0.93093678 
4 1:0.91839373 2:0.04579546 3:0.69472114 4:0.97790884 5:0.9891237 6:0.993277 
-4 1:0.71777065 2:0.08765484 3:0.47011786 4:0.66069877 5:0.75226598 6:0.80539407 
-4 1:0.48213397 2:0.16787772 3:0.49792761 4:0.59161372 5:0.62979552 6:0.64254584 
-4 1:0.45809369 2:0.08765484 3:0.36628046 4:0.45852823 5:0.56005228 6:0.65708595 
4 1:0.79670443 2:0.54342577 3:0.26295318 4:0.6905031 5:0.79291823 6:0.84469464 
-4 1:0.84127012 2:0.014623935 3:0.81253935 4:0.95982371 5:0.98309178 6:0.9870796 
4 1:0.39257764 2:0.22767235 3:0.12019254 4:0.3951559 5:0.44657802 6:0.46771549 
-4 1:0.90573613 2:0.047285912 3:0.55323777 4:0.95113339 5:0.97249918 6:0.9795177 
4 1:0.81789029 2:0.48885268 3:0.44075432 4:0.7803455 5:0.86328719 6:0.90222545 
-4 1:0.91941823 2:0.93973481 3:0.41336953 4:0.88038833 5:0.93688884 6:0.95992879 
4 1:0.67569895 2:0.49739676 3:0.30599867 4:0.39201262 5:0.45927759 6:0.51239284 
-4 1:0.88260358 2:0.083369236 3:0.57279245 4:0.85249389 5:0.91751611 6:0.94621989 
4 1:0.34770698 2:0.58937038 3:0.24672569 4:0.24188506 5:0.29544562 6:0.33843061 
-4 1:0.73815918 2:0.25207203 3:0.29691153 4:0.66166141 5:0.73408074 6:0.77757209 
