svm_type nu_svr
kernel_type rbf
gamma 0.05
nr_class 2
total_sv 146
rho -1.25374
SV
-4 1:1 2:0.80360073 3:0.99999956 4:0.99999617 5:0.99999659 6:0.99999649 
4 1:1 2:0.060660457 3:0.99999979 4:0.9999997 5:0.9999995 6:0.99999916 
4 1:1 2:0.25800309 3:0.99999975 4:0.99999676 5:0.99999619 6:0.99999762 
4 1:1 2:0.13125463 3:0.99999995 4:1 5:0.99999997 6:0.99999982 
4 1:1 3:0.9999953 4:0.99999163 5:0.99999444 6:0.9999906 
-4 1:0.55120029 2:0.80360073 3:0.26121942 4:0.6293366 5:0.71975367 6:0.78093108 
-4 1:0.69994822 2:0.80360073 3:0.30135725 4:0.70722144 5:0.79216822 6:0.83978283 
-4 1:0.72011021 2:0.80360073 3:0.32121318 4:0.74989787 5:0.83473257 6:0.87962097 
-4 1:0.80161657 2:0.80360073 3:0.3501572 4:0.79684481 5:0.87136279 6:0.90727549 
4 1:0.82707856 2:0.80360073 3:0.37930406 4:0.84227672 5:0.90805726 6:0.93746453 
4 1:0.89751445 2:0.80360073 3:0.41517592 4:0.87673937 5:0.93162471 6:0.95441416 
4 1:0.94175354 2:0.80360073 3:0.44577851 4:0.91006376 5:0.95340334 6:0.97037481 
4 1:0.94886911 2:0.80360073 3:0.46794139 4:0.92362274 5:0.96145271 6:0.97586663 
-4 1:0.40868363 2:0.060660457 3:0.20127881 4:0.43690014 5:0.62303099 6:0.80462761 
-4 1:0.63428306 2:0.060660457 3:0.29367506 4:0.63478131 5:0.80404493 6:0.90860113 
-4 1:0.63517172 2:0.060660457 3:0.29742126 4:0.63976608 5:0.8083318 6:0.9121364 
-4 1:0.76722122 2:0.060660457 3:0.38377254 4:0.78514877 5:0.90429663 6:0.95734326 
-4 1:0.78174155 2:0.060660457 3:0.40876054 4:0.81261902 5:0.91751826 6:0.96173956 
4 1:0.91228727 2:0.060660457 3:0.61082239 4:0.94727552 5:0.9778847 6:0.98952764 
-4 1:0.99904844 2:0.060660457 3:0.93477801 4:0.99671741 5:0.99843624 6:0.99906019 
-4 1:0.58827841 2:0.25800309 3:0.12270748 4:0.71032975 5:0.79612606 6:0.84328574 
4 1:0.72787772 2:0.25800309 3:0.13608056 4:0.7652198 5:0.84839563 6:0.88712536 
4 1:0.73686914 2:0.25800309 3:0.13980216 4:0.78480629 5:0.86663349 6:0.90357662 
4 1:0.81448411 2:0.25800309 3:0.14751601 4:0.81360437 5:0.89032105 6:0.92210299 
4 1:0.83242962 2:0.25800309 3:0.15555028 4:0.84004447 5:0.91050996 6:0.938502 
4 1:0.90008906 2:0.25800309 3:0.16537108 4:0.85778742 5:0.92412308 6:0.94895956 
-4 1:0.94173707 2:0.25800309 3:0.17317649 4:0.876681 5:0.93779975 6:0.95956764 
-4 1:0.94484618 2:0.25800309 3:0.18169384 4:0.88732249 5:0.94420428 6:0.96402826 
4 1:0.47977509 2:0.29975901 3:0.32928412 4:0.55282916 5:0.66791845 6:0.74863576 
-4 1:0.67040866 2:0.29975901 3:0.38943269 4:0.66545556 5:0.76680794 6:0.81985996 
-4 1:0.68687131 2:0.29975901 3:0.41023912 4:0.70740496 5:0.81078152 6:0.86221763 
-4 1:0.78674389 2:0.29975901 3:0.46460529 4:0.78994847 5:0.86913143 6:0.90516139 
4 1:0.81048086 2:0.29975901 3:0.50312748 4:0.84547503 5:0.91358495 6:0.94168743 
4 1:0.9100825 2:0.29975901 3:0.61552031 4:0.9147698 5:0.95147469 6:0.96681058 
4 1:0.98034608 2:0.29975901 3:0.72900944 4:0.95802477 5:0.97650266 6:0.98413271 
-4 1:0.98374901 2:0.29975901 3:0.74947079 4:0.96647178 5:0.98163931 6:0.98773965 
4 1:0.21483779 2:0.49240306 3:0.091662564 4:0.1529332 5:0.19165383 6:0.23332771 
-4 1:0.41372639 2:0.49240306 3:0.11972516 4:0.22858077 5:0.28261732 6:0.32614433 
-4 1:0.4734512 2:0.49240306 3:0.13945528 4:0.28799635 5:0.36498566 6:0.42609007 
-4 1:0.5944247 2:0.49240306 3:0.17211443 4:0.36367814 5:0.44650577 6:0.50673632 
-4 1:0.67573909 2:0.49240306 3:0.2184327 4:0.48605098 5:0.59000253 6:0.65971535 
4 1:0.78992142 2:0.49240306 3:0.29529412 4:0.58552372 5:0.67661896 6:0.73531212 
4 1:0.8868928 2:0.49240306 3:0.39750191 4:0.71176991 5:0.79245591 6:0.83806775 
4 1:0.91206245 2:0.49240306 3:0.44654064 4:0.77534857 5:0.84760758 6:0.88531211 
4 1:0.29412838 2:0.13125463 3:0.16200315 4:0.37578485 5:0.59320682 6:0.80117536 
4 1:0.54962761 2:0.13125463 3:0.24393505 4:0.58209165 5:0.78851378 6:0.9067632 
4 1:0.55150951 2:0.13125463 3:0.24550611 4:0.58687978 5:0.79404623 6:0.91217056 
4 1:0.70981097 2:0.13125463 3:0.33222561 4:0.74494592 5:0.89826659 6:0.95769783 
4 1:0.73071683 2:0.13125463 3:0.358983 4:0.7781418 5:0.91310488 6:0.9623323 
4 1:0.89553429 2:0.13125463 3:0.62745623 4:0.94236465 5:0.97874341 6:0.99066928 
-4 1:0.99960552 2:0.13125463 3:0.97634186 4:0.99896487 5:0.99945077 6:0.99960846 
-4 1:0.51835903 2:0.41227705 3:0.40082289 4:0.55345405 5:0.60797992 6:0.64355438 
-4 1:0.67524675 2:0.41227705 3:0.43396977 4:0.61807337 5:0.68289571 6:0.72351841 
-4 1:0.70027899 2:0.41227705 3:0.46160919 4:0.67100337 5:0.74355703 6:0.78820216 
-1.593572091173743 1:0.78642738 2:0.41227705 3:0.49001346 4:0.72032998 5:0.79167775 6:0.83306235 
4 1:0.82574317 2:0.41227705 3:0.54962708 4:0.81174952 5:0.87501259 6:0.9070568 
4 1:0.9038342 2:0.41227705 3:0.60120088 4:0.8672518 5:0.91737821 6:0.94093945 
-4 1:0.9616841 2:0.41227705 3:0.65078047 4:0.92284738 5:0.95658586 6:0.97061867 
-4 1:0.97005642 2:0.41227705 3:0.67874954 4:0.94213598 5:0.96846928 6:0.97897375 
-4 1:0.56379827 2:0.3173053 3:0.62725489 4:0.73401377 5:0.77061361 6:0.79233977 
-4 1:0.69707073 2:0.3173053 3:0.66864069 4:0.79391324 5:0.8324878 6:0.85355213 
1.027730875070084 1:0.72448597 2:0.3173053 3:0.69473535 4:0.83115605 5:0.87085556 6:0.89202625 
4 1:0.80573572 2:0.3173053 3:0.72761205 4:0.87368756 5:0.90816269 6:0.92491864 
4 1:0.84202128 2:0.3173053 3:0.77195881 4:0.9200765 5:0.94626283 6:0.95775509 
4 1:0.91272868 2:0.3173053 3:0.81030574 4:0.9498361 5:0.96767523 6:0.97518431 
4 1:0.96863532 2:0.3173053 3:0.83826012 4:0.97494708 5:0.98538861 6:0.98958291 
4 1:0.97633249 2:0.3173053 3:0.85344648 4:0.98180902 5:0.9896203 6:0.99264501 
-4 1:0.6558802 3:0.50914684 4:0.83375963 5:0.89809846 6:0.92653187 
-4 1:0.76884943 3:0.55679293 4:0.89391591 5:0.93860454 6:0.95403218 
-4 1:0.77375631 3:0.5636812 4:0.90019662 5:0.9427445 6:0.9574506 
-4 1:0.84303042 3:0.60236618 4:0.93446437 5:0.96242475 6:0.97109062 
-4 1:0.85951211 3:0.6228269 4:0.94532487 5:0.96833445 6:0.97557224 
4 1:0.96470143 3:0.7147545 4:0.98321849 5:0.9919861 6:0.99443831 
4 1:1 2:0.024932462 3:0.99999983 4:0.99999915 5:0.9999982 6:0.99999886 
-4 1:1 2:0.73888524 3:0.99999999 4:0.99999986 5:0.99999974 6:0.9999997 
-4 1:1 2:0.95719598 3:0.99999983 4:0.99999957 5:0.99999885 6:0.99999917 
-4 1:1 2:0.65112312 3:0.99999917 4:0.99999858 5:0.99999805 6:0.99999788 
-4 1:1 2:0.70765261 3:0.99999958 4:0.99999872 5:0.99999818 6:0.99999796 
1.794426115107138 1:1 2:0.27988388 3:0.99999999 4:0.99999869 5:0.99999869 6:0.99999817 
-4 1:1 2:1 3:1 4:0.99999991 5:0.99999965 6:0.99999961 
-0.9027730414251226 1:1 2:0.60048989 3:0.99999945 4:0.99999719 5:0.99999675 6:0.99999724 
-4 1:0.37561256 2:0.35216405 3:0.14564537 4:0.39790222 5:0.55106678 6:0.67008782 
-4 1:0.56862883 2:0.35216405 3:0.19411401 4:0.53707663 5:0.68373405 6:0.77053495 
-4 1:0.59507913 2:0.35216405 3:0.21726037 4:0.59928839 5:0.74861604 6:0.82928713 
-4 1:0.73092966 2:0.35216405 3:0.27356025 4:0.71390094 5:0.82257087 6:0.87444689 
4 1:0.75725767 2:0.35216405 3:0.31634112 4:0.79654122 5:0.88915412 6:0.9273156 
4 1:0.88324277 2:0.35216405 3:0.4403716 4:0.8922293 5:0.93831942 6:0.95845059 
4 1:0.8933052 2:0.35216405 3:0.47228748 4:0.92107255 5:0.95675014 6:0.97151317 
-4 1:0.9508125 2:0.35216405 3:0.58168899 4:0.90979133 5:0.94735255 6:0.96398348 
4 1:0.95713874 2:0.35216405 3:0.61027713 4:0.92360129 5:0.95604732 6:0.97013831 
-4 1:0.52994813 2:0.024932462 3:0.38547432 4:0.75372022 5:0.84123041 6:0.89486139 
-4 1:0.53720078 2:0.024932462 3:0.3990632 4:0.77884256 5:0.86263175 6:0.9119893 
-4 1:0.69594659 2:0.024932462 3:0.42249933 4:0.83012148 5:0.89999703 6:0.9343333 
-4 1:0.70045567 2:0.024932462 3:0.43485895 4:0.84990814 5:0.91438168 6:0.94468986 
-4 1:0.81165128 2:0.024932462 3:0.45209767 4:0.87998379 5:0.93121657 6:0.95417334 
4 1:0.96394448 2:0.024932462 3:0.49703719 4:0.92208917 5:0.95739033 6:0.97352851 
4 1:0.97111644 2:0.024932462 3:0.51850714 4:0.94179388 5:0.97018449 6:0.98213448 
4 2:0.73888524 6:0.010154919 
-4 1:0.60579512 2:0.73888524 3:0.12893302 4:0.40260054 5:0.52794625 6:0.61631229 
-4 1:0.75391926 2:0.73888524 3:0.18461005 4:0.49989687 5:0.61178122 6:0.68884477 
-4 1:0.8153429 2:0.73888524 3:0.23793372 4:0.60651572 5:0.71554025 6:0.78255239 
2.749026331778182 1:0.85600941 2:0.73888524 3:0.28629085 4:0.68788242 5:0.78757701 6:0.84353583 
4 1:0.89148132 2:0.73888524 3:0.34171535 4:0.76509994 5:0.85013067 6:0.8935626 
-4 1:0.1753977 2:0.95719598 3:0.09552304 4:0.13054246 5:0.15035856 6:0.1699603 
-4 1:0.45635833 2:0.95719598 3:0.158209 4:0.28040177 5:0.35751004 6:0.42348738 
-1.903654867401171 1:0.76724888 2:0.95719598 3:0.31108262 4:0.57582518 5:0.67863928 6:0.74667418 
4 1:0.86571411 2:0.95719598 3:0.3944368 4:0.71882415 5:0.81004305 6:0.8623959 
4 1:0.90357706 2:0.95719598 3:0.46136994 4:0.80064289 5:0.87542246 6:0.91386276 
4 1:0.92840891 2:0.95719598 3:0.51989475 4:0.8578363 5:0.9163383 6:0.94388077 
4 1:0.057186579 2:0.65112312 3:0.074302209 4:0.064066487 5:0.038191765 
4 1:0.46335071 2:0.65112312 3:0.15651072 4:0.26099077 5:0.31080835 6:0.35093188 
4 1:0.57170622 2:0.65112312 3:0.19565839 4:0.34034574 5:0.40815216 6:0.46499326 
4 1:0.61771078 2:0.65112312 3:0.2013411 4:0.37388838 5:0.44991385 6:0.51391699 
4 1:0.64058636 2:0.65112312 3:0.23392852 4:0.42110826 5:0.50581137 6:0.57392097 
4 1:0.68648276 2:0.65112312 3:0.23959609 4:0.45613658 5:0.54666909 6:0.61876644 
4 1:0.79301714 2:0.65112312 3:0.32622773 4:0.62144616 5:0.7212244 6:0.78795799 
4 1:0.86049974 2:0.65112312 3:0.40728198 4:0.74550855 5:0.83106809 6:0.87888976 
4 1:0.89790028 2:0.65112312 3:0.47222451 4:0.82140625 5:0.88905388 6:0.92286615 
4 1:0.29904095 2:0.70765261 3:0.21472932 4:0.38914781 5:0.49769154 6:0.59083219 
4 1:0.56768263 2:0.70765261 3:0.30308084 4:0.59347344 5:0.71982347 6:0.79614483 
4 1:0.69533755 2:0.70765261 3:0.31948376 4:0.61068179 5:0.71809681 6:0.78192463 
4 1:0.75945348 2:0.70765261 3:0.43714837 4:0.81360207 5:0.89436962 6:0.92985049 
-4 1:0.93943076 2:0.70765261 3:0.53480784 4:0.86577728 5:0.92039762 6:0.94567054 
-4 1:0.98364834 2:0.70765261 3:0.75735767 4:0.97288667 5:0.98579289 6:0.99060009 
4 1:0.32002749 2:0.27988388 3:0.045063964 4:0.37692216 5:0.55140675 6:0.69796544 
-4 1:0.56695344 2:0.27988388 3:0.097210209 4:0.58397601 5:0.7508394 6:0.83948605 
-4 1:0.70520428 2:0.27988388 3:0.13385033 4:0.67160615 5:0.79655301 6:0.85818695 
-4 1:0.73424456 2:0.27988388 3:0.16265978 4:0.77271887 5:0.87781115 6:0.92030835 
4 1:0.86954132 2:0.27988388 3:0.25291857 4:0.86032679 5:0.92065002 6:0.94719087 
4 1:0.87335209 2:0.27988388 3:0.26150142 4:0.87394579 5:0.92955244 6:0.95361972 
4 1:0.95158679 2:0.27988388 3:0.31469782 4:0.90564041 5:0.9505662 6:0.96731494 
2.828816678044631 1:0.046480997 2:1 3:0.0036752949 4:0.063426258 5:0.083975821 6:0.10357933 
-4 1:0.4815399 2:1 3:0.061680284 4:0.28308554 5:0.37269791 6:0.4415304 
-4 1:0.59466693 2:1 3:0.10183633 4:0.43686442 5:0.55619455 6:0.63614229 
4 1:0.67663499 2:1 3:0.12768853 4:0.46551139 5:0.57412631 6:0.64893256 
4 1:0.727837 2:1 3:0.15698565 4:0.54933575 5:0.66054291 6:0.73141004 
-4 1:0.79298458 2:1 3:0.1783044 4:0.58984439 5:0.69884629 6:0.76566769 
4 1:0.84189758 2:1 3:0.2201085 4:0.67980569 5:0.78117365 6:0.8374729 
4 1:0.87582783 2:1 3:0.25791546 4:0.74958011 5:0.83919212 6:0.88469242 
-4 1:0.93223983 2:1 3:0.34905641 4:0.87203088 5:0.92820957 6:0.95189869 
-4 1:0.94593957 2:1 3:0.38300199 4:0.90150605 5:0.9468388 6:0.96487186 
-4 1:0.51879331 2:0.60048989 3:0.30175677 4:0.53715556 5:0.6201217 6:0.69126522 
-4 1:0.69563267 2:0.60048989 3:0.38974197 4:0.68280797 5:0.7624929 6:0.81933882 
-4 1:0.78342288 2:0.60048989 3:0.43017021 4:0.73828939 5:0.81072072 6:0.85931014 
-4 1:0.82362468 2:0.60048989 3:0.49268118 4:0.82332639 5:0.88132959 6:0.91765632 
-4 1:0.89144668 2:0.60048989 3:0.53894393 4:0.87349384 5:0.92016796 6:0.94654988 
