svm_type nu_svr
kernel_type rbf
gamma 0.04
nr_class 2
total_sv 261
rho -1.55808
SV
4 1:0.99939284 2:0.050988098 3:0.99999956 4:0.99999701 5:0.9999947 6:0.99999444 
4 1:0.99939284 2:0.71982347 3:0.99999932 4:0.99999929 5:0.99999902 6:0.9999986 
4 1:0.99939284 2:0.066104402 3:0.99999363 4:0.99999023 5:0.9999835 6:0.99998197 
-4 1:0.99939284 2:0.021298217 3:0.99999905 4:0.99999854 5:0.99999742 6:0.9999955 
-4 1:0.99939284 2:0.4219157 3:1 4:1 5:1 6:1 
4 1:0.99939284 2:0.41153394 3:0.99999809 4:0.99999407 5:0.999992 6:0.99999118 
4 1:0.99939284 2:0.17755989 3:0.99999975 4:0.99999351 5:0.99998797 6:0.99998744 
4 1:0.99939284 2:1 3:0.99999853 4:0.99999797 5:0.99999707 6:0.99999697 
4 1:0.99939284 2:0.067429096 3:0.99999826 4:0.99999612 5:0.99999354 6:0.99999337 
-4 1:0.99939284 2:0.41032924 3:0.99999923 4:0.99999861 5:0.99999718 6:0.99999652 
-4 1:0.99939284 2:0.064778982 3:0.99999965 4:0.99999001 5:0.99998599 6:0.99998452 
4 1:0.99939284 2:0.14610739 3:0.99999926 4:0.99999442 5:0.99999157 6:0.99999139 
4 1:0.97067067 2:0.050988098 3:0.49543962 4:0.9490745 5:0.97475171 6:0.98472179 
4 1:0.96418744 2:0.050988098 3:0.46988192 4:0.92383404 5:0.95757873 6:0.97233463 
-4 1:0.95392833 2:0.050988098 3:0.44208135 4:0.8901289 5:0.93112702 6:0.95070816 
4 1:0.9377329 2:0.050988098 3:0.45140723 4:0.91821601 5:0.9544047 6:0.97006662 
-4 1:0.92797904 2:0.050988098 3:0.42756389 4:0.88415491 5:0.92731024 6:0.947393 
4 1:0.9116005 2:0.050988098 3:0.4013622 4:0.8417096 5:0.88934565 6:0.91268991 
4 1:0.90408239 2:0.050988098 3:0.42837654 4:0.89330043 5:0.9381379 6:0.95747194 
4 1:0.89392463 2:0.050988098 3:0.40580803 4:0.85450813 5:0.90414358 6:0.92789549 
4 1:0.87860187 2:0.050988098 3:0.38181902 4:0.8098155 5:0.86047538 6:0.8864857 
4 1:0.83864962 2:0.050988098 3:0.38405986 4:0.81919138 5:0.8810097 6:0.9109596 
-4 1:0.82264009 2:0.050988098 3:0.35981237 4:0.77013967 5:0.82806852 6:0.85777151 
-4 1:0.72530266 2:0.050988098 3:0.36509103 4:0.7803563 5:0.85121225 6:0.90847043 
4 1:0.71395913 2:0.050988098 3:0.35076533 4:0.74960971 5:0.81479928 6:0.86738588 
-4 1:0.69835377 2:0.050988098 3:0.33114525 4:0.70635463 5:0.76097853 6:0.8040479 
-4 1:0.57536217 2:0.050988098 3:0.33608994 4:0.71362303 5:0.76736581 6:0.82220476 
-4 1:0.56279868 2:0.050988098 3:0.3242142 4:0.68621629 5:0.73148001 6:0.77845387 
-4 1:0.54413788 2:0.050988098 3:0.30829451 4:0.65018018 5:0.68403685 6:0.71900287 
4 1:0.44593277 2:0.050988098 3:0.31899854 4:0.67259186 5:0.70967941 6:0.7722768 
-4 1:0.43671916 2:0.050988098 3:0.30969518 4:0.65136495 5:0.68132238 6:0.73261178 
-4 1:0.42693909 2:0.050988098 3:0.29609478 4:0.62046105 5:0.64002486 6:0.67430791 
4 1:0.86629362 2:0.71982347 3:0.48704318 4:0.79897775 5:0.87428887 6:0.91698512 
-4 1:0.86629362 2:0.71982347 3:0.48704318 4:0.79897775 5:0.87428887 6:0.91698512 
4 1:0.81132964 2:0.71982347 3:0.40069978 4:0.68226748 5:0.77591641 6:0.83959232 
-4 1:0.83930799 2:0.71982347 3:0.43685332 4:0.73078798 5:0.82569797 6:0.88313372 
4 1:0.82104472 2:0.71982347 3:0.40784454 4:0.6870597 5:0.78745308 6:0.85289277 
4 1:0.74699836 2:0.71982347 3:0.31844762 4:0.53709426 5:0.6345148 6:0.71373411 
-4 1:0.81333039 2:0.71982347 3:0.43098515 4:0.72394543 5:0.82486183 6:0.88337434 
-0.1401081292847937 1:0.7567244 2:0.71982347 3:0.34895637 4:0.58582297 5:0.69322753 6:0.77472255 
4 1:0.66873968 2:0.71982347 3:0.26759387 4:0.43612997 5:0.51903634 6:0.59741799 
-4 1:0.73878903 2:0.71982347 3:0.36112988 4:0.62230674 5:0.75026901 6:0.8339499 
4 1:0.6832086 2:0.71982347 3:0.29503172 4:0.49646552 5:0.60960086 6:0.70454744 
4 1:0.60246526 2:0.71982347 3:0.22993127 4:0.37032595 5:0.45049262 6:0.53353221 
4 1:0.56179559 2:0.71982347 3:0.24308411 4:0.41261968 5:0.54180311 6:0.69179288 
4 1:0.5113668 2:0.71982347 3:0.2024429 4:0.32849939 5:0.42162036 6:0.54644452 
4 1:0.43448252 2:0.71982347 3:0.15539012 4:0.23356514 5:0.28327683 6:0.36722447 
4 1:0.3778537 2:0.71982347 3:0.16549547 4:0.2611707 5:0.3403477 6:0.46036189 
4 1:0.33784752 2:0.71982347 3:0.13817483 4:0.20458733 5:0.2516001 6:0.34154118 
4 1:0.27170374 2:0.71982347 3:0.10540751 4:0.13933699 5:0.15095506 6:0.19817438 
4 1:0.2331476 2:0.71982347 3:0.11204632 4:0.15703824 5:0.18727069 6:0.28587565 
4 1:0.19847267 2:0.71982347 3:0.092940166 4:0.11828028 5:0.1248167 6:0.18078381 
-4 1:0.13919934 2:0.71982347 3:0.067437816 4:0.068775313 5:0.047314055 6:0.053241443 
4 1:0.93416822 2:0.066104402 3:0.78940676 4:0.94766693 5:0.97049944 6:0.98007081 
4 1:0.88059412 2:0.066104402 3:0.71656123 4:0.88582657 5:0.92135563 6:0.93892845 
-4 1:0.90889954 2:0.066104402 3:0.73107539 4:0.91167914 5:0.94403922 6:0.95868361 
-4 1:0.83240726 2:0.066104402 3:0.66019449 4:0.82511815 5:0.86349566 6:0.88275353 
-4 1:0.88034823 2:0.066104402 3:0.69789972 4:0.87983058 5:0.91913978 6:0.93738624 
4 1:0.84332172 2:0.066104402 3:0.66221738 4:0.8330874 5:0.87381425 6:0.89425692 
-4 1:0.7947559 2:0.066104402 3:0.62943841 4:0.78442623 5:0.81961037 6:0.83588208 
-4 1:0.80750528 2:0.066104402 3:0.63895062 4:0.80166112 5:0.84609333 6:0.86486365 
-4 1:0.75551102 2:0.066104402 3:0.60539321 4:0.75077297 5:0.78607721 6:0.79724688 
4 1:0.76045302 2:0.066104402 3:0.64179152 4:0.79440383 5:0.84810636 6:0.88090735 
-4 1:0.72233742 2:0.066104402 3:0.6111271 4:0.75016894 5:0.79398174 6:0.81321126 
4 1:0.67315793 2:0.066104402 3:0.58060257 4:0.70437387 5:0.73465103 6:0.73523596 
-4 1:0.6723527 2:0.066104402 3:0.62006113 4:0.75287675 5:0.79557065 6:0.84205178 
4 1:0.63675161 2:0.066104402 3:0.59379594 4:0.71425087 5:0.74517244 6:0.77487561 
4 1:0.59242211 2:0.066104402 3:0.5636273 4:0.6689991 5:0.68518093 6:0.69076381 
4 1:0.5922744 2:0.066104402 3:0.60324622 4:0.72279409 5:0.75399448 6:0.80004372 
-4 1:0.56164749 2:0.066104402 3:0.58086179 4:0.68984664 5:0.71004316 6:0.73622079 
-4 1:0.52270076 2:0.066104402 3:0.55139557 4:0.64656965 5:0.65206052 6:0.65203367 
4 1:0.97683514 2:0.021298217 3:0.79006309 4:0.96543498 5:0.98286137 6:0.98970893 
4 1:0.96917374 2:0.021298217 3:0.73829188 4:0.94562107 5:0.9720532 6:0.9827408 
4 1:0.95871969 2:0.021298217 3:0.68499274 4:0.91613875 5:0.9539741 6:0.97047879 
4 1:0.96082897 2:0.021298217 3:0.71750756 4:0.95076843 5:0.97548069 6:0.98526422 
-4 1:0.95164281 2:0.021298217 3:0.6658229 4:0.91863413 5:0.95575768 6:0.97210294 
-4 1:0.93237214 2:0.021298217 3:0.58347155 4:0.85481826 5:0.91374583 6:0.94325142 
-4 1:0.89567693 2:0.021298217 3:0.58219473 4:0.90663122 5:0.96182464 6:0.97713516 
-4 1:0.88284122 2:0.021298217 3:0.53628784 4:0.85469318 5:0.92703739 6:0.95327598 
-4 1:0.86241747 2:0.021298217 3:0.47931708 4:0.7776951 5:0.86801434 6:0.910233 
4 1:0.7980028 2:0.021298217 3:0.46673975 4:0.79695862 5:0.92218079 6:0.96750104 
4 1:0.78576115 2:0.021298217 3:0.43553076 4:0.7460098 5:0.87803168 6:0.93469599 
4 1:0.76605196 2:0.021298217 3:0.39315849 4:0.66848161 5:0.80255256 6:0.87361428 
-4 1:0.58665967 2:0.021298217 3:0.3220426 4:0.54484412 5:0.7193025 6:0.88036572 
4 1:0.57643091 2:0.021298217 3:0.30580604 4:0.51190629 5:0.67579634 6:0.83081105 
-4 1:0.55885972 2:0.021298217 3:0.28190551 4:0.46007761 5:0.60264024 6:0.74348398 
4 1:0.35873577 2:0.021298217 3:0.24431536 4:0.37994438 5:0.50206362 6:0.64244093 
4 1:0.35180843 2:0.021298217 3:0.2349948 4:0.36009808 5:0.47156276 6:0.60596511 
4 1:0.34048976 2:0.021298217 3:0.22125971 4:0.32959356 5:0.42240276 6:0.54252231 
4 1:0.19466612 2:0.021298217 3:0.2006595 4:0.28475881 5:0.35586074 6:0.51761911 
-4 1:0.18965751 2:0.021298217 3:0.19488505 4:0.27271641 5:0.33648612 6:0.48447905 
4 1:0.1814951 2:0.021298217 3:0.18573864 4:0.25287656 5:0.30301198 6:0.42421488 
4 1:0.91141884 2:0.4219157 3:0.51488117 4:0.85936589 5:0.92126637 6:0.9509564 
4 1:0.91050791 2:0.4219157 3:0.51170081 4:0.85742154 5:0.92017755 6:0.95028867 
-4 1:0.88595276 2:0.4219157 3:0.44052173 4:0.80179187 5:0.88580681 6:0.92820352 
-4 1:0.89351476 2:0.4219157 3:0.46719499 4:0.84064804 5:0.91220882 6:0.94578215 
-4 1:0.87606982 2:0.4219157 3:0.42043726 4:0.79317785 5:0.88213449 6:0.92622089 
4 1:0.83041563 2:0.4219157 3:0.33320494 4:0.67165697 5:0.7906166 6:0.86070638 
4 1:0.81048328 2:0.4219157 3:0.3381176 4:0.76378989 5:0.88522402 6:0.93052674 
-4 1:0.77358122 2:0.4219157 3:0.28271443 4:0.65320093 5:0.79807098 6:0.8696108 
4 1:0.72162639 2:0.4219157 3:0.22235436 4:0.5223276 5:0.67415206 6:0.77142043 
4 1:0.68842583 2:0.4219157 3:0.22275829 4:0.58336434 5:0.78879637 6:0.88983521 
-4 1:0.6526809 2:0.4219157 3:0.1861581 4:0.48473563 5:0.67986667 6:0.80207435 
4 1:0.5997337 2:0.4219157 3:0.14502789 4:0.37458805 5:0.5431471 6:0.67665606 
4 1:0.45510711 2:0.4219157 3:0.10494997 4:0.29538479 5:0.49160337 6:0.71662671 
-4 1:0.41748398 2:0.4219157 3:0.084767542 4:0.23463647 5:0.39118915 6:0.59179152 
-2.161005935997721 1:0.35974355 2:0.4219157 3:0.060748299 4:0.16481355 5:0.27425611 6:0.43460248 
4 1:0.23169409 2:0.4219157 3:0.048508288 4:0.13768591 5:0.24707533 6:0.40719122 
-4 1:0.20260612 2:0.4219157 3:0.036631159 4:0.102091 5:0.18145932 6:0.31803017 
4 1:0.15560078 2:0.4219157 3:0.022332774 4:0.060770097 5:0.10624488 6:0.20706242 
-4 1:0.07072824 2:0.4219157 3:0.018298168 4:0.05227841 5:0.098051849 6:0.23169122 
-4 1:0.042473589 2:0.4219157 3:0.010210529 4:0.028715108 5:0.053394221 6:0.14768459 
4 1:1.110223e-16 2:0.4219157 3:-1.3877788e-17 4:-2.7755576e-17 6:0.048728064 
4 1:0.92016456 2:0.17755989 3:0.28445783 4:0.76256413 5:0.878973 6:0.93138741 
-4 1:0.91005179 2:0.17755989 3:0.24323732 4:0.70234527 5:0.8362572 6:0.90187908 
4 1:0.88256545 2:0.17755989 3:0.15914187 4:0.55559405 5:0.71345251 6:0.80791685 
-4 1:0.87829669 2:0.17755989 3:0.13872696 4:0.51358873 5:0.67488416 6:0.77600855 
-4 1:0.84542326 2:0.17755989 3:0.10437835 4:0.43810307 5:0.59082415 6:0.69314276 
4 1:0.86603509 2:0.17755989 3:0.15113761 4:0.53857524 5:0.70165231 6:0.80180281 
4 1:0.80377521 2:0.17755989 3:0.088196383 4:0.39371713 5:0.53694408 6:0.63485159 
-4 1:0.78603394 2:0.17755989 3:0.099154008 4:0.41891421 5:0.57038625 6:0.67485233 
-4 1:0.74608925 2:0.17755989 3:0.077679983 4:0.36403126 5:0.49643237 6:0.5866 
4 1:0.67021959 2:0.17755989 3:0.10106749 4:0.42493279 5:0.58169808 6:0.69537149 
4 1:0.64185148 2:0.17755989 3:0.083254507 4:0.37713697 5:0.51413321 6:0.61155168 
-4 1:0.60166239 2:0.17755989 3:0.066162412 4:0.33103444 5:0.44584 6:0.5191942 
4 1:0.50596606 2:0.17755989 3:0.086479478 4:0.38777983 5:0.5308163 6:0.63660165 
4 1:0.47859936 2:0.17755989 3:0.072687526 4:0.34936144 5:0.47239557 6:0.5559507 
-4 1:0.43845677 2:0.17755989 3:0.0580781 4:0.30930574 5:0.41085136 6:0.46717424 
-4 1:0.36280896 2:0.17755989 3:0.076394495 4:0.36116467 5:0.49086262 6:0.5863048 
4 1:0.339869 2:0.17755989 3:0.065775733 4:0.33141351 5:0.44429517 6:0.51614837 
-1.590044029224329 1:0.30203933 2:0.17755989 3:0.052980146 4:0.29595567 5:0.38900859 6:0.43266074 
-4 1:0.83817724 2:1 3:0.48211034 4:0.67164548 5:0.74684182 6:0.80144501 
-4 1:0.83817724 2:1 3:0.48211034 4:0.67164548 5:0.74684182 6:0.80144501 
-4 1:0.83817724 2:1 3:0.48211034 4:0.67164548 5:0.74684182 6:0.80144501 
-4 1:0.79858942 2:1 3:0.39646188 4:0.55093503 5:0.61923565 6:0.67384768 
4 1:0.79858942 2:1 3:0.39646188 4:0.55093503 5:0.61923565 6:0.67384768 
-4 1:0.77639062 2:1 3:0.37265093 4:0.513471 5:0.5756435 6:0.626731 
-4 1:0.82802592 2:1 3:0.42881008 4:0.59830169 5:0.68302926 6:0.74685623 
4 1:0.79291704 2:1 3:0.38339409 4:0.52713136 5:0.60213678 6:0.6647626 
4 1:0.70376868 2:1 3:0.3003252 4:0.39047192 5:0.43165029 6:0.47109673 
-4 1:0.79827724 2:1 3:0.42095183 4:0.57898312 5:0.67201591 6:0.73979589 
-4 1:0.72627998 2:1 3:0.33468753 4:0.43786041 5:0.49854834 6:0.55141858 
-4 1:0.62670365 2:1 3:0.25937901 4:0.31277626 5:0.33204715 6:0.34952226 
-4 1:0.64522624 2:1 3:0.33533743 4:0.42400651 5:0.4895503 6:0.572323 
-4 1:0.47520203 2:1 3:0.20793711 4:0.21420053 5:0.19540816 6:0.18220079 
-4 1:0.47142758 2:1 3:0.27819932 4:0.32101893 5:0.34502997 6:0.38578806 
4 1:0.26050571 2:1 3:0.20191772 4:0.19422711 5:0.16030609 6:0.13256762 
-4 1:0.92043781 2:0.064778982 3:0.10731312 4:0.92865048 5:0.96616172 6:0.97870032 
4 1:0.86104377 2:0.064778982 3:0.063594449 4:0.83329523 5:0.89705938 6:0.92172879 
-3.850446948881626 1:0.86887317 2:0.064778982 3:0.080783435 4:0.8868064 5:0.93958114 6:0.95873325 
4 1:0.8407759 2:0.064778982 3:0.064276214 4:0.83712744 5:0.90102313 6:0.9260964 
4 1:0.8033305 2:0.064778982 3:0.048493857 4:0.78247464 5:0.8514111 6:0.87935001 
4 1:0.81084152 2:0.064778982 3:0.066615908 4:0.85255528 5:0.91699879 6:0.94147769 
-4 1:0.78294588 2:0.064778982 3:0.052801797 4:0.79905896 5:0.86924403 6:0.89848251 
4 1:0.74279413 2:0.064778982 3:0.038810404 4:0.7430212 5:0.81108068 6:0.83919241 
-4 1:0.72656633 2:0.064778982 3:0.043258869 4:0.76460435 5:0.83920864 6:0.87155626 
4 1:0.68726622 2:0.064778982 3:0.030922104 4:0.71254668 5:0.77850594 6:0.80498778 
-4 1:0.60394824 2:0.064778982 3:0.03004494 4:0.71400524 5:0.78578757 6:0.82308143 
4 1:0.50818128 2:0.064778982 3:0.028808053 4:0.71172156 5:0.78465896 6:0.82722602 
4 1:0.43957805 2:0.064778982 3:0.015447998 4:0.64780359 5:0.69255168 6:0.70091868 
-4 1:0.40154084 2:0.064778982 3:0.022697618 4:0.68415777 5:0.74445841 6:0.78162172 
4 1:0.37879873 2:0.064778982 3:0.017681529 4:0.65971271 5:0.70852034 6:0.72766839 
-4 1:0.3439641 2:0.064778982 3:0.011635393 4:0.63097298 5:0.66613358 6:0.66379079 
4 1:0.91491234 2:0.41153394 3:0.38096487 4:0.89889761 5:0.95038406 6:0.97192506 
4 1:0.88655237 2:0.41153394 3:0.32747681 4:0.82957396 5:0.90234555 6:0.93753935 
4 1:0.85734964 2:0.41153394 3:0.28689298 4:0.75950394 5:0.84227294 6:0.88860939 
4 1:0.87917131 2:0.41153394 3:0.31836031 4:0.81090768 5:0.887565 6:0.92590615 
-4 1:0.85010476 2:0.41153394 3:0.28280816 4:0.74746763 5:0.83272303 6:0.8801866 
-4 1:0.81463536 2:0.41153394 3:0.24667002 4:0.67362352 5:0.75792704 6:0.81078305 
-4 1:0.84346189 2:0.41153394 3:0.29695396 4:0.76665422 5:0.85020434 6:0.8951033 
4 1:0.81160508 2:0.41153394 3:0.26264354 4:0.69736365 5:0.7831915 6:0.83531288 
-4 1:0.77231516 2:0.41153394 3:0.22613832 4:0.61849783 5:0.69510002 6:0.74611821 
-4 1:0.79826801 2:0.41153394 3:0.27610067 4:0.72574042 5:0.81561441 6:0.86703542 
4 1:0.76319665 2:0.41153394 3:0.24391634 4:0.65464587 5:0.73815109 6:0.79216889 
-4 1:0.72069133 2:0.41153394 3:0.20960427 4:0.57721443 5:0.64402187 6:0.68939383 
-4 1:0.68179043 2:0.41153394 3:0.23792453 4:0.64146311 5:0.729184 6:0.79705189 
-4 1:0.64834555 2:0.41153394 3:0.21497621 4:0.58612074 5:0.65621763 6:0.70995949 
4 1:0.6030635 2:0.41153394 3:0.18639866 4:0.5184118 5:0.56298176 6:0.58999882 
-4 1:0.56116305 2:0.41153394 3:0.211298 4:0.57777075 5:0.64729662 6:0.70904305 
4 1:0.52853073 2:0.41153394 3:0.19342012 4:0.53427881 5:0.58548314 6:0.62583696 
-4 1:0.45849528 2:0.41153394 3:0.1933288 4:0.53432693 5:0.58602965 6:0.63438973 
4 1:0.43100316 2:0.41153394 3:0.17890259 4:0.49936733 5:0.53431359 6:0.55603396 
4 1:0.39598444 2:0.41153394 3:0.16109051 4:0.45685412 5:0.47167834 6:0.46174802 
-4 1:0.97539925 2:0.067429096 3:0.646082 4:0.95530639 5:0.9767318 6:0.9857173 
-4 1:0.96522613 2:0.067429096 3:0.61691633 4:0.93120782 5:0.96017845 6:0.97392814 
4 1:0.95031972 2:0.067429096 3:0.57888699 4:0.89204371 5:0.92938039 6:0.94906265 
-4 1:0.90510334 2:0.067429096 3:0.5543729 4:0.88103934 5:0.92151244 6:0.94339816 
-4 1:0.88176654 2:0.067429096 3:0.51021121 4:0.82348961 5:0.87083012 6:0.89896825 
-4 1:0.86485312 2:0.067429096 3:0.5609934 4:0.89174108 5:0.93509159 6:0.95402597 
-4 1:0.85006491 2:0.067429096 3:0.52208828 4:0.83957283 5:0.88962492 6:0.9155692 
4 1:0.82840588 2:0.067429096 3:0.47898696 4:0.77590082 5:0.82767172 6:0.85864944 
4 1:0.78384486 2:0.067429096 3:0.52761112 4:0.84813033 5:0.90853934 6:0.93801948 
4 1:0.76794198 2:0.067429096 3:0.49155575 4:0.79297779 5:0.85408909 6:0.88775992 
4 1:0.74071295 2:0.067429096 3:0.44850836 4:0.72304483 5:0.77871009 6:0.81240572 
-4 1:0.63682623 2:0.067429096 3:0.47643242 4:0.76493774 5:0.83497363 6:0.89569946 
-4 1:0.61909458 2:0.067429096 3:0.44811738 4:0.71722262 5:0.77852333 6:0.83338043 
-4 1:0.45610548 2:0.067429096 3:0.43433493 4:0.68980457 5:0.74420076 6:0.80465634 
-4 1:0.42128521 2:0.067429096 3:0.41290869 4:0.6515686 5:0.69403079 6:0.74177718 
-4 1:0.3973199 2:0.067429096 3:0.38324463 4:0.59899705 5:0.62542129 6:0.65364255 
-4 1:0.33929266 2:0.067429096 3:0.40196048 4:0.63234535 5:0.67000461 6:0.73359019 
-4 1:0.32511472 2:0.067429096 3:0.3843145 4:0.60046279 5:0.62750482 6:0.67370121 
-4 1:0.30717303 2:0.067429096 3:0.36080477 4:0.55822348 5:0.57073663 6:0.59274921 
4 1:0.95339095 2:0.41032924 3:0.65969986 4:0.90653233 5:0.94680111 6:0.9649366 
4 1:0.93399065 2:0.41032924 3:0.59783417 4:0.84190929 5:0.89750138 6:0.92595957 
-4 1:0.90595546 2:0.41032924 3:0.52675557 4:0.75232557 5:0.81678388 6:0.85451254 
-4 1:0.86884349 2:0.41032924 3:0.54882568 4:0.79721591 5:0.86027193 6:0.89474014 
-4 1:0.79909048 2:0.41032924 3:0.42019162 4:0.60634089 5:0.66016059 6:0.69152126 
4 1:0.76894895 2:0.41032924 3:0.42716599 4:0.61149887 5:0.67231881 6:0.71093465 
-4 1:0.71639132 2:0.41032924 3:0.36609086 4:0.5124543 5:0.55235296 6:0.57135484 
4 1:0.74851584 2:0.41032924 3:0.45030562 4:0.6405497 5:0.71098466 6:0.75519602 
4 1:0.70811815 2:0.41032924 3:0.38732716 4:0.54017845 5:0.59142454 6:0.62173185 
-4 1:0.65812028 2:0.41032924 3:0.32785534 4:0.44278414 5:0.46803981 6:0.47218162 
4 1:0.61340029 2:0.41032924 3:0.39943043 4:0.54621466 5:0.59971792 6:0.64499079 
-4 1:0.51323626 2:0.41032924 3:0.28723094 4:0.3630784 5:0.36155632 6:0.34265877 
-4 1:0.46393127 2:0.41032924 3:0.36091767 4:0.47414782 5:0.50203091 6:0.5272931 
4 1:0.41890265 2:0.41032924 3:0.30897915 4:0.3896105 5:0.39059442 6:0.38221519 
4 1:0.36224567 2:0.41032924 3:0.25797424 4:0.30816486 5:0.2829338 6:0.23861234 
-4 1:0.34347502 2:0.41032924 3:0.33118399 4:0.42270482 5:0.43137066 6:0.43794074 
1.998615007348781 1:0.303906 2:0.41032924 3:0.28516121 4:0.34844872 5:0.33277335 6:0.30318849 
-4 1:0.25451112 2:0.41032924 3:0.239294 4:0.27618757 5:0.23743598 6:0.17354124 
4 1:1 3:0.98241836 4:0.99754447 5:0.99837843 6:0.99879687 
4 1:0.99927781 3:0.97396968 4:0.99499278 5:0.99653001 6:0.99752536 
-4 1:0.99807987 3:0.96785094 4:0.99313412 5:0.99514902 6:0.99653825 
4 1:0.92550928 3:0.88463259 4:0.98984367 5:0.99445867 6:0.99599134 
-4 1:0.92248998 3:0.88269439 4:0.98579001 5:0.9917863 6:0.99411831 
4 1:0.91252277 3:0.87943561 4:0.97844374 5:0.98618184 6:0.99029255 
4 1:0.85667795 3:0.86407181 4:0.96026885 5:0.98853248 6:0.99389802 
4 1:0.84996215 3:0.86241965 4:0.95421974 5:0.98239426 6:0.99048125 
-4 1:0.82797239 3:0.85970304 4:0.94347269 5:0.97198968 6:0.98376521 
-4 1:0.78359349 3:0.85232352 4:0.9205106 5:0.9639259 6:0.98760506 
4 1:0.76412341 3:0.84902131 4:0.91055943 5:0.94944204 6:0.97481363 
-4 1:0.61337431 3:0.83940428 4:0.87369959 5:0.90465003 6:0.96092101 
4 1:0.59932186 3:0.83841839 4:0.8712363 5:0.90033732 6:0.95480352 
-4 1:0.58537358 3:0.83696642 4:0.86758813 5:0.893872 6:0.94383497 
4 1:0.44048862 3:0.83035835 4:0.84129164 5:0.84910545 6:0.8720666 
-3.058394956611598 1:0.42062928 3:0.82941095 4:0.83902061 5:0.84510353 6:0.87138257 
2.077715359534371 1:0.4002542 3:0.82840514 4:0.8368136 5:0.84093631 6:0.8674834 
-4 1:0.3094628 3:0.82716541 4:0.83024299 5:0.82796719 6:0.86356706 
-4 1:0.29001316 3:0.82647757 4:0.82867904 5:0.8248098 6:0.86408434 
-4 1:0.27710266 3:0.8257051 4:0.82728426 5:0.82235905 6:0.85969923 
-4 1:0.90663913 2:0.14610739 3:0.43817477 4:0.82784627 5:0.90710157 6:0.94001176 
-4 1:0.90426096 2:0.14610739 3:0.43326406 4:0.82123487 5:0.9021133 6:0.93612907 
4 1:0.87301894 2:0.14610739 3:0.38374963 4:0.74222319 5:0.83336461 6:0.87727214 
4 1:0.86811426 2:0.14610739 3:0.40559067 4:0.79104253 5:0.88029881 6:0.91964051 
4 1:0.83600801 2:0.14610739 3:0.36858627 4:0.72304979 5:0.81750507 6:0.86398873 
-4 1:0.79303316 2:0.14610739 3:0.33543633 4:0.65617509 5:0.74453253 6:0.78951163 
4 1:0.82226065 2:0.14610739 3:0.37726233 4:0.73857387 5:0.83579524 6:0.88322128 
2.723669633116917 1:0.78986743 2:0.14610739 3:0.34480055 4:0.67269731 5:0.7665205 6:0.81617937 
-4 1:0.74513395 2:0.14610739 3:0.31379389 4:0.60684271 5:0.68827333 6:0.72971662 
-4 1:0.75127417 2:0.14610739 3:0.35645593 4:0.69561666 5:0.79695173 6:0.84926516 
-4 1:0.71584379 2:0.14610739 3:0.32647994 4:0.63142698 5:0.72248224 6:0.77198126 
-4 1:0.66677794 2:0.14610739 3:0.29749496 4:0.56835508 5:0.64245656 6:0.67864295 
-4 1:0.62293836 2:0.14610739 3:0.32749068 4:0.63131327 5:0.72687613 6:0.78818537 
4 1:0.58735044 2:0.14610739 3:0.30296925 4:0.57601896 5:0.65321265 6:0.69799032 
4 1:0.54225634 2:0.14610739 3:0.27770782 4:0.51923537 5:0.57477828 6:0.59501544 
-4 1:0.47989563 2:0.14610739 3:0.30820332 4:0.58503378 5:0.66456631 6:0.7174928 
-4 1:0.4414077 2:0.14610739 3:0.28822665 4:0.53887566 5:0.59925188 6:0.62987117 
4 1:0.39949501 2:0.14610739 3:0.26598279 4:0.48912153 5:0.52873127 6:0.53229307 
-4 1:0.39206975 2:0.14610739 3:0.29566289 4:0.55497136 5:0.62126765 6:0.66418112 
4 1:0.36544059 2:0.14610739 3:0.2785156 4:0.5155536 5:0.56455807 6:0.58211923 
-4 1:0.33205057 2:0.14610739 3:0.25833111 4:0.47074192 5:0.50054535 6:0.48956625 
