{
    "param_dict": {
        "norm_type": "clip_0to1",
        "score_clip": null,
        "gamma": 0.035,
        "C": 4.0,
        "nu": 0.9
    },
    "model_dict": {
        "model_type": "LIBSVMNUSVR",
        "feature_names": [
            "Cambi_feature_cambi_score",
            "Speed_chroma_feature_speed_chroma_uv_score",
            "VMAF_integer_feature_adm3_score",
            "VMAF_integer_feature_motion3_score"
        ],
        "feature_opts_dicts": [
            {
                "cambi_high_res_speedup": 1080,
                "cambi_vis_lum_threshold": 0.06,
                "cambi_max_val": 17.0
            },
            {
                "speed_kernelscale": 1.0,
                "speed_nn_floor": 0.1,
                "speed_sigma_nn": 0.19,
                "speed_weight_var_mode": 5,
                "speed_max_val": 45.0
            },
            {
                "adm_dlm_weight": 0.7,
                "adm_enhn_gain_limit": 1.0,
                "adm_noise_weight": 0.02,
                "adm_norm_view_dist": 3.0,
                "adm_ref_display_height": 1080,
                "adm_min_val": 0.5,
                "adm_csf_mode": 2
            },
            {
                "motion_max_val": 18.0
            }
        ],
        "slopes": [
            0.012020766332648467,
            0.07265168094288038,
            0.03147688934068315,
            4.044462665497729,
            0.06242930101138472
        ],
        "intercepts": [
            -0.30712690585348135,
            -0.00016348141788834398,
            -0.014977474082856242,
            -3.0226057825839794,
            -0.003051650363248205
        ],
        "norm_type": "linear_rescale",
        "model": "svm_type nu_svr\nkernel_type rbf\ngamma 0.035000000000000003\nnr_class 2\ntotal_sv 215\nrho -1.2801585513962348\nSV\n-4 1:0.91956722 2:0.022816409 3:0.99612038 4:0.067144494 \n4 1:0.51490606 2:0.025611773 3:1 4:0.067144494 \n-4 1:1 2:0.048386093 3:0.98920048 4:0.067144494 \n4 1:0.31990205 2:0.01051973 3:0.99914207 4:0.067144494 \n4 1:0.72977182 2:0.03341186 3:0.98854045 4:0.067144494 \n4 1:0.48963149 2:0.013299171 3:0.99709571 4:0.067144494 \n-4 1:0.24871887 2:0.33946431 3:0.59576263 4:0.34590249 \n4 1:0.036618401 2:0.10636552 3:0.86207921 4:0.49617972 \n4 1:0.0091593666 2:0.91636312 3:0.015464744 4:0.49617972 \n4 1:0.01050847 2:0.72239624 3:0.17839249 4:0.49617972 \n4 1:0.015026739 2:0.29928295 3:0.61542056 4:0.49617972 \n4 1:0.017095812 2:0.40612447 3:0.51667438 4:0.49617972 \n-4 1:0.017456594 2:0.51799886 3:0.38780263 4:0.49617972 \n4 1:0.021579104 2:0.20681002 3:0.7471555 4:0.49617972 \n4 1:0.023554938 2:0.28152535 3:0.66283517 4:0.49617972 \n4 1:0.02487832 2:0.36485018 3:0.553389 4:0.49617972 \n4 1:0.066041274 2:0.10785481 3:0.8742446 4:0.23049721 \n4 1:0.073215994 2:0.074756329 3:0.90852699 4:0.23049721 \n4 1:0.028275016 2:0.88954965 3:0.2369831 4:0.23049721 \n-4 1:0.029465126 2:0.7370502 3:0.36787831 4:0.23049721 \n-4 1:0.036100669 2:0.4031614 3:0.62404198 4:0.23049721 \n-4 1:0.040158019 2:0.5103555 3:0.53042272 4:0.23049721 \n4 1:0.047843996 2:0.27410253 3:0.72580788 4:0.23049721 \n4 1:0.053556759 2:0.34961955 3:0.6467386 4:0.23049721 \n4 1:0.01800121 2:0.011044353 3:0.91682844 \n4 1:0.015015904 2:0.0037310954 3:0.99827964 \n4 1:0.03284145 2:0.2112627 \n4 1:0.029199761 2:0.16407877 3:0.20508882 \n4 1:0.016937868 2:0.051679186 3:0.49536211 \n4 1:0.027281769 2:0.070136427 3:0.48558122 \n4 1:0.036972151 2:0.094032325 3:0.46917956 \n4 1:0.016342663 2:0.029403438 3:0.70852446 \n4 1:0.026011067 2:0.042552986 3:0.69965222 \n4 1:0.036469525 2:0.063992708 3:0.68458292 \n4 1:0.01301204 2:0.094860037 3:0.84321423 4:0.34590249 \n4 1:0.19565712 2:0.72177091 3:0.19758366 4:0.34590249 \n-4 1:0.17973207 2:0.60176809 3:0.32895201 4:0.34590249 \n-4 1:0.17722347 2:0.38301437 3:0.5729301 4:0.34590249 \n-4 1:0.21991534 2:0.45357716 3:0.4858859 4:0.34590249 \n-4 1:0.18409248 2:0.28061539 3:0.67356936 4:0.34590249 \n-4 1:0.0098966845 2:0.16530071 3:0.779544 4:0.25141568 \n-4 1:0.014762548 2:0.12723669 3:0.84877053 4:0.25141568 \n-4 1:0.0082546119 2:0.72065872 3:0.36586802 4:0.25141568 \n-4 1:0.005956895 2:0.3215247 3:0.67603846 4:0.25141568 \n-4 1:0.010151341 2:0.40587694 3:0.61613673 4:0.25141568 \n-4 1:0.013391132 2:0.47613734 3:0.54117982 4:0.25141568 \n-4 1:0.0064915632 2:0.2486725 3:0.72671484 4:0.25141568 \n-4 1:0.01336876 2:0.31559503 3:0.67240595 4:0.25141568 \n-4 1:0.020824595 2:0.38180229 3:0.60346662 4:0.25141568 \n4 1:0.13082899 2:0.12021216 3:0.85886842 4:0.48758134 \n4 1:0.089641484 2:0.086185996 3:0.89430545 4:0.48758134 \n-4 1:0.14276648 2:0.77647354 3:0.27596953 4:0.48758134 \n-4 1:0.13620265 2:0.62123748 3:0.39865883 4:0.48758134 \n4 1:0.13870634 2:0.2995921 3:0.67823482 4:0.48758134 \n-4 1:0.15780427 2:0.37372989 3:0.6197469 4:0.48758134 \n-4 1:0.17310842 2:0.45331887 3:0.54731484 4:0.48758134 \n4 1:0.13868006 2:0.20586122 3:0.7717064 4:0.48758134 \n-4 1:0.17386606 2:0.2595026 3:0.72134126 4:0.48758134 \n-4 1:0.033558186 2:0.070504916 3:0.85290156 4:0.20635451 \n4 1:0.54358412 2:0.63878152 3:0.16827964 4:0.20635451 \n4 1:0.52692005 2:0.50243323 3:0.31959615 4:0.20635451 \n-4 1:0.31671321 2:0.21484597 3:0.63764127 4:0.20635451 \n3.3680107940718216 1:0.50139891 2:0.28670471 3:0.58188933 4:0.20635451 \n4 1:0.63231122 2:0.35862996 3:0.4989179 4:0.20635451 \n4 1:0.010574408 2:0.085282913 3:0.84744258 4:0.15582565 \n4 1:0.0027999822 2:0.06597422 3:0.87476534 4:0.15582565 \n-4 1:0.093755717 2:0.54113178 3:0.33876536 4:0.15582565 \n-4 1:0.18948265 2:0.32445848 3:0.65338704 4:0.48758134 \n-4 1:0.67852947 2:0.24947729 3:0.62223701 4:0.20635451 \n-4 1:0.090466409 2:0.43716876 3:0.45448818 4:0.15582565 \n-4 1:0.059882897 2:0.18006795 3:0.69911282 4:0.15582565 \n-4 1:0.1014807 2:0.24694759 3:0.65340711 4:0.15582565 \n-4 1:0.12307434 2:0.31390922 3:0.58853713 4:0.15582565 \n-4 1:0.11101686 2:0.18446019 3:0.73616521 4:0.15582565 \n-4 1:0.14410028 2:0.23810818 3:0.68054625 4:0.15582565 \n4 1:0.020719766 2:0.090199008 3:0.92049965 4:0.087396659 \n4 1:0.020536737 2:0.064530479 3:0.94983754 4:0.087396659 \n-4 1:0.0087154031 2:0.54038478 3:0.36684955 4:0.087396659 \n-4 1:0.010503743 2:0.45594478 3:0.50058454 4:0.087396659 \n-4 1:0.0081488371 2:0.20304896 3:0.74438357 4:0.087396659 \n-4 1:0.012364189 2:0.26220375 3:0.70795407 4:0.087396659 \n-4 1:0.014967164 2:0.32938226 3:0.6545144 4:0.087396659 \n-4 1:0.011082801 2:0.15281813 3:0.83647568 4:0.087396659 \n-4 1:0.015143888 2:0.20208814 3:0.80286136 4:0.087396659 \n-4 1:0.010628307 2:0.10368979 3:0.8185282 4:0.94078297 \n-4 1:0.0070794686 2:0.067791461 3:0.88256173 4:0.94078297 \n-4 1:0.014374282 2:0.71461566 3:0.14692387 4:0.94078297 \n-4 1:0.011804936 2:0.5687863 3:0.27664371 4:0.94078297 \n-4 1:0.010437254 2:0.26099367 3:0.61048004 4:0.94078297 \n-4 1:0.015141027 2:0.32546185 3:0.54081144 4:0.94078297 \n-4 1:0.017366251 2:0.39773734 3:0.45492221 4:0.94078297 \n-4 1:0.0085676708 2:0.19024895 3:0.71993217 4:0.94078297 \n-4 1:0.016058051 2:0.24213096 3:0.65990648 4:0.94078297 \n-4 1:0.019371203 2:0.29625717 3:0.58421338 4:0.94078297 \n4 1:0.0003444177 2:0.11667328 3:0.84104574 4:0.49774315 \n-4 1:0.00029801387 2:0.074567035 3:0.90640562 4:0.49774315 \n4 1:0.00021035598 2:1 3:0.15886385 4:0.49774315 \n4 1:0.00039924097 2:0.81878435 3:0.28314427 4:0.49774315 \n-4 1:0.00011970787 2:0.34579677 3:0.62572777 4:0.49774315 \n-4 1:0.00034683973 2:0.44618596 3:0.54152613 4:0.49774315 \n-4 1:0.00096239775 2:0.54940648 3:0.43597794 4:0.49774315 \n4 1:6.5792151e-05 2:0.22607016 3:0.73726436 4:0.49774315 \n-4 1:0.0010948085 2:0.36190095 3:0.57530877 4:0.49774315 \n4 1:0.051631775 2:0.0084617522 3:0.91905576 4:0.045593808 \n4 1:0.059578329 3:0.98617343 4:0.045593808 \n-4 1:0.056682766 2:0.2187877 3:0.20967903 4:0.045593808 \n-4 1:0.057456859 2:0.1679859 3:0.37148197 4:0.045593808 \n-4 1:0.040634601 2:0.051495351 3:0.6535519 4:0.045593808 \n-4 1:0.049005763 2:0.073057536 3:0.62396276 4:0.045593808 \n-4 1:0.062911551 2:0.11105347 3:0.58003582 4:0.045593808 \n-3.5026605582994854 1:0.041304898 2:0.028483426 3:0.78671511 4:0.045593808 \n-4 1:0.050340105 2:0.046239232 3:0.76112212 4:0.045593808 \n-4 1:0.06382601 2:0.06816156 3:0.72470952 4:0.045593808 \n4 1:0.0053574645 2:0.011670565 3:0.93535833 4:0.014528993 \n4 1:0.015849907 2:0.0032553346 3:0.98118563 4:0.014528993 \n-4 1:0.00057210898 2:0.1350917 3:0.41228888 4:0.014528993 \n-4 2:0.11022444 3:0.51864834 4:0.014528993 \n-4 1:0.00023001462 2:0.046647024 3:0.71507893 4:0.014528993 \n-4 1:0.0003962011 2:0.064419799 3:0.69489683 4:0.014528993 \n-4 1:0.00024819267 2:0.081088925 3:0.67092172 4:0.014528993 \n-4 1:0.00034973732 2:0.029331164 3:0.82820589 4:0.014528993 \n-4 1:0.00061931925 2:0.04070565 3:0.81564409 4:0.014528993 \n4 1:0.015981824 2:0.11817978 3:0.8389239 4:0.2277616 \n4 1:0.014623998 2:0.087597065 3:0.87598602 4:0.2277616 \n4 1:0.0081690476 2:0.8174086 3:0.25538669 4:0.2277616 \n4 1:0.0082820034 2:0.68594343 3:0.37219682 4:0.2277616 \n4 1:0.0072212626 2:0.30471342 3:0.65955645 4:0.2277616 \n4 1:0.0097444627 2:0.39996734 3:0.59520385 4:0.2277616 \n4 1:0.01251802 2:0.49356455 3:0.51283896 4:0.2277616 \n4 1:0.0085529128 2:0.2059578 3:0.75435516 4:0.2277616 \n4 1:0.013035383 2:0.27666758 3:0.69700985 4:0.2277616 \n-4 1:0.019846952 2:0.34926992 3:0.61937215 4:0.2277616 \n4 1:0.45803522 2:0.095321177 3:0.8513524 4:0.16785179 \n4 1:0.44090697 2:0.070053703 3:0.88352699 4:0.16785179 \n-4 1:0.020601981 2:0.24561544 3:0.7570682 4:0.087396659 \n-4 1:0.0003697132 2:0.29403401 3:0.66629654 4:0.49774315 \n-4 1:0.00074947535 2:0.055684921 3:0.79806854 4:0.014528993 \n-4 1:0.42598016 2:0.4714094 3:0.34675189 4:0.16785179 \n-4 1:0.40922414 2:0.40819655 3:0.44732998 4:0.16785179 \n-4 1:0.35100989 2:0.20730481 3:0.70653325 4:0.16785179 \n-4 1:0.40792863 2:0.25516907 3:0.64625399 4:0.16785179 \n-4 1:0.45271103 2:0.30739654 3:0.57086671 4:0.16785179 \n4 1:0.38920865 2:0.14956393 3:0.78035736 4:0.16785179 \n4 1:0.45014179 2:0.19194687 3:0.72718657 4:0.16785179 \n4 1:0.035133972 2:0.010694875 3:0.94049805 4:0.055730748 \n4 1:0.046859102 2:0.0023393103 3:0.98019258 4:0.055730748 \n4 1:0.0084361334 2:0.16701677 3:0.06825907 4:0.055730748 \n1.6214032745089617 1:0.011553127 2:0.12888135 3:0.27155746 4:0.055730748 \n4 1:0.010927531 2:0.046399135 3:0.59319783 4:0.055730748 \n-4 1:0.014895623 2:0.062710297 3:0.56979905 4:0.055730748 \n-4 1:0.020895565 2:0.089975276 3:0.53115803 4:0.055730748 \n4 1:0.016267772 2:0.025890202 3:0.78112118 4:0.055730748 \n4 1:0.022755192 2:0.040107549 3:0.75955403 4:0.055730748 \n-4 1:0.029694819 2:0.059752568 3:0.72671126 4:0.055730748 \n4 1:0.10376566 2:0.085323475 3:0.88016539 4:0.58826108 \n-4 1:0.16667928 2:0.053464743 3:0.91766713 4:0.58826108 \n4 1:0.083693985 2:0.70134313 3:0.057501171 4:0.58826108 \n4 1:0.074358822 2:0.56187617 3:0.22931244 4:0.58826108 \n4 1:0.050038877 2:0.2478695 3:0.62135341 4:0.58826108 \n-4 1:0.063348149 2:0.31956869 3:0.54599056 4:0.58826108 \n4 1:0.088500036 2:0.38607628 3:0.4441423 4:0.58826108 \n4 1:0.056185968 2:0.16515656 3:0.7594317 4:0.58826108 \n-4 1:0.071421501 2:0.21607965 3:0.69509716 4:0.58826108 \n4 1:0.012456578 2:0.16239342 3:0.80945891 4:1 \n3.2347756402466259 1:0.011994149 2:0.11526878 3:0.86247029 4:1 \n4 1:0.009574867 2:0.82046568 3:0.057797916 4:1 \n-4 1:0.011341824 2:0.46568705 3:0.48561236 4:1 \n-4 1:0.013765972 2:0.54083362 3:0.35910644 4:1 \n4 1:0.0092873898 2:0.27802409 3:0.69547978 4:1 \n-4 1:0.65367816 2:0.089681678 3:0.83144489 4:0.083332485 \n4 1:0.63858074 2:0.061849911 3:0.87724448 4:0.083332485 \n-4 1:0.62650505 2:0.18745654 3:0.22970707 4:0.083332485 \n4 1:0.59676956 2:0.13760231 3:0.63305712 4:0.083332485 \n-1.2973394417005268 1:0.65775947 2:0.1791557 3:0.47340825 4:0.083332485 \n4 1:0.65633551 2:0.13733284 3:0.66477931 4:0.083332485 \n4 1:0.083324875 2:0.1501762 3:0.82480972 4:0.42689214 \n4 1:0.059788968 2:0.11040093 3:0.88164856 4:0.42689214 \n4 1:0.069760383 2:0.69188902 3:0.14362711 4:0.42689214 \n4 1:0.072535289 2:0.62761573 3:0.26835485 4:0.42689214 \n4 1:0.078226504 2:0.36045708 3:0.61767189 4:0.42689214 \n4 1:0.084088292 2:0.42013176 3:0.54609879 4:0.42689214 \n4 1:0.084178353 2:0.47604073 3:0.46200686 4:0.42689214 \n4 1:0.079938934 2:0.25141054 3:0.71439454 4:0.42689214 \n4 1:0.093998101 2:0.30755248 3:0.64766857 4:0.42689214 \n-4 1:0.49549725 2:0.23630247 3:0.65613263 4:0.16785179 \n4 1:0.089018384 2:0.26857625 3:0.60485885 4:0.58826108 \n1.083925122278645 1:0.016298049 2:0.40845716 3:0.49479186 4:1 \n4 1:0.094426139 2:0.35853809 3:0.56609333 4:0.42689214 \n-4 1:0.031208999 2:0.41247735 3:0.59429259 4:0.54618924 \n4 1:0.01615625 2:0.10542543 3:0.8457967 4:0.20857772 \n4 1:0.010824633 2:0.071878989 3:0.88609324 4:0.20857772 \n4 1:0.051378905 2:0.87925941 3:0.26342401 4:0.20857772 \n4 1:0.053794482 2:0.68733559 3:0.37285719 4:0.20857772 \n-4 1:0.050905813 2:0.36249553 3:0.59721373 4:0.20857772 \n3.4918851688939561 1:0.06525568 2:0.46497524 3:0.51249358 4:0.20857772 \n4 1:0.02316525 2:0.18004287 3:0.75075369 4:0.20857772 \n-4 1:0.063579088 2:0.31356968 3:0.61633319 4:0.20857772 \n4 1:0.0069775219 2:0.14443385 3:0.83242455 4:0.54618924 \n4 1:0.0054683528 2:0.096162249 3:0.87173551 4:0.54618924 \n4 1:0.021518057 2:0.96395208 3:0.15550819 4:0.54618924 \n4 1:0.017854402 2:0.77588302 3:0.30121193 4:0.54618924 \n-4 1:0.014165246 2:0.45552048 3:0.56542365 4:0.54618924 \n4 1:0.023323183 2:0.56882089 3:0.47171549 4:0.54618924 \n4 1:0.0074754009 2:0.25291709 3:0.73853235 4:0.54618924 \n-4 1:0.016997835 2:0.33349606 3:0.67588086 4:0.54618924 \n4 1:0.070113436 2:0.10863618 3:0.83107353 4:0.047238866 \n4 1:0.024817801 2:0.089554738 3:0.86037927 4:0.047238866 \n-4 1:0.089006892 2:0.41161894 3:0.37726126 4:0.047238866 \n-4 1:0.080283597 2:0.37944042 3:0.45415054 4:0.047238866 \n-4 1:0.08029403 2:0.19677942 3:0.70157939 4:0.047238866 \n-4 1:0.093223239 2:0.25538306 3:0.64613439 4:0.047238866 \n-4 1:0.10827571 2:0.32475354 3:0.57693387 4:0.047238866 \n-4 1:0.080589396 2:0.15904669 3:0.77323638 4:0.047238866 \n-4 1:0.10762021 2:0.20140323 3:0.72558184 4:0.047238866 \n-4 1:0.12777214 2:0.26499642 3:0.66005698 4:0.047238866 \n",
        "feature_dict": {
            "Cambi_feature": [
                "cambi"
            ],
            "Speed_chroma_feature": [
                "speed_chroma_uv"
            ],
            "VMAF_integer_feature": [
                "adm3",
                "motion3"
            ]
        },
        "score_transform": {
            "p2": -0.000490758318,
            "p1": 0.980791305,
            "p0": 5.30624188,
            "enabled": true
        },
        "score_clip": [
            0,
            100.0
        ],
        "chroma_correction_parameter": 120.0
    }
}